{"learner":{"attributes":{"best_iteration":"522","best_score":"0.5749473841390556","scikit_learn":"{\"_estimator_type\": \"classifier\"}"},"feature_names":["accommodates","amenities_count","amenity_comfort_score","amenity_has_air_conditioning","amenity_has_balcony","amenity_has_coffee_maker","amenity_has_dishwasher","amenity_has_dryer","amenity_has_elevator","amenity_has_heating","amenity_has_kitchen","amenity_has_long_term_stays_allowed","amenity_has_parking","amenity_has_pets_allowed","amenity_has_tv","amenity_has_washer","amenity_has_wifi","amenity_score_business","amenity_score_family","amenity_score_luxury","amenity_score_safety","availability_ratio","bathrooms_numeric","bedrooms","beds","days_since_last_review","desc_embed_0","desc_embed_1","desc_embed_10","desc_embed_11","desc_embed_12","desc_embed_13","desc_embed_14","desc_embed_15","desc_embed_16","desc_embed_17","desc_embed_18","desc_embed_19","desc_embed_2","desc_embed_3","desc_embed_4","desc_embed_5","desc_embed_6","desc_embed_7","desc_embed_8","desc_embed_9","desc_sentiment_compound","description_length","distance_to_center_km","has_license_info","host_about_length","host_about_sentiment_compound","host_acceptance_rate","host_activity_score","host_has_gov_id","host_is_superhost_flag","host_listings_count","host_response_rate","host_total_listings_count","host_verifications_count","instant_bookable_flag","is_central","is_shared_bath","listing_age_days","log_number_of_reviews","log_price","log_reviews_per_month","neighborhood_desc_length","neighborhood_embed_0","neighborhood_embed_1","neighborhood_embed_10","neighborhood_embed_11","neighborhood_embed_12","neighborhood_embed_13","neighborhood_embed_14","neighborhood_embed_15","neighborhood_embed_16","neighborhood_embed_17","neighborhood_embed_18","neighborhood_embed_19","neighborhood_embed_2","neighborhood_embed_3","neighborhood_embed_4","neighborhood_embed_5","neighborhood_embed_6","neighborhood_embed_7","neighborhood_embed_8","neighborhood_embed_9","neighborhood_sentiment_compound","neighbourhood_encoded","number_of_reviews","number_of_reviews_ltm","occupancy_rate","price_clean","price_per_person","property_type_encoded","recent_review_flag","recent_review_score","reviews_growth_ratio","reviews_per_month","room_type_encoded","text_sentiment_score"],"feature_types":["int","int","float","int","int","int","int","int","int","int","int","int","int","int","int","int","int","int","int","int","int","float","float","float","float","float","float","float","float","float","float","float","float","float","float","float","float","float","float","float","float","float","float","float","float","float","int","int","float","int","int","int","float","float","int","int","float","float","float","int","int","int","int","float","float","float","float","int","float","float","float","float","float","float","float","float","float","float","float","float","float","float","float","float","float","float","float","float","int","int","int","int","float","float","float","int","int","float","float","float","int","int"],"gradient_booster":{"model":{"cats":{"enc":[],"feature_segments":[],"sorted_idx":[]},"gbtree_model_param":{"num_parallel_tree":"1","num_trees":"600"},"iteration_indptr":[0,1,2,3,4,5,6,7,8,9,10,11,12,13,14,15,16,17,18,19,20,21,22,23,24,25,26,27,28,29,30,31,32,33,34,35,36,37,38,39,40,41,42,43,44,45,46,47,48,49,50,51,52,53,54,55,56,57,58,59,60,61,62,63,64,65,66,67,68,69,70,71,72,73,74,75,76,77,78,79,80,81,82,83,84,85,86,87,88,89,90,91,92,93,94,95,96,97,98,99,100,101,102,103,104,105,106,107,108,109,110,111,112,113,114,115,116,117,118,119,120,121,122,123,124,125,126,127,128,129,130,131,132,133,134,135,136,137,138,139,140,141,142,143,144,145,146,147,148,149,150,151,152,153,154,155,156,157,158,159,160,161,162,163,164,165,166,167,168,169,170,171,172,173,174,175,176,177,178,179,180,181,182,183,184,185,186,187,188,189,190,191,192,193,194,195,196,197,198,199,200,201,202,203,204,205,206,207,208,209,210,211,212,213,214,215,216,217,218,219,220,221,222,223,224,225,226,227,228,229,230,231,232,233,234,235,236,237,238,239,240,241,242,243,244,245,246,247,248,249,250,251,252,253,254,255,256,257,258,259,260,261,262,263,264,265,266,267,268,269,270,271,272,273,274,275,276,277,278,279,280,281,282,283,284,285,286,287,288,289,290,291,292,293,294,295,296,297,298,299,300,301,302,303,304,305,306,307,308,309,310,311,312,313,314,315,316,317,318,319,320,321,322,323,324,325,326,327,328,329,330,331,332,333,334,335,336,337,338,339,340,341,342,343,344,345,346,347,348,349,350,351,352,353,354,355,356,357,358,359,360,361,362,363,364,365,366,367,368,369,370,371,372,373,374,375,376,377,378,379,380,381,382,383,384,385,386,387,388,389,390,391,392,393,394,395,396,397,398,399,400,401,402,403,404,405,406,407,408,409,410,411,412,413,414,415,416,417,418,419,420,421,422,423,424,425,426,427,428,429,430,431,432,433,434,435,436,437,438,439,440,441,442,443,444,445,446,447,448,449,450,451,452,453,454,455,456,457,458,459,460,461,462,463,464,465,466,467,468,469,470,471,472,473,474,475,476,477,478,479,480,481,482,483,484,485,486,487,488,489,490,491,492,493,494,495,496,497,498,499,500,501,502,503,504,505,506,507,508,509,510,511,512,513,514,515,516,517,518,519,520,521,522,523,524,525,526,527,528,529,530,531,532,533,534,535,536,537,538,539,540,541,542,543,544,545,546,547,548,549,550,551,552,553,554,555,556,557,558,559,560,561,562,563,564,565,566,567,568,569,570,571,572,573,574,575,576,577,578,579,580,581,582,583,584,585,586,587,588,589,590,591,592,593,594,595,596,597,598,599,600],"tree_info":[0,0,0,0,0,0,0,0,0,0,0,0,0,0,0,0,0,0,0,0,0,0,0,0,0,0,0,0,0,0,0,0,0,0,0,0,0,0,0,0,0,0,0,0,0,0,0,0,0,0,0,0,0,0,0,0,0,0,0,0,0,0,0,0,0,0,0,0,0,0,0,0,0,0,0,0,0,0,0,0,0,0,0,0,0,0,0,0,0,0,0,0,0,0,0,0,0,0,0,0,0,0,0,0,0,0,0,0,0,0,0,0,0,0,0,0,0,0,0,0,0,0,0,0,0,0,0,0,0,0,0,0,0,0,0,0,0,0,0,0,0,0,0,0,0,0,0,0,0,0,0,0,0,0,0,0,0,0,0,0,0,0,0,0,0,0,0,0,0,0,0,0,0,0,0,0,0,0,0,0,0,0,0,0,0,0,0,0,0,0,0,0,0,0,0,0,0,0,0,0,0,0,0,0,0,0,0,0,0,0,0,0,0,0,0,0,0,0,0,0,0,0,0,0,0,0,0,0,0,0,0,0,0,0,0,0,0,0,0,0,0,0,0,0,0,0,0,0,0,0,0,0,0,0,0,0,0,0,0,0,0,0,0,0,0,0,0,0,0,0,0,0,0,0,0,0,0,0,0,0,0,0,0,0,0,0,0,0,0,0,0,0,0,0,0,0,0,0,0,0,0,0,0,0,0,0,0,0,0,0,0,0,0,0,0,0,0,0,0,0,0,0,0,0,0,0,0,0,0,0,0,0,0,0,0,0,0,0,0,0,0,0,0,0,0,0,0,0,0,0,0,0,0,0,0,0,0,0,0,0,0,0,0,0,0,0,0,0,0,0,0,0,0,0,0,0,0,0,0,0,0,0,0,0,0,0,0,0,0,0,0,0,0,0,0,0,0,0,0,0,0,0,0,0,0,0,0,0,0,0,0,0,0,0,0,0,0,0,0,0,0,0,0,0,0,0,0,0,0,0,0,0,0,0,0,0,0,0,0,0,0,0,0,0,0,0,0,0,0,0,0,0,0,0,0,0,0,0,0,0,0,0,0,0,0,0,0,0,0,0,0,0,0,0,0,0,0,0,0,0,0,0,0,0,0,0,0,0,0,0,0,0,0,0,0,0,0,0,0,0,0,0,0,0,0,0,0,0,0,0,0,0,0,0,0,0,0,0,0,0,0,0,0,0,0,0,0,0,0,0,0,0,0,0,0,0,0,0,0,0,0,0,0,0,0,0,0,0,0,0,0,0,0,0,0,0,0,0,0,0,0,0,0,0,0,0,0,0,0,0,0,0,0,0,0,0,0,0,0,0,0,0,0,0,0,0,0,0,0,0,0,0,0,0,0,0,0,0,0,0],"trees":[{"base_weights":[1.8982497E-3,6.7122537E-1,-1.7863159E-1,6.758132E-2,9.06188E-1,-7.829334E-2,-1.3311931E0,1.6027732E-1,-4.9530452E-1,9.9240005E-1,8.0597475E-2,7.950885E-2,-5.512052E-1,-1.5444053E0,-9.040502E-1,4.847013E-1,-1.7493192E-2,-6.5626377E-1,2.75654E-2,1.2644398E0,8.118423E-1,4.1998457E-2,-3.7044268E-2,-3.5362914E-2,5.824734E-1,-9.46523E-1,-4.3291697E-1,-1.213324E0,-5.484368E-2,-1.2206407E0,-2.6648632E-1,6.29585E-1,-4.3311712E-1,3.7153724E-1,-2.0282377E-1,-8.091651E-1,1.906154E-2,1.5773702E0,1.0822626E0,1.0568705E0,6.03753E-1,4.6334308E-1,-4.054679E-1,-1.008241E0,4.9421195E-2,1.0521686E0,2.1761456E-1,-5.894124E-1,-1.1454855E0,-5.645064E-1,1.198585E-1,-1.384388E0,7.171539E-2,-1.3976822E0,-3.6081648E-1,2.7844483E-1,-6.7172956E-1,-1.2181356E-3,2.443541E-2,-3.478997E-2,2.0447377E-2,1.491667E-2,-2.2421777E-2,-1.3540379E-2,4.480706E-3,3.6653853E-3,-2.9207258E-2,7.341405E-3,4.90954E-2,3.3437964E-2,-9.580827E-3,3.3272676E-2,6.4228754E-3,1.1189143E-2,2.7982181E-2,-1.2561112E-2,2.3003064E-2,-2.0683879E-2,1.5638756E-2,-1.9384734E-2,-4.899864E-2,2.3484954E-3,-3.363864E-2,3.5279807E-2,2.7039344E-3,1.1399767E-3,3.0313335E-2,-2.3266008E-2,1.0542866E-2,-4.2788558E-2,-2.2895668E-2,-2.065532E-2,5.305709E-3,1.5418549E-2,-4.6598064E-3,-4.30113E-2,-0E0,-1.610723E-2,2.1359054E-2,-5.66449E-3,-4.450198E-2,8.761943E-3,-3.7877932E-2,3.4071084E-2,-3.9950875E-3,-2.6579048E-2,1.0762726E-2],"categories":[],"categories_nodes":[],"categories_segments":[],"categories_sizes":[],"default_left":[0,0,0,0,0,0,0,0,0,0,0,0,0,0,0,0,0,0,0,0,0,0,0,0,0,0,0,0,0,0,0,0,0,0,0,0,0,0,0,0,0,0,0,0,0,0,0,0,0,0,0,0,0,0,0,0,0,0,0,0,0,0,0,0,0,0,0,0,0,0,0,0,0,0,0,0,0,0,0,0,0,0,0,0,0,0,0,0,0,0,0,0,0,0,0,0,0,0,0,0,0,0,0,0,0,0,0],"id":0,"left_children":[1,3,5,7,9,11,13,15,17,19,21,23,25,27,29,31,33,35,-1,37,39,-1,41,43,45,47,49,51,-1,53,55,57,59,61,63,65,-1,67,69,71,73,75,77,79,81,83,85,87,89,91,93,95,97,99,101,103,105,-1,-1,-1,-1,-1,-1,-1,-1,-1,-1,-1,-1,-1,-1,-1,-1,-1,-1,-1,-1,-1,-1,-1,-1,-1,-1,-1,-1,-1,-1,-1,-1,-1,-1,-1,-1,-1,-1,-1,-1,-1,-1,-1,-1,-1,-1,-1,-1,-1,-1],"loss_changes":[4.1247055E2,1.025867E2,3.1039847E2,1.070986E1,3.6819122E1,1.847551E2,1.7415161E1,1.0310772E1,7.2571473E0,2.1537659E1,8.22715E0,1.07342155E2,2.8196121E1,1.0012756E1,1.440876E1,8.756016E0,8.354825E0,5.9454746E0,0E0,8.006561E0,1.356134E1,0E0,9.010566E0,1.2491687E2,5.8661674E1,8.87896E0,3.5037193E1,1.5582413E1,0E0,6.5677795E0,6.1685476E0,7.031561E0,8.433535E0,5.6292806E0,7.0627737E0,4.0849895E0,0E0,4.2904053E0,6.0976257E0,5.1712494E0,1.137138E1,5.9585657E0,7.927049E0,2.5752762E1,4.6903206E1,1.7541672E1,2.7675669E1,9.757732E0,7.818512E0,3.5888466E1,1.0238646E1,4.3073883E0,4.0503798E0,3.5136871E0,6.671777E0,4.6042895E0,3.9739285E0,0E0,0E0,0E0,0E0,0E0,0E0,0E0,0E0,0E0,0E0,0E0,0E0,0E0,0E0,0E0,0E0,0E0,0E0,0E0,0E0,0E0,0E0,0E0,0E0,0E0,0E0,0E0,0E0,0E0,0E0,0E0,0E0,0E0,0E0,0E0,0E0,0E0,0E0,0E0,0E0,0E0,0E0,0E0,0E0,0E0,0E0,0E0,0E0,0E0,0E0],"parents":[2147483647,0,0,1,1,2,2,3,3,4,4,5,5,6,6,7,7,8,8,9,9,10,10,11,11,12,12,13,13,14,14,15,15,16,16,17,17,19,19,20,20,22,22,23,23,24,24,25,25,26,26,27,27,29,29,30,30,31,31,32,32,33,33,34,34,35,35,37,37,38,38,39,39,40,40,41,41,42,42,43,43,44,44,45,45,46,46,47,47,48,48,49,49,50,50,51,51,52,52,53,53,54,54,55,55,56,56],"right_children":[2,4,6,8,10,12,14,16,18,20,22,24,26,28,30,32,34,36,-1,38,40,-1,42,44,46,48,50,52,-1,54,56,58,60,62,64,66,-1,68,70,72,74,76,78,80,82,84,86,88,90,92,94,96,98,100,102,104,106,-1,-1,-1,-1,-1,-1,-1,-1,-1,-1,-1,-1,-1,-1,-1,-1,-1,-1,-1,-1,-1,-1,-1,-1,-1,-1,-1,-1,-1,-1,-1,-1,-1,-1,-1,-1,-1,-1,-1,-1,-1,-1,-1,-1,-1,-1,-1,-1,-1,-1],"split_conditions":[1.609438E0,3.6832675E-2,4E0,5.1440354E-2,4E0,1.857E3,1E0,-3.3926807E-2,5.151254E-1,-6.28E2,-6.977E-2,1E0,-3.56E2,5E0,-6.28E2,5.587181E-2,-3.230242E-2,1.4943552E-1,2.75654E-2,1.0986123E0,-1.5985593E-2,4.1998457E-2,1.0986123E0,1E0,9.3893063E-1,3.8918202E0,6.9E1,5.2153394E-2,-5.484368E-2,1.5E0,-2.5500864E-2,3.1666666E1,5.5351425E-3,8.399192E-2,1.7466393E-3,-6.1349064E-2,1.906154E-2,-9.692747E-2,5.8515906E-2,1.026862E-1,3.2E1,-1.5915284E-2,3.4987308E-2,8E0,1E1,6.666667E-1,1.0225E2,4E0,8.71E-1,1E0,-4.7027157E-3,9.5757894E-2,1E0,-3.5221063E-2,-1.6152419E-3,4.1E1,4.4042803E-2,-1.2181356E-3,2.443541E-2,-3.478997E-2,2.0447377E-2,1.491667E-2,-2.2421777E-2,-1.3540379E-2,4.480706E-3,3.6653853E-3,-2.9207258E-2,7.341405E-3,4.90954E-2,3.3437964E-2,-9.580827E-3,3.3272676E-2,6.4228754E-3,1.1189143E-2,2.7982181E-2,-1.2561112E-2,2.3003064E-2,-2.0683879E-2,1.5638756E-2,-1.9384734E-2,-4.899864E-2,2.3484954E-3,-3.363864E-2,3.5279807E-2,2.7039344E-3,1.1399767E-3,3.0313335E-2,-2.3266008E-2,1.0542866E-2,-4.2788558E-2,-2.2895668E-2,-2.065532E-2,5.305709E-3,1.5418549E-2,-4.6598064E-3,-4.30113E-2,-0E0,-1.610723E-2,2.1359054E-2,-5.66449E-3,-4.450198E-2,8.761943E-3,-3.7877932E-2,3.4071084E-2,-3.9950875E-3,-2.6579048E-2,1.0762726E-2],"split_indices":[64,97,56,42,56,63,55,45,26,25,28,55,25,91,25,44,30,40,0,64,44,0,64,10,97,64,94,36,0,2,42,94,39,70,36,81,0,80,74,82,50,83,40,91,91,21,94,91,53,55,86,34,5,83,30,25,30,0,0,0,0,0,0,0,0,0,0,0,0,0,0,0,0,0,0,0,0,0,0,0,0,0,0,0,0,0,0,0,0,0,0,0,0,0,0,0,0,0,0,0,0,0,0,0,0,0,0],"split_type":[0,0,0,0,0,0,0,0,0,0,0,0,0,0,0,0,0,0,0,0,0,0,0,0,0,0,0,0,0,0,0,0,0,0,0,0,0,0,0,0,0,0,0,0,0,0,0,0,0,0,0,0,0,0,0,0,0,0,0,0,0,0,0,0,0,0,0,0,0,0,0,0,0,0,0,0,0,0,0,0,0,0,0,0,0,0,0,0,0,0,0,0,0,0,0,0,0,0,0,0,0,0,0,0,0,0,0],"sum_hessian":[3.410338E3,7.2397943E2,2.6863586E3,2.0351755E2,5.2046185E2,2.4725605E3,2.1379805E2,1.757832E2,2.7734344E1,4.708127E2,4.964916E1,1.854367E3,6.1819354E2,1.4020595E2,7.3592094E1,6.188987E1,1.13893326E2,2.5604567E1,2.1297774E0,1.8450879E2,2.8630392E2,3.1329625E0,4.6516193E1,1.5101766E3,3.4419034E2,1.4005122E2,4.781423E2,6.794958E1,7.225637E1,4.823116E1,2.5360937E1,5.396577E1,7.9240985E0,3.601301E1,7.788032E1,2.3433653E1,2.1709132E0,6.410538E1,1.2040342E2,1.2879276E2,1.5751117E2,1.9364122E1,2.7152073E1,1.20199844E2,1.3899768E3,1.492487E2,1.9494164E2,5.217118E1,8.788004E1,3.8647693E2,9.166535E1,6.0022297E1,7.9272833E0,3.918047E1,9.050691E0,1.0765925E1,1.4595012E1,1.1639333E1,4.232644E1,4.8765926E0,3.0475059E0,3.3136417E1,2.8765924E0,4.579459E1,3.2085728E1,3.3797774E0,2.0053875E1,3.1297774E0,6.0975597E1,1.1806796E2,2.3354566E0,1.2069774E2,8.095012E0,9.443446E1,6.307671E1,4.670913E0,1.4693209E1,2.1183653E1,5.968419E0,7.7858025E1,4.2341827E1,1.3577932E3,3.2183655E1,1.3180867E2,1.7440023E1,1.601659E2,3.477575E1,4.3908443E1,8.26274E0,4.847479E1,3.940526E1,3.314005E2,5.507644E1,3.7560516E1,5.4104836E1,5.7977974E1,2.0443208E0,4.003185E0,3.9240983E0,3.003185E0,3.6177284E1,5.5918264E0,3.4588642E0,2.9652343E0,7.8006907E0,1.2382962E1,2.2120492E0],"tree_param":{"num_deleted":"0","num_feature":"102","num_nodes":"107","size_leaf_vector":"1"}},{"base_weights":[1.8218104E-3,6.220551E-1,-1.6762395E-1,1.04011044E-1,9.495141E-1,-6.1317127E-2,-1.1132225E0,-3.1476548E-1,3.481735E-1,1.0496978E0,6.91575E-2,-3.0260423E-1,2.1415561E-1,-7.009566E-1,-1.4585775E0,-1.01004E0,-1.9212905E-1,1.0022578E-1,7.5149417E-1,1.2913629E0,8.699608E-1,2.3385035E-1,-9.020738E-1,-1.6111225E-1,-5.878735E-1,3.1768125E-1,-5.751023E-1,-5.25277E-1,-1.2665427E0,-8.382924E-1,-1.5402822E0,-1.2718036E0,5.590299E-3,-3.8403505E-1,4.565334E-1,3.0885193E-1,-4.829815E-1,8.021886E-1,-1.4215398E-2,1.5955448E0,1.0837095E0,2.4393737E-1,9.499879E-1,-6.238471E-1,5.048015E-1,-4.401196E-2,7.3975655E-3,-3.0411854E-1,3.8637304E-1,-9.246803E-1,-4.1727516E-1,2.1822718E-1,8.172566E-1,-9.344069E-1,-2.0533626E-1,-7.238001E-1,1.717711E-2,-3.7257153E-1,-1.432668E0,-4.580294E-2,-1.3021356E-1,-1.6643964E0,-9.581845E-1,-4.3288354E-2,-5.5363276E-3,-2.2526557E-2,-5.796451E-4,3.565976E-2,-0E0,-5.814552E-3,1.7849324E-2,1.6971616E-2,-2.2541763E-2,2.9512307E-2,1.1306572E-2,9.888215E-3,4.8906937E-2,3.6716465E-2,1.9528782E-2,1.2374967E-2,-2.7323928E-2,2.9376179E-2,-3.5807074E-4,-2.898865E-2,1.06825065E-2,2.4044527E-2,-3.1195884E-3,-6.119115E-3,-4.069141E-2,2.9539872E-2,1.4482932E-3,-2.8451283E-3,-2.9896662E-2,-1.0631883E-2,-4.708177E-2,1.0426841E-2,-4.3718726E-3,3.922605E-2,1.305389E-2,1.1389275E-2,-2.970887E-2,-1.3735236E-3,-2.5111731E-2,-2.401181E-2,2.0624526E-2,-1.0763246E-2,2.3682768E-2,8.342478E-3,-2.3914436E-2,-1.337641E-2,-4.487541E-2,2.6026838E-2,-2.3223145E-2,-5.316711E-3,-5.0728686E-2,-4.026799E-2,1.8119616E-3],"categories":[],"categories_nodes":[],"categories_segments":[],"categories_sizes":[],"default_left":[0,0,0,0,0,0,0,0,0,0,0,0,0,0,0,0,0,0,0,0,0,0,0,0,0,0,0,0,0,0,0,0,0,0,0,0,0,0,0,0,0,0,0,0,0,0,0,0,0,0,0,0,0,0,0,0,0,0,0,0,0,0,0,0,0,0,0,0,0,0,0,0,0,0,0,0,0,0,0,0,0,0,0,0,0,0,0,0,0,0,0,0,0,0,0,0,0,0,0,0,0,0,0,0,0,0,0,0,0,0,0,0,0,0,0,0,0],"id":1,"left_children":[1,3,5,7,9,11,13,15,17,19,21,23,25,27,29,31,33,35,37,39,41,43,45,47,49,51,53,55,57,59,61,63,-1,65,67,69,71,73,-1,75,77,79,81,83,85,-1,-1,87,89,91,93,95,97,99,101,103,105,107,109,-1,111,113,115,-1,-1,-1,-1,-1,-1,-1,-1,-1,-1,-1,-1,-1,-1,-1,-1,-1,-1,-1,-1,-1,-1,-1,-1,-1,-1,-1,-1,-1,-1,-1,-1,-1,-1,-1,-1,-1,-1,-1,-1,-1,-1,-1,-1,-1,-1,-1,-1,-1,-1,-1,-1,-1,-1],"loss_changes":[3.5997833E2,1.2436145E2,2.700255E2,2.940823E1,3.9376007E1,1.6088255E2,3.7000885E1,8.54437E0,1.7909878E1,1.5755402E1,7.711547E0,5.182157E1,9.248271E1,1.1397472E1,5.3934326E0,5.3026857E0,1.1601988E1,1.4041199E1,4.7883644E0,8.079224E0,1.1290085E1,1.0047529E1,5.190282E0,6.782486E1,2.3798279E1,4.9253548E1,1.6974686E1,1.0787777E1,3.2791595E0,9.158016E0,6.782196E0,1.7496185E0,0E0,9.408128E0,7.240542E0,1.245948E1,9.078531E0,4.422329E0,0E0,1.8495026E0,5.0207214E0,5.919985E0,6.060852E0,4.0157843E0,6.116458E0,0E0,0E0,7.170815E1,3.6009987E1,8.147072E0,1.9663658E1,3.9442745E1,2.9922523E1,5.415661E0,6.4779024E0,8.527508E0,8.367181E0,2.1177764E0,2.8865814E-1,0E0,8.042226E0,3.3463745E0,1.03457775E1,0E0,0E0,0E0,0E0,0E0,0E0,0E0,0E0,0E0,0E0,0E0,0E0,0E0,0E0,0E0,0E0,0E0,0E0,0E0,0E0,0E0,0E0,0E0,0E0,0E0,0E0,0E0,0E0,0E0,0E0,0E0,0E0,0E0,0E0,0E0,0E0,0E0,0E0,0E0,0E0,0E0,0E0,0E0,0E0,0E0,0E0,0E0,0E0,0E0,0E0,0E0,0E0,0E0,0E0],"parents":[2147483647,0,0,1,1,2,2,3,3,4,4,5,5,6,6,7,7,8,8,9,9,10,10,11,11,12,12,13,13,14,14,15,15,16,16,17,17,18,18,19,19,20,20,21,21,22,22,23,23,24,24,25,25,26,26,27,27,28,28,29,29,30,30,31,31,33,33,34,34,35,35,36,36,37,37,39,39,40,40,41,41,42,42,43,43,44,44,47,47,48,48,49,49,50,50,51,51,52,52,53,53,54,54,55,55,56,56,57,57,58,58,60,60,61,61,62,62],"right_children":[2,4,6,8,10,12,14,16,18,20,22,24,26,28,30,32,34,36,38,40,42,44,46,48,50,52,54,56,58,60,62,64,-1,66,68,70,72,74,-1,76,78,80,82,84,86,-1,-1,88,90,92,94,96,98,100,102,104,106,108,110,-1,112,114,116,-1,-1,-1,-1,-1,-1,-1,-1,-1,-1,-1,-1,-1,-1,-1,-1,-1,-1,-1,-1,-1,-1,-1,-1,-1,-1,-1,-1,-1,-1,-1,-1,-1,-1,-1,-1,-1,-1,-1,-1,-1,-1,-1,-1,-1,-1,-1,-1,-1,-1,-1,-1,-1,-1],"split_conditions":[1.609438E0,1.02340266E-1,4E0,4E0,4E0,1E0,1E0,-6.7829154E-2,2.0947134E-2,-6.77E2,1.6418645E-2,1.822E3,2.198E3,1.1E1,-3.3700626E-2,2.8401503E-1,1.8E1,1.3862944E0,1.3516848E-1,1.0986123E0,3.561644E-1,-1.9135004E-2,5.4333332E1,1E0,3.8E1,1E0,4E0,5.420535E0,3.5553482E0,9.19E-1,9.91E-1,2.8673843E-2,5.590299E-3,-8.860167E-3,-2.4881765E-2,-2.2320043E-2,-2.038684E-2,1.1214672E-2,-1.4215398E-2,1E0,8.1E-1,9.087891E-2,7.1990944E-2,4.009932E0,1E0,-4.401196E-2,7.3975655E-3,8E0,5.398638E-1,-9.438484E-2,1.8067986E-1,3.0910425E0,4E0,-9.3211025E-2,2.822E3,9.042514E-2,2.6666668E-1,-1.8380526E-2,1.6732356E-2,-4.580294E-2,3.2580965E0,-1.3983826E-1,5.09E2,-4.3288354E-2,-5.5363276E-3,-2.2526557E-2,-5.796451E-4,3.565976E-2,-0E0,-5.814552E-3,1.7849324E-2,1.6971616E-2,-2.2541763E-2,2.9512307E-2,1.1306572E-2,9.888215E-3,4.8906937E-2,3.6716465E-2,1.9528782E-2,1.2374967E-2,-2.7323928E-2,2.9376179E-2,-3.5807074E-4,-2.898865E-2,1.06825065E-2,2.4044527E-2,-3.1195884E-3,-6.119115E-3,-4.069141E-2,2.9539872E-2,1.4482932E-3,-2.8451283E-3,-2.9896662E-2,-1.0631883E-2,-4.708177E-2,1.0426841E-2,-4.3718726E-3,3.922605E-2,1.305389E-2,1.1389275E-2,-2.970887E-2,-1.3735236E-3,-2.5111731E-2,-2.401181E-2,2.0624526E-2,-1.0763246E-2,2.3682768E-2,8.342478E-3,-2.3914436E-2,-1.337641E-2,-4.487541E-2,2.6026838E-2,-2.3223145E-2,-5.316711E-3,-5.0728686E-2,-4.026799E-2,1.8119616E-3],"split_indices":[64,97,58,59,56,6,60,41,97,63,79,63,63,56,29,68,89,64,86,64,92,32,94,55,94,55,59,65,65,53,53,78,0,36,34,36,84,31,0,16,52,28,42,48,8,0,0,91,97,82,42,64,91,31,63,36,98,33,97,0,64,69,47,0,0,0,0,0,0,0,0,0,0,0,0,0,0,0,0,0,0,0,0,0,0,0,0,0,0,0,0,0,0,0,0,0,0,0,0,0,0,0,0,0,0,0,0,0,0,0,0,0,0,0,0,0,0],"split_type":[0,0,0,0,0,0,0,0,0,0,0,0,0,0,0,0,0,0,0,0,0,0,0,0,0,0,0,0,0,0,0,0,0,0,0,0,0,0,0,0,0,0,0,0,0,0,0,0,0,0,0,0,0,0,0,0,0,0,0,0,0,0,0,0,0,0,0,0,0,0,0,0,0,0,0,0,0,0,0,0,0,0,0,0,0,0,0,0,0,0,0,0,0,0,0,0,0,0,0,0,0,0,0,0,0,0,0,0,0,0,0,0,0,0,0,0,0],"sum_hessian":[3.4219814E3,7.338388E2,2.6881426E3,2.850609E2,4.4877786E2,2.4178145E3,2.7032812E2,1.04559326E2,1.8050159E2,4.0251416E2,4.6263718E1,1.2892051E3,1.1286094E3,1.2514802E2,1.4518013E2,1.4130998E1,9.042833E1,1.13016815E2,6.748478E1,1.680408E2,2.3447336E2,4.051118E1,5.752537E0,8.634951E2,4.2570996E2,9.9859564E2,1.3001372E2,9.752376E1,2.762426E1,1.8755129E1,1.26424995E2,1.1669322E1,2.461676E0,7.03988E1,2.0029524E1,8.390838E1,2.9108438E1,6.535841E1,2.1263673E0,6.453008E1,1.0351071E2,2.7410196E1,2.0706317E2,9.172985E0,3.1338196E1,3.7496653E0,2.0028715E0,6.85371E2,1.7812413E2,1.4095349E2,2.8475647E2,8.3457526E2,1.6402037E2,6.473596E1,6.5277756E1,7.137135E1,2.6152405E1,5.127388E0,2.2496872E1,8.662545E0,1.0092584E1,1.0208402E2,2.4340967E1,9.584192E0,2.0851293E0,3.4189762E1,3.620904E1,7.0561953E0,1.2973329E1,3.0323563E1,5.3584812E1,5.5092034E0,2.3599236E1,4.4371166E1,2.0987246E1,2.2108397E0,6.231924E1,7.617939E1,2.7331324E1,2.4742903E1,2.667295E0,2.0113995E2,5.923205E0,6.9611735E0,2.2118115E0,2.1035557E1,1.030264E1,6.2729175E2,5.807925E1,6.3272285E1,1.14851845E2,1.1678939E1,1.2927455E2,2.7167215E2,1.3084318E1,6.162061E2,2.1836917E2,7.0341286E1,9.3679085E1,2.2114222E0,6.2524544E1,5.3395393E1,1.1882362E1,6.832439E1,3.0469642E0,1.784734E1,8.305065E0,2.0021384E0,3.1252499E0,2.125974E0,2.03709E1,3.6731725E0,6.419411E0,2.0848336E0,9.999919E1,1.7541523E1,6.799444E0],"tree_param":{"num_deleted":"0","num_feature":"102","num_nodes":"117","size_leaf_vector":"1"}},{"base_weights":[4.370626E-3,6.061917E-1,-1.5612486E-1,8.1232384E-2,9.2150223E-1,-4.2514244E-1,1.6453518E-1,-2.466563E-1,2.833068E-1,1.0386686E0,2.95993E-1,-3.231498E-1,-1.3381987E0,2.4120861E-1,-1.2012074E0,-4.0478823E-1,4.4224334E-1,6.332542E-1,8.4416926E-2,1.0818074E0,2.6909027E-1,6.793148E-1,-6.7161195E-2,-2.2907105E-1,-6.7826545E-1,-6.1185676E-1,-1.4070796E0,3.7698492E-1,-4.081348E-1,2.1245162E-1,-1.3301661E0,-8.3316344E-1,-1.7706455E-1,8.845665E-1,-2.3039344E-1,1.0290817E0,3.5358095E-1,2.5231105E-1,-4.4256437E-1,1.2289615E0,7.3552626E-1,-4.3983802E-1,7.24596E-1,-3.766637E-1,8.672987E-1,-1.0954195E0,1.7092177E-1,-6.0185913E-2,-5.343236E-1,-7.749014E-1,2.5361374E-2,-1.2309797E0,3.3199197E-1,-1.5188171E0,-9.888253E-1,2.132473E-1,6.1064035E-1,-7.6946104E-1,-7.008821E-2,2.1160841E-2,-1.3005996E-2,-4.8347256E-1,-1.4660851E0,2.127037E-2,-3.033033E-2,1.2864964E-2,-1.1939554E-2,3.9887026E-2,-6.939151E-4,1.591892E-2,-2.5905283E-2,3.5914563E-2,-6.5324293E-3,-4.5989337E-3,1.9155731E-2,-1.0499412E-2,1.4380335E-2,6.7714117E-3,-2.6947824E-2,-9.726377E-3,3.773806E-2,2.814368E-2,8.354931E-3,-3.142744E-2,8.205931E-3,3.0939002E-2,-8.94198E-3,6.4800223E-3,-2.3412436E-2,3.6199138E-2,-0E0,-4.4671178E-2,-2.2885604E-3,1.8255455E-2,-9.302581E-3,-4.4729067E-3,1.0548399E-2,-2.6348067E-2,-9.98346E-3,-3.2302048E-2,-1.9360197E-3,-1.6338466E-2,1.5857037E-2,-7.731038E-3,-4.6821475E-2,3.1922095E-2,-1.0843606E-2,-4.655438E-2,3.3024612E-6,4.3185926E-3,-3.706502E-2,1.0347779E-2,-3.6103583E-3,2.1033775E-2,-6.90741E-4,-2.5220552E-2,2.183044E-3,8.8297646E-4,-3.8103864E-2,2.2122651E-2,-2.956502E-2,-1.3834417E-2,-4.637985E-2],"categories":[],"categories_nodes":[],"categories_segments":[],"categories_sizes":[],"default_left":[0,0,0,0,0,0,0,0,0,0,0,0,0,0,0,0,0,0,0,0,0,0,0,0,0,0,0,0,0,0,0,0,0,0,0,0,0,0,0,0,0,0,0,0,0,0,0,0,0,0,0,0,0,0,0,0,0,0,0,0,0,0,0,0,0,0,0,0,0,0,0,0,0,0,0,0,0,0,0,0,0,0,0,0,0,0,0,0,0,0,0,0,0,0,0,0,0,0,0,0,0,0,0,0,0,0,0,0,0,0,0,0,0,0,0,0,0,0,0,0,0,0,0],"id":2,"left_children":[1,3,5,7,9,11,13,15,17,19,21,23,25,27,29,31,33,35,37,39,41,43,45,47,49,51,53,55,57,59,61,63,65,67,69,71,73,75,77,79,81,83,85,87,89,91,93,95,97,99,101,103,105,107,109,111,113,115,117,-1,-1,119,121,-1,-1,-1,-1,-1,-1,-1,-1,-1,-1,-1,-1,-1,-1,-1,-1,-1,-1,-1,-1,-1,-1,-1,-1,-1,-1,-1,-1,-1,-1,-1,-1,-1,-1,-1,-1,-1,-1,-1,-1,-1,-1,-1,-1,-1,-1,-1,-1,-1,-1,-1,-1,-1,-1,-1,-1,-1,-1,-1,-1],"loss_changes":[3.2948303E2,1.18596375E2,2.3235818E2,1.8051905E1,3.2224304E1,1.3553629E2,1.2881578E2,1.1495806E1,1.1530446E1,1.1892578E1,1.0295017E1,4.3704468E1,5.8967285E0,1.0284553E2,1.2480347E1,7.9265375E0,6.23149E0,5.991707E0,9.764913E0,1.6674927E1,7.4946637E0,7.5839005E0,9.748488E0,5.372281E1,1.8887962E1,9.47732E0,3.8983765E0,3.655905E1,2.4404488E1,2.449631E0,5.6877365E0,8.853277E0,7.88437E0,5.2671595E0,4.7509704E0,5.5698376E0,5.6472874E0,1.1703772E1,8.463863E0,1.1827637E1,9.594231E0,4.453302E0,4.88368E0,1.7691156E0,9.1509E0,2.5560312E0,6.9912515E0,2.4723639E1,2.5173256E1,5.163698E1,1.0136315E1,2.1973972E0,4.047633E0,5.428299E0,9.316242E0,2.5095295E1,2.286296E1,6.0510483E0,1.2930381E1,0E0,0E0,7.2479477E0,2.8451157E0,0E0,0E0,0E0,0E0,0E0,0E0,0E0,0E0,0E0,0E0,0E0,0E0,0E0,0E0,0E0,0E0,0E0,0E0,0E0,0E0,0E0,0E0,0E0,0E0,0E0,0E0,0E0,0E0,0E0,0E0,0E0,0E0,0E0,0E0,0E0,0E0,0E0,0E0,0E0,0E0,0E0,0E0,0E0,0E0,0E0,0E0,0E0,0E0,0E0,0E0,0E0,0E0,0E0,0E0,0E0,0E0,0E0,0E0,0E0,0E0],"parents":[2147483647,0,0,1,1,2,2,3,3,4,4,5,5,6,6,7,7,8,8,9,9,10,10,11,11,12,12,13,13,14,14,15,15,16,16,17,17,18,18,19,19,20,20,21,21,22,22,23,23,24,24,25,25,26,26,27,27,28,28,29,29,30,30,31,31,32,32,33,33,34,34,35,35,36,36,37,37,38,38,39,39,40,40,41,41,42,42,43,43,44,44,45,45,46,46,47,47,48,48,49,49,50,50,51,51,52,52,53,53,54,54,55,55,56,56,57,57,58,58,61,61,62,62],"right_children":[2,4,6,8,10,12,14,16,18,20,22,24,26,28,30,32,34,36,38,40,42,44,46,48,50,52,54,56,58,60,62,64,66,68,70,72,74,76,78,80,82,84,86,88,90,92,94,96,98,100,102,104,106,108,110,112,114,116,118,-1,-1,120,122,-1,-1,-1,-1,-1,-1,-1,-1,-1,-1,-1,-1,-1,-1,-1,-1,-1,-1,-1,-1,-1,-1,-1,-1,-1,-1,-1,-1,-1,-1,-1,-1,-1,-1,-1,-1,-1,-1,-1,-1,-1,-1,-1,-1,-1,-1,-1,-1,-1,-1,-1,-1,-1,-1,-1,-1,-1,-1,-1,-1],"split_conditions":[1.609438E0,9.247454E-2,1E0,4E0,1E0,4E0,4E0,1E0,1.411E3,4E0,8.2E-1,1E0,-7.166027E-2,1.934E3,1.8232156E-1,3.55E1,1.918913E-2,-2.3044571E-2,1.3862944E0,1.3862944E0,-4.9501114E-2,4E0,9.8E-1,1.822E3,1.4E0,2.99172E-2,6E0,6.2E1,4E0,3.1587287E-4,-3.7463967E-2,-7.1401246E-2,-1.0072179E-2,5.5967225E-3,8.54E2,2E0,7.939134E-3,-3.5865508E-2,-1.5069207E-3,-1.1725387E-1,3.4316757E-1,3.2E1,1.0524529E-1,-1.8850306E-2,1E0,9E-1,3.4898803E-2,1E0,4E0,1E0,1E0,1.311E3,6.097656E-1,1.4188264E-1,2.6E1,1.297E3,1E0,7.546536E-2,9.73679E-2,2.1160841E-2,-1.3005996E-2,-4.0395584E-2,-1.6100368E-1,2.127037E-2,-3.033033E-2,1.2864964E-2,-1.1939554E-2,3.9887026E-2,-6.939151E-4,1.591892E-2,-2.5905283E-2,3.5914563E-2,-6.5324293E-3,-4.5989337E-3,1.9155731E-2,-1.0499412E-2,1.4380335E-2,6.7714117E-3,-2.6947824E-2,-9.726377E-3,3.773806E-2,2.814368E-2,8.354931E-3,-3.142744E-2,8.205931E-3,3.0939002E-2,-8.94198E-3,6.4800223E-3,-2.3412436E-2,3.6199138E-2,-0E0,-4.4671178E-2,-2.2885604E-3,1.8255455E-2,-9.302581E-3,-4.4729067E-3,1.0548399E-2,-2.6348067E-2,-9.98346E-3,-3.2302048E-2,-1.9360197E-3,-1.6338466E-2,1.5857037E-2,-7.731038E-3,-4.6821475E-2,3.1922095E-2,-1.0843606E-2,-4.655438E-2,3.3024612E-6,4.3185926E-3,-3.706502E-2,1.0347779E-2,-3.6103583E-3,2.1033775E-2,-6.90741E-4,-2.5220552E-2,2.183044E-3,8.8297646E-4,-3.8103864E-2,2.2122651E-2,-2.956502E-2,-1.3834417E-2,-4.637985E-2],"split_indices":[64,97,6,59,100,56,56,5,25,56,52,60,81,63,66,94,83,38,64,64,43,89,52,63,2,85,59,94,59,35,86,32,83,76,47,19,39,36,33,32,26,25,27,31,60,2,37,55,59,55,55,63,66,38,25,63,60,31,77,0,0,76,27,0,0,0,0,0,0,0,0,0,0,0,0,0,0,0,0,0,0,0,0,0,0,0,0,0,0,0,0,0,0,0,0,0,0,0,0,0,0,0,0,0,0,0,0,0,0,0,0,0,0,0,0,0,0,0,0,0,0,0,0],"split_type":[0,0,0,0,0,0,0,0,0,0,0,0,0,0,0,0,0,0,0,0,0,0,0,0,0,0,0,0,0,0,0,0,0,0,0,0,0,0,0,0,0,0,0,0,0,0,0,0,0,0,0,0,0,0,0,0,0,0,0,0,0,0,0,0,0,0,0,0,0,0,0,0,0,0,0,0,0,0,0,0,0,0,0,0,0,0,0,0,0,0,0,0,0,0,0,0,0,0,0,0,0,0,0,0,0,0,0,0,0,0,0,0,0,0,0,0,0,0,0,0,0,0,0],"sum_hessian":[3.4078584E3,7.170395E2,2.6908188E3,2.6987277E2,4.471667E2,1.4633635E3,1.2274554E3,1.02423904E2,1.6744888E2,3.7568365E2,7.148303E1,1.3179824E3,1.4538106E2,1.1632827E3,6.417274E1,8.3941055E1,1.8482847E1,5.936669E1,1.0808219E2,3.550354E2,2.0648277E1,3.453557E1,3.6947464E1,1.0439517E3,2.740308E2,1.3871423E1,1.3150963E2,9.62779E2,2.0050366E2,5.17007E0,5.900267E1,2.7722706E1,5.621835E1,1.1101679E1,7.381169E0,2.295184E1,3.6414852E1,8.272979E1,2.53524E1,2.4660349E2,1.084319E2,7.9216256E0,1.2726651E1,4.8761253E0,2.9659441E1,6.291951E0,3.0655514E1,6.734487E2,3.7050296E2,2.4108318E2,3.294761E1,8.284199E0,5.587224E0,1.00914375E2,3.0595257E1,5.679386E2,3.9484042E2,9.58886E1,1.0461506E2,3.045528E0,2.1245425E0,9.1214485E0,4.988122E1,2.379629E0,2.5343079E1,1.447756E1,4.174079E1,7.2231317E0,3.8785472E0,3.2967408E0,4.0844283E0,2.0408964E1,2.5428746E0,1.3051098E1,2.3363752E1,2.2228794E1,6.050099E1,1.03463E1,1.50061E1,4.165709E0,2.4243777E2,7.3949844E1,3.448206E1,4.1253023E0,3.796323E0,9.933078E0,2.7935734E0,2.0012138E0,2.8749115E0,2.1028118E1,8.631323E0,3.9981883E0,2.2937627E0,1.6103323E1,1.4552191E1,5.548936E2,1.18555084E2,1.350347E2,2.3546826E2,1.6856136E2,7.252182E1,1.5216187E1,1.773142E1,2.790856E0,5.4933434E0,2.546213E0,3.041011E0,9.887227E1,2.0421066E0,5.415453E0,2.5179804E1,4.0760416E2,1.6033443E2,3.4566794E2,4.9172485E1,8.863293E1,7.2556815E0,9.753064E1,7.084421E0,2.3777921E0,6.743656E0,4.457103E0,4.5424118E1],"tree_param":{"num_deleted":"0","num_feature":"102","num_nodes":"123","size_leaf_vector":"1"}},{"base_weights":[9.2780986E-4,5.0671744E-1,-1.8096338E-1,7.015013E-1,-5.3549603E-2,-7.581527E-2,-1.1016104E0,1.0606633E0,5.263595E-1,2.7160513E-1,-1.8477413E-1,-3.4773725E-1,1.7701583E-1,-7.581762E-1,-1.3856738E0,1.1453295E0,1.03196524E-1,6.234901E-1,5.494243E-2,5.7544106E-1,-1.7285529E-1,-8.7305915E-1,-9.117453E-2,-4.3466604E-1,2.041042E-1,2.8876054E-1,-5.7196856E-1,-1.0636855E0,-4.0889078E-1,-1.595E0,-8.548146E-1,1.5026227E0,9.638264E-1,3.7784123E-1,-3.137348E-2,8.0030185E-1,4.1618258E-1,-1.0813052E-1,9.5677483E-1,7.981111E-1,-2.34134E-1,8.535429E-1,-5.844692E-1,-0E0,-1.2048608E0,3.1949077E-2,-5.94632E-1,-3.2349646E-1,-1.0586479E0,5.1381636E-1,-2.831104E-1,1.6926478E-1,6.61449E-1,-9.026804E-1,-2.3332298E-1,2.8258242E-2,-1.1559985E0,-1.6789237E-1,-1.1388626E0,-1.6209432E0,-1.1375447E-2,-1.2506413E0,2.2379145E-2,3.207141E-2,4.950515E-2,1.9828575E-2,3.8836434E-2,-1.2429361E-2,2.3789609E-2,2.5223581E-2,-1.7017774E-2,7.9409685E-3,2.4389738E-2,-3.3686012E-2,1.0904318E-3,-0E0,3.8163144E-2,3.9731476E-2,1.2345839E-2,-2.5948977E-2,2.5319617E-2,3.3416346E-2,-0E0,-2.4777558E-2,1.20834615E-2,-2.401211E-2,2.0223008E-2,-1.4231554E-3,-4.214466E-2,-2.1927219E-2,3.3478022E-3,9.067209E-3,-2.640019E-2,-1.9096581E-2,-5.445496E-3,-2.0503854E-2,-3.7896182E-2,2.97959E-2,6.1175097E-3,-1.1830336E-2,3.459587E-2,7.0363325E-3,-3.3502337E-2,4.0103514E-2,9.797277E-3,-1.146102E-2,-3.465238E-2,-1.4932598E-2,1.0561701E-2,-1.9275822E-2,-4.1156508E-2,-1.0153079E-2,2.8419662E-2,-4.334234E-2,-9.98146E-4,-1.7674625E-2,-4.9206425E-2,-4.1521143E-2,8.80787E-3,1.4673331E-2,-2.060179E-2],"categories":[],"categories_nodes":[],"categories_segments":[],"categories_sizes":[],"default_left":[0,0,0,0,0,0,0,0,0,0,0,0,0,0,0,0,0,0,0,0,0,0,0,0,0,0,0,0,0,0,0,0,0,0,0,0,0,0,0,0,0,0,0,0,0,0,0,0,0,0,0,0,0,0,0,0,0,0,0,0,0,0,0,0,0,0,0,0,0,0,0,0,0,0,0,0,0,0,0,0,0,0,0,0,0,0,0,0,0,0,0,0,0,0,0,0,0,0,0,0,0,0,0,0,0,0,0,0,0,0,0,0,0,0,0,0,0,0,0,0,0],"id":3,"left_children":[1,3,5,7,9,11,13,15,17,19,21,23,25,27,29,31,33,35,37,39,41,43,45,47,49,51,53,55,57,59,61,63,65,67,-1,69,71,73,75,77,79,81,83,85,87,89,91,93,95,97,99,101,103,105,107,-1,109,111,113,115,-1,117,119,-1,-1,-1,-1,-1,-1,-1,-1,-1,-1,-1,-1,-1,-1,-1,-1,-1,-1,-1,-1,-1,-1,-1,-1,-1,-1,-1,-1,-1,-1,-1,-1,-1,-1,-1,-1,-1,-1,-1,-1,-1,-1,-1,-1,-1,-1,-1,-1,-1,-1,-1,-1,-1,-1,-1,-1,-1,-1],"loss_changes":[3.1500357E2,9.901996E1,2.4337375E2,4.131195E1,1.0049002E1,1.5555061E2,2.3458252E1,1.7350784E1,2.0646843E1,9.312212E0,1.0549736E1,5.244777E1,9.823453E1,1.1952637E1,1.3354858E1,1.0788879E1,6.4283957E0,1.316153E1,1.1965092E1,7.6601477E0,1.2396985E1,5.6812115E0,9.414209E0,6.4690765E1,2.2682928E1,4.5164917E1,1.6580078E1,1.297213E1,9.727732E0,1.9617462E0,1.495063E1,1.5049438E0,1.2290665E1,5.9264927E0,0E0,1.1779419E1,1.0128271E1,1.0250048E1,3.970955E0,5.575514E0,7.339341E0,1.75562E0,5.4598417E0,4.246683E0,2.9345627E0,7.331406E0,8.060444E0,3.5343155E1,9.451492E0,1.3138166E1,9.720162E0,6.5204094E1,5.501226E1,9.1963005E0,1.2186144E1,0E0,5.2621994E0,8.875253E0,4.382448E0,2.969513E-1,0E0,6.7401886E0,5.050008E0,0E0,0E0,0E0,0E0,0E0,0E0,0E0,0E0,0E0,0E0,0E0,0E0,0E0,0E0,0E0,0E0,0E0,0E0,0E0,0E0,0E0,0E0,0E0,0E0,0E0,0E0,0E0,0E0,0E0,0E0,0E0,0E0,0E0,0E0,0E0,0E0,0E0,0E0,0E0,0E0,0E0,0E0,0E0,0E0,0E0,0E0,0E0,0E0,0E0,0E0,0E0,0E0,0E0,0E0,0E0,0E0,0E0,0E0],"parents":[2147483647,0,0,1,1,2,2,3,3,4,4,5,5,6,6,7,7,8,8,9,9,10,10,11,11,12,12,13,13,14,14,15,15,16,16,17,17,18,18,19,19,20,20,21,21,22,22,23,23,24,24,25,25,26,26,27,27,28,28,29,29,30,30,31,31,32,32,33,33,35,35,36,36,37,37,38,38,39,39,40,40,41,41,42,42,43,43,44,44,45,45,46,46,47,47,48,48,49,49,50,50,51,51,52,52,53,53,54,54,56,56,57,57,58,58,59,59,61,61,62,62],"right_children":[2,4,6,8,10,12,14,16,18,20,22,24,26,28,30,32,34,36,38,40,42,44,46,48,50,52,54,56,58,60,62,64,66,68,-1,70,72,74,76,78,80,82,84,86,88,90,92,94,96,98,100,102,104,106,108,-1,110,112,114,116,-1,118,120,-1,-1,-1,-1,-1,-1,-1,-1,-1,-1,-1,-1,-1,-1,-1,-1,-1,-1,-1,-1,-1,-1,-1,-1,-1,-1,-1,-1,-1,-1,-1,-1,-1,-1,-1,-1,-1,-1,-1,-1,-1,-1,-1,-1,-1,-1,-1,-1,-1,-1,-1,-1,-1,-1,-1,-1,-1,-1],"split_conditions":[5E0,1.353E3,4E0,-7.44E2,1E0,2.5E1,1E0,5E0,3E1,-5.1996396E-3,3E0,1E0,2.209E3,9.9E-1,9.44E-1,2E0,4E0,3E0,3.1336054E-2,2.6158543E-2,-7.871684E-2,1.542E3,4E0,3.9E1,9.0607774E-1,1E0,5.7E2,8.61777E-2,1E1,3E0,5.11E2,3.9452055E-1,3.3E1,-8.4222525E-2,-3.137348E-2,1.604564E-1,3.1E1,9E0,5.29E2,1E0,2.2045463E-2,8.37255E-3,2.9093653E-2,1.5527356E-1,1.9733715E0,-9.069227E-2,-1.706743E-2,3.85E1,1.3871379E-1,2.8E1,1.125E2,1E1,4E0,2.4763782E0,1E0,2.8258242E-2,1E0,6.379617E-2,5.55E1,-1.01074755E-1,-1.1375447E-2,5E0,1.3E1,3.207141E-2,4.950515E-2,1.9828575E-2,3.8836434E-2,-1.2429361E-2,2.3789609E-2,2.5223581E-2,-1.7017774E-2,7.9409685E-3,2.4389738E-2,-3.3686012E-2,1.0904318E-3,-0E0,3.8163144E-2,3.9731476E-2,1.2345839E-2,-2.5948977E-2,2.5319617E-2,3.3416346E-2,-0E0,-2.4777558E-2,1.20834615E-2,-2.401211E-2,2.0223008E-2,-1.4231554E-3,-4.214466E-2,-2.1927219E-2,3.3478022E-3,9.067209E-3,-2.640019E-2,-1.9096581E-2,-5.445496E-3,-2.0503854E-2,-3.7896182E-2,2.97959E-2,6.1175097E-3,-1.1830336E-2,3.459587E-2,7.0363325E-3,-3.3502337E-2,4.0103514E-2,9.797277E-3,-1.146102E-2,-3.465238E-2,-1.4932598E-2,1.0561701E-2,-1.9275822E-2,-4.1156508E-2,-1.0153079E-2,2.8419662E-2,-4.334234E-2,-9.98146E-4,-1.7674625E-2,-4.9206425E-2,-4.1521143E-2,8.80787E-3,1.4673331E-2,-2.060179E-2],"split_indices":[90,63,58,63,11,1,60,56,95,45,59,55,63,57,53,90,90,90,76,85,38,63,90,90,97,55,47,66,58,18,47,92,1,27,0,82,1,1,47,19,43,29,43,68,48,31,82,94,97,90,94,91,91,48,55,0,24,34,94,82,0,0,89,0,0,0,0,0,0,0,0,0,0,0,0,0,0,0,0,0,0,0,0,0,0,0,0,0,0,0,0,0,0,0,0,0,0,0,0,0,0,0,0,0,0,0,0,0,0,0,0,0,0,0,0,0,0,0,0,0,0],"split_type":[0,0,0,0,0,0,0,0,0,0,0,0,0,0,0,0,0,0,0,0,0,0,0,0,0,0,0,0,0,0,0,0,0,0,0,0,0,0,0,0,0,0,0,0,0,0,0,0,0,0,0,0,0,0,0,0,0,0,0,0,0,0,0,0,0,0,0,0,0,0,0,0,0,0,0,0,0,0,0,0,0,0,0,0,0,0,0,0,0,0,0,0,0,0,0,0,0,0,0,0,0,0,0,0,0,0,0,0,0,0,0,0,0,0,0,0,0,0,0,0,0],"sum_hessian":[3.420897E3,9.045493E2,2.5163477E3,6.712391E2,2.333102E2,2.2597725E3,2.5657507E2,2.1766527E2,4.5357382E2,6.627725E1,1.6703294E2,1.0889443E3,1.1708282E3,1.1846145E2,1.3811362E2,1.9957323E2,1.809204E1,3.7541263E2,7.816121E1,3.9423466E1,2.6853783E1,1.8543484E1,1.4848946E2,9.412856E2,1.476587E2,1.0196987E3,1.5112956E2,6.15759E1,5.6885548E1,9.705933E1,4.1054276E1,6.391618E1,1.3565704E2,1.5392227E1,2.699812E0,2.0023535E2,1.7517728E2,6.689867E1,1.1262538E1,3.1126343E1,8.297125E0,7.1787124E0,1.967507E1,5.4633446E0,1.3080139E1,1.19895E2,2.859446E1,8.00763E2,1.4052255E2,9.048455E1,5.717416E1,7.738572E2,2.4584154E2,7.515046E1,7.597911E1,2.128134E0,5.944777E1,4.408197E1,1.2803575E1,9.447899E1,2.5803483E0,2.8094143E1,1.2960134E1,1.9084862E1,4.4831318E1,7.3003525E1,6.2653522E1,5.127991E0,1.0264236E1,1.9506915E2,5.166191E0,1.285914E2,4.6585873E1,7.4976063E0,5.9401062E1,2.9588265E0,8.303711E0,1.1729753E1,1.939659E1,5.5010834E0,2.796042E0,5.1348534E0,2.0438592E0,1.6129099E1,3.5459695E0,2.4163563E0,3.046988E0,2.2929406E0,1.0787199E1,1.0169061E1,1.0972594E2,6.71593E0,2.1878529E1,2.4810944E2,5.5265356E2,5.176536E1,8.875719E1,3.42352E1,5.6249348E1,5.4001793E1,3.1723678E0,7.375545E2,3.630264E1,8.010572E1,1.6573581E2,2.5780136E1,4.937032E1,5.2696228E1,2.3282885E1,1.9282736E1,4.016503E1,3.9115437E1,4.9665365E0,9.59886E0,3.2047148E0,2.617177E0,9.186181E1,2.6094046E1,2.0000975E0,8.210401E0,4.7497334E0],"tree_param":{"num_deleted":"0","num_feature":"102","num_nodes":"121","size_leaf_vector":"1"}},{"base_weights":[-1.774327E-3,5.694169E-1,-1.5492614E-1,8.4534425E-1,1.0007723E-1,-6.46854E-2,-1.2294629E0,9.5859426E-1,3.2186112E-1,-2.5327334E-1,3.1493676E-1,-3.687572E-1,1.3305092E-1,-1.3689783E0,-7.4917877E-1,1.0317065E0,3.5842887E-1,4.0299284E-1,-2.9300861E-2,1.6085784E-1,-4.1720635E-1,7.425748E-1,7.868116E-2,-2.6656285E-1,-7.9806805E-1,2.608625E-1,-2.969401E-1,-1.4127266E0,-1.7942002E-1,-1.1028416E0,-4.565628E-2,-2.1473493E-2,1.0551955E0,-2.988859E-2,5.203509E-1,1.6661082E-1,7.8782904E-1,-1.4900434E-1,1.0241805E0,-3.2783276E-1,-4.4374824E-2,8.498588E-1,-2.2023076E-2,2.7719396E-1,-4.9829552E-1,-3.2223412E-1,5.928188E-1,-1.0781574E0,-1.5951379E-1,1.5175706E-1,9.718479E-1,-8.0676186E-1,7.67366E-2,-7.192055E-1,-1.476978E0,2.8762482E-2,-2.7704854E-2,4.1084904E-3,-1.2257565E0,7.86466E-1,-4.5118544E-1,3.2640968E-2,1.0643664E-3,1.0739223E-4,2.8745022E-2,1.2271529E-2,-1.7571567E-2,3.088662E-2,7.246187E-3,-1.3139216E-2,2.384979E-2,4.596557E-2,-6.5160305E-3,-2.6549878E-2,-4.832715E-3,3.281925E-2,7.825814E-3,-5.04962E-3,1.5645806E-2,-2.3514036E-2,1.0952965E-2,-8.1298305E-3,-3.879689E-2,7.2841546E-3,3.0474769E-2,-2.2437634E-2,-4.4686005E-2,-1.39319245E-2,1.5320602E-2,9.169284E-3,-3.5882816E-3,1.941679E-2,3.9362703E-2,-1.66116E-2,-3.338893E-2,-7.508816E-3,1.8786438E-2,1.1437717E-2,-3.2140248E-2,-4.5008514E-2,-0E0,-4.050581E-2,-7.961665E-3,-0E0,3.438817E-2,1.3416887E-2,-2.5839962E-2],"categories":[],"categories_nodes":[],"categories_segments":[],"categories_sizes":[],"default_left":[0,0,0,0,0,0,0,0,0,0,0,0,0,0,0,0,0,0,0,0,0,0,0,0,0,0,0,0,0,0,0,0,0,0,0,0,0,0,0,0,0,0,0,0,0,0,0,0,0,0,0,0,0,0,0,0,0,0,0,0,0,0,0,0,0,0,0,0,0,0,0,0,0,0,0,0,0,0,0,0,0,0,0,0,0,0,0,0,0,0,0,0,0,0,0,0,0,0,0,0,0,0,0,0,0,0,0],"id":4,"left_children":[1,3,5,7,9,11,13,15,17,19,21,23,25,27,29,31,33,35,-1,37,39,41,43,45,47,49,51,53,55,57,59,-1,61,-1,63,65,67,69,71,73,-1,75,-1,77,79,81,83,85,87,89,91,93,95,97,99,-1,-1,-1,101,103,105,-1,-1,-1,-1,-1,-1,-1,-1,-1,-1,-1,-1,-1,-1,-1,-1,-1,-1,-1,-1,-1,-1,-1,-1,-1,-1,-1,-1,-1,-1,-1,-1,-1,-1,-1,-1,-1,-1,-1,-1,-1,-1,-1,-1,-1,-1],"loss_changes":[2.981027E2,9.300838E1,2.6031335E2,2.6245697E1,2.0482378E1,1.4930156E2,1.2285095E1,1.55896E1,9.074598E0,7.0423265E0,1.6716034E1,4.246158E1,8.274677E1,7.674347E0,1.2100649E1,1.4537262E1,9.850256E0,6.826193E0,0E0,8.219454E0,6.042466E0,1.0160133E1,1.2687643E1,3.809237E1,3.30203E1,8.9616554E1,6.591504E1,5.123169E0,7.1462927E0,5.432701E0,6.466861E0,0E0,1.0666412E1,0E0,8.601347E0,9.499982E0,3.3253307E0,6.484728E0,5.760686E0,6.08623E0,0E0,7.4283295E0,0E0,9.173463E0,7.3922434E0,3.6348732E1,6.6214943E0,1.58315735E1,1.2267754E1,4.216297E1,1.5589539E1,1.0253502E1,3.6177017E1,6.6783104E0,4.500122E0,0E0,0E0,0E0,2.8558693E0,1.6315627E0,5.3699827E0,0E0,0E0,0E0,0E0,0E0,0E0,0E0,0E0,0E0,0E0,0E0,0E0,0E0,0E0,0E0,0E0,0E0,0E0,0E0,0E0,0E0,0E0,0E0,0E0,0E0,0E0,0E0,0E0,0E0,0E0,0E0,0E0,0E0,0E0,0E0,0E0,0E0,0E0,0E0,0E0,0E0,0E0,0E0,0E0,0E0,0E0],"parents":[2147483647,0,0,1,1,2,2,3,3,4,4,5,5,6,6,7,7,8,8,9,9,10,10,11,11,12,12,13,13,14,14,15,15,16,16,17,17,19,19,20,20,21,21,22,22,23,23,24,24,25,25,26,26,27,27,28,28,29,29,30,30,32,32,34,34,35,35,36,36,37,37,38,38,39,39,41,41,43,43,44,44,45,45,46,46,47,47,48,48,49,49,50,50,51,51,52,52,53,53,54,54,58,58,59,59,60,60],"right_children":[2,4,6,8,10,12,14,16,18,20,22,24,26,28,30,32,34,36,-1,38,40,42,44,46,48,50,52,54,56,58,60,-1,62,-1,64,66,68,70,72,74,-1,76,-1,78,80,82,84,86,88,90,92,94,96,98,100,-1,-1,-1,102,104,106,-1,-1,-1,-1,-1,-1,-1,-1,-1,-1,-1,-1,-1,-1,-1,-1,-1,-1,-1,-1,-1,-1,-1,-1,-1,-1,-1,-1,-1,-1,-1,-1,-1,-1,-1,-1,-1,-1,-1,-1,-1,-1,-1,-1,-1,-1],"split_conditions":[1.609438E0,8.77E2,4E0,2.8E1,4E0,2.2E1,6E0,3.498433E-2,1.9217409E-1,-8.730014E-3,1.411E3,3.583519E0,3.912023E0,3E0,7E-1,-1.3889205E-1,-1.24411E-1,9.6712327E-1,-2.9300861E-2,6E-2,8.279613E-2,7.432616E-2,1.3862944E0,1E0,1E0,1E0,1E0,-5.456523E-2,1.8184216E0,-9.76017E-2,2.25E2,-2.1473493E-2,8E0,-2.988859E-2,-9.516148E-3,7.589041E-1,1E0,4.8193086E-2,3.8116604E-2,1E1,-4.4374824E-2,1.9044219E-2,-2.2023076E-2,-2.2320043E-2,3.4731494E-3,1.1353171E-1,5E0,1.01E0,2.6582357E-2,2.8903718E0,2.25E2,6.19E-1,4E0,2.630137E-1,1.340849E-1,2.8762482E-2,-2.7704854E-2,4.1084904E-3,3.3724107E-2,-4.8913803E-2,-3.5434768E-2,3.2640968E-2,1.0643664E-3,1.0739223E-4,2.8745022E-2,1.2271529E-2,-1.7571567E-2,3.088662E-2,7.246187E-3,-1.3139216E-2,2.384979E-2,4.596557E-2,-6.5160305E-3,-2.6549878E-2,-4.832715E-3,3.281925E-2,7.825814E-3,-5.04962E-3,1.5645806E-2,-2.3514036E-2,1.0952965E-2,-8.1298305E-3,-3.879689E-2,7.2841546E-3,3.0474769E-2,-2.2437634E-2,-4.4686005E-2,-1.39319245E-2,1.5320602E-2,9.169284E-3,-3.5882816E-3,1.941679E-2,3.9362703E-2,-1.66116E-2,-3.338893E-2,-7.508816E-3,1.8786438E-2,1.1437717E-2,-3.2140248E-2,-4.5008514E-2,-0E0,-4.050581E-2,-7.961665E-3,-0E0,3.438817E-2,1.3416887E-2,-2.5839962E-2],"split_indices":[64,25,56,95,59,1,59,42,45,83,25,64,64,18,53,78,80,92,0,99,75,36,64,55,55,55,55,81,48,81,25,0,58,0,37,92,60,78,41,1,0,40,0,36,77,42,59,99,34,64,25,53,59,92,78,0,0,0,75,31,31,0,0,0,0,0,0,0,0,0,0,0,0,0,0,0,0,0,0,0,0,0,0,0,0,0,0,0,0,0,0,0,0,0,0,0,0,0,0,0,0,0,0,0,0,0,0],"split_type":[0,0,0,0,0,0,0,0,0,0,0,0,0,0,0,0,0,0,0,0,0,0,0,0,0,0,0,0,0,0,0,0,0,0,0,0,0,0,0,0,0,0,0,0,0,0,0,0,0,0,0,0,0,0,0,0,0,0,0,0,0,0,0,0,0,0,0,0,0,0,0,0,0,0,0,0,0,0,0,0,0,0,0,0,0,0,0,0,0,0,0,0,0,0,0,0,0,0,0,0,0,0,0,0,0,0,0],"sum_hessian":[3.4062449E3,7.192352E2,2.6870095E3,4.5207208E2,2.6716315E2,2.48018E3,2.0682976E2,3.7053195E2,8.154014E1,1.0059035E2,1.6657278E2,9.7729865E2,1.5028812E3,1.5822958E2,4.860018E1,3.2922913E2,4.1302803E1,7.766911E1,3.8710313E0,2.8186783E1,7.2403564E1,5.806076E1,1.08512024E2,7.9133746E2,1.8596118E2,1.1592423E3,3.436389E2,1.5223749E2,5.99209E0,3.1699396E1,1.6900784E1,3.784636E0,3.254445E2,3.617606E0,3.7685196E1,4.9502125E1,2.8166986E1,2.1302244E1,6.8845377E0,6.840538E1,3.998185E0,5.4729362E1,3.3313985E0,8.145648E1,2.7055542E1,7.4411597E2,4.7221508E1,1.284707E2,5.7490486E1,1.0065222E3,1.527201E2,1.449806E2,1.9865828E2,1.4412766E1,1.3782472E2,2.1256301E0,3.8664598E0,2.7001324E0,2.8999264E1,5.0067706E0,1.1894013E1,3.1502362E2,1.042087E1,1.8048502E1,1.9636696E1,3.8052876E1,1.1449248E1,1.8536983E1,9.630004E0,1.6964357E1,4.3378873E0,4.800181E0,2.084357E0,1.4289384E1,5.4115997E1,3.7725346E1,1.7004017E1,2.8692884E1,5.27636E1,2.0589357E1,6.4661846E0,7.0847064E2,3.5645332E1,2.7132523E1,2.0088985E1,7.34089E1,5.5061806E1,3.997308E1,1.7517408E1,6.426662E2,3.6385596E2,8.023718E1,7.248291E1,8.15839E1,6.3396706E1,1.2471914E2,7.393915E1,3.3321729E0,1.1080593E1,1.3553825E2,2.2864728E0,2.5057192E1,3.9420722E0,2.0432408E0,2.9635296E0,3.541132E0,8.352881E0],"tree_param":{"num_deleted":"0","num_feature":"102","num_nodes":"107","size_leaf_vector":"1"}},{"base_weights":[-3.994468E-3,4.807876E-1,-1.7565657E-1,1.6309585E-2,7.415429E-1,-7.533758E-2,-1.079058E0,2.1064827E-1,-2.7427405E-1,8.2116836E-1,-0E0,-5.9222305E-1,4.3864485E-2,-6.002372E-1,-1.2291981E0,3.8976997E-1,-1.499569E-1,-4.854462E-2,-6.4664865E-1,1.0286208E0,5.6076664E-1,-4.5267466E-1,2.2629361E-1,-5.107476E-1,-1.199557E0,1.4604922E-1,-5.7946277E-1,2.269866E-1,-7.802923E-1,-1.4304808E0,-8.403128E-1,5.1376E-1,-1.5882024E-1,-4.016372E-1,3.5895324E-1,-4.4154727E-1,2.0218372E-1,6.5653096E-4,-8.877613E-1,1.2789309E0,8.2332677E-1,1.0125682E0,4.2214173E-1,2.107967E-2,-6.7330956E-1,4.8040986E-1,-3.2639873E-1,-4.1264313E-1,-9.1176957E-1,-1.2729291E0,-3.6639627E-3,2.6948977E-2,5.8057696E-1,-9.069559E-1,-3.0681533E-1,-1.5450014E-1,3.300309E-2,1.6907802E-2,-8.8858384E-1,-1.4505775E0,-2.8845777E-3,-1.1280619E0,-2.4374661E-1,1.2502719E-2,3.5770606E-2,1.928127E-2,-1.5466248E-2,-3.234331E-2,-3.584042E-3,2.22186E-2,-5.8274814E-3,-2.3799898E-2,3.330004E-4,2.0625025E-2,-2.6276147E-3,2.3191327E-2,-1.1694372E-2,-3.046498E-2,1.9171696E-2,2.964995E-2,4.3505758E-2,2.5958205E-2,-1.0424443E-2,8.556259E-3,3.694664E-2,1.0915082E-2,3.910469E-2,-2.9237011E-2,7.714258E-3,-7.458847E-3,2.8014287E-2,1.4907793E-2,-2.7273461E-2,-2.2089891E-2,-8.343889E-3,-3.36659E-2,-1.2236125E-2,-0E0,-4.008635E-2,3.4533648E-3,-2.5427774E-2,6.770485E-3,2.8913276E-2,-3.360694E-2,-1.8403735E-2,-1.3955934E-2,4.298612E-3,2.5676848E-2,-2.3498796E-2,-3.392192E-2,-2.653494E-3,-3.4348156E-2,-4.8134588E-2,-4.1507445E-2,-1.7860124E-2,-2.028598E-2,2.8040474E-2],"categories":[],"categories_nodes":[],"categories_segments":[],"categories_sizes":[],"default_left":[0,0,0,0,0,0,0,0,0,0,0,0,0,0,0,0,0,0,0,0,0,0,0,0,0,0,0,0,0,0,0,0,0,0,0,0,0,0,0,0,0,0,0,0,0,0,0,0,0,0,0,0,0,0,0,0,0,0,0,0,0,0,0,0,0,0,0,0,0,0,0,0,0,0,0,0,0,0,0,0,0,0,0,0,0,0,0,0,0,0,0,0,0,0,0,0,0,0,0,0,0,0,0,0,0,0,0,0,0,0,0,0,0,0,0,0,0],"id":5,"left_children":[1,3,5,7,9,11,13,15,17,19,21,23,25,27,29,31,33,35,37,39,41,43,45,47,49,51,53,55,57,59,61,63,65,67,69,71,73,75,77,79,81,83,85,-1,87,89,91,93,95,97,-1,99,101,103,105,107,-1,-1,109,111,-1,113,115,-1,-1,-1,-1,-1,-1,-1,-1,-1,-1,-1,-1,-1,-1,-1,-1,-1,-1,-1,-1,-1,-1,-1,-1,-1,-1,-1,-1,-1,-1,-1,-1,-1,-1,-1,-1,-1,-1,-1,-1,-1,-1,-1,-1,-1,-1,-1,-1,-1,-1,-1,-1,-1,-1],"loss_changes":[2.8534085E2,1.0841756E2,2.2923215E2,1.8344847E1,3.4041748E1,1.4070126E2,1.6928009E1,1.2723476E1,1.074174E1,2.6998169E1,5.9655657E0,2.0097061E1,1.1814279E2,9.710876E0,1.3057861E1,9.085653E0,8.540526E0,8.284629E0,7.7619953E0,1.3049072E1,1.3790733E1,5.5452094E0,5.5933185E0,1.4220917E1,3.442421E0,8.238525E1,2.2743874E1,4.3892145E0,8.267075E0,2.8441772E0,1.1138428E1,6.1584263E0,7.4590044E0,8.099373E0,4.9198227E0,5.393378E0,7.347726E0,4.7092915E0,7.803076E0,4.092148E0,8.387314E0,7.7966957E0,8.381195E0,0E0,5.257925E0,9.322768E0,6.6307354E0,1.2946228E1,6.91E0,3.5130005E0,0E0,9.6595024E1,4.6096634E1,6.196602E0,1.0457617E1,6.661816E0,0E0,0E0,9.117989E0,2.9738464E0,0E0,4.821636E0,1.2945564E1,0E0,0E0,0E0,0E0,0E0,0E0,0E0,0E0,0E0,0E0,0E0,0E0,0E0,0E0,0E0,0E0,0E0,0E0,0E0,0E0,0E0,0E0,0E0,0E0,0E0,0E0,0E0,0E0,0E0,0E0,0E0,0E0,0E0,0E0,0E0,0E0,0E0,0E0,0E0,0E0,0E0,0E0,0E0,0E0,0E0,0E0,0E0,0E0,0E0,0E0,0E0,0E0,0E0,0E0],"parents":[2147483647,0,0,1,1,2,2,3,3,4,4,5,5,6,6,7,7,8,8,9,9,10,10,11,11,12,12,13,13,14,14,15,15,16,16,17,17,18,18,19,19,20,20,21,21,22,22,23,23,24,24,25,25,26,26,27,27,28,28,29,29,30,30,31,31,32,32,33,33,34,34,35,35,36,36,37,37,38,38,39,39,40,40,41,41,42,42,44,44,45,45,46,46,47,47,48,48,49,49,51,51,52,52,53,53,54,54,55,55,58,58,59,59,61,61,62,62],"right_children":[2,4,6,8,10,12,14,16,18,20,22,24,26,28,30,32,34,36,38,40,42,44,46,48,50,52,54,56,58,60,62,64,66,68,70,72,74,76,78,80,82,84,86,-1,88,90,92,94,96,98,-1,100,102,104,106,108,-1,-1,110,112,-1,114,116,-1,-1,-1,-1,-1,-1,-1,-1,-1,-1,-1,-1,-1,-1,-1,-1,-1,-1,-1,-1,-1,-1,-1,-1,-1,-1,-1,-1,-1,-1,-1,-1,-1,-1,-1,-1,-1,-1,-1,-1,-1,-1,-1,-1,-1,-1,-1,-1,-1,-1,-1,-1,-1,-1],"split_conditions":[1.7917595E0,8.3789125E-2,4E0,1.0493478E-3,4E0,1.5E1,4E0,4.2123366E-2,1.3862944E0,1.3862944E0,7E0,3.7612002E0,2.198E3,-2.7223213E-2,1E0,2.2392413E-2,4.486576E-2,4E0,-4.548373E-2,-6.28E2,-5.7849135E-2,9.138557E-1,3.7306892E1,4.3093577E-2,1E0,1E0,4E0,3.0685382E-4,-6.451017E-2,2.153984E-1,-6.28E2,2.6E1,-2.783824E-2,7.586202E-2,1.787E3,1.3E1,-3.1721253E-2,-3.7554014E-2,1.1206039E-1,2.2E1,9.037989E-2,1.9E1,8.633201E-2,2.107967E-2,6.97E-1,-1.1830707E-2,-1.2537721E-3,1E1,2.2027915E-2,-8.3565176E-2,-3.6639627E-3,5E1,2.1E1,2.1634942E-1,1E0,1E1,3.300309E-2,1.6907802E-2,2.7222222E-1,1E0,-2.8845777E-3,2E0,4.001525E-2,1.2502719E-2,3.5770606E-2,1.928127E-2,-1.5466248E-2,-3.234331E-2,-3.584042E-3,2.22186E-2,-5.8274814E-3,-2.3799898E-2,3.330004E-4,2.0625025E-2,-2.6276147E-3,2.3191327E-2,-1.1694372E-2,-3.046498E-2,1.9171696E-2,2.964995E-2,4.3505758E-2,2.5958205E-2,-1.0424443E-2,8.556259E-3,3.694664E-2,1.0915082E-2,3.910469E-2,-2.9237011E-2,7.714258E-3,-7.458847E-3,2.8014287E-2,1.4907793E-2,-2.7273461E-2,-2.2089891E-2,-8.343889E-3,-3.36659E-2,-1.2236125E-2,-0E0,-4.008635E-2,3.4533648E-3,-2.5427774E-2,6.770485E-3,2.8913276E-2,-3.360694E-2,-1.8403735E-2,-1.3955934E-2,4.298612E-3,2.5676848E-2,-2.3498796E-2,-3.392192E-2,-2.653494E-3,-3.4348156E-2,-4.8134588E-2,-4.1507445E-2,-1.7860124E-2,-2.028598E-2,2.8040474E-2],"split_indices":[64,97,58,45,56,1,56,27,64,64,50,64,63,45,55,75,38,59,38,25,28,48,97,45,8,55,59,84,84,81,25,1,73,27,25,1,30,29,73,1,79,1,32,0,53,84,36,1,30,73,0,90,25,68,55,90,0,0,98,60,0,20,83,0,0,0,0,0,0,0,0,0,0,0,0,0,0,0,0,0,0,0,0,0,0,0,0,0,0,0,0,0,0,0,0,0,0,0,0,0,0,0,0,0,0,0,0,0,0,0,0,0,0,0,0,0,0],"split_type":[0,0,0,0,0,0,0,0,0,0,0,0,0,0,0,0,0,0,0,0,0,0,0,0,0,0,0,0,0,0,0,0,0,0,0,0,0,0,0,0,0,0,0,0,0,0,0,0,0,0,0,0,0,0,0,0,0,0,0,0,0,0,0,0,0,0,0,0,0,0,0,0,0,0,0,0,0,0,0,0,0,0,0,0,0,0,0,0,0,0,0,0,0,0,0,0,0,0,0,0,0,0,0,0,0,0,0,0,0,0,0,0,0,0,0,0,0],"sum_hessian":[3.4271218E3,8.953328E2,2.531789E3,3.2264822E2,5.726846E2,2.2801133E3,2.5167567E2,1.9395317E2,1.2869507E2,5.172691E2,5.541548E1,4.2671265E2,1.8534006E3,6.1827454E1,1.8984822E2,1.2989073E2,6.406244E1,8.1303375E1,4.7391693E1,2.855075E2,2.317616E2,1.8349749E1,3.706573E1,3.784774E2,4.823526E1,1.5934236E3,2.599771E2,1.0797436E1,5.1030018E1,1.2264181E2,6.720642E1,1.0630491E2,2.3585821E1,4.3296295E1,2.0766138E1,3.1622025E1,4.968135E1,1.2961563E1,3.443013E1,1.2538217E2,1.6012532E2,5.229982E1,1.7946178E2,2.376637E0,1.5973111E1,2.5746733E1,1.1318999E1,3.0644366E2,7.2033714E1,4.4782238E1,3.4530213E0,1.2519968E3,3.4142667E2,1.1650758E2,1.4346954E2,8.0421915E0,2.7552445E0,3.291444E0,4.7738575E1,1.2057142E2,2.0703888E0,4.4390594E1,2.2815825E1,9.4962105E1,1.1342808E1,6.7950583E0,1.6790762E1,1.1538975E1,3.1757322E1,1.2261586E1,8.504552E0,1.7533913E1,1.4088112E1,1.8215908E1,3.146544E1,4.1294837E0,8.83208E0,3.2263714E1,2.166414E0,4.993847E1,7.54437E1,1.5505415E2,5.071177E0,1.2952958E1,3.934686E1,1.7012918E2,9.332601E0,1.2185724E1,3.7873867E0,9.911124E0,1.58356085E1,4.621994E0,6.697005E0,8.7949844E1,2.1849382E2,4.9495255E1,2.253846E1,2.2847328E0,4.2497505E1,1.1384951E3,1.1350181E2,1.7852084E2,1.6290582E2,6.5123116E1,5.1384468E1,1.0642478E2,3.7044758E1,2.796721E0,5.2454705E0,3.6075253E1,1.166332E1,4.4207863E1,7.6363556E1,2.8451754E1,1.5938839E1,1.7189037E1,5.626788E0],"tree_param":{"num_deleted":"0","num_feature":"102","num_nodes":"117","size_leaf_vector":"1"}},{"base_weights":[4.3962346E-3,5.537086E-1,-1.4316165E-1,5.932372E-2,8.3498776E-1,-6.0408805E-2,-1.1307424E0,3.5607913E-1,-8.505375E-2,9.3144464E-1,3.0516735E-1,9.129237E-2,-4.6232927E-1,-1.2977074E0,-7.024092E-1,1.23545825E-1,8.007665E-1,3.4881808E-2,-1.2662248E-1,9.6483743E-1,-1.3877225E-2,7.344862E-1,-1.1815099E-2,-1.6680335E-1,3.4151047E-1,-7.4232566E-1,-2.7789974E-1,-8.770943E-1,-1.5065352E0,-9.660513E-1,2.0733926E-1,5.4187125E-1,-2.4337377E-1,-0E0,1.0396175E0,2.5976416E-1,-2.5527358E-1,1.0033237E0,5.852099E-2,4.4815654E-1,-2.9607968E-2,-1.7869629E-1,9.074374E-1,4.3028873E-1,-4.1369492E-1,-2.831535E-1,2.681342E-1,2.6000014E-1,7.5445294E-1,-8.661782E-1,-4.9477562E-1,-5.141393E-1,1.2753844E-1,-4.1832607E-2,-1.0886962E0,-2.053884E-3,-1.5495304E0,-1.1349328E0,-2.3454899E-1,7.268508E-1,-6.530449E-1,-7.73277E-3,2.4869403E-2,-2.031348E-2,7.4581127E-3,2.239484E-2,-1.7011661E-2,6.2872116E-3,4.041739E-2,1.0363392E-4,2.582718E-2,6.630552E-3,-1.2270038E-2,3.7110943E-2,2.5524467E-2,-1.0590951E-2,3.919354E-2,-8.8366885E-3,2.6102506E-2,-2.5594698E-2,1.6524244E-2,-0E0,3.1537507E-2,-1.9313524E-2,1.8675594E-2,1.1406498E-2,-1.9826088E-2,-5.7737804E-3,-3.667233E-2,2.4193684E-2,-6.4710155E-4,9.127483E-3,-2.4422627E-2,3.4870557E-2,1.3173459E-2,6.547596E-3,-2.7453326E-2,-5.409494E-3,-2.3010021E-2,-2.0906225E-2,-5.4429867E-3,6.743792E-3,-1.8475961E-2,1.4829875E-2,-2.97749E-2,-3.511548E-2,2.1422529E-3,-1.9010158E-2,-4.770532E-2,-3.623309E-2,1.1293882E-3,1.8591475E-2,-2.6340507E-2,-1.2394479E-2,3.4055665E-2,-2.9753864E-2,-5.0970097E-4],"categories":[],"categories_nodes":[],"categories_segments":[],"categories_sizes":[],"default_left":[0,0,0,0,0,0,0,0,0,0,0,0,0,0,0,0,0,0,0,0,0,0,0,0,0,0,0,0,0,0,0,0,0,0,0,0,0,0,0,0,0,0,0,0,0,0,0,0,0,0,0,0,0,0,0,0,0,0,0,0,0,0,0,0,0,0,0,0,0,0,0,0,0,0,0,0,0,0,0,0,0,0,0,0,0,0,0,0,0,0,0,0,0,0,0,0,0,0,0,0,0,0,0,0,0,0,0,0,0,0,0,0,0,0,0,0,0],"id":6,"left_children":[1,3,5,7,9,11,13,15,17,19,21,23,25,27,29,31,33,-1,35,37,39,41,43,45,47,49,51,53,55,57,59,61,63,65,67,69,71,73,75,77,-1,79,81,83,85,87,89,91,93,95,97,99,101,103,105,-1,107,109,111,113,115,-1,-1,-1,-1,-1,-1,-1,-1,-1,-1,-1,-1,-1,-1,-1,-1,-1,-1,-1,-1,-1,-1,-1,-1,-1,-1,-1,-1,-1,-1,-1,-1,-1,-1,-1,-1,-1,-1,-1,-1,-1,-1,-1,-1,-1,-1,-1,-1,-1,-1,-1,-1,-1,-1,-1,-1],"loss_changes":[2.749638E2,9.965802E1,2.1812625E2,1.1318086E1,2.2792877E1,1.5058725E2,1.3267426E1,8.635854E0,9.1398535E0,1.2395752E1,1.0030611E1,1.1584258E2,3.4495956E1,1.0828552E1,1.4985064E1,9.194318E0,5.7083664E0,0E0,8.645416E0,1.2734436E1,7.0017586E0,5.2536926E0,7.7896643E0,4.475889E1,3.0217186E1,7.418106E0,3.9460285E1,8.888748E0,5.489792E0,5.2814407E0,7.060136E0,6.7881155E0,7.058217E0,3.7799017E0,5.117491E0,6.4881616E0,9.685299E0,1.1068939E1,9.314896E0,3.6449428E0,0E0,3.4644375E0,3.47229E0,4.743226E0,4.9093137E0,5.8832973E1,2.9268116E1,3.6452194E1,1.8245796E1,9.730331E0,7.5693035E0,1.5469574E1,1.1057681E1,6.7669535E0,4.2265244E0,0E0,1.8119049E0,3.5426178E0,6.5612307E0,5.244133E0,1.0582294E0,0E0,0E0,0E0,0E0,0E0,0E0,0E0,0E0,0E0,0E0,0E0,0E0,0E0,0E0,0E0,0E0,0E0,0E0,0E0,0E0,0E0,0E0,0E0,0E0,0E0,0E0,0E0,0E0,0E0,0E0,0E0,0E0,0E0,0E0,0E0,0E0,0E0,0E0,0E0,0E0,0E0,0E0,0E0,0E0,0E0,0E0,0E0,0E0,0E0,0E0,0E0,0E0,0E0,0E0,0E0,0E0],"parents":[2147483647,0,0,1,1,2,2,3,3,4,4,5,5,6,6,7,7,8,8,9,9,10,10,11,11,12,12,13,13,14,14,15,15,16,16,18,18,19,19,20,20,21,21,22,22,23,23,24,24,25,25,26,26,27,27,28,28,29,29,30,30,31,31,32,32,33,33,34,34,35,35,36,36,37,37,38,38,39,39,41,41,42,42,43,43,44,44,45,45,46,46,47,47,48,48,49,49,50,50,51,51,52,52,53,53,54,54,56,56,57,57,58,58,59,59,60,60],"right_children":[2,4,6,8,10,12,14,16,18,20,22,24,26,28,30,32,34,-1,36,38,40,42,44,46,48,50,52,54,56,58,60,62,64,66,68,70,72,74,76,78,-1,80,82,84,86,88,90,92,94,96,98,100,102,104,106,-1,108,110,112,114,116,-1,-1,-1,-1,-1,-1,-1,-1,-1,-1,-1,-1,-1,-1,-1,-1,-1,-1,-1,-1,-1,-1,-1,-1,-1,-1,-1,-1,-1,-1,-1,-1,-1,-1,-1,-1,-1,-1,-1,-1,-1,-1,-1,-1,-1,-1,-1,-1,-1,-1,-1,-1,-1,-1,-1,-1],"split_conditions":[1.609438E0,9.247454E-2,4E0,-3.3926807E-2,3E1,1.822E3,7.7E-1,1.5904542E-2,-8.696024E-2,8E0,1.0986123E0,1E0,4E0,1E0,5E0,-2.022884E-2,-2.7200997E-2,3.4881808E-2,1.234E3,5.6447677E-2,3.15307E-4,-3.5835132E-2,1E0,1E0,1E0,1.5E0,5.55E1,-1.6985727E-2,-8.512645E-2,1.5E0,1.2E1,-6.776049E-2,1E0,4.2460887E-3,4.7957907E0,3.835155E-1,-1.3542807E-1,1.0986123E0,3.9410163E-2,2.7123287E-1,-2.9607968E-2,-4.519462E-2,-9.765088E-2,-1.3115978E-1,-4.5406207E-4,8E0,5.398638E-1,9E0,4E0,-9.112849E-2,3.637586E0,2.99E-1,3.213236E-2,3.3672957E0,5.9352197E-2,-2.053884E-3,1.7917595E0,2.6035385E-2,-5.1304237E-3,3.85E1,4.9698133E0,-7.73277E-3,2.4869403E-2,-2.031348E-2,7.4581127E-3,2.239484E-2,-1.7011661E-2,6.2872116E-3,4.041739E-2,1.0363392E-4,2.582718E-2,6.630552E-3,-1.2270038E-2,3.7110943E-2,2.5524467E-2,-1.0590951E-2,3.919354E-2,-8.8366885E-3,2.6102506E-2,-2.5594698E-2,1.6524244E-2,-0E0,3.1537507E-2,-1.9313524E-2,1.8675594E-2,1.1406498E-2,-1.9826088E-2,-5.7737804E-3,-3.667233E-2,2.4193684E-2,-6.4710155E-4,9.127483E-3,-2.4422627E-2,3.4870557E-2,1.3173459E-2,6.547596E-3,-2.7453326E-2,-5.409494E-3,-2.3010021E-2,-2.0906225E-2,-5.4429867E-3,6.743792E-3,-1.8475961E-2,1.4829875E-2,-2.97749E-2,-3.511548E-2,2.1422529E-3,-1.9010158E-2,-4.770532E-2,-3.623309E-2,1.1293882E-3,1.8591475E-2,-2.6340507E-2,-1.2394479E-2,3.4055665E-2,-2.9753864E-2,-5.0970097E-4],"split_indices":[64,97,56,45,95,63,53,39,37,58,64,6,59,60,59,44,86,0,25,42,42,32,60,55,55,22,94,86,81,2,89,44,7,31,65,26,27,64,37,92,0,43,41,27,87,91,97,91,91,44,64,53,42,64,43,0,64,31,36,94,65,0,0,0,0,0,0,0,0,0,0,0,0,0,0,0,0,0,0,0,0,0,0,0,0,0,0,0,0,0,0,0,0,0,0,0,0,0,0,0,0,0,0,0,0,0,0,0,0,0,0,0,0,0,0,0,0],"split_type":[0,0,0,0,0,0,0,0,0,0,0,0,0,0,0,0,0,0,0,0,0,0,0,0,0,0,0,0,0,0,0,0,0,0,0,0,0,0,0,0,0,0,0,0,0,0,0,0,0,0,0,0,0,0,0,0,0,0,0,0,0,0,0,0,0,0,0,0,0,0,0,0,0,0,0,0,0,0,0,0,0,0,0,0,0,0,0,0,0,0,0,0,0,0,0,0,0,0,0,0,0,0,0,0,0,0,0,0,0,0,0,0,0,0,0,0,0],"sum_hessian":[3.388909E3,7.171677E2,2.6717412E3,2.6085138E2,4.563163E2,2.4665374E3,2.0520387E2,8.525101E1,1.7560039E2,3.8494733E2,7.1369E1,1.7909788E3,6.755586E2,1.4556133E2,5.9642548E1,5.728107E1,2.7969933E1,4.46279E0,1.7113759E2,3.719937E2,1.2953615E1,2.990979E1,4.145921E1,8.814149E2,9.095638E2,2.6640088E2,4.0915768E2,5.068045E1,9.488087E1,4.635469E1,1.3287858E1,2.6752932E1,3.0528141E1,6.58221E0,2.1387722E1,4.2054592E1,1.29083E2,3.5650574E2,1.548795E1,9.0826845E0,3.8709304E0,4.5722175E0,2.5337572E1,1.9464275E1,2.1994936E1,6.9608405E2,1.8533087E2,7.616603E2,1.4790349E2,1.7502623E2,9.137465E1,2.5863092E2,1.5052676E2,1.0725562E1,3.995489E1,2.9797263E0,9.190114E1,3.6900314E1,9.454374E0,8.546227E0,4.7416306E0,6.9163094E0,1.9836622E1,1.620036E1,1.4327782E1,2.5829728E0,3.999237E0,6.5046163E0,1.4883106E1,3.0563E1,1.1491592E1,3.1051224E1,9.803178E1,1.3688872E2,2.1961703E2,1.2173528E1,3.3144233E0,3.249996E0,5.832689E0,2.412504E0,2.1597135E0,3.6221411E0,2.1715431E1,2.3689213E0,1.7095354E1,4.8765807E0,1.7118355E1,6.3630194E2,5.9782124E1,6.433498E1,1.209959E2,7.325285E2,2.913176E1,6.2805344E1,8.509815E1,7.200968E0,1.6782526E2,4.366493E1,4.7709724E1,1.6570493E2,9.2926E1,1.3409073E2,1.6436035E1,7.091623E0,3.6339388E0,3.7473587E1,2.4813046E0,4.9604278E0,8.694071E1,3.486892E1,2.0313962E0,3.9473593E0,5.5070148E0,2.1209683E0,6.425259E0,2.4507952E0,2.2908354E0],"tree_param":{"num_deleted":"0","num_feature":"102","num_nodes":"117","size_leaf_vector":"1"}},{"base_weights":[-1.2143022E-2,5.1208377E-1,-1.5325388E-1,1.08158566E-1,7.826902E-1,-6.8453304E-2,-1.1373888E0,-1.6210692E-1,2.6957133E-1,9.0378404E-1,1.3215385E-1,-2.9466337E-1,1.8861902E-1,-1.3043376E0,-7.968928E-1,-3.5785906E-2,-8.0269314E-2,6.2904395E-2,5.261668E-1,1.1840346E0,7.3042226E-1,2.2802679E-1,-3.47148E-2,-4.105009E-1,1.6672224E-1,2.735779E-1,-3.188888E-1,-9.3230444E-1,-1.5058454E0,-1.1548864E0,-4.3509734E-1,-8.9018875E-1,1.6659588E-2,-2.0415193E-1,4.1533354E-1,7.8660876E-1,1.3177799E-1,6.65245E-1,1.339078E0,5.610218E-1,9.974435E-1,6.2009466E-1,-3.8957175E-2,-3.2356155E-1,-1.1425557E0,-2.693268E-1,5.289183E-1,5.5512764E-2,5.068394E-1,-5.547807E-1,8.092623E-2,-1.561283E-1,-1.1065501E0,-2.0411413E-3,-1.5367448E0,-5.158237E-3,-1.2244631E0,-2.730681E-2,-1.0757655E0,-1.4197822E-3,-3.2327104E-2,3.30219E-2,-1.3639185E-3,7.526335E-3,-1.570829E-2,2.7772615E-2,4.496158E-3,4.1508223E-3,2.9507084E-2,9.5662745E-3,-1.8239677E-2,2.5119722E-2,-1.2440617E-2,4.173778E-2,5.9428154E-3,1.8911066E-2,-1.4208991E-2,-1.18652275E-2,3.1549063E-2,-1.503619E-2,2.503854E-2,3.2265194E-2,-7.6000523E-3,-6.752809E-3,-2.5320902E-2,-3.771743E-2,-1.4530701E-2,-3.7225012E-3,-3.2346793E-2,-2.5948342E-2,1.8450435E-2,2.6733383E-5,1.8219039E-2,1.178153E-2,3.3671107E-2,-2.2121156E-2,1.3636877E-2,-6.309129E-3,1.9573074E-2,-2.0161463E-2,1.565382E-2,-1.4677401E-2,-3.9729986E-2,-4.67756E-2,-1.676935E-2,-5.554059E-3,-3.9155006E-2,8.019633E-3,-2.6295636E-2,-1.5546114E-3,-4.2445496E-2],"categories":[],"categories_nodes":[],"categories_segments":[],"categories_sizes":[],"default_left":[0,0,0,0,0,0,0,0,0,0,0,0,0,0,0,0,0,0,0,0,0,0,0,0,0,0,0,0,0,0,0,0,0,0,0,0,0,0,0,0,0,0,0,0,0,0,0,0,0,0,0,0,0,0,0,0,0,0,0,0,0,0,0,0,0,0,0,0,0,0,0,0,0,0,0,0,0,0,0,0,0,0,0,0,0,0,0,0,0,0,0,0,0,0,0,0,0,0,0,0,0,0,0,0,0,0,0,0,0,0,0],"id":7,"left_children":[1,3,5,7,9,11,13,15,17,19,21,23,25,27,29,-1,31,33,35,37,39,41,-1,43,45,47,49,51,53,55,57,59,61,63,65,67,69,71,73,75,77,79,81,83,85,87,89,91,93,95,97,99,101,-1,103,-1,105,107,109,-1,-1,-1,-1,-1,-1,-1,-1,-1,-1,-1,-1,-1,-1,-1,-1,-1,-1,-1,-1,-1,-1,-1,-1,-1,-1,-1,-1,-1,-1,-1,-1,-1,-1,-1,-1,-1,-1,-1,-1,-1,-1,-1,-1,-1,-1,-1,-1,-1,-1,-1,-1],"loss_changes":[2.5199542E2,7.86821E1,2.2374536E2,1.2790388E1,3.368866E1,1.4392705E2,1.0425995E1,8.849025E0,9.568988E0,1.6255676E1,8.718691E0,7.049783E1,5.0029076E1,8.358612E0,8.595058E0,0E0,8.255804E0,9.874575E0,8.035452E0,9.523499E0,9.345947E0,7.0343165E0,0E0,6.628583E1,4.2032116E1,5.0363876E1,1.5831421E1,6.688286E0,3.4996033E0,1.925087E0,9.866558E0,1.486021E0,6.5134516E0,8.8320465E0,5.7547207E0,5.788883E0,4.8881755E0,6.8435326E0,5.528183E0,1.0643917E1,7.1701965E0,7.0719795E0,9.71391E0,4.789718E1,7.305649E0,1.3775081E1,1.8020878E1,1.5399846E1,3.2829086E1,1.9818901E1,1.0644945E1,4.402167E0,4.6077843E0,0E0,4.3429565E-1,0E0,2.1938286E0,6.682425E0,4.7738037E0,0E0,0E0,0E0,0E0,0E0,0E0,0E0,0E0,0E0,0E0,0E0,0E0,0E0,0E0,0E0,0E0,0E0,0E0,0E0,0E0,0E0,0E0,0E0,0E0,0E0,0E0,0E0,0E0,0E0,0E0,0E0,0E0,0E0,0E0,0E0,0E0,0E0,0E0,0E0,0E0,0E0,0E0,0E0,0E0,0E0,0E0,0E0,0E0,0E0,0E0,0E0,0E0],"parents":[2147483647,0,0,1,1,2,2,3,3,4,4,5,5,6,6,7,7,8,8,9,9,10,10,11,11,12,12,13,13,14,14,16,16,17,17,18,18,19,19,20,20,21,21,23,23,24,24,25,25,26,26,27,27,28,28,29,29,30,30,31,31,32,32,33,33,34,34,35,35,36,36,37,37,38,38,39,39,40,40,41,41,42,42,43,43,44,44,45,45,46,46,47,47,48,48,49,49,50,50,51,51,52,52,54,54,56,56,57,57,58,58],"right_children":[2,4,6,8,10,12,14,16,18,20,22,24,26,28,30,-1,32,34,36,38,40,42,-1,44,46,48,50,52,54,56,58,60,62,64,66,68,70,72,74,76,78,80,82,84,86,88,90,92,94,96,98,100,102,-1,104,-1,106,108,110,-1,-1,-1,-1,-1,-1,-1,-1,-1,-1,-1,-1,-1,-1,-1,-1,-1,-1,-1,-1,-1,-1,-1,-1,-1,-1,-1,-1,-1,-1,-1,-1,-1,-1,-1,-1,-1,-1,-1,-1,-1,-1,-1,-1,-1,-1,-1,-1,-1,-1,-1,-1],"split_conditions":[4E0,1.075137E-1,4E0,4E0,3.2E1,1E0,1E0,1E0,4.3873442E-3,2E0,4E0,1E0,4.9E1,1E0,1E0,-3.5785906E-2,-8.2132496E-2,1.9136373E-2,5.0413325E-2,2.1443984E-1,8.99465E-3,2E0,-3.47148E-2,6.6E1,3E0,5.4E1,7.7E-1,-1.6985727E-2,-7.045791E-2,-7.449879E-2,1.4E1,-1.1658722E-2,1E0,2E0,-4.357202E-2,1.1E1,2E0,3.8E-1,4E0,7.7971205E-2,-1.0845903E-1,-3.5835132E-2,-4.32867E-2,1E0,4.46E2,1E0,2.15E1,1E0,1E0,1E0,6.83E2,6E-1,9E0,-2.0411413E-3,7.1835205E-2,-5.158237E-3,3E-1,1.8E1,2.9E1,-1.4197822E-3,-3.2327104E-2,3.30219E-2,-1.3639185E-3,7.526335E-3,-1.570829E-2,2.7772615E-2,4.496158E-3,4.1508223E-3,2.9507084E-2,9.5662745E-3,-1.8239677E-2,2.5119722E-2,-1.2440617E-2,4.173778E-2,5.9428154E-3,1.8911066E-2,-1.4208991E-2,-1.18652275E-2,3.1549063E-2,-1.503619E-2,2.503854E-2,3.2265194E-2,-7.6000523E-3,-6.752809E-3,-2.5320902E-2,-3.771743E-2,-1.4530701E-2,-3.7225012E-3,-3.2346793E-2,-2.5948342E-2,1.8450435E-2,2.6733383E-5,1.8219039E-2,1.178153E-2,3.3671107E-2,-2.2121156E-2,1.3636877E-2,-6.309129E-3,1.9573074E-2,-2.0161463E-2,1.565382E-2,-1.4677401E-2,-3.9729986E-2,-4.67756E-2,-1.676935E-2,-5.554059E-3,-3.9155006E-2,8.019633E-3,-2.6295636E-2,-1.5546114E-3,-4.2445496E-2],"split_indices":[90,97,56,59,95,6,55,9,36,90,24,55,90,60,5,0,41,97,36,97,32,90,0,90,59,94,53,86,44,73,58,83,24,90,38,1,20,53,56,75,75,32,83,60,50,62,94,55,55,55,47,53,90,0,34,0,99,91,1,0,0,0,0,0,0,0,0,0,0,0,0,0,0,0,0,0,0,0,0,0,0,0,0,0,0,0,0,0,0,0,0,0,0,0,0,0,0,0,0,0,0,0,0,0,0,0,0,0,0,0,0],"split_type":[0,0,0,0,0,0,0,0,0,0,0,0,0,0,0,0,0,0,0,0,0,0,0,0,0,0,0,0,0,0,0,0,0,0,0,0,0,0,0,0,0,0,0,0,0,0,0,0,0,0,0,0,0,0,0,0,0,0,0,0,0,0,0,0,0,0,0,0,0,0,0,0,0,0,0,0,0,0,0,0,0,0,0,0,0,0,0,0,0,0,0,0,0,0,0,0,0,0,0,0,0,0,0,0,0,0,0,0,0,0,0],"sum_hessian":[3.4050334E3,7.2120074E2,2.6838325E3,2.9029938E2,4.309014E2,2.472288E3,2.1154451E2,1.0808327E2,1.8221611E2,3.6262595E2,6.827544E1,1.3154043E3,1.1568838E3,1.3927318E2,7.227133E1,6.572067E0,1.015112E2,1.0218664E2,8.002947E1,1.3547398E2,2.2715196E2,6.461368E1,3.6617608E0,1.0518804E3,2.6352402E2,9.917996E2,1.6508412E2,5.165317E1,8.762E1,3.4726467E1,3.754486E1,1.0020923E1,9.149028E1,5.809899E1,4.4087643E1,4.7175648E1,3.2853825E1,3.292906E1,1.0254493E2,1.4171625E2,8.5435715E1,2.5835728E1,3.877795E1,9.420101E2,1.0987024E2,1.1946056E2,1.4406346E2,5.138079E2,4.7799173E2,1.038484E2,6.1235714E1,1.0097399E1,4.155577E1,2.0604036E0,8.55596E1,2.7609634E0,3.1965504E1,2.3897333E1,1.3647529E1,2.2901216E0,7.730801E0,4.045888E0,8.744439E1,2.3812483E1,3.428651E1,1.3805226E1,3.0282417E1,1.1706145E1,3.5469505E1,2.6982626E1,5.8711987E0,2.8795494E1,4.1335664E0,9.7640945E1,4.903978E0,1.3343504E2,8.281209E0,2.7781298E0,8.2657585E1,3.7417707E0,2.2093956E1,5.3277845E0,3.3450165E1,7.9391235E2,1.4809773E2,9.237734E1,1.74929E1,1.026588E2,1.680176E1,7.614191E0,1.3644926E2,4.6895078E2,4.4857132E1,4.0516345E2,7.282828E1,8.8381584E1,1.5466815E1,4.0835293E1,2.0400423E1,5.9072266E0,4.190172E0,1.2092849E1,2.9462921E1,8.274236E1,2.8172421E0,2.7666602E0,2.9198843E1,1.8177534E1,5.7198E0,3.8860128E0,9.761516E0],"tree_param":{"num_deleted":"0","num_feature":"102","num_nodes":"111","size_leaf_vector":"1"}},{"base_weights":[-7.153232E-4,1.2164135E-1,-4.8291087E-1,5.955405E-1,-4.671995E-3,1.6798408E-1,-6.447472E-1,3.3710536E-1,9.850271E-1,-2.054978E-1,2.0487715E-1,3.0251944E-1,-3.3477536E-1,-4.32479E-1,-1.2295407E0,-2.4852242E-2,6.7856187E-1,1.8564686E-1,1.0351117E0,-6.3768107E-1,-1.21170685E-1,2.7718377E-1,-3.301859E-1,7.927846E-1,1.0977578E-1,6.044064E-1,-5.863148E-1,-6.918811E-1,1.3675798E-1,-1.4040056E0,-7.674228E-1,-2.6794255E-1,2.2876072E-1,4.8604614E-1,9.8466575E-1,9.6295446E-1,-3.289122E-1,-4.744853E-3,1.0588608E0,1.0733769E-1,-7.324956E-1,7.5861723E-3,-4.3323454E-1,1.253159E-1,5.0360864E-1,-6.9652176E-1,1.3394727E-1,1.0409467E0,-4.2919436E-1,2.0878108E-1,-7.1114326E-1,-1.53104225E-2,3.919472E-2,-8.163607E-1,1.2268943E-2,-5.4335505E-1,-1.4747859E0,5.3945833E-1,-3.9061627E-1,-3.5460174E-2,-1.4609098E0,3.3019868E-1,-1.0193434E0,2.3208556E-3,-1.5994273E-2,1.30644385E-2,-8.488175E-3,-5.1556323E-3,1.881247E-2,-4.6731425E-3,3.0918505E-2,6.153005E-3,3.7307158E-2,-2.3858259E-2,1.879287E-2,3.905218E-2,2.744057E-2,-2.5024638E-2,1.4424271E-2,-1.7029963E-2,-3.3441093E-2,-2.983063E-3,7.395735E-3,-1.7142637E-2,6.566438E-4,-6.6611897E-3,6.1185495E-3,2.3118619E-2,8.241541E-3,-1.0000277E-2,-3.8370978E-2,-8.4000025E-3,2.5520472E-2,3.7030376E-2,-7.929632E-3,4.993116E-3,-2.9293304E-2,-1.5127399E-2,1.1404906E-2,-3.6626626E-2,9.127042E-4,-0E0,-3.2269485E-2,-2.2457374E-2,-5.647447E-3,-1.3724797E-2,-4.6527404E-2,2.3361955E-2,-6.283922E-3,-2.1759378E-2,4.5868196E-3,-1.0025116E-2,6.184274E-3,-4.4369496E-2,-1.2269428E-2,2.2799226E-2,-9.118273E-3,-4.0004645E-2,-5.681655E-3],"categories":[],"categories_nodes":[],"categories_segments":[],"categories_sizes":[],"default_left":[0,0,0,0,0,0,0,0,0,0,0,0,0,0,0,0,0,0,0,0,0,0,0,0,0,0,0,0,0,0,0,0,0,0,0,0,0,0,0,0,0,0,0,0,0,0,0,0,0,0,0,0,0,0,0,0,0,0,0,0,0,0,0,0,0,0,0,0,0,0,0,0,0,0,0,0,0,0,0,0,0,0,0,0,0,0,0,0,0,0,0,0,0,0,0,0,0,0,0,0,0,0,0,0,0,0,0,0,0,0,0,0,0,0,0,0,0,0,0],"id":8,"left_children":[1,3,5,7,9,11,13,15,17,19,21,23,25,27,29,31,33,35,37,39,41,43,45,47,49,51,53,55,57,59,61,63,65,67,69,71,73,-1,75,77,79,81,83,85,87,89,91,93,95,97,99,-1,-1,101,-1,103,105,107,109,111,113,115,117,-1,-1,-1,-1,-1,-1,-1,-1,-1,-1,-1,-1,-1,-1,-1,-1,-1,-1,-1,-1,-1,-1,-1,-1,-1,-1,-1,-1,-1,-1,-1,-1,-1,-1,-1,-1,-1,-1,-1,-1,-1,-1,-1,-1,-1,-1,-1,-1,-1,-1,-1,-1,-1,-1,-1,-1],"loss_changes":[2.007602E2,1.6250534E2,7.277901E1,5.6835617E1,9.022185E1,9.439629E0,6.7564575E1,4.285461E1,8.610046E0,3.967028E1,4.067166E1,1.0081175E1,7.3572216E0,6.0348923E1,1.0054413E1,1.0475575E1,9.628197E0,6.5370483E0,6.4184265E0,1.2802887E1,3.6985634E1,3.1600243E1,2.1488914E1,9.898865E0,6.6145325E0,6.1442585E0,5.9618807E0,3.1211319E1,2.751445E1,7.7627106E0,1.2434717E1,8.11131E0,8.932374E0,1.062373E1,3.889267E0,7.7918005E-1,5.0027885E0,0E0,5.4534454E0,7.766458E0,8.884506E0,1.6700443E1,1.7023201E1,1.5228795E1,2.2171494E1,1.4044659E1,1.6994978E1,7.1019745E0,2.266239E0,9.115759E0,3.5754657E0,0E0,0E0,4.3404474E0,0E0,1.6958504E1,2.1356964E0,1.3467354E1,1.0434528E1,5.077039E-1,7.975006E-1,2.7631912E0,8.628193E0,0E0,0E0,0E0,0E0,0E0,0E0,0E0,0E0,0E0,0E0,0E0,0E0,0E0,0E0,0E0,0E0,0E0,0E0,0E0,0E0,0E0,0E0,0E0,0E0,0E0,0E0,0E0,0E0,0E0,0E0,0E0,0E0,0E0,0E0,0E0,0E0,0E0,0E0,0E0,0E0,0E0,0E0,0E0,0E0,0E0,0E0,0E0,0E0,0E0,0E0,0E0,0E0,0E0,0E0,0E0,0E0],"parents":[2147483647,0,0,1,1,2,2,3,3,4,4,5,5,6,6,7,7,8,8,9,9,10,10,11,11,12,12,13,13,14,14,15,15,16,16,17,17,18,18,19,19,20,20,21,21,22,22,23,23,24,24,25,25,26,26,27,27,28,28,29,29,30,30,31,31,32,32,33,33,34,34,35,35,36,36,38,38,39,39,40,40,41,41,42,42,43,43,44,44,45,45,46,46,47,47,48,48,49,49,50,50,53,53,55,55,56,56,57,57,58,58,59,59,60,60,61,61,62,62],"right_children":[2,4,6,8,10,12,14,16,18,20,22,24,26,28,30,32,34,36,38,40,42,44,46,48,50,52,54,56,58,60,62,64,66,68,70,72,74,-1,76,78,80,82,84,86,88,90,92,94,96,98,100,-1,-1,102,-1,104,106,108,110,112,114,116,118,-1,-1,-1,-1,-1,-1,-1,-1,-1,-1,-1,-1,-1,-1,-1,-1,-1,-1,-1,-1,-1,-1,-1,-1,-1,-1,-1,-1,-1,-1,-1,-1,-1,-1,-1,-1,-1,-1,-1,-1,-1,-1,-1,-1,-1,-1,-1,-1,-1,-1,-1,-1,-1,-1,-1,-1],"split_conditions":[1E0,1.609438E0,1.609438E0,1E0,1E0,3.1935867E-2,4E0,3.5349686E-2,-6.8092905E-2,1.3888247E-2,3.9702919E0,-2.69772E-2,-3.6499698E-2,1E0,9.44E-1,4.65E1,1E0,-2.874612E-2,1E0,-5.710605E-2,2E0,6.2E1,1E0,5E0,4.235004E-2,6E-1,1.8E1,9E0,1.1E1,-8.512645E-2,-3.6531873E-3,3E-2,1.4962223E-2,-4.333941E-2,-1.307902E-1,-8.2132496E-2,1.2733247E-2,-4.744853E-3,1.0986123E0,-4.0901404E-2,2.5472928E-2,1E0,7.5E1,8.778394E-2,1E0,4.4426513E0,7.09E2,2.82E2,4.913091E-3,3.25E2,-1.2738228E-2,-1.53104225E-2,3.919472E-2,5E0,1.2268943E-2,1E0,5.97E-1,2.5172569E-2,5.37E2,-1.7535217E-2,9.874211E-2,-7.8910515E-3,1E0,2.3208556E-3,-1.5994273E-2,1.30644385E-2,-8.488175E-3,-5.1556323E-3,1.881247E-2,-4.6731425E-3,3.0918505E-2,6.153005E-3,3.7307158E-2,-2.3858259E-2,1.879287E-2,3.905218E-2,2.744057E-2,-2.5024638E-2,1.4424271E-2,-1.7029963E-2,-3.3441093E-2,-2.983063E-3,7.395735E-3,-1.7142637E-2,6.566438E-4,-6.6611897E-3,6.1185495E-3,2.3118619E-2,8.241541E-3,-1.0000277E-2,-3.8370978E-2,-8.4000025E-3,2.5520472E-2,3.7030376E-2,-7.929632E-3,4.993116E-3,-2.9293304E-2,-1.5127399E-2,1.1404906E-2,-3.6626626E-2,9.127042E-4,-0E0,-3.2269485E-2,-2.2457374E-2,-5.647447E-3,-1.3724797E-2,-4.6527404E-2,2.3361955E-2,-6.283922E-3,-2.1759378E-2,4.5868196E-3,-1.0025116E-2,6.184274E-3,-4.4369496E-2,-1.2269428E-2,2.2799226E-2,-9.118273E-3,-4.0004645E-2,-5.681655E-3],"split_indices":[60,64,64,96,6,30,58,97,74,97,64,44,44,55,53,94,6,40,23,86,58,94,55,58,86,2,89,91,91,81,45,99,45,32,79,41,71,0,64,77,45,7,94,97,97,64,47,50,85,47,36,0,0,89,0,6,53,79,47,28,34,86,6,0,0,0,0,0,0,0,0,0,0,0,0,0,0,0,0,0,0,0,0,0,0,0,0,0,0,0,0,0,0,0,0,0,0,0,0,0,0,0,0,0,0,0,0,0,0,0,0,0,0,0,0,0,0,0,0],"split_type":[0,0,0,0,0,0,0,0,0,0,0,0,0,0,0,0,0,0,0,0,0,0,0,0,0,0,0,0,0,0,0,0,0,0,0,0,0,0,0,0,0,0,0,0,0,0,0,0,0,0,0,0,0,0,0,0,0,0,0,0,0,0,0,0,0,0,0,0,0,0,0,0,0,0,0,0,0,0,0,0,0,0,0,0,0,0,0,0,0,0,0,0,0,0,0,0,0,0,0,0,0,0,0,0,0,0,0,0,0,0,0,0,0,0,0,0,0,0,0],"sum_hessian":[3.3991042E3,2.7115369E3,6.8756744E2,5.7003186E2,2.1415051E3,1.3665771E2,5.509097E2,3.4431885E2,2.2571298E2,1.0940127E3,1.0474923E3,1.0849962E2,2.8158096E1,4.0597757E2,1.4493217E2,1.673976E2,1.7692126E2,1.3876522E1,2.1183647E2,1.7693916E2,9.1707355E2,9.236284E2,1.2386391E2,2.9271315E1,7.92283E1,5.4248056E0,2.273329E1,2.789517E2,1.2702589E2,1.0312167E2,4.181051E1,8.583999E1,8.155761E1,1.1091996E2,6.6001305E1,5.265416E0,8.611106E0,3.8369393E0,2.0799953E2,1.9719843E1,1.5721933E2,6.4958575E2,2.6748773E2,5.5447675E2,3.6915167E2,6.913019E1,5.473372E1,2.4614079E1,4.6572356E0,7.171741E1,7.5108957E0,2.1128771E0,3.3119287E0,1.8803724E1,3.9295657E0,2.363934E2,4.2558273E1,7.222613E1,5.4799763E1,4.33469E0,9.878698E1,7.587016E0,3.422349E1,3.7330055E1,4.8509933E1,5.8495663E1,2.3061941E1,1.9284065E1,9.1635895E1,2.2767038E0,6.3724598E1,2.1766884E0,3.088728E0,6.0621777E0,2.5489285E0,7.337295E1,1.3462657E2,5.0282583E0,1.4691586E1,1.122962E2,4.492312E1,4.4854425E2,2.0104152E2,2.0528949E2,6.2198257E1,1.0148001E2,4.5299673E2,1.6867278E2,2.004789E2,4.395532E1,2.5174868E1,3.4982113E1,1.9751606E1,2.1627934E1,2.9861457E0,2.4548867E0,2.2023487E0,1.3219736E1,5.8497673E1,4.1513624E0,3.3595335E0,4.730179E0,1.4073545E1,1.486135E2,8.777991E1,3.731598E0,3.8826675E1,5.4904083E1,1.7322042E1,3.3894157E1,2.0905607E1,2.1028388E0,2.231851E0,9.645251E1,2.334471E0,4.5682516E0,3.018764E0,2.4123524E1,1.0099969E1],"tree_param":{"num_deleted":"0","num_feature":"102","num_nodes":"119","size_leaf_vector":"1"}},{"base_weights":[3.09911E-3,5.0844747E-1,-1.303422E-1,7.2043854E-1,-5.9899356E-2,-3.8168351E-3,-6.2153864E-1,8.4127754E-1,2.555842E-1,2.182821E-1,-2.5763866E-1,1.6001552E-1,-4.1389468E-1,-4.524698E-1,-9.892025E-1,1.0009716E0,6.392931E-1,4.1729546E-1,-2.3825714E-1,-5.9615964E-1,3.8057047E-1,-3.9506475E-3,-6.313493E-1,-2.824188E-2,3.2601643E-1,-1.6375539E-1,-5.9542435E-1,-7.542806E-1,-2.087455E-1,-3.4062386E-1,-1.183088E0,1.2864803E0,8.1251204E-1,4.4666877E-1,9.064215E-1,-3.297142E-2,6.006309E-1,3.503678E-2,-4.3116313E-1,-9.262172E-1,1.2091787E-2,-5.929316E-2,5.911229E-1,-3.5524604E-1,3.6759904E-1,1.5404685E-1,-7.8833157E-1,-1.17001824E-1,3.5940897E-1,1.906413E-1,5.8938307E-1,-6.0558623E-1,-1.0229754E-2,-7.29824E-1,-3.043843E-1,-3.0888996E-1,-8.96632E-1,-5.878168E-1,4.81607E-1,-8.729157E-2,-1.1165327E0,-1.4266564E0,-8.053073E-1,4.070566E-2,1.4351419E-2,4.1955533E-3,2.684853E-2,7.320385E-3,2.2857526E-2,3.0126207E-2,-7.7105337E-3,-1.36869205E-2,2.0580769E-2,2.3852842E-2,-5.344997E-3,1.8423028E-2,-2.310179E-2,-3.408259E-2,-1.2336291E-3,3.1576883E-2,-1.1282136E-2,2.0678585E-2,-1.2443903E-2,-2.0856466E-2,6.2614046E-3,1.5094791E-2,-2.9076204E-2,2.7278505E-2,-1.2897725E-2,-2.653737E-2,8.9231245E-3,5.939177E-6,-1.9223941E-2,2.7910885E-3,3.0575948E-2,7.5620357E-3,-9.826196E-3,1.9263092E-2,-1.1171037E-2,-2.0660345E-2,2.2863114E-2,2.1542443E-3,-2.7794737E-2,-2.3401598E-2,4.755542E-3,-3.4845527E-3,-2.5195114E-2,-1.2516288E-2,2.2552261E-2,-0E0,-2.8154217E-2,-7.361621E-3,-3.1165259E-2,1.9331152E-2,-8.596254E-3,-1.5360467E-2,1.6208181E-2,-4.0239334E-2,-3.2653462E-3,-9.096083E-3,-4.42503E-2,1.9671278E-2,-2.8365718E-2],"categories":[],"categories_nodes":[],"categories_segments":[],"categories_sizes":[],"default_left":[0,0,0,0,0,0,0,0,0,0,0,0,0,0,0,0,0,0,0,0,0,0,0,0,0,0,0,0,0,0,0,0,0,0,0,0,0,0,0,0,0,0,0,0,0,0,0,0,0,0,0,0,0,0,0,0,0,0,0,0,0,0,0,0,0,0,0,0,0,0,0,0,0,0,0,0,0,0,0,0,0,0,0,0,0,0,0,0,0,0,0,0,0,0,0,0,0,0,0,0,0,0,0,0,0,0,0,0,0,0,0,0,0,0,0,0,0,0,0,0,0,0,0],"id":9,"left_children":[1,3,5,7,9,11,13,15,17,19,21,23,25,27,29,31,33,35,37,39,41,43,45,47,49,51,53,55,57,59,61,63,65,67,69,71,73,-1,75,77,-1,79,81,83,85,87,89,91,93,95,97,99,101,103,105,107,109,111,113,115,117,119,121,-1,-1,-1,-1,-1,-1,-1,-1,-1,-1,-1,-1,-1,-1,-1,-1,-1,-1,-1,-1,-1,-1,-1,-1,-1,-1,-1,-1,-1,-1,-1,-1,-1,-1,-1,-1,-1,-1,-1,-1,-1,-1,-1,-1,-1,-1,-1,-1,-1,-1,-1,-1,-1,-1,-1,-1,-1,-1,-1,-1],"loss_changes":[2.2854547E2,8.5494354E1,1.6643042E2,2.8510681E1,1.0703216E1,1.4340634E2,3.3275833E1,1.2087524E1,8.822793E0,1.0869822E1,1.0668614E1,4.7707104E1,2.740567E1,2.7451385E1,2.0768082E1,1.0463669E1,8.728722E0,6.94798E0,7.843843E0,5.050778E0,6.452297E0,9.209018E0,5.9108105E0,2.4597364E1,2.8613495E1,1.7398487E1,1.3305061E1,1.0091949E1,5.567199E1,7.7748656E0,1.0251862E1,3.8140259E0,7.382141E0,6.597273E0,9.06358E0,7.844781E0,9.23019E0,0E0,9.436401E0,1.7084827E0,0E0,8.376241E0,4.984518E0,7.278201E0,6.6583943E0,4.2738247E0,4.4586754E0,3.591587E1,2.3047728E1,1.7200356E1,1.4241959E1,8.147682E0,1.4783457E1,1.0965721E1,1.1162315E1,5.2396865E0,4.9276657E0,2.0621937E1,9.719137E0,9.038615E0,1.7743578E0,3.3406525E0,1.1972214E1,0E0,0E0,0E0,0E0,0E0,0E0,0E0,0E0,0E0,0E0,0E0,0E0,0E0,0E0,0E0,0E0,0E0,0E0,0E0,0E0,0E0,0E0,0E0,0E0,0E0,0E0,0E0,0E0,0E0,0E0,0E0,0E0,0E0,0E0,0E0,0E0,0E0,0E0,0E0,0E0,0E0,0E0,0E0,0E0,0E0,0E0,0E0,0E0,0E0,0E0,0E0,0E0,0E0,0E0,0E0,0E0,0E0,0E0,0E0,0E0],"parents":[2147483647,0,0,1,1,2,2,3,3,4,4,5,5,6,6,7,7,8,8,9,9,10,10,11,11,12,12,13,13,14,14,15,15,16,16,17,17,18,18,19,19,20,20,21,21,22,22,23,23,24,24,25,25,26,26,27,27,28,28,29,29,30,30,31,31,32,32,33,33,34,34,35,35,36,36,38,38,39,39,41,41,42,42,43,43,44,44,45,45,46,46,47,47,48,48,49,49,50,50,51,51,52,52,53,53,54,54,55,55,56,56,57,57,58,58,59,59,60,60,61,61,62,62],"right_children":[2,4,6,8,10,12,14,16,18,20,22,24,26,28,30,32,34,36,38,40,42,44,46,48,50,52,54,56,58,60,62,64,66,68,70,72,74,-1,76,78,-1,80,82,84,86,88,90,92,94,96,98,100,102,104,106,108,110,112,114,116,118,120,122,-1,-1,-1,-1,-1,-1,-1,-1,-1,-1,-1,-1,-1,-1,-1,-1,-1,-1,-1,-1,-1,-1,-1,-1,-1,-1,-1,-1,-1,-1,-1,-1,-1,-1,-1,-1,-1,-1,-1,-1,-1,-1,-1,-1,-1,-1,-1,-1,-1,-1,-1,-1,-1,-1,-1,-1,-1,-1,-1,-1],"split_conditions":[1.609438E0,1.234E3,1E0,1E0,2E0,1.822E3,1.0153396E1,3.4E2,2E0,3E0,2.2442685E-2,1E0,-1.0736471E-2,1E0,2E0,1.0986123E0,1E0,2.0939326E0,-1.6985727E-2,5.5E1,-2.874862E-2,-3.9112205E-3,-1.6578788E-1,1E0,7E1,3.8E1,9.94E2,1E0,1E0,1.45E3,9.19E-1,7.72969E-2,-1.7071817E-2,1.5729505E-3,5.4584913E-2,1.0945115E-2,5.1779468E-2,3.503678E-2,-1.414E3,1.7431933E-2,1.2091787E-2,-2.850566E-2,5.3309135E-2,2.9524462E-2,6.5520495E-2,1.542E3,1E0,3E1,5E0,3E0,9.3333334E-1,2.153984E-1,3E0,9.67E-1,9.01602E-3,9.301893E-2,-1.6375591E-1,5.3062826E-1,4.6976525E-2,1E0,2.0960845E-2,-7.3200546E-2,9.9E-1,4.070566E-2,1.4351419E-2,4.1955533E-3,2.684853E-2,7.320385E-3,2.2857526E-2,3.0126207E-2,-7.7105337E-3,-1.36869205E-2,2.0580769E-2,2.3852842E-2,-5.344997E-3,1.8423028E-2,-2.310179E-2,-3.408259E-2,-1.2336291E-3,3.1576883E-2,-1.1282136E-2,2.0678585E-2,-1.2443903E-2,-2.0856466E-2,6.2614046E-3,1.5094791E-2,-2.9076204E-2,2.7278505E-2,-1.2897725E-2,-2.653737E-2,8.9231245E-3,5.939177E-6,-1.9223941E-2,2.7910885E-3,3.0575948E-2,7.5620357E-3,-9.826196E-3,1.9263092E-2,-1.1171037E-2,-2.0660345E-2,2.2863114E-2,2.1542443E-3,-2.7794737E-2,-2.3401598E-2,4.755542E-3,-3.4845527E-3,-2.5195114E-2,-1.2516288E-2,2.2552261E-2,-0E0,-2.8154217E-2,-7.361621E-3,-3.1165259E-2,1.9331152E-2,-8.596254E-3,-1.5360467E-2,1.6208181E-2,-4.0239334E-2,-3.2653462E-3,-9.096083E-3,-4.42503E-2,1.9671278E-2,-2.8365718E-2],"split_indices":[64,25,60,60,90,63,97,63,91,59,42,6,42,5,58,64,5,48,86,50,43,42,27,55,94,94,47,11,55,63,53,31,71,32,42,39,82,0,25,31,0,45,75,39,85,25,18,95,59,58,21,81,58,53,45,87,69,66,75,55,71,81,52,0,0,0,0,0,0,0,0,0,0,0,0,0,0,0,0,0,0,0,0,0,0,0,0,0,0,0,0,0,0,0,0,0,0,0,0,0,0,0,0,0,0,0,0,0,0,0,0,0,0,0,0,0,0,0,0,0,0,0,0],"split_type":[0,0,0,0,0,0,0,0,0,0,0,0,0,0,0,0,0,0,0,0,0,0,0,0,0,0,0,0,0,0,0,0,0,0,0,0,0,0,0,0,0,0,0,0,0,0,0,0,0,0,0,0,0,0,0,0,0,0,0,0,0,0,0,0,0,0,0,0,0,0,0,0,0,0,0,0,0,0,0,0,0,0,0,0,0,0,0,0,0,0,0,0,0,0,0,0,0,0,0,0,0,0,0,0,0,0,0,0,0,0,0,0,0,0,0,0,0,0,0,0,0,0,0],"sum_hessian":[3.385654E3,7.0686194E2,2.6787922E3,5.148542E2,1.9200775E2,2.1313918E3,5.474004E2,4.0751788E2,1.0733633E2,7.930486E1,1.12702896E2,1.5231244E3,6.082674E2,3.771775E2,1.702229E2,2.2438023E2,1.8313765E2,8.130389E1,2.6032438E1,1.2439066E1,6.686579E1,6.8172714E1,4.4530186E1,7.1361865E2,8.095058E2,2.572177E2,3.5104968E2,1.6701886E2,2.1015862E2,4.0174E1,1.3004889E2,8.601623E1,1.3836401E2,1.0870589E2,7.4431755E1,2.349474E1,5.7809143E1,2.2837408E0,2.3748697E1,9.566824E0,2.8722425E0,2.1617344E1,4.5248447E1,3.5345215E1,3.2827496E1,7.2093863E0,3.73208E1,5.817661E2,1.3185254E2,5.365418E2,2.72964E2,6.5082085E1,1.9213564E2,2.3844264E2,1.1260704E2,4.171364E1,1.2530522E2,1.3596721E2,7.419141E1,3.14865E1,8.687498E0,7.672226E1,5.3326633E1,7.814817E1,7.8680573E0,1.5724219E1,1.2263979E2,6.785131E1,4.085458E1,6.8970985E1,5.46077E0,1.52399845E1,8.254756E0,4.644391E1,1.1365234E1,5.431528E0,1.831717E1,7.275454E0,2.2913697E0,4.035294E0,1.758205E1,4.1750725E1,3.4977226E0,2.2098818E1,1.3246397E1,3.062034E1,2.2071557E0,3.001549E0,4.207837E0,3.465535E1,2.6654482E0,4.7606415E2,1.0570197E2,9.5121895E1,3.673064E1,4.8057535E2,5.596645E1,2.5935382E2,1.3610146E1,6.2054077E1,3.028007E0,1.771611E2,1.4974525E1,2.2603352E2,1.240912E1,8.4674484E1,2.7932554E1,3.8679893E1,3.0337446E0,5.434063E0,1.1987116E2,7.8593445E1,5.737376E1,6.1593876E1,1.2597533E1,1.9099766E1,1.2386734E1,6.6159515E0,2.071546E0,3.6965673E0,7.3025696E1,4.158476E0,4.9168156E1],"tree_param":{"num_deleted":"0","num_feature":"102","num_nodes":"123","size_leaf_vector":"1"}},{"base_weights":[-3.7298826E-4,5.038081E-1,-1.3538867E-1,8.851043E-2,7.487116E-1,-6.0876545E-2,-1.0487413E0,3.5608187E-3,7.378657E-1,8.6930966E-1,2.776493E-1,-3.2375294E-1,1.1113787E-1,-1.1740125E0,-6.141019E-1,-4.3438786E-1,8.7388374E-2,1.0328301E0,1.6169575E-1,1.1156644E0,7.192583E-1,1.1350759E0,1.5528049E-1,-2.0963793E-1,-6.590866E-1,2.2089629E-1,-2.6110193E-1,-9.491983E-1,-1.3868089E0,-8.9156187E-1,2.669122E-1,-6.436627E-1,4.7208756E-1,2.4739791E-1,-1.5690209E-1,3.1751907E-1,1.2571819E0,5.3786176E-1,-2.4938384E-2,1.2924047E0,6.57793E-1,5.5277014E-1,9.755805E-1,6.566245E-3,3.9135143E-2,5.6580937E-1,-1.0663838E-1,-4.4602028E-1,-5.0701075E-3,-1.0046992E0,-5.226776E-1,7.91927E-2,4.4042924E-1,-4.889598E-1,7.6819554E-2,4.449289E-3,-1.0131087E0,-1.15704E-2,-1.4324778E0,-1.053533E0,5.971696E-3,8.967908E-1,-6.6568595E-1,-2.4992825E-2,5.8577796E-3,2.7598731E-2,-9.054398E-3,-3.973493E-4,1.2559531E-2,2.7489278E-2,-7.471056E-3,3.062207E-2,-1.3937442E-2,1.4004925E-2,4.4504914E-2,-3.747227E-3,3.0217988E-2,9.728184E-3,4.034107E-2,1.6151905E-3,3.737819E-2,1.8857192E-2,-4.3264423E-3,3.9893603E-3,3.257482E-2,2.5246589E-2,-2.303377E-3,1.5969971E-2,-1.10074505E-2,-9.522642E-3,-3.1644013E-2,-1.8710375E-2,2.4702847E-3,-6.7265774E-4,-3.3074718E-2,-2.0806806E-2,1.1751979E-3,-1.5515857E-3,6.4346995E-3,6.8152803E-3,2.0374374E-2,-2.420919E-2,-1.4582187E-3,6.483211E-3,-2.320014E-2,-3.3496812E-2,-1.2676622E-2,-4.4038903E-2,-7.6989788E-3,-1.8125812E-2,-4.201496E-2,1.751597E-2,-1.8948477E-2,3.825887E-2,1.9981524E-3,-2.7080394E-2,-3.4547925E-3],"categories":[],"categories_nodes":[],"categories_segments":[],"categories_sizes":[],"default_left":[0,0,0,0,0,0,0,0,0,0,0,0,0,0,0,0,0,0,0,0,0,0,0,0,0,0,0,0,0,0,0,0,0,0,0,0,0,0,0,0,0,0,0,0,0,0,0,0,0,0,0,0,0,0,0,0,0,0,0,0,0,0,0,0,0,0,0,0,0,0,0,0,0,0,0,0,0,0,0,0,0,0,0,0,0,0,0,0,0,0,0,0,0,0,0,0,0,0,0,0,0,0,0,0,0,0,0,0,0,0,0,0,0,0,0,0,0],"id":10,"left_children":[1,3,5,7,9,11,13,15,17,19,21,23,25,27,29,31,33,35,37,39,41,43,45,47,49,51,53,55,57,59,61,63,65,67,69,71,73,75,-1,77,79,81,83,-1,-1,85,87,89,91,93,95,97,99,101,103,-1,105,-1,107,109,111,113,115,-1,-1,-1,-1,-1,-1,-1,-1,-1,-1,-1,-1,-1,-1,-1,-1,-1,-1,-1,-1,-1,-1,-1,-1,-1,-1,-1,-1,-1,-1,-1,-1,-1,-1,-1,-1,-1,-1,-1,-1,-1,-1,-1,-1,-1,-1,-1,-1,-1,-1,-1,-1,-1,-1],"loss_changes":[2.2955652E2,7.2191895E1,1.8080478E2,1.4514374E1,2.4906479E1,1.1140714E2,9.690903E0,8.66176E0,4.740595E0,1.1808929E1,9.322521E0,3.6951836E1,6.08776E1,5.3168335E0,1.2075314E1,7.5748725E0,7.8808546E0,2.3685799E0,4.949854E0,9.260452E0,8.639282E0,1.1008339E0,9.117397E0,3.5172813E1,1.0681984E1,3.564906E1,2.6237421E1,5.9020996E0,2.4488678E0,5.55805E0,7.9173603E0,5.3158493E0,3.0938187E0,5.523585E0,7.989083E0,4.2680836E0,1.351574E0,3.3009312E0,0E0,3.8808746E0,1.3684109E1,7.5762863E0,7.615135E0,0E0,0E0,6.06353E0,8.773855E0,2.5775002E1,2.14007E1,6.2792892E0,1.7407398E1,1.2467188E1,2.256974E1,2.8216343E1,1.634169E1,0E0,3.7129745E0,0E0,2.2100372E0,3.4663696E0,2.8725438E0,2.1149592E0,3.8547254E-1,0E0,0E0,0E0,0E0,0E0,0E0,0E0,0E0,0E0,0E0,0E0,0E0,0E0,0E0,0E0,0E0,0E0,0E0,0E0,0E0,0E0,0E0,0E0,0E0,0E0,0E0,0E0,0E0,0E0,0E0,0E0,0E0,0E0,0E0,0E0,0E0,0E0,0E0,0E0,0E0,0E0,0E0,0E0,0E0,0E0,0E0,0E0,0E0,0E0,0E0,0E0,0E0,0E0,0E0],"parents":[2147483647,0,0,1,1,2,2,3,3,4,4,5,5,6,6,7,7,8,8,9,9,10,10,11,11,12,12,13,13,14,14,15,15,16,16,17,17,18,18,19,19,20,20,21,21,22,22,23,23,24,24,25,25,26,26,27,27,28,28,29,29,30,30,31,31,32,32,33,33,34,34,35,35,36,36,37,37,39,39,40,40,41,41,42,42,45,45,46,46,47,47,48,48,49,49,50,50,51,51,52,52,53,53,54,54,56,56,58,58,59,59,60,60,61,61,62,62],"right_children":[2,4,6,8,10,12,14,16,18,20,22,24,26,28,30,32,34,36,38,40,42,44,46,48,50,52,54,56,58,60,62,64,66,68,70,72,74,76,-1,78,80,82,84,-1,-1,86,88,90,92,94,96,98,100,102,104,-1,106,-1,108,110,112,114,116,-1,-1,-1,-1,-1,-1,-1,-1,-1,-1,-1,-1,-1,-1,-1,-1,-1,-1,-1,-1,-1,-1,-1,-1,-1,-1,-1,-1,-1,-1,-1,-1,-1,-1,-1,-1,-1,-1,-1,-1,-1,-1,-1,-1,-1,-1,-1,-1,-1,-1,-1,-1,-1,-1],"split_conditions":[4E0,9.247454E-2,4E0,3.1266358E-1,1E0,2.2E1,6E0,3E0,2.0626755E-2,2E0,-6.40719E-2,2.8E1,4.9E1,3E1,7.7E-1,1.58E2,1.5913805E-3,-8.587941E-2,3.4720246E-2,4.33E2,4.226875E-3,-5.573414E-2,-1.60728E-2,5.0060622E-2,3.5E1,6.2E1,4E0,-7.9599254E-2,-8.707234E-2,3.7690002E-2,1.2E1,4.1119948E-2,1.9167399E-2,-9.516148E-3,-6.7983165E-2,-4.5330217E-3,-2.795774E-2,-1.522938E-3,-2.4938384E-2,-9.3697436E-2,1.7E1,9.923175E-2,-4.7688466E-2,6.566245E-3,3.9135143E-2,5E0,-1.1401049E-2,4.5455854E-2,1E1,-4.9265876E-2,1E0,7.3E1,-2.22E2,9.85E-1,8.14E2,4.449289E-3,9.73E-1,-1.15704E-2,8.404269E-2,2.4E1,-7.088534E-3,1.0138771E-2,5.75E2,-2.4992825E-2,5.8577796E-3,2.7598731E-2,-9.054398E-3,-3.973493E-4,1.2559531E-2,2.7489278E-2,-7.471056E-3,3.062207E-2,-1.3937442E-2,1.4004925E-2,4.4504914E-2,-3.747227E-3,3.0217988E-2,9.728184E-3,4.034107E-2,1.6151905E-3,3.737819E-2,1.8857192E-2,-4.3264423E-3,3.9893603E-3,3.257482E-2,2.5246589E-2,-2.303377E-3,1.5969971E-2,-1.10074505E-2,-9.522642E-3,-3.1644013E-2,-1.8710375E-2,2.4702847E-3,-6.7265774E-4,-3.3074718E-2,-2.0806806E-2,1.1751979E-3,-1.5515857E-3,6.4346995E-3,6.8152803E-3,2.0374374E-2,-2.420919E-2,-1.4582187E-3,6.483211E-3,-2.320014E-2,-3.3496812E-2,-1.2676622E-2,-4.4038903E-2,-7.6989788E-3,-1.8125812E-2,-4.201496E-2,1.751597E-2,-1.8948477E-2,3.825887E-2,1.9981524E-3,-2.7080394E-2,-3.4547925E-3],"split_indices":[90,97,56,68,60,1,59,59,73,90,28,90,90,90,53,50,45,73,36,25,37,34,31,97,94,94,59,85,81,36,89,31,34,37,37,28,84,42,0,80,1,41,72,0,0,56,73,45,1,42,7,50,25,53,25,0,53,0,41,90,37,75,25,0,0,0,0,0,0,0,0,0,0,0,0,0,0,0,0,0,0,0,0,0,0,0,0,0,0,0,0,0,0,0,0,0,0,0,0,0,0,0,0,0,0,0,0,0,0,0,0,0,0,0,0,0,0],"split_type":[0,0,0,0,0,0,0,0,0,0,0,0,0,0,0,0,0,0,0,0,0,0,0,0,0,0,0,0,0,0,0,0,0,0,0,0,0,0,0,0,0,0,0,0,0,0,0,0,0,0,0,0,0,0,0,0,0,0,0,0,0,0,0,0,0,0,0,0,0,0,0,0,0,0,0,0,0,0,0,0,0,0,0,0,0,0,0,0,0,0,0,0,0,0,0,0,0,0,0,0,0,0,0,0,0,0,0,0,0,0,0,0,0,0,0,0,0],"sum_hessian":[3.370923E3,7.110251E2,2.659898E3,2.646657E2,4.4635934E2,2.4606545E3,1.9924342E2,2.3538664E2,2.9279053E1,3.542322E2,9.212716E1,9.733155E2,1.4873391E3,1.5272403E2,4.6519398E1,3.6627224E1,1.9875941E2,1.8506578E1,1.0772474E1,1.3065968E2,2.2357251E2,1.0061533E1,8.206563E1,7.280907E2,2.4522478E2,1.1494408E3,3.3789832E2,7.790831E1,7.481572E1,3.5539497E1,1.0979899E1,3.0219177E1,6.408048E0,1.20582E2,7.817742E1,5.323428E0,1.3183149E1,8.357747E0,2.414727E0,9.237758E1,3.8282116E1,1.3830672E2,8.526579E1,2.1836889E0,7.8778443E0,3.171974E1,5.0345886E1,3.3666885E2,3.9142184E2,6.682047E1,1.7840431E2,7.0009143E2,4.493494E2,2.0184875E2,1.3604958E2,4.0277224E0,7.388059E1,3.949542E0,7.086617E1,3.0118504E1,5.4209957E0,6.7090936E0,4.2708063E0,2.4853832E1,5.365343E0,4.079263E0,2.328785E0,4.778848E1,7.279352E1,5.160464E0,7.301696E1,2.7449312E0,2.5784972E0,3.9495E0,9.233649E0,3.6536446E0,4.7041025E0,5.3732557E0,8.700432E1,1.970127E1,1.8580847E1,1.251052E2,1.3201512E1,1.038166E1,7.488413E1,2.2153187E1,9.566552E0,1.3986576E1,3.635931E1,2.7973233E2,5.693652E1,4.7833935E1,3.435879E2,6.368782E0,6.045169E1,1.3685542E2,4.1548885E1,3.554372E2,3.446542E2,2.3901202E2,2.1033736E2,1.163616E2,8.5487144E1,1.1786853E2,1.8181042E1,6.166991E1,1.2210677E1,6.833567E1,2.530504E0,1.4807748E1,1.5310756E1,3.0611947E0,2.3598013E0,4.0007443E0,2.7083495E0,2.1949997E0,2.0758064E0],"tree_param":{"num_deleted":"0","num_feature":"102","num_nodes":"117","size_leaf_vector":"1"}},{"base_weights":[-7.94507E-3,4.0167508E-1,-1.5387635E-1,6.2110037E-1,1.7070072E-2,-6.455861E-2,-9.570269E-1,9.594044E-1,4.7338742E-1,-2.507533E-1,1.7732008E-1,-1.7226852E-1,3.857146E-1,-1.2018589E0,-7.1718764E-1,1.1762974E0,5.777073E-1,2.891713E-1,8.333279E-1,4.0886596E-1,-3.8678265E-1,2.7760822E-1,-5.5681336E-1,-9.957633E-2,-1.0302901E0,2.583123E-2,6.723583E-1,-1.2566552E0,-5.090529E-1,-9.893273E-1,-2.8676483E-1,1.68181E-1,1.2501538E0,6.932689E-1,-6.701605E-1,3.6479878E-1,-3.5042113E-1,1.1779292E0,6.5086675E-1,-3.0696255E-1,8.207425E-1,-7.420115E-1,-4.9446687E-2,4.854359E-1,-9.808871E-3,-9.112774E-1,2.373423E-1,-3.0589846E-1,1.09691024E-1,-1.2828693E0,-7.987862E-1,-1.5859114E-1,8.3416826E-1,2.117732E-1,8.6394286E-1,-2.1039264E-1,-1.2927166E0,-3.568398E-2,-6.561026E-3,-1.1305224E0,-4.05533E-1,-6.2106276E-1,7.251844E-2,2.694302E-2,-1.7992884E-2,-0E0,3.839485E-2,-1.5647642E-2,2.3187019E-2,-3.3299338E-2,-0E0,-1.1390456E-2,1.24323275E-2,-1.2992888E-3,-2.7097095E-2,-5.3759636E-3,3.8329225E-2,2.2111466E-2,-1.9491697E-2,-2.7733086E-2,1.7484767E-2,3.4471314E-2,1.0528975E-3,8.195399E-3,-2.5176313E-2,-1.9574422E-2,5.0149243E-3,1.08541045E-2,2.7672173E-2,4.477102E-3,-2.5798412E-2,4.145531E-3,-3.5698526E-2,-2.3410598E-2,2.5260162E-2,-1.3767094E-2,-4.9188524E-4,6.2042894E-3,-8.114427E-3,-1.5075202E-2,-4.3262012E-2,1.4795719E-2,-2.6020983E-2,6.4623374E-3,-1.9478125E-2,-1.8220825E-2,2.9517269E-2,2.3514075E-2,-1.9948112E-3,-1.0987445E-2,2.8909612E-2,4.184576E-3,-1.6019553E-2,-3.960838E-2,-3.5597712E-3,1.6748318E-2,-2.7007155E-2,-4.1534165E-3,-3.6465086E-2,-2.064963E-2,2.0631652E-2,-0E0,-3.6649786E-2,-1.1043524E-2,2.4499645E-2],"categories":[],"categories_nodes":[],"categories_segments":[],"categories_sizes":[],"default_left":[0,0,0,0,0,0,0,0,0,0,0,0,0,0,0,0,0,0,0,0,0,0,0,0,0,0,0,0,0,0,0,0,0,0,0,0,0,0,0,0,0,0,0,0,0,0,0,0,0,0,0,0,0,0,0,0,0,0,0,0,0,0,0,0,0,0,0,0,0,0,0,0,0,0,0,0,0,0,0,0,0,0,0,0,0,0,0,0,0,0,0,0,0,0,0,0,0,0,0,0,0,0,0,0,0,0,0,0,0,0,0,0,0,0,0,0,0,0,0,0,0,0,0,0,0],"id":11,"left_children":[1,3,5,7,9,11,13,15,17,19,21,23,25,27,29,31,33,35,37,39,41,43,45,47,49,51,53,55,57,59,61,63,65,67,69,71,73,75,77,79,81,83,85,87,89,91,93,95,97,99,101,103,105,107,109,111,113,-1,115,117,119,121,123,-1,-1,-1,-1,-1,-1,-1,-1,-1,-1,-1,-1,-1,-1,-1,-1,-1,-1,-1,-1,-1,-1,-1,-1,-1,-1,-1,-1,-1,-1,-1,-1,-1,-1,-1,-1,-1,-1,-1,-1,-1,-1,-1,-1,-1,-1,-1,-1,-1,-1,-1,-1,-1,-1,-1,-1,-1,-1,-1,-1,-1,-1],"loss_changes":[2.0094307E2,7.436754E1,1.7758917E2,2.7242203E1,1.3870805E1,1.08328E2,1.3134781E1,1.2838257E1,2.5599861E1,1.1013546E1,1.506139E1,1.1210822E2,4.430381E1,3.4519958E0,1.4465843E1,7.384323E0,9.789354E0,1.286372E1,7.034012E0,6.5859523E0,1.1890419E1,1.0821374E1,7.300878E0,7.191418E1,6.5682526E0,2.9014475E1,2.0705322E1,3.5436096E0,3.5510962E0,5.5721817E0,6.3830786E0,5.6570897E0,3.8062592E0,6.2707424E0,1.857214E0,8.905012E0,4.536377E0,6.4412346E0,1.0632244E1,5.30405E0,3.2770844E0,5.2016296E0,7.194807E0,4.9927845E0,1.0584037E1,5.492177E0,5.9386992E0,3.704036E1,3.0565783E1,6.7903214E0,7.400997E0,2.9190477E1,8.602669E0,1.1710351E1,2.121148E1,7.6845545E-1,2.9686127E0,0E0,4.592735E0,4.742752E0,5.9284315E0,1.0302253E1,8.891779E0,0E0,0E0,0E0,0E0,0E0,0E0,0E0,0E0,0E0,0E0,0E0,0E0,0E0,0E0,0E0,0E0,0E0,0E0,0E0,0E0,0E0,0E0,0E0,0E0,0E0,0E0,0E0,0E0,0E0,0E0,0E0,0E0,0E0,0E0,0E0,0E0,0E0,0E0,0E0,0E0,0E0,0E0,0E0,0E0,0E0,0E0,0E0,0E0,0E0,0E0,0E0,0E0,0E0,0E0,0E0,0E0,0E0,0E0,0E0,0E0,0E0,0E0],"parents":[2147483647,0,0,1,1,2,2,3,3,4,4,5,5,6,6,7,7,8,8,9,9,10,10,11,11,12,12,13,13,14,14,15,15,16,16,17,17,18,18,19,19,20,20,21,21,22,22,23,23,24,24,25,25,26,26,27,27,28,28,29,29,30,30,31,31,32,32,33,33,34,34,35,35,36,36,37,37,38,38,39,39,40,40,41,41,42,42,43,43,44,44,45,45,46,46,47,47,48,48,49,49,50,50,51,51,52,52,53,53,54,54,55,55,56,56,58,58,59,59,60,60,61,61,62,62],"right_children":[2,4,6,8,10,12,14,16,18,20,22,24,26,28,30,32,34,36,38,40,42,44,46,48,50,52,54,56,58,60,62,64,66,68,70,72,74,76,78,80,82,84,86,88,90,92,94,96,98,100,102,104,106,108,110,112,114,-1,116,118,120,122,124,-1,-1,-1,-1,-1,-1,-1,-1,-1,-1,-1,-1,-1,-1,-1,-1,-1,-1,-1,-1,-1,-1,-1,-1,-1,-1,-1,-1,-1,-1,-1,-1,-1,-1,-1,-1,-1,-1,-1,-1,-1,-1,-1,-1,-1,-1,-1,-1,-1,-1,-1,-1,-1,-1,-1,-1,-1,-1,-1,-1,-1,-1],"split_conditions":[5E0,8.77E2,4E0,1.0986123E0,4E0,1E0,2.5E1,3.16E2,3.2E1,-4.06874E-2,2.129E3,4.276666E0,0E0,5.2153394E-2,7.780822E-1,-7.9364024E-2,5.6E1,4E0,-1.686565E-2,-2.7313141E-2,4.525E1,1.3862944E0,1.0099149E-2,1E0,1E0,1.0225E2,2.2E1,-6.612448E-2,1.28E2,2.9968401E-2,1E0,2.417607E-3,5.097824E-2,9.138557E-1,6E0,8.7671235E-2,3.0061856E-1,-6.453271E-2,6E1,-4.5609158E-3,3.4905013E-2,1E0,-2.6736552E-2,4.3323077E-2,2.4E1,-1.2076632E-2,-4.1783724E-2,1E0,1.822E3,5E1,6.9173276E-1,1.023E3,8.7671235E-2,6.72E2,4.61E2,2.9742332E-2,1.4468303E-1,-3.568398E-2,3.9496407E-2,-8.971983E-2,4.7712263E-2,6.615554E-4,1E0,2.694302E-2,-1.7992884E-2,-0E0,3.839485E-2,-1.5647642E-2,2.3187019E-2,-3.3299338E-2,-0E0,-1.1390456E-2,1.24323275E-2,-1.2992888E-3,-2.7097095E-2,-5.3759636E-3,3.8329225E-2,2.2111466E-2,-1.9491697E-2,-2.7733086E-2,1.7484767E-2,3.4471314E-2,1.0528975E-3,8.195399E-3,-2.5176313E-2,-1.9574422E-2,5.0149243E-3,1.08541045E-2,2.7672173E-2,4.477102E-3,-2.5798412E-2,4.145531E-3,-3.5698526E-2,-2.3410598E-2,2.5260162E-2,-1.3767094E-2,-4.9188524E-4,6.2042894E-3,-8.114427E-3,-1.5075202E-2,-4.3262012E-2,1.4795719E-2,-2.6020983E-2,6.4623374E-3,-1.9478125E-2,-1.8220825E-2,2.9517269E-2,2.3514075E-2,-1.9948112E-3,-1.0987445E-2,2.8909612E-2,4.184576E-3,-1.6019553E-2,-3.960838E-2,-3.5597712E-3,1.6748318E-2,-2.7007155E-2,-4.1534165E-3,-3.6465086E-2,-2.064963E-2,2.0631652E-2,-0E0,-3.6649786E-2,-1.1043524E-2,2.4499645E-2],"split_indices":[90,25,58,64,59,55,1,25,1,83,25,64,25,36,92,80,95,56,35,35,94,64,31,6,2,94,1,30,93,33,57,37,26,48,59,92,26,73,1,78,71,24,39,37,95,72,35,7,63,93,48,63,92,47,63,28,38,0,30,38,77,38,55,0,0,0,0,0,0,0,0,0,0,0,0,0,0,0,0,0,0,0,0,0,0,0,0,0,0,0,0,0,0,0,0,0,0,0,0,0,0,0,0,0,0,0,0,0,0,0,0,0,0,0,0,0,0,0,0,0,0,0,0,0,0],"split_type":[0,0,0,0,0,0,0,0,0,0,0,0,0,0,0,0,0,0,0,0,0,0,0,0,0,0,0,0,0,0,0,0,0,0,0,0,0,0,0,0,0,0,0,0,0,0,0,0,0,0,0,0,0,0,0,0,0,0,0,0,0,0,0,0,0,0,0,0,0,0,0,0,0,0,0,0,0,0,0,0,0,0,0,0,0,0,0,0,0,0,0,0,0,0,0,0,0,0,0,0,0,0,0,0,0,0,0,0,0,0,0,0,0,0,0,0,0,0,0,0,0,0,0,0,0],"sum_hessian":[3.3599673E3,8.81678E2,2.4782896E3,5.60591E2,3.210869E2,2.2316543E3,2.4663504E2,1.679623E2,3.9262872E2,1.1947853E2,2.016084E2,1.8018247E3,4.2982965E2,1.1925266E2,1.27382385E2,1.05175804E2,6.2786488E1,2.6150912E2,1.3111961E2,1.9763979E1,9.971455E1,1.7827356E2,2.3334846E1,1.662545E3,1.3927963E2,1.9145824E2,2.3837143E2,1.0933934E2,9.913321E0,7.680115E1,5.0581238E1,7.6326756E0,9.754313E1,5.8099636E1,4.6868496E0,2.3459778E2,2.6911337E1,4.2745735E1,8.8373886E1,7.152771E0,1.2611209E1,4.757922E1,5.2135326E1,1.0338573E2,7.4887825E1,1.6185474E1,7.1493726E0,8.373659E2,8.251792E2,6.3588543E1,7.5691086E1,1.5647545E2,3.498278E1,7.107401E1,1.6729741E2,4.1010575E0,1.0523828E2,3.345149E0,6.568171E0,6.066296E1,1.6138187E1,2.603712E1,2.4544119E1,3.942467E0,3.6902087E0,2.2021039E0,9.534103E1,3.0098577E0,5.508978E1,2.4533281E0,2.2335215E0,1.3906199E1,2.2069157E2,1.836476E1,8.546577E0,2.7229235E0,4.002281E1,8.351367E1,4.860209E0,4.327631E0,2.82514E0,8.323435E0,4.287774E0,3.7877645E0,4.379146E1,1.3383884E1,3.8751442E1,8.265214E1,2.073359E1,6.3720882E1,1.1166943E1,3.3724337E0,1.281304E1,2.4113865E0,4.737986E0,5.4692035E2,2.9044556E2,6.5812744E2,1.6705179E2,1.1832343E1,5.17562E1,3.293765E0,7.2397316E1,8.894559E1,6.752987E1,2.8211443E0,3.2161636E1,2.278136E1,4.8292652E1,1.215242E1,1.5514499E2,2.00157E0,2.0994875E0,1.02511856E2,2.7264295E0,4.163347E0,2.4048245E0,5.2209783E0,5.5441982E1,1.3320131E1,2.8180566E0,1.3294879E1,1.2742242E1,1.5627808E1,8.91631E0],"tree_param":{"num_deleted":"0","num_feature":"102","num_nodes":"125","size_leaf_vector":"1"}},{"base_weights":[2.000184E-3,4.0049645E-1,-1.3819344E-1,3.0519253E-2,6.095933E-1,-3.4367582E-1,1.0509314E-1,-3.205648E-1,2.4825004E-1,6.9082385E-1,1.447889E-1,-1.915531E-1,-7.72496E-1,1.6961448E-1,-6.9634306E-1,-4.101407E-1,4.1873145E-1,-4.612914E-2,3.9018118E-1,9.722803E-1,5.493503E-1,-3.057365E-2,6.74861E-1,1.7527413E-1,-2.8799263E-1,-4.5162112E-1,-1.0435578E0,2.9189625E-1,-2.563767E-1,1.1205192E-1,-9.388812E-1,-5.5319124E-1,2.163005E-2,-3.0486467E-1,9.8604566E-1,-3.033629E-1,6.1827713E-1,1.0953041E0,2.8751272E-1,1.0132574E0,-1.7282745E-2,7.296867E-1,3.5102877E-1,4.9562898E-2,-3.5948712E-2,8.8053644E-1,-1.8107025E-2,2.5725678E-1,-5.969544E-1,-5.2444714E-1,-1.4384389E-1,-7.23043E-1,2.752326E-1,-1.2488824E0,-6.9346136E-1,1.9816118E-1,7.323989E-1,-6.3341653E-1,-5.380814E-2,-1.6999312E-1,9.1304857E-1,2.1458477E-2,-1.0290577E0,-3.794551E-2,-1.3305642E-2,-2.0498719E-2,9.521977E-3,-3.123844E-2,1.925539E-2,-0E0,3.968192E-2,2.7267918E-2,-1.2392136E-2,-1.3749649E-2,2.4158128E-2,3.953275E-2,6.8300446E-3,1.811695E-2,3.558037E-3,-1.6442308E-2,3.1261183E-2,2.3608802E-2,-1.6366316E-2,3.1401034E-2,7.0895543E-3,4.6721664E-3,-2.5043167E-2,3.226003E-2,-6.9427355E-3,1.3540395E-2,-5.3869667E-3,-5.8608213E-3,-3.6396958E-2,-1.4208026E-2,-4.538994E-2,-7.545909E-4,-1.8933713E-2,-2.423246E-2,-2.6200863E-3,-2.1064483E-2,2.0796498E-2,-3.835814E-2,-2.2704497E-3,-3.0265402E-2,1.6001333E-5,7.037074E-3,-2.6175374E-2,3.6926392E-2,1.0169206E-2,-3.9833393E-2,-1.53850345E-2,8.4872876E-4,-2.3434563E-2,-3.4159157E-2,1.0431458E-2,8.5664185E-4,4.0083617E-2,-3.6366314E-2,-1.4742021E-2],"categories":[],"categories_nodes":[],"categories_segments":[],"categories_sizes":[],"default_left":[0,0,0,0,0,0,0,0,0,0,0,0,0,0,0,0,0,0,0,0,0,0,0,0,0,0,0,0,0,0,0,0,0,0,0,0,0,0,0,0,0,0,0,0,0,0,0,0,0,0,0,0,0,0,0,0,0,0,0,0,0,0,0,0,0,0,0,0,0,0,0,0,0,0,0,0,0,0,0,0,0,0,0,0,0,0,0,0,0,0,0,0,0,0,0,0,0,0,0,0,0,0,0,0,0,0,0,0,0,0,0,0,0,0,0,0,0,0,0],"id":12,"left_children":[1,3,5,7,9,11,13,15,17,19,21,23,25,27,29,31,33,35,37,39,41,43,45,47,49,51,53,55,57,59,61,63,65,67,69,71,73,75,77,79,-1,81,83,85,-1,87,-1,89,91,93,95,97,99,101,103,105,107,109,111,113,115,-1,117,-1,-1,-1,-1,-1,-1,-1,-1,-1,-1,-1,-1,-1,-1,-1,-1,-1,-1,-1,-1,-1,-1,-1,-1,-1,-1,-1,-1,-1,-1,-1,-1,-1,-1,-1,-1,-1,-1,-1,-1,-1,-1,-1,-1,-1,-1,-1,-1,-1,-1,-1,-1,-1,-1,-1,-1],"loss_changes":[1.8891168E2,6.793913E1,1.25088615E2,2.4498158E1,2.092926E1,8.810167E1,5.926239E1,8.31273E0,8.370725E0,1.8074158E1,8.099371E0,3.5567406E1,2.995987E1,5.5376442E1,1.7024517E1,6.918251E0,6.073507E0,1.1285239E1,9.067919E0,1.079657E1,1.0960648E1,6.3923955E0,6.3686743E0,1.33556185E1,2.6877258E1,3.2829094E1,1.2291794E1,3.3723206E1,1.7919588E1,4.983676E0,1.0785877E1,5.4677715E0,6.0656433E0,5.5750265E0,2.6910605E0,6.7273135E0,4.2050133E0,2.4951553E0,6.1346054E0,7.715454E0,0E0,1.2726822E1,1.1876904E1,5.8329396E0,0E0,4.6297913E0,0E0,1.6270748E1,4.432609E0,1.3830261E1,2.8545366E1,6.223957E0,1.9154203E1,3.7432098E0,1.6314499E1,2.6728163E1,2.7428131E1,5.7104225E0,9.480511E0,8.679827E0,1.8261471E0,0E0,5.164238E0,0E0,0E0,0E0,0E0,0E0,0E0,0E0,0E0,0E0,0E0,0E0,0E0,0E0,0E0,0E0,0E0,0E0,0E0,0E0,0E0,0E0,0E0,0E0,0E0,0E0,0E0,0E0,0E0,0E0,0E0,0E0,0E0,0E0,0E0,0E0,0E0,0E0,0E0,0E0,0E0,0E0,0E0,0E0,0E0,0E0,0E0,0E0,0E0,0E0,0E0,0E0,0E0,0E0,0E0,0E0,0E0],"parents":[2147483647,0,0,1,1,2,2,3,3,4,4,5,5,6,6,7,7,8,8,9,9,10,10,11,11,12,12,13,13,14,14,15,15,16,16,17,17,18,18,19,19,20,20,21,21,22,22,23,23,24,24,25,25,26,26,27,27,28,28,29,29,30,30,31,31,32,32,33,33,34,34,35,35,36,36,37,37,38,38,39,39,41,41,42,42,43,43,45,45,47,47,48,48,49,49,50,50,51,51,52,52,53,53,54,54,55,55,56,56,57,57,58,58,59,59,60,60,62,62],"right_children":[2,4,6,8,10,12,14,16,18,20,22,24,26,28,30,32,34,36,38,40,42,44,46,48,50,52,54,56,58,60,62,64,66,68,70,72,74,76,78,80,-1,82,84,86,-1,88,-1,90,92,94,96,98,100,102,104,106,108,110,112,114,116,-1,118,-1,-1,-1,-1,-1,-1,-1,-1,-1,-1,-1,-1,-1,-1,-1,-1,-1,-1,-1,-1,-1,-1,-1,-1,-1,-1,-1,-1,-1,-1,-1,-1,-1,-1,-1,-1,-1,-1,-1,-1,-1,-1,-1,-1,-1,-1,-1,-1,-1,-1,-1,-1,-1,-1,-1,-1],"split_conditions":[1.7917595E0,9.247454E-2,1E0,4E0,1E0,1E0,4E0,2.6E1,6.5379147E-3,-9.58E2,6.95E1,-3.5052206E-2,2E0,1.835E3,2.8517893E-1,3.5745934E-2,-3.6501389E-3,5.35E1,-7.331391E-2,1.6E1,1.3862944E0,8.992796E-2,5.9295893E0,1.591E3,1.5E1,1E0,1E0,1E0,0E0,2.9362682E-1,-7.868321E-2,-5.2316967E-2,-4.681331E-2,1.576675E-2,-6.295567E-2,-4.6036374E-2,-8.946277E-2,2.2490465E-3,-1.9549295E-2,5E0,-1.7282745E-2,7E0,-5.4572154E-2,8.630137E-2,-3.5948712E-2,4.6132512E-2,-1.8107025E-2,5E0,-4.320902E-2,1.8067986E-1,2.129E3,7.355469E-2,1.0383487E-4,9.306531E-2,2.954311E-1,1E1,4E0,-9.4188705E-2,2.822E3,8.1369865E-1,-7.7119204E-3,2.1458477E-2,9.44E-1,-3.794551E-2,-1.3305642E-2,-2.0498719E-2,9.521977E-3,-3.123844E-2,1.925539E-2,-0E0,3.968192E-2,2.7267918E-2,-1.2392136E-2,-1.3749649E-2,2.4158128E-2,3.953275E-2,6.8300446E-3,1.811695E-2,3.558037E-3,-1.6442308E-2,3.1261183E-2,2.3608802E-2,-1.6366316E-2,3.1401034E-2,7.0895543E-3,4.6721664E-3,-2.5043167E-2,3.226003E-2,-6.9427355E-3,1.3540395E-2,-5.3869667E-3,-5.8608213E-3,-3.6396958E-2,-1.4208026E-2,-4.538994E-2,-7.545909E-4,-1.8933713E-2,-2.423246E-2,-2.6200863E-3,-2.1064483E-2,2.0796498E-2,-3.835814E-2,-2.2704497E-3,-3.0265402E-2,1.6001333E-5,7.037074E-3,-2.6175374E-2,3.6926392E-2,1.0169206E-2,-3.9833393E-2,-1.53850345E-2,8.4872876E-4,-2.3434563E-2,-3.4159157E-2,1.0431458E-2,8.5664185E-4,4.0083617E-2,-3.6366314E-2,-1.4742021E-2],"split_indices":[64,97,6,59,100,60,58,1,97,63,94,42,58,63,66,36,36,94,30,58,64,31,65,25,1,55,55,55,25,68,31,39,40,31,77,84,80,31,33,1,0,58,31,40,0,34,0,91,42,42,63,34,40,34,26,91,91,81,63,92,82,0,53,0,0,0,0,0,0,0,0,0,0,0,0,0,0,0,0,0,0,0,0,0,0,0,0,0,0,0,0,0,0,0,0,0,0,0,0,0,0,0,0,0,0,0,0,0,0,0,0,0,0,0,0,0,0,0,0],"split_type":[0,0,0,0,0,0,0,0,0,0,0,0,0,0,0,0,0,0,0,0,0,0,0,0,0,0,0,0,0,0,0,0,0,0,0,0,0,0,0,0,0,0,0,0,0,0,0,0,0,0,0,0,0,0,0,0,0,0,0,0,0,0,0,0,0,0,0,0,0,0,0,0,0,0,0,0,0,0,0,0,0,0,0,0,0,0,0,0,0,0,0,0,0,0,0,0,0,0,0,0,0,0,0,0,0,0,0,0,0,0,0,0,0,0,0,0,0,0,0],"sum_hessian":[3.3781477E3,8.789518E2,2.499196E3,3.1822107E2,5.607307E2,1.3550411E3,1.1441548E3,1.2124002E2,1.9698105E2,4.7645093E2,8.4279755E1,1.0018428E3,3.5319836E2,1.0600118E3,8.414295E1,1.08855484E2,1.2384535E1,6.3882767E1,1.3309828E2,1.5654652E2,3.1990442E2,6.3895E1,2.038476E1,2.0792043E2,7.9392236E2,1.6354079E2,1.8965758E2,8.242549E2,