{"learner":{"attributes":{"best_iteration":"597","best_score":"0.5658332985268395","scikit_learn":"{\"_estimator_type\": \"classifier\"}"},"feature_names":["accommodates","amenities_count","amenity_comfort_score","amenity_has_air_conditioning","amenity_has_balcony","amenity_has_coffee_maker","amenity_has_dishwasher","amenity_has_dryer","amenity_has_elevator","amenity_has_heating","amenity_has_kitchen","amenity_has_long_term_stays_allowed","amenity_has_parking","amenity_has_pets_allowed","amenity_has_tv","amenity_has_washer","amenity_has_wifi","amenity_score_business","amenity_score_family","amenity_score_luxury","amenity_score_safety","availability_ratio","bathrooms_numeric","bedrooms","beds","days_since_last_review","desc_embed_0","desc_embed_1","desc_embed_10","desc_embed_11","desc_embed_12","desc_embed_13","desc_embed_14","desc_embed_15","desc_embed_16","desc_embed_17","desc_embed_18","desc_embed_19","desc_embed_2","desc_embed_3","desc_embed_4","desc_embed_5","desc_embed_6","desc_embed_7","desc_embed_8","desc_embed_9","desc_sentiment_compound","description_length","distance_to_center_km","has_license_info","host_about_length","host_about_sentiment_compound","host_acceptance_rate","host_activity_score","host_has_gov_id","host_is_superhost_flag","host_listings_count","host_response_rate","host_total_listings_count","host_verifications_count","instant_bookable_flag","is_central","is_shared_bath","listing_age_days","log_number_of_reviews","log_price","log_reviews_per_month","neighborhood_desc_length","neighborhood_embed_0","neighborhood_embed_1","neighborhood_embed_10","neighborhood_embed_11","neighborhood_embed_12","neighborhood_embed_13","neighborhood_embed_14","neighborhood_embed_15","neighborhood_embed_16","neighborhood_embed_17","neighborhood_embed_18","neighborhood_embed_19","neighborhood_embed_2","neighborhood_embed_3","neighborhood_embed_4","neighborhood_embed_5","neighborhood_embed_6","neighborhood_embed_7","neighborhood_embed_8","neighborhood_embed_9","neighborhood_sentiment_compound","neighbourhood_encoded","number_of_reviews","number_of_reviews_ltm","occupancy_rate","price_clean","price_per_person","property_type_encoded","recent_review_flag","recent_review_score","reviews_growth_ratio","reviews_per_month","room_type_encoded","text_sentiment_score"],"feature_types":["int","int","float","int","int","int","int","int","int","int","int","int","int","int","int","int","int","int","int","int","int","float","float","float","float","float","float","float","float","float","float","float","float","float","float","float","float","float","float","float","float","float","float","float","float","float","int","int","float","int","int","int","float","float","int","int","float","float","float","int","int","int","int","float","float","float","float","int","float","float","float","float","float","float","float","float","float","float","float","float","float","float","float","float","float","float","float","float","int","int","int","int","float","float","float","int","int","float","float","float","int","int"],"gradient_booster":{"model":{"cats":{"enc":[],"feature_segments":[],"sorted_idx":[]},"gbtree_model_param":{"num_parallel_tree":"1","num_trees":"600"},"iteration_indptr":[0,1,2,3,4,5,6,7,8,9,10,11,12,13,14,15,16,17,18,19,20,21,22,23,24,25,26,27,28,29,30,31,32,33,34,35,36,37,38,39,40,41,42,43,44,45,46,47,48,49,50,51,52,53,54,55,56,57,58,59,60,61,62,63,64,65,66,67,68,69,70,71,72,73,74,75,76,77,78,79,80,81,82,83,84,85,86,87,88,89,90,91,92,93,94,95,96,97,98,99,100,101,102,103,104,105,106,107,108,109,110,111,112,113,114,115,116,117,118,119,120,121,122,123,124,125,126,127,128,129,130,131,132,133,134,135,136,137,138,139,140,141,142,143,144,145,146,147,148,149,150,151,152,153,154,155,156,157,158,159,160,161,162,163,164,165,166,167,168,169,170,171,172,173,174,175,176,177,178,179,180,181,182,183,184,185,186,187,188,189,190,191,192,193,194,195,196,197,198,199,200,201,202,203,204,205,206,207,208,209,210,211,212,213,214,215,216,217,218,219,220,221,222,223,224,225,226,227,228,229,230,231,232,233,234,235,236,237,238,239,240,241,242,243,244,245,246,247,248,249,250,251,252,253,254,255,256,257,258,259,260,261,262,263,264,265,266,267,268,269,270,271,272,273,274,275,276,277,278,279,280,281,282,283,284,285,286,287,288,289,290,291,292,293,294,295,296,297,298,299,300,301,302,303,304,305,306,307,308,309,310,311,312,313,314,315,316,317,318,319,320,321,322,323,324,325,326,327,328,329,330,331,332,333,334,335,336,337,338,339,340,341,342,343,344,345,346,347,348,349,350,351,352,353,354,355,356,357,358,359,360,361,362,363,364,365,366,367,368,369,370,371,372,373,374,375,376,377,378,379,380,381,382,383,384,385,386,387,388,389,390,391,392,393,394,395,396,397,398,399,400,401,402,403,404,405,406,407,408,409,410,411,412,413,414,415,416,417,418,419,420,421,422,423,424,425,426,427,428,429,430,431,432,433,434,435,436,437,438,439,440,441,442,443,444,445,446,447,448,449,450,451,452,453,454,455,456,457,458,459,460,461,462,463,464,465,466,467,468,469,470,471,472,473,474,475,476,477,478,479,480,481,482,483,484,485,486,487,488,489,490,491,492,493,494,495,496,497,498,499,500,501,502,503,504,505,506,507,508,509,510,511,512,513,514,515,516,517,518,519,520,521,522,523,524,525,526,527,528,529,530,531,532,533,534,535,536,537,538,539,540,541,542,543,544,545,546,547,548,549,550,551,552,553,554,555,556,557,558,559,560,561,562,563,564,565,566,567,568,569,570,571,572,573,574,575,576,577,578,579,580,581,582,583,584,585,586,587,588,589,590,591,592,593,594,595,596,597,598,599,600],"tree_info":[0,0,0,0,0,0,0,0,0,0,0,0,0,0,0,0,0,0,0,0,0,0,0,0,0,0,0,0,0,0,0,0,0,0,0,0,0,0,0,0,0,0,0,0,0,0,0,0,0,0,0,0,0,0,0,0,0,0,0,0,0,0,0,0,0,0,0,0,0,0,0,0,0,0,0,0,0,0,0,0,0,0,0,0,0,0,0,0,0,0,0,0,0,0,0,0,0,0,0,0,0,0,0,0,0,0,0,0,0,0,0,0,0,0,0,0,0,0,0,0,0,0,0,0,0,0,0,0,0,0,0,0,0,0,0,0,0,0,0,0,0,0,0,0,0,0,0,0,0,0,0,0,0,0,0,0,0,0,0,0,0,0,0,0,0,0,0,0,0,0,0,0,0,0,0,0,0,0,0,0,0,0,0,0,0,0,0,0,0,0,0,0,0,0,0,0,0,0,0,0,0,0,0,0,0,0,0,0,0,0,0,0,0,0,0,0,0,0,0,0,0,0,0,0,0,0,0,0,0,0,0,0,0,0,0,0,0,0,0,0,0,0,0,0,0,0,0,0,0,0,0,0,0,0,0,0,0,0,0,0,0,0,0,0,0,0,0,0,0,0,0,0,0,0,0,0,0,0,0,0,0,0,0,0,0,0,0,0,0,0,0,0,0,0,0,0,0,0,0,0,0,0,0,0,0,0,0,0,0,0,0,0,0,0,0,0,0,0,0,0,0,0,0,0,0,0,0,0,0,0,0,0,0,0,0,0,0,0,0,0,0,0,0,0,0,0,0,0,0,0,0,0,0,0,0,0,0,0,0,0,0,0,0,0,0,0,0,0,0,0,0,0,0,0,0,0,0,0,0,0,0,0,0,0,0,0,0,0,0,0,0,0,0,0,0,0,0,0,0,0,0,0,0,0,0,0,0,0,0,0,0,0,0,0,0,0,0,0,0,0,0,0,0,0,0,0,0,0,0,0,0,0,0,0,0,0,0,0,0,0,0,0,0,0,0,0,0,0,0,0,0,0,0,0,0,0,0,0,0,0,0,0,0,0,0,0,0,0,0,0,0,0,0,0,0,0,0,0,0,0,0,0,0,0,0,0,0,0,0,0,0,0,0,0,0,0,0,0,0,0,0,0,0,0,0,0,0,0,0,0,0,0,0,0,0,0,0,0,0,0,0,0,0,0,0,0,0,0,0,0,0,0,0,0,0,0,0,0,0,0,0,0,0,0,0,0,0,0,0,0,0,0,0,0,0,0,0,0,0,0,0,0,0,0,0,0,0,0,0,0,0,0,0,0,0,0,0,0,0,0,0,0,0,0,0,0,0,0,0,0,0,0,0,0,0,0,0,0,0,0],"trees":[{"base_weights":[-9.405901E-3,-3.783012E-1,2.8844357E-1,-5.679911E-1,-5.982351E-3,4.740443E-1,-1.0425081E0,-2.2120656E-1,-7.1944034E-1,-1.12219095E-1,7.6796484E-1,6.1660844E-1,-1.6594442E-2,-1.3616053E0,-3.6586016E-1,-4.7639403E-1,7.151675E-2,-1.1218454E0,-5.6487525E-1,-3.660331E-1,2.432189E-1,9.5275533E-1,-2.2980276E-1,-0E0,7.302958E-1,-2.0616212E-1,4.904069E-1,1.0345929E-1,-1.4793017E0,-2.8239608E-2,-8.1651354E-1,-3.334554E-1,-9.175768E-1,-7.395947E-2,5.5487394E-1,-1.143961E0,8.195856E-3,-4.956422E-1,-1.3601213E0,-1.5904993E-1,-8.3622694E-1,3.5294E-1,-6.398885E-1,1.2955072E0,4.990852E-2,1.1986231E-2,-2.415664E-2,-3.7610632E-1,3.8891688E-1,1.3870053E0,6.6922337E-1,-5.9207767E-2,-1.138407E0,-2.5338838E-1,6.7521864E-1,-2.427443E-2,5.323164E-1,-1.5141451E0,3.3149386E-3,-8.318664E-1,2.3979124E-1,1.6798145E-1,-1.0462149E0,-4.419354E-3,-2.350105E-2,2.1973313E-4,-3.133815E-2,6.623258E-3,-8.564305E-3,2.5082447E-2,-2.7089855E-3,-3.592102E-2,1.6334007E-3,-1.6076904E-2,1.28493495E-2,-2.5062566E-3,-4.3413535E-2,-1.813665E-2,1.637624E-3,-4.1127346E-2,-1.7979948E-2,2.0029865E-2,2.9940943E-3,-2.863361E-2,6.590536E-3,1.3376356E-3,4.219757E-2,1.963783E-2,-2.5178663E-2,-2.917165E-2,7.3900954E-3,-9.398298E-3,3.275476E-2,-5.2176034E-3,4.3183662E-2,1.7038029E-2,3.8728498E-2,-6.9921957E-3,1.4715325E-2,1.0393436E-2,-3.8364425E-2,1.597163E-2,-2.2893913E-2,5.709264E-3,2.7662551E-2,-1.8094607E-2,3.9171834E-2,-3.507917E-2,-5.2643664E-2,-3.5607062E-2,-4.0125377E-3,2.9870013E-2,-3.875222E-3,-1.8305436E-2,2.8797923E-2,-3.706084E-2,-2.1448703E-3],"categories":[],"categories_nodes":[],"categories_segments":[],"categories_sizes":[],"default_left":[0,0,0,0,0,0,0,0,0,0,0,0,0,0,0,0,0,0,0,0,0,0,0,0,0,0,0,0,0,0,0,0,0,0,0,0,0,0,0,0,0,0,0,0,0,0,0,0,0,0,0,0,0,0,0,0,0,0,0,0,0,0,0,0,0,0,0,0,0,0,0,0,0,0,0,0,0,0,0,0,0,0,0,0,0,0,0,0,0,0,0,0,0,0,0,0,0,0,0,0,0,0,0,0,0,0,0,0,0,0,0,0,0,0,0,0,0],"id":0,"left_children":[1,3,5,7,9,11,13,15,17,19,21,23,25,27,29,31,33,35,37,39,41,43,45,47,49,51,53,55,57,59,61,63,65,67,69,71,-1,73,75,77,79,81,83,85,87,-1,-1,89,91,93,95,97,99,101,103,-1,105,107,-1,109,111,113,115,-1,-1,-1,-1,-1,-1,-1,-1,-1,-1,-1,-1,-1,-1,-1,-1,-1,-1,-1,-1,-1,-1,-1,-1,-1,-1,-1,-1,-1,-1,-1,-1,-1,-1,-1,-1,-1,-1,-1,-1,-1,-1,-1,-1,-1,-1,-1,-1,-1,-1,-1,-1,-1,-1],"loss_changes":[3.011212E2,8.636069E1,3.7495288E2,4.220584E1,3.4082657E1,9.325772E1,3.9167053E1,1.8692383E1,3.3945984E1,3.3155598E1,9.6259575E0,7.2464935E1,2.8956022E1,2.2115494E1,9.141277E0,7.7912617E0,8.334867E0,5.3244934E0,2.1384811E1,2.0504038E1,1.5028295E1,1.2832275E1,3.585418E0,2.3813438E1,3.3429688E1,2.9809364E1,1.1544573E1,4.5062375E0,6.932724E0,8.23774E0,6.2638226E0,8.296238E0,3.9294643E0,5.715649E0,5.211317E0,1.0082367E1,0E0,1.4398491E1,3.0919456E0,1.4485257E1,6.84626E0,1.0678747E1,5.0281987E0,3.8947678E0,7.680843E0,0E0,0E0,3.1235598E1,3.996456E1,6.510254E0,4.9126648E1,1.8382288E1,6.909397E0,7.3237934E0,7.4825306E0,0E0,8.026416E0,6.42688E0,0E0,1.9260187E0,8.186387E0,4.3385196E0,3.5787086E0,0E0,0E0,0E0,0E0,0E0,0E0,0E0,0E0,0E0,0E0,0E0,0E0,0E0,0E0,0E0,0E0,0E0,0E0,0E0,0E0,0E0,0E0,0E0,0E0,0E0,0E0,0E0,0E0,0E0,0E0,0E0,0E0,0E0,0E0,0E0,0E0,0E0,0E0,0E0,0E0,0E0,0E0,0E0,0E0,0E0,0E0,0E0,0E0,0E0,0E0,0E0,0E0,0E0,0E0],"parents":[2147483647,0,0,1,1,2,2,3,3,4,4,5,5,6,6,7,7,8,8,9,9,10,10,11,11,12,12,13,13,14,14,15,15,16,16,17,17,18,18,19,19,20,20,21,21,22,22,23,23,24,24,25,25,26,26,27,27,28,28,29,29,30,30,31,31,32,32,33,33,34,34,35,35,37,37,38,38,39,39,40,40,41,41,42,42,43,43,44,44,47,47,48,48,49,49,50,50,51,51,52,52,53,53,54,54,56,56,57,57,59,59,60,60,61,61,62,62],"right_children":[2,4,6,8,10,12,14,16,18,20,22,24,26,28,30,32,34,36,38,40,42,44,46,48,50,52,54,56,58,60,62,64,66,68,70,72,-1,74,76,78,80,82,84,86,88,-1,-1,90,92,94,96,98,100,102,104,-1,106,108,-1,110,112,114,116,-1,-1,-1,-1,-1,-1,-1,-1,-1,-1,-1,-1,-1,-1,-1,-1,-1,-1,-1,-1,-1,-1,-1,-1,-1,-1,-1,-1,-1,-1,-1,-1,-1,-1,-1,-1,-1,-1,-1,-1,-1,-1,-1,-1,-1,-1,-1,-1,-1,-1,-1,-1,-1,-1],"split_conditions":[1E0,1E0,4E0,4E0,1E0,1.708E3,1E0,2.5098894E-2,3.8E1,5.95E1,4E0,1E0,1E0,1.0986123E0,5.17534E-2,4.3885782E-2,2.1236407E-2,1.9E0,7.828371E-2,3.0445225E0,2.204E3,1.708E3,1.3239015E-2,-2.0443091E-2,1.0986123E0,4.7706847E0,4.304065E0,-9.899154E-3,3E0,-3.1488035E-2,-3.6244556E-2,5.5555224E-2,-5.8672335E-2,-1.44201135E-2,2.5411582E-2,1E0,8.195856E-3,1E0,8.4E1,4.560804E-2,3.15E1,-3.1247484E-2,1.5E0,-8.266134E-2,4.3927357E-2,1.1986231E-2,-2.415664E-2,1E0,1E0,-1.8168335E-1,1E0,2.8526658E-1,1.9166666E1,-1.029E3,-1.2243259E-2,-2.427443E-2,-1.384E3,1.05E0,3.3149386E-3,-3.8057387E-2,1.0118956E-2,2.6817251E-2,1E0,-4.419354E-3,-2.350105E-2,2.1973313E-4,-3.133815E-2,6.623258E-3,-8.564305E-3,2.5082447E-2,-2.7089855E-3,-3.592102E-2,1.6334007E-3,-1.6076904E-2,1.28493495E-2,-2.5062566E-3,-4.3413535E-2,-1.813665E-2,1.637624E-3,-4.1127346E-2,-1.7979948E-2,2.0029865E-2,2.9940943E-3,-2.863361E-2,6.590536E-3,1.3376356E-3,4.219757E-2,1.963783E-2,-2.5178663E-2,-2.917165E-2,7.3900954E-3,-9.398298E-3,3.275476E-2,-5.2176034E-3,4.3183662E-2,1.7038029E-2,3.8728498E-2,-6.9921957E-3,1.4715325E-2,1.0393436E-2,-3.8364425E-2,1.597163E-2,-2.2893913E-2,5.709264E-3,2.7662551E-2,-1.8094607E-2,3.9171834E-2,-3.507917E-2,-5.2643664E-2,-3.5607062E-2,-4.0125377E-3,2.9870013E-2,-3.875222E-3,-1.8305436E-2,2.8797923E-2,-3.706084E-2,-2.1448703E-3],"split_indices":[49,5,56,90,55,63,55,97,94,94,91,10,55,64,82,44,82,2,45,64,63,63,30,38,64,64,65,84,18,37,70,28,74,44,34,55,0,55,93,97,94,45,22,76,30,0,0,55,55,44,55,68,94,25,35,0,25,99,0,30,45,45,54,0,0,0,0,0,0,0,0,0,0,0,0,0,0,0,0,0,0,0,0,0,0,0,0,0,0,0,0,0,0,0,0,0,0,0,0,0,0,0,0,0,0,0,0,0,0,0,0,0,0,0,0,0,0],"split_type":[0,0,0,0,0,0,0,0,0,0,0,0,0,0,0,0,0,0,0,0,0,0,0,0,0,0,0,0,0,0,0,0,0,0,0,0,0,0,0,0,0,0,0,0,0,0,0,0,0,0,0,0,0,0,0,0,0,0,0,0,0,0,0,0,0,0,0,0,0,0,0,0,0,0,0,0,0,0,0,0,0,0,0,0,0,0,0,0,0,0,0,0,0,0,0,0,0,0,0,0,0,0,0,0,0,0,0,0,0,0,0,0,0,0,0,0,0],"sum_hessian":[2.7380176E3,1.2232875E3,1.5147301E3,8.0962836E2,4.136591E2,1.3301624E3,1.8456778E2,2.4740363E2,5.6222473E2,3.648605E2,4.8798573E1,1.0307566E3,2.994058E2,1.2439476E2,6.0173027E1,1.3213904E2,1.1526459E2,1.5358025E2,4.086445E2,2.1316725E2,1.5169327E2,4.1387947E1,7.410627E0,1.60415E2,8.7034155E2,2.1872945E2,8.067637E1,9.134605E0,1.15260155E2,3.538345E1,2.478958E1,1.0173747E2,3.0401567E1,8.906213E1,2.6202454E1,1.5153726E2,2.0429838E0,3.779409E2,3.0703611E1,1.494218E2,6.3745438E1,1.3577133E2,1.5921935E1,2.9460358E1,1.1927589E1,3.5486379E0,3.8619893E0,8.179292E1,7.862208E1,7.155757E1,7.98784E2,1.9023285E2,2.8496595E1,1.5752249E1,6.492412E1,2.4309945E0,6.703611E0,1.1296717E2,2.2929838E0,8.404973E0,2.6978476E1,4.5859675E0,2.0203611E1,7.340491E1,2.8332561E1,3.6176434E0,2.6783924E1,3.6794075E1,5.2268055E1,1.8217167E1,7.9852867E0,1.4523297E2,6.3042917E0,3.6285266E2,1.5088217E1,2.255654E0,2.8447956E1,4.802146E1,1.01400345E2,1.7548637E1,4.61968E1,5.929517E1,7.6476166E1,1.1729632E1,4.1923027E0,2.6866486E0,2.6773708E1,7.421935E0,4.505654E0,4.1593872E1,4.0199047E1,3.952146E1,3.9100616E1,2.1119893E0,6.944558E1,6.891315E2,1.09652534E2,1.4532452E2,4.4908314E1,2.1866486E0,2.6309946E1,6.0226164E0,9.729632E0,2.2892508E1,4.2031612E1,2.7183244E0,3.9852865E0,4.9662876E1,6.330429E1,4.8246593E0,3.5803134E0,8.358583E0,1.8619892E1,2.3246593E0,2.2613082E0,1.6479633E1,3.7239785E0],"tree_param":{"num_deleted":"0","num_feature":"102","num_nodes":"117","size_leaf_vector":"1"}},{"base_weights":[-1.893181E-3,-3.6847702E-1,2.909411E-1,-5.429838E-1,-1.809472E-2,5.5312234E-1,-5.792374E-1,-1.1788748E-1,-6.599919E-1,-1.4280105E-1,8.9870805E-1,6.1296636E-1,-6.0089177E-1,-9.518956E-1,1.1434525E-1,3.0061242E-1,-2.27118E-1,-1.0100173E0,-5.1187754E-1,5.1954335E-1,-3.006763E-1,1.0996224E0,-2.5215843E-1,7.026006E-1,-2.3575485E-1,-8.6727214E-1,5.9516072E-2,-3.7753925E-1,-1.3868872E0,4.65025E-1,-6.2107754E-1,7.3609465E-1,-3.366569E-2,-1.0030645E0,-7.966101E-2,-9.144088E-1,-1.5322686E0,-8.0513334E-1,-3.255996E-1,6.4867413E-1,-3.7107936E-1,-5.375547E-1,5.466633E-2,-4.3306435E-3,1.1931442E0,3.6326143E-1,-3.12692E-2,6.0924476E-1,1.1773382E0,-6.0890496E-1,7.335926E-2,-4.227886E-1,-1.2311016E0,-5.812273E-1,6.430069E-1,1.833196E-1,-7.3659736E-1,-5.3298616E-1,-1.544909E0,1.1435537E0,-4.489077E-2,-9.5698774E-1,-2.2723535E-2,-1.1939591E-2,2.8871125E-2,1.9212777E-2,-1.5139278E-2,3.4017772E-3,-3.4426898E-2,-1.07896235E-2,7.85598E-3,-3.6317162E-2,-2.2288997E-2,-1.47668915E-2,-4.8684925E-2,-2.6010191E-2,3.1274762E-3,-2.440742E-2,-6.856734E-3,2.6989203E-2,-0E0,-2.5362879E-2,1.5930027E-2,-1.1464749E-2,-3.2405723E-2,6.4263404E-3,-1.6675288E-2,3.828355E-2,-0E0,-0E0,1.7817648E-2,2.0320555E-2,-9.0863975E-3,2.6579594E-2,4.455133E-2,-2.3261452E-2,4.707331E-3,-6.4283507E-3,1.6324691E-2,-2.7995398E-2,8.300132E-3,-0E0,-4.2477142E-2,-3.3592165E-2,7.625488E-3,-5.7319812E-3,3.4390688E-2,-4.073733E-3,1.8738369E-2,-1.4243171E-2,-4.2566948E-2,1.0270178E-2,-2.2583818E-2,-5.697479E-3,-4.7544993E-2,4.0618155E-2,4.4614933E-3,8.091489E-3,-2.0927921E-2,-4.524694E-3,-3.6735494E-2,-9.853069E-3,3.091096E-2],"categories":[],"categories_nodes":[],"categories_segments":[],"categories_sizes":[],"default_left":[0,0,0,0,0,0,0,0,0,0,0,0,0,0,0,0,0,0,0,0,0,0,0,0,0,0,0,0,0,0,0,0,0,0,0,0,0,0,0,0,0,0,0,0,0,0,0,0,0,0,0,0,0,0,0,0,0,0,0,0,0,0,0,0,0,0,0,0,0,0,0,0,0,0,0,0,0,0,0,0,0,0,0,0,0,0,0,0,0,0,0,0,0,0,0,0,0,0,0,0,0,0,0,0,0,0,0,0,0,0,0,0,0,0,0,0,0,0,0,0,0,0,0],"id":1,"left_children":[1,3,5,7,9,11,13,15,17,19,21,23,25,27,29,31,33,35,37,39,41,43,45,47,49,51,53,55,57,59,61,63,65,67,69,71,73,75,77,79,81,83,85,-1,87,89,-1,91,93,95,97,99,101,103,105,107,109,111,113,115,117,119,121,-1,-1,-1,-1,-1,-1,-1,-1,-1,-1,-1,-1,-1,-1,-1,-1,-1,-1,-1,-1,-1,-1,-1,-1,-1,-1,-1,-1,-1,-1,-1,-1,-1,-1,-1,-1,-1,-1,-1,-1,-1,-1,-1,-1,-1,-1,-1,-1,-1,-1,-1,-1,-1,-1,-1,-1,-1,-1,-1,-1],"loss_changes":[2.9490295E2,7.448366E1,3.4871527E2,4.0244232E1,4.6569107E1,8.152872E1,9.1776306E1,8.183383E0,3.2138855E1,3.7762257E1,1.1772213E1,8.526538E1,1.048402E1,5.661708E1,3.2444824E1,5.539831E0,1.5918982E1,7.216095E0,2.409407E1,8.330563E0,2.4669268E1,5.287304E0,4.5155706E0,4.3579803E1,1.2546765E1,5.813093E0,7.067499E0,2.0652744E1,1.6210632E1,2.976941E1,7.929159E0,4.763176E0,7.2676725E0,3.9659367E0,1.1677072E1,6.7657623E0,1.1606102E0,1.0048386E1,1.27432E1,1.0072762E1,4.6069603E0,1.3999214E1,1.1505015E1,0E0,4.12854E0,4.595508E-1,0E0,5.2971252E1,1.2691452E1,6.5261307E0,8.264413E0,7.9073715E0,4.944893E0,4.5137386E0,4.644576E0,5.866753E0,9.916912E0,4.7040043E0,5.197998E0,7.1561584E0,1.0505983E1,5.0525837E0,5.424654E0,0E0,0E0,0E0,0E0,0E0,0E0,0E0,0E0,0E0,0E0,0E0,0E0,0E0,0E0,0E0,0E0,0E0,0E0,0E0,0E0,0E0,0E0,0E0,0E0,0E0,0E0,0E0,0E0,0E0,0E0,0E0,0E0,0E0,0E0,0E0,0E0,0E0,0E0,0E0,0E0,0E0,0E0,0E0,0E0,0E0,0E0,0E0,0E0,0E0,0E0,0E0,0E0,0E0,0E0,0E0,0E0,0E0,0E0,0E0,0E0],"parents":[2147483647,0,0,1,1,2,2,3,3,4,4,5,5,6,6,7,7,8,8,9,9,10,10,11,11,12,12,13,13,14,14,15,15,16,16,17,17,18,18,19,19,20,20,21,21,22,22,23,23,24,24,25,25,26,26,27,27,28,28,29,29,30,30,31,31,32,32,33,33,34,34,35,35,36,36,37,37,38,38,39,39,40,40,41,41,42,42,44,44,45,45,47,47,48,48,49,49,50,50,51,51,52,52,53,53,54,54,55,55,56,56,57,57,58,58,59,59,60,60,61,61,62,62],"right_children":[2,4,6,8,10,12,14,16,18,20,22,24,26,28,30,32,34,36,38,40,42,44,46,48,50,52,54,56,58,60,62,64,66,68,70,72,74,76,78,80,82,84,86,-1,88,90,-1,92,94,96,98,100,102,104,106,108,110,112,114,116,118,120,122,-1,-1,-1,-1,-1,-1,-1,-1,-1,-1,-1,-1,-1,-1,-1,-1,-1,-1,-1,-1,-1,-1,-1,-1,-1,-1,-1,-1,-1,-1,-1,-1,-1,-1,-1,-1,-1,-1,-1,-1,-1,-1,-1,-1,-1,-1,-1,-1,-1,-1,-1,-1,-1,-1,-1,-1,-1,-1,-1,-1],"split_conditions":[1E0,1E0,1E0,1.3862944E0,1E0,4E0,1E0,7.65E2,1.3888247E-2,1.609438E0,2.138E3,2.312E3,1.5E0,2E0,5.3333336E-1,5E0,3E0,6.841316E-2,4.5E1,6.8134894E0,5.9E1,-9.296046E-2,4.4873532E-2,1E0,2.11E2,6.01525E-3,6.37E-1,2.3025851E0,1.609438E0,2E0,6.59E2,-7.186199E-2,-2.7437669E-3,-4.4678014E-2,4.875E1,3.8E1,-4.184171E-2,1E0,7.808219E-1,1.7479647E-2,1.0013828E-2,5.423243E-1,1E0,-4.3306435E-3,8E0,3.4376644E-3,-3.12692E-2,3.9318256E0,1E0,2E0,5.5E1,6.97E-1,-8.99242E-2,-9.459159E-3,4.975E1,9E0,3.7540432E-2,-3.6844853E-2,2.1E1,2.017E3,8E0,-3.9E2,7.75E1,-1.1939591E-2,2.8871125E-2,1.9212777E-2,-1.5139278E-2,3.4017772E-3,-3.4426898E-2,-1.07896235E-2,7.85598E-3,-3.6317162E-2,-2.2288997E-2,-1.47668915E-2,-4.8684925E-2,-2.6010191E-2,3.1274762E-3,-2.440742E-2,-6.856734E-3,2.6989203E-2,-0E0,-2.5362879E-2,1.5930027E-2,-1.1464749E-2,-3.2405723E-2,6.4263404E-3,-1.6675288E-2,3.828355E-2,-0E0,-0E0,1.7817648E-2,2.0320555E-2,-9.0863975E-3,2.6579594E-2,4.455133E-2,-2.3261452E-2,4.707331E-3,-6.4283507E-3,1.6324691E-2,-2.7995398E-2,8.300132E-3,-0E0,-4.2477142E-2,-3.3592165E-2,7.625488E-3,-5.7319812E-3,3.4390688E-2,-4.073733E-3,1.8738369E-2,-1.4243171E-2,-4.2566948E-2,1.0270178E-2,-2.2583818E-2,-5.697479E-3,-4.7544993E-2,4.0618155E-2,4.4614933E-3,8.091489E-3,-2.0927921E-2,-4.524694E-3,-3.6735494E-2,-9.853069E-3,3.091096E-2],"split_indices":[49,5,60,64,55,56,55,63,97,64,63,63,22,56,21,59,59,42,94,48,94,33,30,55,50,36,53,64,64,56,63,32,31,73,94,94,32,55,92,79,79,66,60,0,91,31,0,64,6,18,94,53,38,31,94,89,37,38,95,63,58,63,94,0,0,0,0,0,0,0,0,0,0,0,0,0,0,0,0,0,0,0,0,0,0,0,0,0,0,0,0,0,0,0,0,0,0,0,0,0,0,0,0,0,0,0,0,0,0,0,0,0,0,0,0,0,0,0,0,0,0,0,0],"split_type":[0,0,0,0,0,0,0,0,0,0,0,0,0,0,0,0,0,0,0,0,0,0,0,0,0,0,0,0,0,0,0,0,0,0,0,0,0,0,0,0,0,0,0,0,0,0,0,0,0,0,0,0,0,0,0,0,0,0,0,0,0,0,0,0,0,0,0,0,0,0,0,0,0,0,0,0,0,0,0,0,0,0,0,0,0,0,0,0,0,0,0,0,0,0,0,0,0,0,0,0,0,0,0,0,0,0,0,0,0,0,0,0,0,0,0,0,0,0,0,0,0,0,0],"sum_hessian":[2.7446167E3,1.2189945E3,1.5256221E3,8.1290125E2,4.0609326E2,1.1728993E3,3.5272278E2,1.7634598E2,6.365553E2,3.58553E2,4.754024E1,1.1157743E3,5.7125084E1,2.293407E2,1.23382095E2,3.568622E1,1.4065976E2,1.8679234E2,4.4976294E2,6.824104E1,2.9031198E2,4.066781E1,6.872433E0,1.00959247E3,1.0618176E2,4.0653965E1,1.6471119E1,1.000015E2,1.2933919E2,8.40275E1,3.9354595E1,1.5130608E1,2.055561E1,2.113327E1,1.1952649E2,1.6100179E2,2.579055E1,1.7274756E2,2.7701538E2,6.008056E1,8.160482E0,1.741606E2,1.16151375E2,2.6484702E0,3.8019337E1,4.0855403E0,2.7868931E0,8.4632605E2,1.6326643E2,4.787373E1,5.8308037E1,1.9713964E1,2.094E1,7.689266E0,8.781852E0,3.9044E1,6.0957504E1,2.1214676E1,1.0812452E2,3.558145E1,4.844605E1,2.4530125E1,1.482447E1,2.2182727E0,1.2912335E1,8.102467E0,1.2453144E1,2.2927525E0,1.8840517E1,6.596693E1,5.3559563E1,5.593506E1,1.0506673E2,2.8613093E0,2.2929241E1,1.620011E2,1.0746461E1,4.4138832E1,2.3287654E2,4.3104904E1,1.6975655E1,5.542883E0,2.6175995E0,1.3726523E2,3.6895363E1,9.296364E1,2.3187738E1,3.562022E1,2.3991187E0,2.0054607E0,2.0800796E0,7.880143E2,5.8311794E1,8.6586845E1,7.667959E1,3.952727E1,8.3464575E0,3.6336784E1,2.1971254E1,1.1330865E1,8.3831E0,2.935695E0,1.8004305E1,4.5726748E0,3.1165912E0,3.4357736E0,5.3460784E0,2.28779E1,1.6166098E1,4.5735264E1,1.5222238E1,3.9411774E0,1.7273499E1,3.4357567E0,1.0468876E2,2.8846828E1,6.734623E0,3.2957916E1,1.5488131E1,6.7659316E0,1.7764193E1,1.2276315E1,2.548155E0],"tree_param":{"num_deleted":"0","num_feature":"102","num_nodes":"123","size_leaf_vector":"1"}},{"base_weights":[1.9632185E-4,1.6412361E-1,-5.9719914E-1,5.246217E-1,-2.4923487E-1,-8.555591E-1,2.0470038E-1,1.7110571E-1,7.87811E-1,-5.9445125E-1,4.9639523E-2,-5.956247E-1,-1.4214755E0,4.8659682E-1,-4.8101184E-1,4.9666256E-1,4.4665206E-3,8.2055223E-1,-7.099505E-1,-2.2327818E-1,-6.904372E-1,-9.234055E-2,3.7891266E-1,-6.8146795E-1,7.985217E-2,-9.721188E-1,-1.5987029E0,7.1770293E-3,8.446042E-1,2.1474104E-2,-6.287167E-1,1.0058721E0,2.516368E-1,-1.9732715E-1,1.521432E-1,6.624187E-1,1.13252E0,1.5046377E-2,-1.0239041E0,1.718187E-1,-3.6585644E-1,-4.7121686E-1,-9.918801E-1,2.9837283E-1,-2.0968632E-1,5.5319464E-1,-0E0,-1.866022E-1,-9.06422E-1,-9.623139E-1,3.8024306E-1,6.6184956E-3,-1.0955275E0,-9.423614E-3,-4.9061626E-2,4.0948865E-1,-6.6089386E-1,1.1055402E0,2.2552848E-1,-7.9678506E-1,1.8135309E-1,3.460565E-2,6.591807E-3,1.415069E-2,-6.7591933E-3,-8.633413E-3,2.0453004E-2,1.2034416E-3,3.621048E-2,1.7462373E-2,3.394608E-2,3.0715236E-2,4.7556683E-2,-3.6517914E-2,-1.7831953E-3,-2.0528985E-2,1.605053E-2,-3.9874945E-2,-6.8325866E-3,-1.7182609E-2,5.4392675E-3,-3.2051403E-2,-1.1935763E-2,1.8953893E-2,-2.55272E-3,-1.0872703E-2,9.872444E-3,1.1129868E-2,3.6132697E-2,2.5197873E-2,-7.961907E-3,1.052878E-2,-1.08188195E-2,-2.3660075E-2,-4.601419E-2,-6.092914E-3,-3.6640983E-2,1.9963302E-2,-1.7954174E-2,-4.386591E-2,-2.0004373E-2,2.2086423E-2,-1.7056677E-3,1.2163972E-2,-2.6152628E-2,1.368675E-2,4.299074E-2,2.7311087E-2,-9.659267E-3,-3.3629656E-2,-2.4634853E-3,3.610323E-2,-1.2941882E-2],"categories":[],"categories_nodes":[],"categories_segments":[],"categories_sizes":[],"default_left":[0,0,0,0,0,0,0,0,0,0,0,0,0,0,0,0,0,0,0,0,0,0,0,0,0,0,0,0,0,0,0,0,0,0,0,0,0,0,0,0,0,0,0,0,0,0,0,0,0,0,0,0,0,0,0,0,0,0,0,0,0,0,0,0,0,0,0,0,0,0,0,0,0,0,0,0,0,0,0,0,0,0,0,0,0,0,0,0,0,0,0,0,0,0,0,0,0,0,0,0,0,0,0,0,0,0,0,0,0,0,0,0,0],"id":2,"left_children":[1,3,5,7,9,11,13,15,17,19,21,23,25,27,29,31,33,35,37,39,41,43,45,47,49,51,53,55,57,-1,59,61,63,65,67,69,71,-1,73,75,77,79,81,83,85,87,89,91,93,95,97,-1,99,-1,-1,101,103,105,107,109,111,-1,-1,-1,-1,-1,-1,-1,-1,-1,-1,-1,-1,-1,-1,-1,-1,-1,-1,-1,-1,-1,-1,-1,-1,-1,-1,-1,-1,-1,-1,-1,-1,-1,-1,-1,-1,-1,-1,-1,-1,-1,-1,-1,-1,-1,-1,-1,-1,-1,-1,-1,-1],"loss_changes":[2.67747E2,3.200483E2,1.2229147E2,1.0637628E2,1.03363815E2,6.413083E1,2.815857E1,2.6556335E1,3.293509E1,1.6185547E1,2.5203968E1,1.8025642E1,8.702393E0,1.7501385E1,8.019877E0,2.0150959E1,9.761346E0,3.0488403E1,6.260798E0,5.616007E0,2.3475143E1,1.7284897E1,1.0806599E1,3.000975E1,1.1436992E1,6.755871E0,3.5934448E0,1.249928E1,8.920048E0,0E0,5.54354E0,5.6018944E0,1.2131738E1,1.1128803E1,2.2130354E1,1.5087524E1,8.076935E0,0E0,1.9131336E0,8.600695E0,8.9735565E0,1.4501972E1,6.173874E0,1.1282974E1,2.4018875E1,1.2381702E1,1.1803767E1,8.31306E0,1.1924179E1,1.0172911E0,8.465502E0,0E0,4.5481033E0,0E0,0E0,4.6529E0,4.4225917E0,7.5076866E0,7.648237E0,7.1430798E0,5.40883E0,0E0,0E0,0E0,0E0,0E0,0E0,0E0,0E0,0E0,0E0,0E0,0E0,0E0,0E0,0E0,0E0,0E0,0E0,0E0,0E0,0E0,0E0,0E0,0E0,0E0,0E0,0E0,0E0,0E0,0E0,0E0,0E0,0E0,0E0,0E0,0E0,0E0,0E0,0E0,0E0,0E0,0E0,0E0,0E0,0E0,0E0,0E0,0E0,0E0,0E0,0E0,0E0],"parents":[2147483647,0,0,1,1,2,2,3,3,4,4,5,5,6,6,7,7,8,8,9,9,10,10,11,11,12,12,13,13,14,14,15,15,16,16,17,17,18,18,19,19,20,20,21,21,22,22,23,23,24,24,25,25,26,26,27,27,28,28,30,30,31,31,32,32,33,33,34,34,35,35,36,36,38,38,39,39,40,40,41,41,42,42,43,43,44,44,45,45,46,46,47,47,48,48,49,49,50,50,52,52,55,55,56,56,57,57,58,58,59,59,60,60],"right_children":[2,4,6,8,10,12,14,16,18,20,22,24,26,28,30,32,34,36,38,40,42,44,46,48,50,52,54,56,58,-1,60,62,64,66,68,70,72,-1,74,76,78,80,82,84,86,88,90,92,94,96,98,-1,100,-1,-1,102,104,106,108,110,112,-1,-1,-1,-1,-1,-1,-1,-1,-1,-1,-1,-1,-1,-1,-1,-1,-1,-1,-1,-1,-1,-1,-1,-1,-1,-1,-1,-1,-1,-1,-1,-1,-1,-1,-1,-1,-1,-1,-1,-1,-1,-1,-1,-1,-1,-1,-1,-1,-1,-1,-1,-1],"split_conditions":[1E0,1.284E3,1E0,2.5E1,1.8E1,7.030975E-1,4E0,1.07E2,1.1E1,4.8790164E-2,6.375E1,3.5E1,2E0,2.6E1,-4.8575744E-2,1.3862944E0,4.6666668E1,7.1875E1,1.626647E-1,1E0,1.561E3,3.5553482E0,2.223E3,1.609438E0,-4.5722716E-2,-1.315E3,1.609438E0,4.3333334E-1,1.662E3,2.1474104E-2,5.7365723E0,6.333333E-1,1.9326353E-2,1E0,1E0,1E0,1E0,1.5046377E-2,3.148469E-1,-2.7396528E-2,3E0,3.53E2,5.552793E-2,1.8632287E-1,1E0,1E0,-1.416E3,-2.8397115E-2,4E0,3.3647224E-1,1.0087177E-1,6.6184956E-3,8E-1,-9.423614E-3,-4.9061626E-2,2.5936577E-4,-1.3176468E-2,4.55E2,2.626336E0,2.6821624E-4,-2.4E1,3.460565E-2,6.591807E-3,1.415069E-2,-6.7591933E-3,-8.633413E-3,2.0453004E-2,1.2034416E-3,3.621048E-2,1.7462373E-2,3.394608E-2,3.0715236E-2,4.7556683E-2,-3.6517914E-2,-1.7831953E-3,-2.0528985E-2,1.605053E-2,-3.9874945E-2,-6.8325866E-3,-1.7182609E-2,5.4392675E-3,-3.2051403E-2,-1.1935763E-2,1.8953893E-2,-2.55272E-3,-1.0872703E-2,9.872444E-3,1.1129868E-2,3.6132697E-2,2.5197873E-2,-7.961907E-3,1.052878E-2,-1.08188195E-2,-2.3660075E-2,-4.601419E-2,-6.092914E-3,-3.6640983E-2,1.9963302E-2,-1.7954174E-2,-4.386591E-2,-2.0004373E-2,2.2086423E-2,-1.7056677E-3,1.2163972E-2,-2.6152628E-2,1.368675E-2,4.299074E-2,2.7311087E-2,-9.659267E-3,-3.3629656E-2,-2.4634853E-3,3.610323E-2,-1.2941882E-2],"split_indices":[60,63,55,1,1,66,56,63,56,66,94,1,56,1,86,64,94,94,26,11,25,65,63,64,79,63,64,21,63,0,65,21,28,55,55,55,55,0,68,81,59,50,31,26,55,55,25,37,56,66,82,0,2,0,0,81,37,63,48,27,63,0,0,0,0,0,0,0,0,0,0,0,0,0,0,0,0,0,0,0,0,0,0,0,0,0,0,0,0,0,0,0,0,0,0,0,0,0,0,0,0,0,0,0,0,0,0,0,0,0,0,0,0],"split_type":[0,0,0,0,0,0,0,0,0,0,0,0,0,0,0,0,0,0,0,0,0,0,0,0,0,0,0,0,0,0,0,0,0,0,0,0,0,0,0,0,0,0,0,0,0,0,0,0,0,0,0,0,0,0,0,0,0,0,0,0,0,0,0,0,0,0,0,0,0,0,0,0,0,0,0,0,0,0,0,0,0,0,0,0,0,0,0,0,0,0,0,0,0,0,0,0,0,0,0,0,0,0,0,0,0,0,0,0,0,0,0,0,0],"sum_hessian":[2.7325647E3,2.145137E3,5.874276E2,1.1459192E3,9.9921796E2,4.444134E2,1.4301422E2,4.902095E2,6.5570966E2,4.634222E2,5.357957E2,3.0646536E2,1.3794803E2,1.0180307E2,4.1211143E1,1.6475568E2,3.2545383E2,6.4234406E2,1.3365609E1,9.646641E1,3.669558E2,3.7454907E2,1.6124664E2,2.7216287E2,3.430249E1,4.1538525E1,9.64095E1,4.4283817E1,5.7519257E1,3.8715432E0,3.7339603E1,5.20479E1,1.1270777E2,1.3678516E2,1.8866866E2,4.2918387E2,2.1316019E2,2.4721038E0,1.0893506E1,2.5143293E1,7.132311E1,2.1461745E2,1.5233836E2,8.568789E1,2.8886118E2,1.1032658E2,5.0920063E1,8.601877E1,1.861441E2,6.934416E0,2.7368074E1,3.654289E0,3.7884235E1,3.14676E0,9.326274E1,2.8116142E1,1.6167675E1,3.9573357E1,1.79459E1,3.1144503E1,6.1951E0,4.3131916E1,8.915984E0,7.7420105E1,3.5287663E1,1.2496201E2,1.1823141E1,1.7185295E2,1.681571E1,3.690899E2,6.009396E1,1.7540668E2,3.77535E1,8.639515E0,2.2539904E0,7.0094123E0,1.813388E1,7.4637837E0,6.385933E1,1.8611073E2,2.8506714E1,1.3381082E2,1.8527552E1,4.569782E1,3.999007E1,2.2565381E2,6.3207375E1,8.791944E1,2.2407131E1,1.1473333E1,3.944673E1,2.0457249E1,6.556152E1,1.5927692E2,2.686718E1,2.5051877E0,4.429228E0,2.1648186E1,5.7198887E0,1.860907E1,1.9275166E1,1.6376818E1,1.1739325E1,2.3297448E0,1.383793E1,1.4435012E1,2.5138344E1,7.7819223E0,1.0163978E1,2.0763304E1,1.0381199E1,2.0107274E0,4.1843724E0],"tree_param":{"num_deleted":"0","num_feature":"102","num_nodes":"113","size_leaf_vector":"1"}},{"base_weights":[-1.3164664E-2,-3.515014E-1,3.923897E-1,1.0064451E-1,-5.0709367E-1,4.8493323E-1,-7.3502666E-1,-1.6334686E-1,7.0116335E-1,-6.1479294E-1,2.6580217E-1,6.982357E-1,1.1037966E-1,-1.0420876E0,-2.034634E-1,5.173328E-2,-3.693535E-1,8.52395E-1,-2.2367083E-1,-4.524562E-1,-1.1976564E0,3.9308882E-1,-7.533136E-1,5.932567E-1,1.187598E0,-3.7334573E-2,5.9191173E-1,1.9609096E-2,-1.1458776E0,-5.3608376E-1,7.7463377E-1,-2.2023249E-1,2.3503155E-1,-1.2476982E0,-2.5405174E-1,1.255277E0,5.676293E-1,3.4834838E-1,-6.1295885E-1,-9.2499983E-1,-3.2545868E-1,-9.307435E-1,-1.5362611E0,7.100422E-1,4.046084E-2,-1.0505196E0,1.4693881E-2,6.483872E-1,-9.04324E-1,1.2719716E0,3.705997E-2,8.726933E-2,-9.5455945E-1,-4.0783587E-1,7.1989185E-1,-0E0,-1.2425714E0,3.5300842E-1,-9.8307705E-1,-5.1028947E-3,1.094055E0,-1.492209E-2,1.1453344E-2,2.1273168E-2,8.952E-4,-4.1492667E-2,-1.6284911E-2,-1.4052849E-2,1.2637569E-3,4.0636938E-2,-0E0,2.6611889E-2,-1.0811631E-3,3.0598897E-2,-1.4558336E-2,-2.8381392E-2,2.7288077E-3,-4.2671014E-2,-2.4635362E-2,-6.9395257E-3,-3.1264614E-2,-2.9654197E-2,7.687363E-3,-4.6972435E-2,-3.645606E-3,2.4317559E-2,-1.1512581E-2,6.7945127E-3,-2.284857E-2,-3.2107672E-3,-3.7812207E-2,2.2116177E-2,-1.3222035E-3,-0E0,-3.6791913E-2,4.0197663E-2,1.9002362E-3,-1.6650729E-2,2.861616E-2,-1.0870281E-3,1.511722E-2,1.1450772E-2,-3.2367706E-2,-2.5060175E-2,2.2425605E-2,-1.203151E-2,2.3960963E-2,-2.0551085E-2,2.0584239E-2,3.744834E-3,-3.9825104E-2,2.8593639E-2,-2.5837265E-2,-4.130588E-4,-3.5181478E-2,1.0815805E-2,4.230681E-2],"categories":[],"categories_nodes":[],"categories_segments":[],"categories_sizes":[],"default_left":[0,0,0,0,0,0,0,0,0,0,0,0,0,0,0,0,0,0,0,0,0,0,0,0,0,0,0,0,0,0,0,0,0,0,0,0,0,0,0,0,0,0,0,0,0,0,0,0,0,0,0,0,0,0,0,0,0,0,0,0,0,0,0,0,0,0,0,0,0,0,0,0,0,0,0,0,0,0,0,0,0,0,0,0,0,0,0,0,0,0,0,0,0,0,0,0,0,0,0,0,0,0,0,0,0,0,0,0,0,0,0,0,0,0,0,0,0],"id":3,"left_children":[1,3,5,7,9,11,13,15,17,19,21,23,25,27,29,31,33,35,37,39,41,43,45,47,49,51,53,-1,55,57,59,61,63,65,67,69,71,73,75,77,79,81,83,85,87,89,-1,91,93,95,97,99,101,103,105,107,109,111,113,-1,115,-1,-1,-1,-1,-1,-1,-1,-1,-1,-1,-1,-1,-1,-1,-1,-1,-1,-1,-1,-1,-1,-1,-1,-1,-1,-1,-1,-1,-1,-1,-1,-1,-1,-1,-1,-1,-1,-1,-1,-1,-1,-1,-1,-1,-1,-1,-1,-1,-1,-1,-1,-1,-1,-1,-1,-1],"loss_changes":[3.773137E2,1.0562758E2,1.3084355E2,6.1208767E1,9.3168E1,9.214075E1,1.5030243E1,1.1955013E1,1.6842709E1,9.1762726E1,1.806909E1,3.6623566E1,3.0110725E1,1.1520882E1,1.23499975E1,6.6266584E0,1.3238569E1,1.0454346E1,4.1687975E0,4.5528E1,1.6998291E1,1.354582E1,6.441601E0,5.0930542E1,1.2157425E1,3.722132E1,1.3121239E1,0E0,6.3452454E0,1.1732064E1,3.3111162E0,9.123718E0,7.574813E0,1.87397E-1,7.931363E0,4.9391403E0,1.2182976E1,4.942571E0,2.843237E0,6.508377E0,4.0489105E1,8.825356E0,3.2515259E0,7.532791E0,9.01095E0,2.1367683E0,0E0,3.635257E1,6.6445637E0,9.434799E0,6.2403836E0,1.4807508E1,7.107647E0,6.6242027E0,8.295181E0,3.1963553E0,6.5355835E0,8.4017E0,3.2731705E0,0E0,7.7722454E-1,0E0,0E0,0E0,0E0,0E0,0E0,0E0,0E0,0E0,0E0,0E0,0E0,0E0,0E0,0E0,0E0,0E0,0E0,0E0,0E0,0E0,0E0,0E0,0E0,0E0,0E0,0E0,0E0,0E0,0E0,0E0,0E0,0E0,0E0,0E0,0E0,0E0,0E0,0E0,0E0,0E0,0E0,0E0,0E0,0E0,0E0,0E0,0E0,0E0,0E0,0E0,0E0,0E0,0E0,0E0,0E0],"parents":[2147483647,0,0,1,1,2,2,3,3,4,4,5,5,6,6,7,7,8,8,9,9,10,10,11,11,12,12,13,13,14,14,15,15,16,16,17,17,18,18,19,19,20,20,21,21,22,22,23,23,24,24,25,25,26,26,28,28,29,29,30,30,31,31,32,32,33,33,34,34,35,35,36,36,37,37,38,38,39,39,40,40,41,41,42,42,43,43,44,44,45,45,47,47,48,48,49,49,50,50,51,51,52,52,53,53,54,54,55,55,56,56,57,57,58,58,60,60],"right_children":[2,4,6,8,10,12,14,16,18,20,22,24,26,28,30,32,34,36,38,40,42,44,46,48,50,52,54,-1,56,58,60,62,64,66,68,70,72,74,76,78,80,82,84,86,88,90,-1,92,94,96,98,100,102,104,106,108,110,112,114,-1,116,-1,-1,-1,-1,-1,-1,-1,-1,-1,-1,-1,-1,-1,-1,-1,-1,-1,-1,-1,-1,-1,-1,-1,-1,-1,-1,-1,-1,-1,-1,-1,-1,-1,-1,-1,-1,-1,-1,-1,-1,-1,-1,-1,-1,-1,-1,-1,-1,-1,-1,-1,-1,-1,-1,-1,-1],"split_conditions":[2.5E1,4E0,4E0,1E0,1E0,1.284E3,7.44E-1,1.365E3,4E0,1E0,6.6E1,1E0,1E0,-3.0937392E-2,1.5E0,4E0,3E0,2E0,2E0,1.3888247E-2,5.7097954E-1,1.284E3,7E1,1.1E1,5.8E1,6.830968E-1,1.15068495E-1,1.9609096E-2,1.9E1,7E0,2.95E1,1.5225603E-1,-8.941609E-2,1.7512199E-2,4.75E1,1.4130779E-1,7.2E-1,3.8E-1,6.8998995E0,-7.515836E-2,5E1,8.539995E-2,9.2526525E-2,5.308345E-1,5.370021E-2,-6.801632E-2,1.4693881E-2,1E0,5.89E-1,9.355914E0,4.6666668E1,4E1,1E0,1.4871461E-2,-1.3937609E-1,3.6E1,2E0,1.500556E-2,5E0,-5.1028947E-3,2.0879203E-1,-1.492209E-2,1.1453344E-2,2.1273168E-2,8.952E-4,-4.1492667E-2,-1.6284911E-2,-1.4052849E-2,1.2637569E-3,4.0636938E-2,-0E0,2.6611889E-2,-1.0811631E-3,3.0598897E-2,-1.4558336E-2,-2.8381392E-2,2.7288077E-3,-4.2671014E-2,-2.4635362E-2,-6.9395257E-3,-3.1264614E-2,-2.9654197E-2,7.687363E-3,-4.6972435E-2,-3.645606E-3,2.4317559E-2,-1.1512581E-2,6.7945127E-3,-2.284857E-2,-3.2107672E-3,-3.7812207E-2,2.2116177E-2,-1.3222035E-3,-0E0,-3.6791913E-2,4.0197663E-2,1.9002362E-3,-1.6650729E-2,2.861616E-2,-1.0870281E-3,1.511722E-2,1.1450772E-2,-3.2367706E-2,-2.5060175E-2,2.2425605E-2,-1.203151E-2,2.3960963E-2,-2.0551085E-2,2.0584239E-2,3.744834E-3,-3.9825104E-2,2.8593639E-2,-2.5837265E-2,-4.130588E-4,-3.5181478E-2,1.0815805E-2,4.230681E-2],"split_indices":[1,90,56,49,55,63,53,63,56,60,95,55,55,82,22,59,59,90,90,97,66,63,95,91,95,66,92,0,95,58,94,97,27,41,94,45,52,99,97,70,90,75,29,26,30,43,0,60,53,48,94,1,24,73,41,1,90,70,89,0,68,0,0,0,0,0,0,0,0,0,0,0,0,0,0,0,0,0,0,0,0,0,0,0,0,0,0,0,0,0,0,0,0,0,0,0,0,0,0,0,0,0,0,0,0,0,0,0,0,0,0,0,0,0,0,0,0],"split_type":[0,0,0,0,0,0,0,0,0,0,0,0,0,0,0,0,0,0,0,0,0,0,0,0,0,0,0,0,0,0,0,0,0,0,0,0,0,0,0,0,0,0,0,0,0,0,0,0,0,0,0,0,0,0,0,0,0,0,0,0,0,0,0,0,0,0,0,0,0,0,0,0,0,0,0,0,0,0,0,0,0,0,0,0,0,0,0,0,0,0,0,0,0,0,0,0,0,0,0,0,0,0,0,0,0,0,0,0,0,0,0,0,0,0,0,0,0],"sum_hessian":[2.7474736E3,1.498223E3,1.2492506E3,3.8335233E2,1.1148707E3,1.1552811E3,9.396953E1,2.6666534E2,1.16687E2,9.789614E2,1.3590929E2,7.350885E2,4.201926E2,5.8593735E1,3.5375793E1,1.3042433E2,1.3624101E2,1.00554306E2,1.6132692E1,7.6763696E2,2.113245E2,1.2164884E2,1.426044E1,6.0777155E2,1.2731695E2,3.2208255E2,9.811006E1,2.9016898E0,5.5692043E1,2.6955753E1,8.420038E0,5.1974743E1,7.8449585E1,1.4240431E1,1.2200057E2,3.9656647E1,6.089766E1,6.3761005E0,9.756592E0,1.6067354E2,6.0696344E2,1.21018265E2,9.030622E1,6.3125843E1,5.8523E1,1.1788751E1,2.4716887E0,5.869772E2,2.0794409E1,1.1833824E2,8.978706E0,2.843251E2,3.7757446E1,1.0658878E1,8.745119E1,4.40022E0,5.1291824E1,8.9528885E0,1.8002865E1,2.1110835E0,6.308955E0,3.5959457E1,1.6015287E1,2.2513275E1,5.593631E1,1.0739261E1,3.5011694E0,7.0760574E1,5.1240005E1,3.657855E1,3.0780973E0,3.9672657E1,2.1225004E1,3.5155032E0,2.8605974E0,6.5354433E0,3.2211483E0,2.4782652E1,1.3589088E2,5.381424E2,6.8821045E1,1.1575753E2,5.260738E0,8.819849E1,2.107735E0,5.826372E1,4.862121E0,4.840674E1,1.011626E1,2.6483908E0,9.14036E0,5.204347E2,6.6542465E1,5.61754E0,1.5176869E1,1.117592E2,6.5790453E0,5.610678E0,3.3680284E0,2.197889E2,6.45362E1,2.8665166E0,3.489093E1,8.149062E0,2.5098157E0,5.255323E0,8.219586E1,2.178405E0,2.2218149E0,2.828863E0,4.846296E1,6.2745996E0,2.6782882E0,3.3289971E0,1.4673868E1,2.8643928E0,3.4445624E0],"tree_param":{"num_deleted":"0","num_feature":"102","num_nodes":"117","size_leaf_vector":"1"}},{"base_weights":[-4.2164694E-3,-3.359727E-1,3.910571E-1,9.940685E-2,-4.8844597E-1,4.8524094E-1,-7.5717765E-1,-1.9682327E-1,4.8814103E-1,-5.932665E-1,2.5979158E-1,-2.7054802E-2,5.906616E-1,-1.0805987E0,-1.7442551E-1,-5.4796547E-1,4.137505E-2,6.364283E-1,-3.8012546E-1,-4.3919086E-1,-1.0974146E0,4.0587232E-1,-5.042765E-1,-2.2977144E-1,3.2014498E-1,4.4087484E-1,8.7826073E-1,-5.26191E-1,-1.4548212E0,-5.006247E-1,6.67572E-1,2.615593E-1,-6.062741E-1,3.981721E-1,-1.203811E-1,7.8727025E-1,9.5164016E-2,-1.414632E-1,-1.0292226E0,-3.182115E-1,-9.1812783E-1,-9.378909E-1,-1.5209094E0,6.411446E-1,3.778008E-2,-8.81344E-1,5.2790123E-1,-2.889856E-1,9.868066E-1,-3.9211947E-1,4.765229E-1,1.382695E-1,6.255626E-1,7.573859E-1,1.2419254E0,-7.4606806E-1,2.2191668E-2,-7.902947E-3,-1.5245662E0,-8.7545186E-1,3.499905E-1,-0E0,1.009916E0,2.9154409E-2,-9.903816E-3,1.6773263E-2,-1.9943137E-2,-9.07107E-3,2.3313608E-2,2.4588103E-3,-2.0902421E-2,2.5604978E-2,-1.4481031E-2,1.1291027E-2,-2.2535201E-2,7.6658675E-3,-2.479163E-2,-4.9300995E-3,-4.1081622E-2,-6.032121E-3,-2.7420765E-2,-2.3666564E-2,-3.916565E-2,-4.6275514E-3,-3.0195901E-2,-4.6755984E-2,-8.812085E-3,2.10677E-2,-2.2502618E-2,2.752543E-2,-7.777223E-3,1.7847796E-3,-3.1131374E-2,3.350081E-2,-8.558933E-3,-1.4615237E-2,2.9353423E-3,3.8213506E-2,6.337604E-3,-3.3714075E-2,1.6059248E-2,2.0311413E-2,-1.0606815E-2,-4.1543623E-3,1.7382858E-2,2.0605313E-2,2.211825E-3,2.5108859E-2,-2.9132282E-4,1.7103324E-2,4.210886E-2,-3.0432371E-2,1.5859472E-3,-6.7834537E-3,-4.8272192E-2,-3.8376603E-2,-7.4884464E-4,2.6735412E-2,-7.832651E-3,6.9182287E-3,4.120057E-2],"categories":[],"categories_nodes":[],"categories_segments":[],"categories_sizes":[],"default_left":[0,0,0,0,0,0,0,0,0,0,0,0,0,0,0,0,0,0,0,0,0,0,0,0,0,0,0,0,0,0,0,0,0,0,0,0,0,0,0,0,0,0,0,0,0,0,0,0,0,0,0,0,0,0,0,0,0,0,0,0,0,0,0,0,0,0,0,0,0,0,0,0,0,0,0,0,0,0,0,0,0,0,0,0,0,0,0,0,0,0,0,0,0,0,0,0,0,0,0,0,0,0,0,0,0,0,0,0,0,0,0,0,0,0,0,0,0,0,0,0,0],"id":4,"left_children":[1,3,5,7,9,11,13,15,17,19,21,23,25,27,29,31,33,35,37,39,41,43,45,47,49,51,53,55,57,59,61,63,65,67,69,71,73,75,77,79,81,83,85,87,89,91,93,95,97,99,101,103,105,107,109,111,-1,-1,113,115,117,-1,119,-1,-1,-1,-1,-1,-1,-1,-1,-1,-1,-1,-1,-1,-1,-1,-1,-1,-1,-1,-1,-1,-1,-1,-1,-1,-1,-1,-1,-1,-1,-1,-1,-1,-1,-1,-1,-1,-1,-1,-1,-1,-1,-1,-1,-1,-1,-1,-1,-1,-1,-1,-1,-1,-1,-1,-1,-1,-1],"loss_changes":[3.5853522E2,9.883525E1,1.3528545E2,4.4656956E1,8.665909E1,6.2440308E1,1.7403042E1,1.851239E1,2.1933258E1,7.4222595E1,1.540268E1,1.3986333E1,4.0506287E1,1.1249115E1,1.0121063E1,4.472479E0,7.716007E0,1.1480862E1,3.4666793E0,4.2446808E1,1.3012665E1,9.797308E0,9.245668E0,9.2720375E0,8.374632E0,3.507917E1,1.2807587E1,8.0393715E0,2.0901947E0,8.9065895E0,2.3540454E0,3.289101E0,6.1836166E0,1.1462135E1,1.0824823E1,9.994553E0,8.121026E0,5.7807856E0,1.279346E0,4.1101795E1,5.7975006E0,8.56842E0,1.8206024E0,6.554611E0,1.2557649E1,2.7423344E0,3.6763022E0,9.422159E0,7.0621014E-1,1.0050782E1,1.0447136E1,2.967948E1,1.3039368E1,1.5329926E1,7.2347717E0,5.253957E0,0E0,0E0,2.8063202E0,6.179826E0,3.3105135E0,0E0,1.2224584E0,0E0,0E0,0E0,0E0,0E0,0E0,0E0,0E0,0E0,0E0,0E0,0E0,0E0,0E0,0E0,0E0,0E0,0E0,0E0,0E0,0E0,0E0,0E0,0E0,0E0,0E0,0E0,0E0,0E0,0E0,0E0,0E0,0E0,0E0,0E0,0E0,0E0,0E0,0E0,0E0,0E0,0E0,0E0,0E0,0E0,0E0,0E0,0E0,0E0,0E0,0E0,0E0,0E0,0E0,0E0,0E0,0E0,0E0],"parents":[2147483647,0,0,1,1,2,2,3,3,4,4,5,5,6,6,7,7,8,8,9,9,10,10,11,11,12,12,13,13,14,14,15,15,16,16,17,17,18,18,19,19,20,20,21,21,22,22,23,23,24,24,25,25,26,26,27,27,28,28,29,29,30,30,31,31,32,32,33,33,34,34,35,35,36,36,37,37,38,38,39,39,40,40,41,41,42,42,43,43,44,44,45,45,46,46,47,47,48,48,49,49,50,50,51,51,52,52,53,53,54,54,55,55,58,58,59,59,60,60,62,62],"right_children":[2,4,6,8,10,12,14,16,18,20,22,24,26,28,30,32,34,36,38,40,42,44,46,48,50,52,54,56,58,60,62,64,66,68,70,72,74,76,78,80,82,84,86,88,90,92,94,96,98,100,102,104,106,108,110,112,-1,-1,114,116,118,-1,120,-1,-1,-1,-1,-1,-1,-1,-1,-1,-1,-1,-1,-1,-1,-1,-1,-1,-1,-1,-1,-1,-1,-1,-1,-1,-1,-1,-1,-1,-1,-1,-1,-1,-1,-1,-1,-1,-1,-1,-1,-1,-1,-1,-1,-1,-1,-1,-1,-1,-1,-1,-1,-1,-1,-1,-1,-1,-1],"split_conditions":[2.5E1,1.609438E0,4E0,1.3871379E-1,1E0,1.0959551E-1,7.44E-1,4E0,4E0,3.1E1,5.7E1,6.1E1,6.75E1,7.2E-1,8.044516E-4,2.14E1,1.232E3,5.263158E-1,3.365488E-2,1.561E3,4E0,2E0,1E0,1E0,4.8219177E-1,9.8630136E-1,1E0,7.125265E-2,1.9E1,7.45E1,3.31E2,-6.7186016E-3,-9.431431E-2,-2.3057267E-2,1.3862944E0,5.9082925E-2,5.6666666E-1,1.0358286E-2,-1.0598674E-2,1E0,3.6505543E-2,1.5E1,1.22621395E-1,6.841316E-2,-5.2362137E-2,2.375E1,-8.763711E-3,2E0,2.5472531E-2,3E1,1E0,1E0,1E0,3.9318256E0,2.1369863E-1,9.6712327E-1,2.2191668E-2,-7.902947E-3,-3.2956917E-2,-1.1497818E-2,4.7446854E-2,-0E0,-2.7100328E-2,2.9154409E-2,-9.903816E-3,1.6773263E-2,-1.9943137E-2,-9.07107E-3,2.3313608E-2,2.4588103E-3,-2.0902421E-2,2.5604978E-2,-1.4481031E-2,1.1291027E-2,-2.2535201E-2,7.6658675E-3,-2.479163E-2,-4.9300995E-3,-4.1081622E-2,-6.032121E-3,-2.7420765E-2,-2.3666564E-2,-3.916565E-2,-4.6275514E-3,-3.0195901E-2,-4.6755984E-2,-8.812085E-3,2.10677E-2,-2.2502618E-2,2.752543E-2,-7.777223E-3,1.7847796E-3,-3.1131374E-2,3.350081E-2,-8.558933E-3,-1.4615237E-2,2.9353423E-3,3.8213506E-2,6.337604E-3,-3.3714075E-2,1.6059248E-2,2.0311413E-2,-1.0606815E-2,-4.1543623E-3,1.7382858E-2,2.0605313E-2,2.211825E-3,2.5108859E-2,-2.9132282E-4,1.7103324E-2,4.210886E-2,-3.0432371E-2,1.5859472E-3,-6.7834537E-3,-4.8272192E-2,-3.8376603E-2,-7.4884464E-4,2.6735412E-2,-7.832651E-3,6.9182287E-3,4.120057E-2],"split_indices":[1,64,56,97,55,97,53,59,56,95,95,94,94,99,72,94,25,98,30,25,56,56,5,55,92,92,55,81,95,94,47,32,73,28,64,42,21,82,34,60,42,94,73,42,69,94,42,18,69,1,60,55,60,64,92,92,0,0,75,42,83,0,42,0,0,0,0,0,0,0,0,0,0,0,0,0,0,0,0,0,0,0,0,0,0,0,0,0,0,0,0,0,0,0,0,0,0,0,0,0,0,0,0,0,0,0,0,0,0,0,0,0,0,0,0,0,0,0,0,0,0],"split_type":[0,0,0,0,0,0,0,0,0,0,0,0,0,0,0,0,0,0,0,0,0,0,0,0,0,0,0,0,0,0,0,0,0,0,0,0,0,0,0,0,0,0,0,0,0,0,0,0,0,0,0,0,0,0,0,0,0,0,0,0,0,0,0,0,0,0,0,0,0,0,0,0,0,0,0,0,0,0,0,0,0,0,0,0,0,0,0,0,0,0,0,0,0,0,0,0,0,0,0,0,0,0,0,0,0,0,0,0,0,0,0,0,0,0,0,0,0,0,0,0,0],"sum_hessian":[2.7317852E3,1.4855975E3,1.2461877E3,3.850923E2,1.1005052E3,1.1525195E3,9.366823E1,2.1859363E2,1.6649867E2,9.657318E2,1.3477339E2,1.9651964E2,9.559999E2,5.9357246E1,3.431098E1,8.80593E1,1.3053432E2,1.426815E2,2.3817162E1,7.4169904E2,2.240328E2,1.1383401E2,2.0939386E1,1.24696205E2,7.182343E1,6.3106494E2,3.2493494E2,2.5298895E1,3.4058353E1,2.5252089E1,9.058891E0,5.4050946E0,8.2654205E1,4.055713E1,8.997719E1,1.10869095E2,3.181241E1,1.8708136E1,5.1090255E0,5.9405566E2,1.476434E2,1.6587874E2,5.815406E1,6.857173E1,4.526227E1,1.5607056E1,5.3323307E0,1.1993784E2,4.758355E0,1.2374145E1,5.9449284E1,2.4038411E2,3.9068082E2,2.4706468E2,7.787024E1,2.2109459E1,3.1894357E0,2.35915E0,3.1699202E1,1.7667095E1,7.5849934E0,3.4682841E0,5.590607E0,2.2596793E0,3.1454153E0,3.2963188E0,7.935789E1,1.413719E1,2.6419939E1,6.710233E1,2.2874855E1,1.05897545E2,4.971549E0,2.455609E1,7.256321E0,1.2134887E1,6.57325E0,2.1105437E0,2.9984818E0,4.9807214E2,9.5983505E1,1.1382802E2,3.3815376E1,1.390773E1,1.5197101E2,5.5951656E1,2.2024016E0,6.6393326E1,2.1784055E0,1.0961709E1,3.4300564E1,2.1479135E0,1.3459143E1,2.9758048E0,2.3565261E0,7.944214E1,4.049571E1,2.7222571E0,2.0360978E0,6.8955464E0,5.478598E0,4.8254547E1,1.11947365E1,1.4794507E2,9.243904E1,3.5104172E2,3.963909E1,2.2398105E2,2.308364E1,1.6400434E1,6.1469807E1,1.6495619E1,5.613839E0,2.3511577E0,2.9348043E1,1.1410103E1,6.2569923E0,3.9043906E0,3.680603E0,2.5768511E0,3.013756E0],"tree_param":{"num_deleted":"0","num_feature":"102","num_nodes":"121","size_leaf_vector":"1"}},{"base_weights":[1.1801763E-2,-3.0207717E-1,3.915833E-1,1.499687E-1,-4.586662E-1,4.7777385E-1,-6.0123134E-1,-1.568581E-1,5.120123E-1,-3.7294266E-1,-1.2174704E0,6.7318684E-1,1.2934934E-1,1.101305E-1,-7.815244E-1,-6.7660975E-1,-4.5083944E-2,6.3820577E-1,-3.33192E-1,-4.7781748E-1,4.600783E-1,-1.4175246E0,-4.9466944E-1,5.6866336E-1,1.1732297E0,-2.525206E-2,6.159684E-1,7.412233E-1,-4.034466E-1,2.401055E-2,-8.7184066E-1,1.18002575E-2,-7.683358E-1,3.8094025E-2,-6.9363385E-1,1.0099556E0,3.6370087E-1,2.9546848E-1,-7.124105E-1,-2.0285612E-1,-6.742829E-1,7.227952E-1,5.4539345E-2,-8.288188E-1,-1.4980172E0,-1.0941727E0,-2.5769463E-2,6.2972444E-1,-6.385933E-1,1.2512063E0,1.4420813E-1,9.087406E-2,-1.0334276E0,7.133932E-1,-4.8575094E-1,-1.107652E-2,1.139127E0,-7.2813565E-1,1.4555592E-2,2.0406654E-2,-9.5032465E-1,-2.5387647E-2,4.712202E-3,2.7028363E-2,-6.5340695E-4,7.7294135E-3,-2.691544E-2,3.290856E-2,-0E0,1.30820805E-2,-1.8233152E-2,2.1637397E-2,-2.0486211E-2,-2.7539926E-2,5.949552E-3,-2.1240127E-3,-2.3902444E-2,-1.7940119E-2,-3.758005E-2,1.0168075E-2,2.8200654E-2,-2.3472508E-2,1.3263542E-2,-3.7016883E-2,1.9759003E-3,-4.598642E-2,-1.7741261E-2,-1.6615627E-3,-3.9628625E-2,8.379871E-3,-3.4542717E-2,2.127799E-2,-1.0731466E-3,7.64198E-3,-3.190061E-2,4.0663E-2,2.2756629E-2,-6.026819E-3,2.7470406E-2,-1.6747948E-3,1.1938828E-2,1.5851075E-4,-3.5084773E-2,2.3114469E-2,-2.8541032E-2,9.429455E-3,-2.9382825E-2,1.1113377E-2,4.3652248E-2,-3.9968096E-2,3.5198682E-3,-3.1161893E-2,4.5626713E-3],"categories":[],"categories_nodes":[],"categories_segments":[],"categories_sizes":[],"default_left":[0,0,0,0,0,0,0,0,0,0,0,0,0,0,0,0,0,0,0,0,0,0,0,0,0,0,0,0,0,0,0,0,0,0,0,0,0,0,0,0,0,0,0,0,0,0,0,0,0,0,0,0,0,0,0,0,0,0,0,0,0,0,0,0,0,0,0,0,0,0,0,0,0,0,0,0,0,0,0,0,0,0,0,0,0,0,0,0,0,0,0,0,0,0,0,0,0,0,0,0,0,0,0,0,0,0,0,0,0,0,0,0,0],"id":5,"left_children":[1,3,5,7,9,11,13,15,17,19,21,23,25,27,29,31,33,35,37,39,41,43,45,47,49,51,53,55,57,-1,59,-1,61,63,65,67,69,71,73,75,77,79,81,83,85,87,89,91,93,95,97,99,101,103,105,-1,107,109,-1,-1,111,-1,-1,-1,-1,-1,-1,-1,-1,-1,-1,-1,-1,-1,-1,-1,-1,-1,-1,-1,-1,-1,-1,-1,-1,-1,-1,-1,-1,-1,-1,-1,-1,-1,-1,-1,-1,-1,-1,-1,-1,-1,-1,-1,-1,-1,-1,-1,-1,-1,-1,-1,-1],"loss_changes":[3.2718356E2,1.0649159E2,1.0661429E2,4.316931E1,7.1761215E1,7.761273E1,1.300782E1,1.2027827E1,1.931823E1,8.80775E1,1.5052414E1,3.711801E1,3.1196117E1,7.2200675E0,1.2253967E1,4.048582E0,9.579459E0,1.5166084E1,5.9924183E0,4.792926E1,1.1814068E1,2.1815948E0,7.1804647E0,4.5317505E1,9.544205E0,3.70803E1,1.1183964E1,5.0780773E0,3.9806428E0,0E0,1.0110981E1,0E0,2.782587E0,8.237112E0,4.312497E0,5.8259583E0,6.731205E0,4.5880775E0,3.23638E0,2.9130894E1,2.1682083E1,5.0362434E0,1.5249098E1,5.2185907E0,8.5847473E-1,2.3217983E0,6.145932E0,3.0852142E1,1.1764192E1,4.298294E0,3.119415E0,1.2827337E1,4.8649864E0,9.6284485E0,3.9242616E0,0E0,8.7992764E-1,5.3082614E0,0E0,0E0,7.495926E0,0E0,0E0,0E0,0E0,0E0,0E0,0E0,0E0,0E0,0E0,0E0,0E0,0E0,0E0,0E0,0E0,0E0,0E0,0E0,0E0,0E0,0E0,0E0,0E0,0E0,0E0,0E0,0E0,0E0,0E0,0E0,0E0,0E0,0E0,0E0,0E0,0E0,0E0,0E0,0E0,0E0,0E0,0E0,0E0,0E0,0E0,0E0,0E0,0E0,0E0,0E0,0E0],"parents":[2147483647,0,0,1,1,2,2,3,3,4,4,5,5,6,6,7,7,8,8,9,9,10,10,11,11,12,12,13,13,14,14,15,15,16,16,17,17,18,18,19,19,20,20,21,21,22,22,23,23,24,24,25,25,26,26,27,27,28,28,30,30,32,32,33,33,34,34,35,35,36,36,37,37,38,38,39,39,40,40,41,41,42,42,43,43,44,44,45,45,46,46,47,47,48,48,49,49,50,50,51,51,52,52,53,53,54,54,56,56,57,57,60,60],"right_children":[2,4,6,8,10,12,14,16,18,20,22,24,26,28,30,32,34,36,38,40,42,44,46,48,50,52,54,56,58,-1,60,-1,62,64,66,68,70,72,74,76,78,80,82,84,86,88,90,92,94,96,98,100,102,104,106,-1,108,110,-1,-1,112,-1,-1,-1,-1,-1,-1,-1,-1,-1,-1,-1,-1,-1,-1,-1,-1,-1,-1,-1,-1,-1,-1,-1,-1,-1,-1,-1,-1,-1,-1,-1,-1,-1,-1,-1,-1,-1,-1,-1,-1,-1,-1,-1,-1,-1,-1,-1,-1,-1,-1,-1,-1],"split_conditions":[2.5E1,1.609438E0,5E0,1.2329805E-1,4E0,1.284E3,-1.2113112E-2,3E0,4E0,1E0,1E0,1E0,1E0,2.3333333E-1,-3.9354753E-2,1E0,6.091453E-2,1.0986123E0,-1.6198248E-2,1E0,4.9E1,5E0,1.3602124E-1,1.1249295E0,5.7E1,7.4193734E-1,8.629602E-2,-3.9536472E-2,9.6E-1,2.401055E-2,1.0986123E0,1.18002575E-2,2E0,-7.9326525E-2,-6.024361E-2,4.4244792E-2,9.273152E-2,2E0,9.277654E-3,3.1E1,4.7E1,0E0,-6.8950385E-2,1.7408112E-2,3E2,2.1E1,1.141E3,1E0,8E0,5.263158E-1,1.6E0,3.7E1,1E0,6E0,6E0,-1.107652E-2,5E1,-3.5626072E-2,1.4555592E-2,2.0406654E-2,5.4E1,-2.5387647E-2,4.712202E-3,2.7028363E-2,-6.5340695E-4,7.7294135E-3,-2.691544E-2,3.290856E-2,-0E0,1.30820805E-2,-1.8233152E-2,2.1637397E-2,-2.0486211E-2,-2.7539926E-2,5.949552E-3,-2.1240127E-3,-2.3902444E-2,-1.7940119E-2,-3.758005E-2,1.0168075E-2,2.8200654E-2,-2.3472508E-2,1.3263542E-2,-3.7016883E-2,1.9759003E-3,-4.598642E-2,-1.7741261E-2,-1.6615627E-3,-3.9628625E-2,8.379871E-3,-3.4542717E-2,2.127799E-2,-1.0731466E-3,7.64198E-3,-3.190061E-2,4.0663E-2,2.2756629E-2,-6.026819E-3,2.7470406E-2,-1.6747948E-3,1.1938828E-2,1.5851075E-4,-3.5084773E-2,2.3114469E-2,-2.8541032E-2,9.429455E-3,-2.9382825E-2,1.1113377E-2,4.3652248E-2,-3.9968096E-2,3.5198682E-3,-3.1161893E-2,4.5626713E-3],"split_indices":[1,64,58,97,56,63,76,59,56,55,55,55,55,21,82,24,45,64,31,11,95,58,26,66,95,66,74,42,53,0,64,0,56,86,38,87,31,24,36,95,90,84,38,36,93,90,25,60,90,98,2,1,24,24,89,0,93,87,0,0,1,0,0,0,0,0,0,0,0,0,0,0,0,0,0,0,0,0,0,0,0,0,0,0,0,0,0,0,0,0,0,0,0,0,0,0,0,0,0,0,0,0,0,0,0,0,0,0,0,0,0,0,0],"split_type":[0,0,0,0,0,0,0,0,0,0,0,0,0,0,0,0,0,0,0,0,0,0,0,0,0,0,0,0,0,0,0,0,0,0,0,0,0,0,0,0,0,0,0,0,0,0,0,0,0,0,0,0,0,0,0,0,0,0,0,0,0,0,0,0,0,0,0,0,0,0,0,0,0,0,0,0,0,0,0,0,0,0,0,0,0,0,0,0,0,0,0,0,0,0,0,0,0,0,0,0,0,0,0,0,0,0,0,0,0,0,0,0,0],"sum_hessian":[2.7421628E3,1.50119E3,1.240973E3,3.8590918E2,1.1152808E3,1.1426027E3,9.837034E1,2.0895255E2,1.7695663E2,1.00391943E3,1.113613E2,7.309556E2,4.116471E2,1.9760658E1,7.860968E1,3.5592674E1,1.7335986E2,1.5442995E2,2.2526691E1,8.923296E2,1.115898E2,8.61006E1,2.5260698E1,6.070328E2,1.2392284E2,3.1294846E2,9.8698616E1,8.802053E0,1.0958604E1,3.616622E0,7.499306E1,2.3266668E0,3.326601E1,1.5438126E2,1.8978605E1,6.3920982E1,9.0508965E1,8.377036E0,1.4149654E1,3.7331592E2,5.190137E2,6.68506E1,4.47392E1,1.22858E1,7.38148E1,1.0196912E1,1.50637865E1,5.785123E2,2.8520475E1,1.1477222E2,9.150612E0,2.8142603E2,3.1522438E1,9.1235214E1,7.4634075E0,2.2122228E0,6.589831E0,8.349617E0,2.608987E0,3.0441778E0,7.1948875E1,3.0976559E1,2.2894511E0,9.140504E0,1.4524075E2,3.1157262E0,1.586288E1,5.8843067E1,5.077913E0,8.504117E1,5.4678006E0,6.198986E0,2.1780498E0,1.1715122E1,2.4345322E0,3.06781E2,6.653491E1,4.6100204E2,5.801164E1,2.5602203E1,4.1248394E1,1.3610191E1,3.1129007E1,8.297558E0,3.9882421E0,7.007087E1,3.7439318E0,2.2527988E0,7.944113E0,1.2421577E1,2.6422086E0,5.1694696E2,6.1565365E1,9.193938E0,1.9326538E1,9.2661026E1,2.2111193E1,6.756502E0,2.3941102E0,1.9067023E2,9.0755806E1,3.614334E0,2.7908104E1,8.8949646E1,2.2855651E0,2.8597212E0,4.603687E0,2.8633897E0,3.7264414E0,4.604818E0,3.744799E0,6.683959E1,5.1092834E0],"tree_param":{"num_deleted":"0","num_feature":"102","num_nodes":"113","size_leaf_vector":"1"}},{"base_weights":[1.8469255E-3,-2.591438E-1,3.6394432E-1,-3.6573076E-1,3.3374152E-1,4.303172E-1,-7.21316E-1,1.18348986E-1,-5.3921247E-1,6.968265E-1,-6.414104E-2,7.26235E-1,1.1626161E-1,-1.0042529E0,6.950805E-3,-1.1971457E-1,6.2014866E-1,-3.5899317E-1,-1.1160201E0,7.939256E-1,-5.158284E-1,3.0741474E-1,-4.075239E-1,6.408511E-1,1.3416508E0,8.427612E-3,7.326336E-1,-5.2986985E-1,-1.4787675E0,4.0932577E-2,-5.4157925E-1,1.2479622E-1,-3.1545016E-1,7.768236E-1,-4.6296173E-1,-5.567727E-1,-2.5325242E-2,-8.651318E-1,-1.3732008E0,1.0233468E0,3.8630822E-1,-1.0297916E0,1.5762487E-2,7.1353894E-1,-1.5018785E-1,-7.812753E-1,-3.5897635E-2,7.250537E-1,-9.034975E-2,4.9977195E-3,1.3958646E0,1.801253E-1,-3.0076012E-1,9.462949E-1,-0E0,2.1661205E-2,-7.975877E-1,-4.7099434E-2,-1.2794558E-2,-1.0087547E0,2.835609E-1,-1.1653456E-2,9.018357E-3,-1.483984E-2,1.8145064E-4,2.9842945E-2,4.7267764E-3,1.4509441E-2,-2.2920137E-2,-2.6886199E-2,-1.3202602E-2,5.1426063E-3,-2.4086146E-2,-3.3942975E-2,-1.7661871E-2,-4.2682495E-2,-2.1473993E-2,-2.0338004E-3,3.397904E-2,-2.1758208E-3,2.3407362E-2,-4.7423556E-3,-3.9441716E-2,2.6140727E-2,-1.2588926E-2,-1.2045765E-2,3.056965E-2,6.427409E-3,-2.8984811E-2,-1.0864985E-2,1.8544402E-2,3.420573E-2,1.8606136E-2,-1.3061697E-2,7.080191E-3,4.2922996E-2,4.7072233E-3,-1.2026506E-2,8.700589E-3,-4.767335E-3,-2.7233146E-2,1.786871E-2,4.151419E-2,-2.2471737E-2,1.5902061E-2,8.843436E-3,-3.2511402E-2,-3.808292E-2,-6.8565835E-3,2.2297556E-2,-7.070582E-3],"categories":[],"categories_nodes":[],"categories_segments":[],"categories_sizes":[],"default_left":[0,0,0,0,0,0,0,0,0,0,0,0,0,0,0,0,0,0,0,0,0,0,0,0,0,0,0,0,0,0,0,0,0,0,0,0,0,0,0,0,0,0,0,0,0,0,0,0,0,0,0,0,0,0,0,0,0,0,0,0,0,0,0,0,0,0,0,0,0,0,0,0,0,0,0,0,0,0,0,0,0,0,0,0,0,0,0,0,0,0,0,0,0,0,0,0,0,0,0,0,0,0,0,0,0,0,0,0,0,0,0],"id":6,"left_children":[1,3,5,7,9,11,13,15,17,19,21,23,25,27,29,31,33,35,37,39,41,43,45,47,49,51,53,55,57,-1,59,61,63,65,67,69,71,73,75,77,79,81,-1,83,85,87,89,91,93,-1,95,97,99,101,103,-1,105,-1,-1,107,109,-1,-1,-1,-1,-1,-1,-1,-1,-1,-1,-1,-1,-1,-1,-1,-1,-1,-1,-1,-1,-1,-1,-1,-1,-1,-1,-1,-1,-1,-1,-1,-1,-1,-1,-1,-1,-1,-1,-1,-1,-1,-1,-1,-1,-1,-1,-1,-1,-1,-1],"loss_changes":[2.56905E2,9.995745E1,8.235094E1,1.1265358E2,3.4996925E1,9.955885E1,1.3789532E1,4.248812E1,1.0178851E2,1.5427601E1,1.4948368E1,2.7603973E1,3.459783E1,9.390121E0,1.5524087E1,1.1614092E1,1.9907078E1,4.961199E1,1.3228546E1,1.0244217E1,6.0716224E0,1.0655207E1,8.274424E0,3.0237198E1,3.6086884E0,2.3744715E1,1.2007935E1,9.394337E0,1.0004158E0,0E0,6.1152444E0,9.823433E0,7.855404E0,1.3151993E1,4.787491E0,1.7987244E1,4.3456272E1,7.8448257E0,2.035553E0,9.156609E0,8.272018E0,1.2422652E0,0E0,5.9171E0,8.333373E0,5.935751E0,7.069319E0,1.7854507E1,5.9276505E0,0E0,2.1243591E0,1.8522163E1,1.3343516E1,7.8055305E0,7.935052E0,0E0,7.4353037E0,0E0,0E0,1.3328094E0,1.7579187E0,0E0,0E0,0E0,0E0,0E0,0E0,0E0,0E0,0E0,0E0,0E0,0E0,0E0,0E0,0E0,0E0,0E0,0E0,0E0,0E0,0E0,0E0,0E0,0E0,0E0,0E0,0E0,0E0,0E0,0E0,0E0,0E0,0E0,0E0,0E0,0E0,0E0,0E0,0E0,0E0,0E0,0E0,0E0,0E0,0E0,0E0,0E0,0E0,0E0,0E0],"parents":[2147483647,0,0,1,1,2,2,3,3,4,4,5,5,6,6,7,7,8,8,9,9,10,10,11,11,12,12,13,13,14,14,15,15,16,16,17,17,18,18,19,19,20,20,21,21,22,22,23,23,24,24,25,25,26,26,27,27,28,28,30,30,31,31,32,32,33,33,34,34,35,35,36,36,37,37,38,38,39,39,40,40,41,41,43,43,44,44,45,45,46,46,47,47,48,48,50,50,51,51,52,52,53,53,54,54,56,56,59,59,60,60],"right_children":[2,4,6,8,10,12,14,16,18,20,22,24,26,28,30,32,34,36,38,40,42,44,46,48,50,52,54,56,58,-1,60,62,64,66,68,70,72,74,76,78,80,82,-1,84,86,88,90,92,94,-1,96,98,100,102,104,-1,106,-1,-1,108,110,-1,-1,-1,-1,-1,-1,-1,-1,-1,-1,-1,-1,-1,-1,-1,-1,-1,-1,-1,-1,-1,-1,-1,-1,-1,-1,-1,-1,-1,-1,-1,-1,-1,-1,-1,-1,-1,-1,-1,-1,-1,-1,-1,-1,-1,-1,-1,-1,-1,-1],"split_conditions":[1E0,1E0,4E0,1.609438E0,2E0,9.82E2,9.34E-1,1E0,1E0,6.3E1,1E0,1E0,1E0,5.423243E-1,-2.0674288E-3,1.232E3,4E0,1E0,2E0,1.597E3,1.1E0,1.318E3,3.3459603E-3,1E0,-1.1644451E-1,2.5027642E-2,2.297E3,-2.8727077E-2,6.645696E-2,4.0932577E-2,3E-1,-3.3938613E-2,5E1,5.263158E-1,5E0,3.8E1,3.988984E0,4.45E1,7.14E2,2.3025851E0,1E0,6.068876E-3,1.5762487E-2,1.4378344E-1,4.329218E-2,-2.7212523E-2,1.9702008E-3,1.3862944E0,-2.5664844E-2,4.9977195E-3,1.7600508E-1,-8.090686E-2,3.8066626E0,6.2E1,1E-2,2.1661205E-2,1.3006462E-1,-4.7099434E-2,-1.2794558E-2,1.8E0,2.8487816E-3,-1.1653456E-2,9.018357E-3,-1.483984E-2,1.8145064E-4,2.9842945E-2,4.7267764E-3,1.4509441E-2,-2.2920137E-2,-2.6886199E-2,-1.3202602E-2,5.1426063E-3,-2.4086146E-2,-3.3942975E-2,-1.7661871E-2,-4.2682495E-2,-2.1473993E-2,-2.0338004E-3,3.397904E-2,-2.1758208E-3,2.3407362E-2,-4.7423556E-3,-3.9441716E-2,2.6140727E-2,-1.2588926E-2,-1.2045765E-2,3.056965E-2,6.427409E-3,-2.8984811E-2,-1.0864985E-2,1.8544402E-2,3.420573E-2,1.8606136E-2,-1.3061697E-2,7.080191E-3,4.2922996E-2,4.7072233E-3,-1.2026506E-2,8.700589E-3,-4.767335E-3,-2.7233146E-2,1.786871E-2,4.151419E-2,-2.2471737E-2,1.5902061E-2,8.843436E-3,-3.2511402E-2,-3.808292E-2,-6.8565835E-3,2.2297556E-2,-7.070582E-3],"split_indices":[6,55,56,64,56,63,53,49,60,95,60,55,55,66,70,25,56,49,56,63,2,63,37,60,28,27,63,85,44,0,98,32,94,98,89,94,64,94,67,64,2,32,0,27,31,77,31,64,40,0,40,40,64,94,98,0,26,0,0,2,32,0,0,0,0,0,0,0,0,0,0,0,0,0,0,0,0,0,0,0,0,0,0,0,0,0,0,0,0,0,0,0,0,0,0,0,0,0,0,0,0,0,0,0,0,0,0,0,0,0,0],"split_type":[0,0,0,0,0,0,0,0,0,0,0,0,0,0,0,0,0,0,0,0,0,0,0,0,0,0,0,0,0,0,0,0,0,0,0,0,0,0,0,0,0,0,0,0,0,0,0,0,0,0,0,0,0,0,0,0,0,0,0,0,0,0,0,0,0,0,0,0,0,0,0,0,0,0,0,0,0,0,0,0,0,0,0,0,0,0,0,0,0,0,0,0,0,0,0,0,0,0,0,0,0,0,0,0,0,0,0,0,0,0,0],"sum_hessian":[2.715835E3,1.57814E3,1.137695E3,1.3383356E3,2.3980446E2,1.0729816E3,6.471342E1,3.5288394E2,9.8545166E2,1.2517652E2,1.1462794E2,5.5130475E2,5.216768E2,4.6476738E1,1.8236681E1,2.3968694E2,1.1319701E2,7.5260077E2,2.3285092E2,1.1643286E2,8.743662E0,5.483608E1,5.979186E1,4.8657147E2,6.473324E1,4.4531076E2,7.6366035E1,2.4722534E1,2.1754204E1,4.8396163E0,1.3397065E1,1.06305E2,1.3338194E2,9.934978E1,1.3847223E1,4.716384E2,2.8096234E2,1.2091178E2,1.1193915E2,7.302727E1,4.3405594E1,5.9915047E0,2.7521574E0,2.8928139E1,2.590794E1,2.8882872E1,3.0908989E1,4.3658E2,4.99915E1,3.2331233E0,6.1500114E1,2.870528E2,1.5825798E2,5.870308E1,1.7662954E1,3.8650749E0,2.0857458E1,1.9300747E1,2.4534566E0,8.538254E0,4.8588114E0,2.6463467E1,7.984153E1,8.562705E1,4.775488E1,7.2709946E1,2.6639833E1,3.0052285E0,1.0841995E1,1.1816661E2,3.534718E2,2.2476695E2,5.61954E1,5.9322098E1,6.1589684E1,1.0251145E2,9.427693E0,6.523333E0,6.650394E1,2.0268904E1,2.313669E1,2.1084995E0,3.8830054E0,2.5790058E1,3.1380808E0,2.2113213E1,3.7947257E0,4.3245916E0,2.455828E1,2.1183138E1,9.72585E0,8.525733E1,3.5132266E2,2.440316E1,2.5588339E1,5.9477406E1,2.0227082E0,4.4863438E1,2.4218936E2,1.297752E2,2.8482773E1,3.4412113E1,2.4290964E1,7.0034413E0,1.0659513E1,4.1766357E0,1.6680822E1,5.643782E0,2.894472E0,2.5069182E0,2.3518932E0],"tree_param":{"num_deleted":"0","num_feature":"102","num_nodes":"111","size_leaf_vector":"1"}},{"base_weights":[2.9125023E-3,-3.0072322E-1,3.6465585E-1,1.12272665E-1,-4.429822E-1,4.5193183E-1,-6.852042E-1,3.758301E-1,-2.9548597E-1,-3.621605E-1,-1.1824985E0,5.588235E-1,-2.643482E-2,-9.6575207E-1,-2.659845E-1,1.3779427E-1,6.297694E-1,-1.4381875E-1,-7.121531E-1,-4.4669837E-1,3.0373424E-1,-1.3606851E0,-4.6152171E-1,6.318738E-1,1.4371054E-1,-2.0851879E-1,2.6898232E-1,-3.6119476E-1,-1.2800354E0,1.1106159E-1,-7.631629E-1,-4.4791274E-2,5.073045E-1,2.88123E-1,9.97108E-1,-1.0113055E0,-9.997556E-3,2.2621164E-2,-8.358712E-1,-3.3633223E-1,-9.040947E-1,4.1078722E-1,-4.4495618E-1,-8.7375754E-1,-1.4562522E0,-6.987641E-1,4.4396552E-1,1.123985E0,5.757582E-1,-7.507365E-2,6.378231E-1,-1.05192035E-1,-8.638099E-1,-5.9733327E-2,5.85212E-1,3.1558713E-1,-8.302347E-1,-1.3789601E0,4.3740044E-3,8.720603E-1,-3.8593426E-1,-1.0329808E0,6.168624E-2,1.0095599E-2,-1.1601643E-2,-9.430913E-3,2.0960491E-2,-1.4652095E-2,1.4535231E-2,6.715145E-3,3.522847E-2,-3.5169046E-2,-5.525732E-4,-1.0418955E-2,9.638381E-3,-2.8838517E-2,-0E0,-1.6465455E-3,-1.6141636E-2,-2.3658872E-2,-4.138597E-2,-4.955233E-3,1.7055957E-2,6.213525E-3,-3.1571906E-2,5.5975066E-3,-3.2795716E-2,-1.12232175E-2,-4.477196E-2,-2.6225911E-2,7.275812E-3,2.7318956E-2,-3.728581E-3,3.8771454E-2,6.7207734E-3,1.4412608E-2,2.7731316E-2,1.3194498E-2,-1.1030685E-2,-7.1732746E-3,2.5160477E-2,-2.4956351E-2,8.3817904E-5,2.6954932E-3,-3.0830808E-2,5.4796394E-3,-2.5540331E-2,2.1509472E-2,-2.5877964E-2,3.383359E-2,-1.3167551E-2,-3.460281E-2,5.8160094E-3,-1.3294555E-2,-4.341142E-2,3.5738893E-2,-9.862942E-4,-2.1313256E-2,1.923064E-2,-3.7494462E-2,-6.2649082E-3,1.7925102E-2,-1.3110112E-2],"categories":[],"categories_nodes":[],"categories_segments":[],"categories_sizes":[],"default_left":[0,0,0,0,0,0,0,0,0,0,0,0,0,0,0,0,0,0,0,0,0,0,0,0,0,0,0,0,0,0,0,0,0,0,0,0,0,0,0,0,0,0,0,0,0,0,0,0,0,0,0,0,0,0,0,0,0,0,0,0,0,0,0,0,0,0,0,0,0,0,0,0,0,0,0,0,0,0,0,0,0,0,0,0,0,0,0,0,0,0,0,0,0,0,0,0,0,0,0,0,0,0,0,0,0,0,0,0,0,0,0,0,0,0,0,0,0,0,0,0,0,0,0],"id":7,"left_children":[1,3,5,7,9,11,13,15,17,19,21,23,25,27,29,31,33,35,37,39,41,43,45,47,49,51,53,55,57,59,61,63,65,67,69,71,73,-1,75,77,79,81,83,85,87,89,91,93,95,97,99,101,103,105,107,109,111,113,-1,115,117,119,121,-1,-1,-1,-1,-1,-1,-1,-1,-1,-1,-1,-1,-1,-1,-1,-1,-1,-1,-1,-1,-1,-1,-1,-1,-1,-1,-1,-1,-1,-1,-1,-1,-1,-1,-1,-1,-1,-1,-1,-1,-1,-1,-1,-1,-1,-1,-1,-1,-1,-1,-1,-1,-1,-1,-1,-1,-1,-1,-1,-1],"loss_changes":[2.9966638E2,8.724959E1,1.1442326E2,4.104329E1,6.513669E1,5.895662E1,1.07212715E1,1.3763329E1,9.170351E0,5.6305832E1,1.2750565E1,2.8265503E1,1.1402029E1,9.889069E0,7.801614E0,8.328499E0,1.3389751E1,1.2745416E1,7.903593E0,4.4076874E1,9.24872E0,1.9961243E0,5.456766E0,2.0955444E1,1.5601906E1,8.607683E0,8.51953E0,7.172873E0,5.652214E0,9.496079E0,4.2314997E0,1.0879993E1,6.740101E0,9.392342E0,6.659767E0,2.0874376E0,1.1105753E1,0E0,3.904005E0,4.0465416E1,7.649521E0,9.2330265E0,6.152733E0,4.476328E0,1.675827E0,3.5526457E0,1.7312726E0,1.1501656E1,2.3125946E1,1.520609E1,8.148821E0,9.216863E0,3.0325642E0,8.047409E0,8.625153E0,6.4961414E0,4.7878265E0,1.0496292E0,0E0,3.145327E0,5.5791383E0,1.8362265E0,1.7713101E0,0E0,0E0,0E0,0E0,0E0,0E0,0E0,0E0,0E0,0E0,0E0,0E0,0E0,0E0,0E0,0E0,0E0,0E0,0E0,0E0,0E0,0E0,0E0,0E0,0E0,0E0,0E0,0E0,0E0,0E0,0E0,0E0,0E0,0E0,0E0,0E0,0E0,0E0,0E0,0E0,0E0,0E0,0E0,0E0,0E0,0E0,0E0,0E0,0E0,0E0,0E0,0E0,0E0,0E0,0E0,0E0,0E0,0E0,0E0,0E0],"parents":[2147483647,0,0,1,1,2,2,3,3,4,4,5,5,6,6,7,7,8,8,9,9,10,10,11,11,12,12,13,13,14,14,15,15,16,16,17,17,18,18,19,19,20,20,21,21,22,22,23,23,24,24,25,25,26,26,27,27,28,28,29,29,30,30,31,31,32,32,33,33,34,34,35,35,36,36,38,38,39,39,40,40,41,41,42,42,43,43,44,44,45,45,46,46,47,47,48,48,49,49,50,50,51,51,52,52,53,53,54,54,55,55,56,56,57,57,59,59,60,60,61,61,62,62],"right_children":[2,4,6,8,10,12,14,16,18,20,22,24,26,28,30,32,34,36,38,40,42,44,46,48,50,52,54,56,58,60,62,64,66,68,70,72,74,-1,76,78,80,82,84,86,88,90,92,94,96,98,100,102,104,106,108,110,112,114,-1,116,118,120,122,-1,-1,-1,-1,-1,-1,-1,-1,-1,-1,-1,-1,-1,-1,-1,-1,-1,-1,-1,-1,-1,-1,-1,-1,-1,-1,-1,-1,-1,-1,-1,-1,-1,-1,-1,-1,-1,-1,-1,-1,-1,-1,-1,-1,-1,-1,-1,-1,-1,-1,-1,-1,-1,-1,-1,-1,-1,-1,-1,-1],"split_conditions":[2.5E1,4E0,4E0,1.232E3,4E0,7.9E2,1E0,1E0,3E0,1E0,1E0,1E0,6.05E1,1E0,1.5141441E-2,1.7E1,-1.8042278E-2,3E0,-1.4654751E-1,3.1E1,7.6666665E-1,5E0,6.8E1,3E0,9.94E-1,6.05719E-2,8.3E1,3.7156355E-1,5.9885517E-2,7E0,1.7512199E-2,-2.2667982E-3,3.275E1,1E0,2.6E2,5.5E1,4.1E1,2.2621164E-2,8.142498E-2,1E0,9E0,3.4E1,1E0,5.1E1,5.479452E-3,2.3351563E-2,2.0346558E-2,2.1755893E-2,1E0,5.3E-1,-5.4174908E-2,-5.994443E-2,4E0,1E0,6.2E1,1E0,7.375E1,-3.019785E-2,4.3740044E-3,9.0958905E-1,5.7727348E-2,7.031289E-2,4.6666667E-1,1.0095599E-2,-1.1601643E-2,-9.430913E-3,2.0960491E-2,-1.4652095E-2,1.4535231E-2,6.715145E-3,3.522847E-2,-3.5169046E-2,-5.525732E-4,-1.0418955E-2,9.638381E-3,-2.8838517E-2,-0E0,-1.6465455E-3,-1.6141636E-2,-2.3658872E-2,-4.138597E-2,-4.955233E-3,1.7055957E-2,6.213525E-3,-3.1571906E-2,5.5975066E-3,-3.2795716E-2,-1.12232175E-2,-4.477196E-2,-2.6225911E-2,7.275812E-3,2.7318956E-2,-3.728581E-3,3.8771454E-2,6.7207734E-3,1.4412608E-2,2.7731316E-2,1.3194498E-2,-1.1030685E-2,-7.1732746E-3,2.5160477E-2,-2.4956351E-2,8.3817904E-5,2.6954932E-3,-3.0830808E-2,5.4796394E-3,-2.5540331E-2,2.1509472E-2,-2.5877964E-2,3.383359E-2,-1.3167551E-2,-3.460281E-2,5.8160094E-3,-1.3294555E-2,-4.341142E-2,3.5738893E-2,-9.862942E-4,-2.1313256E-2,1.923064E-2,-3.7494462E-2,-6.2649082E-3,1.7925102E-2,-1.3110112E-2],"split_indices":[1,90,56,25,56,25,55,49,90,55,55,60,94,60,36,1,38,59,69,95,21,56,95,90,53,34,50,66,86,58,41,31,94,10,47,50,94,0,38,11,91,94,60,93,92,41,38,79,55,52,86,75,90,60,90,7,94,37,0,92,44,36,21,0,0,0,0,0,0,0,0,0,0,0,0,0,0,0,0,0,0,0,0,0,0,0,0,0,0,0,0,0,0,0,0,0,0,0,0,0,0,0,0,0,0,0,0,0,0,0,0,0,0,0,0,0,0,0,0,0,0,0,0],"split_type":[0,0,0,0,0,0,0,0,0,0,0,0,0,0,0,0,0,0,0,0,0,0,0,0,0,0,0,0,0,0,0,0,0,0,0,0,0,0,0,0,0,0,0,0,0,0,0,0,0,0,0,0,0,0,0,0,0,0,0,0,0,0,0,0,0,0,0,0,0,0,0,0,0,0,0,0,0,0,0,0,0,0,0,0,0,0,0,0,0,0,0,0,0,0,0,0,0,0,0,0,0,0,0,0,0,0,0,0,0,0,0,0,0,0,0,0,0,0,0,0,0,0,0],"sum_hessian":[2.7257383E3,1.4816981E3,1.2440402E3,3.7932278E2,1.1023754E3,1.1493661E3,9.467408E1,2.3075635E2,1.4856642E2,9.95622E2,1.0675333E2,9.396224E2,2.0974374E2,5.5494717E1,3.9179367E1,1.2046987E2,1.10286476E2,1.10454926E2,3.8111496E1,8.840801E2,1.1154193E2,8.452192E1,2.223141E1,7.9807196E2,1.4155045E2,1.3040007E2,7.934368E1,2.0081436E1,3.541328E1,2.2582844E1,1.6596523E1,8.097239E1,3.949749E1,5.8533028E1,5.175345E1,1.3510558E1,9.694437E1,2.364096E0,3.5747402E1,7.142555E2,1.6982457E2,9.8295654E1,1.3246274E1,1.6207376E1,6.8314545E1,1.8008043E1,4.223366E0,7.898704E1,7.190849E2,9.853418E1,4.3016262E1,1.1410565E2,1.6294416E1,3.9070942E1,4.027274E1,8.206458E0,1.1874978E1,3.3283764E1,2.1295145E0,8.723013E0,1.3859831E1,1.2460292E1,4.136231E0,3.801413E1,4.2958256E1,7.118517E0,3.237897E1,1.1249303E1,4.7283726E1,1.0364204E1,4.1389244E1,1.1265576E1,2.2449813E0,4.8305824E1,4.863854E1,3.0960495E1,4.7869077E0,2.9925143E2,4.150041E2,1.3954547E2,3.0279102E1,2.0848537E1,7.744712E1,6.6110516E0,6.635223E0,2.653478E0,1.3553898E1,2.827199E0,6.548734E1,1.54302435E1,2.5778E0,2.1152186E0,2.108147E0,6.590893E1,1.3078109E1,5.673558E2,1.5172911E2,3.523939E1,6.329479E1,7.78845E0,3.5227814E1,1.3961332E1,1.0014432E2,2.2900507E0,1.4004366E1,3.0425304E1,8.645636E0,3.7594963E1,2.6777747E0,3.7938743E0,4.412584E0,9.059637E0,2.815341E0,3.0677357E0,3.021603E1,6.3309216E0,2.3920908E0,1.0960896E1,2.8989356E0,9.182031E0,3.278262E0,2.072601E0,2.0636296E0],"tree_param":{"num_deleted":"0","num_feature":"102","num_nodes":"123","size_leaf_vector":"1"}},{"base_weights":[1.19046905E-4,-2.4395867E-1,3.4124202E-1,-3.418116E-1,3.165459E-1,4.5250586E-1,-2.6585424E-1,-2.7082223E-1,-1.2617874E0,4.237448E-1,-6.637634E-1,2.681461E-1,7.8057677E-1,-5.097662E-1,4.728905E-1,-4.0129092E-1,2.697999E-1,-2.2550145E-1,-1.3317684E0,9.55371E-2,6.803028E-1,-9.151889E-1,1.6800879E-2,-8.834651E-2,3.7956434E-1,5.6944656E-1,1.0392143E0,-2.090847E-1,-1.2827289E0,-7.339572E-1,6.4605546E-1,-5.3969926E-1,-1.6327046E-1,3.58701E-1,-8.104351E-1,-2.9788632E-2,2.0929942E-2,-1.3914942E0,-6.027879E-1,-5.943974E-1,2.7026626E-1,7.845299E-1,-2.2631992E-1,-0E0,-1.1104251E0,-2.945207E-1,2.881167E-1,3.0524224E-1,8.51167E-1,8.23216E-1,2.7298337E-1,1.1771488E0,5.716847E-1,-7.561624E-1,-3.6891337E-2,-5.186839E-1,-1.3902419E0,-0E0,-3.475868E-2,9.0468043E-1,-2.882348E-1,-2.8400216E-3,-2.1356924E-2,-1.082519E-2,3.0453E-3,3.2086547E-2,7.751052E-3,5.482197E-3,-3.3306725E-2,-2.4918089E-2,-4.3752115E-2,2.3532195E-3,-2.9720554E-2,-0E0,-3.2103844E-2,1.2761131E-2,-1.7628575E-2,1.2942106E-2,3.2372776E-2,-2.3996152E-2,2.1170622E-2,-3.6562833E-3,-3.6878005E-2,-1.6366124E-4,-1.5886975E-2,1.4101844E-2,-2.9422319E-2,1.2256444E-2,-5.4287314E-3,2.8825974E-2,-2.3871709E-2,-1.5356002E-2,2.685847E-2,3.2314476E-2,3.7301488E-3,3.6254358E-2,-2.169412E-3,-3.9690593E-3,2.4464468E-2,5.481443E-3,-3.0341187E-2,1.3771097E-2,-6.7180567E-3,2.5720568E-3,-3.1661768E-2,-7.123154E-3,-4.3997653E-2,3.1098146E-2,-1.45743545E-2,-2.4159584E-2,1.8187255E-2],"categories":[],"categories_nodes":[],"categories_segments":[],"categories_sizes":[],"default_left":[0,0,0,0,0,0,0,0,0,0,0,0,0,0,0,0,0,0,0,0,0,0,0,0,0,0,0,0,0,0,0,0,0,0,0,0,0,0,0,0,0,0,0,0,0,0,0,0,0,0,0,0,0,0,0,0,0,0,0,0,0,0,0,0,0,0,0,0,0,0,0,0,0,0,0,0,0,0,0,0,0,0,0,0,0,0,0,0,0,0,0,0,0,0,0,0,0,0,0,0,0,0,0,0,0,0,0,0,0,0,0],"id":8,"left_children":[1,3,5,7,9,11,13,15,17,19,21,23,25,27,29,31,33,35,37,39,41,43,-1,45,47,49,51,53,55,57,59,61,63,65,67,-1,-1,69,71,73,75,77,79,-1,81,83,85,87,89,91,93,95,97,99,101,103,105,-1,-1,107,109,-1,-1,-1,-1,-1,-1,-1,-1,-1,-1,-1,-1,-1,-1,-1,-1,-1,-1,-1,-1,-1,-1,-1,-1,-1,-1,-1,-1,-1,-1,-1,-1,-1,-1,-1,-1,-1,-1,-1,-1,-1,-1,-1,-1,-1,-1,-1,-1,-1,-1],"loss_changes":[2.2694536E2,8.7253456E1,7.69904E1,8.7658035E1,2.5132854E1,5.770578E1,3.211767E1,8.888687E1,6.319702E0,1.7788101E1,7.9435606E0,2.4642284E1,1.7806076E1,3.0417656E1,9.799728E0,3.3165237E1,2.3785597E1,6.362735E0,2.5080566E0,1.1656987E1,1.1624619E1,3.7002068E0,0E0,1.1565985E1,1.598111E1,1.4032116E1,8.720062E0,9.017638E0,1.7906189E0,1.9247773E0,9.976707E0,4.882135E1,1.9721268E1,1.5618528E1,6.0342407E0,0E0,0E0,1.1624451E0,2.700768E0,5.631222E0,1.056199E1,1.03439865E1,7.6793118E0,0E0,1.5111675E0,6.4366493E0,1.2576836E1,2.0702045E1,1.2358288E1,1.0540138E1,1.0497889E1,4.904587E0,6.711996E0,5.9141684E0,7.1167755E0,2.4777179E0,2.0115013E0,0E0,0E0,6.471056E0,4.928281E0,0E0,0E0,0E0,0E0,0E0,0E0,0E0,0E0,0E0,0E0,0E0,0E0,0E0,0E0,0E0,0E0,0E0,0E0,0E0,0E0,0E0,0E0,0E0,0E0,0E0,0E0,0E0,0E0,0E0,0E0,0E0,0E0,0E0,0E0,0E0,0E0,0E0,0E0,0E0,0E0,0E0,0E0,0E0,0E0,0E0,0E0,0E0,0E0,0E0,0E0],"parents":[2147483647,0,0,1,1,2,2,3,3,4,4,5,5,6,6,7,7,8,8,9,9,10,10,11,11,12,12,13,13,14,14,15,15,16,16,17,17,18,18,19,19,20,20,21,21,23,23,24,24,25,25,26,26,27,27,28,28,29,29,30,30,31,31,32,32,33,33,34,34,37,37,38,38,39,39,40,40,41,41,42,42,44,44,45,45,46,46,47,47,48,48,49,49,50,50,51,51,52,52,53,53,54,54,55,55,56,56,59,59,60,60],"right_children":[2,4,6,8,10,12,14,16,18,20,22,24,26,28,30,32,34,36,38,40,42,44,-1,46,48,50,52,54,56,58,60,62,64,66,68,-1,-1,70,72,74,76,78,80,-1,82,84,86,88,90,92,94,96,98,100,102,104,106,-1,-1,108,110,-1,-1,-1,-1,-1,-1,-1,-1,-1,-1,-1,-1,-1,-1,-1,-1,-1,-1,-1,-1,-1,-1,-1,-1,-1,-1,-1,-1,-1,-1,-1,-1,-1,-1,-1,-1,-1,-1,-1,-1,-1,-1,-1,-1,-1,-1,-1,-1,-1,-1],"split_conditions":[1E0,1E0,1E0,9E0,8E0,1.1051213E-1,1E0,9.7297466E-1,5.4E-1,4.725E1,5.7414006E-3,8.3789125E-2,7E1,3E0,-5.1577605E-2,5.45E1,7E0,1E0,1.4E0,-4.262341E-2,1.4387846E-1,-2.6116079E-2,1.6800879E-2,5.9E1,1E0,1.5E1,6.756757E-1,-4.5194685E-2,1.2557324E0,5.0699957E-2,6E0,1.609438E0,1E0,1.0986123E0,1.3862944E0,-2.9788632E-2,2.0929942E-2,-4.3144267E-2,1.55819375E-2,2.1048351E-3,7E-1,1E0,4E0,-0E0,3.2E-1,3.7724075E-1,6.069662E-2,3.6888795E0,1.8E1,-2.5423414E-1,1.3862944E0,1.3E1,-1.2018521E-1,-3.7850145E-2,-4.0443763E-2,5.786897E0,5.1E-2,-0E0,-3.475868E-2,1.941578E-1,4.987845E1,-2.8400216E-3,-2.1356924E-2,-1.082519E-2,3.0453E-3,3.2086547E-2,7.751052E-3,5.482197E-3,-3.3306725E-2,-2.4918089E-2,-4.3752115E-2,2.3532195E-3,-2.9720554E-2,-0E0,-3.2103844E-2,1.2761131E-2,-1.7628575E-2,1.2942106E-2,3.2372776E-2,-2.3996152E-2,2.1170622E-2,-3.6562833E-3,-3.6878005E-2,-1.6366124E-4,-1.5886975E-2,1.4101844E-2,-2.9422319E-2,1.2256444E-2,-5.4287314E-3,2.8825974E-2,-2.3871709E-2,-1.5356002E-2,2.685847E-2,3.2314476E-2,3.7301488E-3,3.6254358E-2,-2.169412E-3,-3.9690593E-3,2.4464468E-2,5.481443E-3,-3.0341187E-2,1.3771097E-2,-6.7180567E-3,2.5720568E-3,-3.1661768E-2,-7.123154E-3,-4.3997653E-2,3.1098146E-2,-1.45743545E-2,-2.4159584E-2,1.8187255E-2],"split_indices":[6,55,60,91,58,98,55,97,53,94,31,97,94,58,84,94,58,2,2,86,81,36,0,94,55,94,98,34,48,83,58,64,7,64,64,0,0,79,82,33,21,5,59,0,99,26,84,64,58,27,64,58,41,37,41,65,53,0,0,27,97,0,0,0,0,0,0,0,0,0,0,0,0,0,0,0,0,0,0,0,0,0,0,0,0,0,0,0,0,0,0,0,0,0,0,0,0,0,0,0,0,0,0,0,0,0,0,0,0,0,0],"split_type":[0,0,0,0,0,0,0,0,0,0,0,0,0,0,0,0,0,0,0,0,0,0,0,0,0,0,0,0,0,0,0,0,0,0,0,0,0,0,0,0,0,0,0,0,0,0,0,0,0,0,0,0,0,0,0,0,0,0,0,0,0,0,0,0,0,0,0,0,0,0,0,0,0,0,0,0,0,0,0,0,0,0,0,0,0,0,0,0,0,0,0,0,0,0,0,0,0,0,0,0,0,0,0,0,0,0,0,0,0,0,0],"sum_hessian":[2.7230928E3,1.5871924E3,1.1359003E3,1.3519873E3,2.35205E2,9.60502E2,1.753983E2,1.2567794E3,9.520794E1,2.1281819E2,2.238681E1,6.167238E2,3.437782E2,1.3234464E2,4.3053665E1,1.0129925E3,2.4378694E2,6.524039E0,8.86839E1,9.4435646E1,1.1838255E2,1.8957968E1,3.428842E0,1.4648512E2,4.702387E2,1.9181317E2,1.5196501E2,9.6564514E1,3.578013E1,4.769838E0,3.8283825E1,6.3903436E2,3.739581E2,2.2616103E2,1.762591E1,3.6312294E0,2.8928094E0,8.070661E1,7.9772844E0,1.82696E1,7.6166046E1,1.06519104E2,1.1863445E1,3.4643805E0,1.54935875E1,9.51614E1,5.132372E1,4.0829443E2,6.1944283E1,1.018359E2,8.997727E1,1.1560815E2,3.635687E1,2.18652E1,7.469931E1,5.505384E0,3.0274742E1,2.1403806E0,2.629457E0,3.0181305E1,8.102521E0,1.7912419E2,4.5991016E2,2.1434325E2,1.5961485E2,2.6292772E1,1.9986826E2,4.040727E0,1.3585182E1,1.0635636E1,7.007098E1,3.0545654E0,4.922719E0,8.545505E0,9.724095E0,6.521362E1,1.0952427E1,5.009767E1,5.6421432E1,7.582154E0,4.281292E0,2.1041772E0,1.3389411E1,4.36088E1,5.15526E1,4.5685802E1,5.637919E0,3.372416E2,7.105282E1,5.865838E1,3.2859032E0,4.6982775E0,9.713762E1,1.2657782E1,7.731949E1,1.12974785E2,2.6333582E0,9.282187E0,2.7074682E1,4.5785775E0,1.7286623E1,1.9686989E1,5.501232E1,2.8883305E0,2.6170535E0,2.3495245E0,2.7925219E1,2.7976267E1,2.2050378E0,5.351878E0,2.7506428E0],"tree_param":{"num_deleted":"0","num_feature":"102","num_nodes":"111","size_leaf_vector":"1"}},{"base_weights":[1.74401E-2,-2.3651935E-1,3.7358654E-1,-9.544129E-2,-6.390601E-1,4.8089847E-1,-2.2014572E-1,-3.4379184E-1,2.727463E-1,-7.620343E-1,1.4403965E-2,6.7164373E-1,1.2224313E-1,-3.7530658E-1,6.0392E-1,-3.7391968E-2,-4.9775228E-1,3.813027E-1,-3.1471965E-1,-1.2107504E-1,-9.523229E-1,-2.5584304E-1,5.073873E-1,6.9575316E-1,-4.780074E-1,2.8832838E-1,-1.5309808E-1,-1.1277721E-1,-1.021799E0,-1.4384781E-1,9.51405E-1,-9.48682E-2,1.0012825E0,-4.398414E-1,-1.3449017E0,4.2331132E-1,-8.122066E-1,-5.333302E-1,1.7973933E-1,-3.3579397E-1,2.917342E-1,-1.0606126E0,-8.5589424E-2,-9.636428E-1,-1.1274906E-2,-2.805433E-1,1.0972018E0,5.0545156E-1,9.4409204E-1,1.3529666E-2,-8.1932443E-1,3.853747E-1,-2.6947325E-1,-3.4868497E-1,3.1785917E-1,2.0527659E-2,-7.1067625E-1,-2.6581514E-1,-1.2787894E0,2.0941075E-2,-8.120598E-1,-2.876313E-3,1.1460642E0,4.9284142E-3,-1.0016482E-2,-0E0,3.6309633E-2,-2.2022793E-2,-9.210686E-3,-8.701016E-3,-4.282419E-2,9.740477E-3,2.3406053E-2,-1.557944E-3,-3.0418506E-2,-2.0958837E-2,1.207121E-2,-5.2783303E-3,3.390792E-2,-1.866907E-2,-2.1644954E-3,1.6755857E-2,-1.0994055E-2,-2.4721386E-2,-3.8316324E-2,1.08718835E-2,-3.4792744E-2,-4.895642E-4,-4.059996E-2,-2.3648836E-2,7.0640603E-3,-2.7862338E-2,1.3713109E-2,4.213513E-2,-9.277237E-3,2.1641456E-2,7.48272E-3,1.54793495E-2,3.2181095E-2,-3.1361308E-2,-1.6939879E-3,1.4465894E-2,-8.104657E-3,-1.9840037E-2,7.209144E-3,-3.008896E-3,-2.239891E-2,1.6140012E-2,-1.3362589E-2,-2.3381414E-3,2.3694655E-2,2.59352E-3,-3.188711E-2,1.375082E-2,-2.3629237E-2,-3.8102977E-3,-4.1526426E-2,-3.8189467E-3,-3.3679776E-2,3.920457E-2,-0E0],"categories":[],"categories_nodes":[],"categories_segments":[],"categories_sizes":[],"default_left":[0,0,0,0,0,0,0,0,0,0,0,0,0,0,0,0,0,0,0,0,0,0,0,0,0,0,0,0,0,0,0,0,0,0,0,0,0,0,0,0,0,0,0,0,0,0,0,0,0,0,0,0,0,0,0,0,0,0,0,0,0,0,0,0,0,0,0,0,0,0,0,0,0,0,0,0,0,0,0,0,0,0,0,0,0,0,0,0,0,0,0,0,0,0,0,0,0,0,0,0,0,0,0,0,0,0,0,0,0,0,0,0,0,0,0,0,0,0,0,0,0],"id":9,"left_children":[1,3,5,7,9,11,13,15,17,19,21,23,25,27,29,31,33,35,37,39,41,43,45,47,49,51,53,55,57,59,61,63,65,67,69,71,73,75,77,79,81,83,85,87,89,91,93,95,97,-1,99,101,103,105,107,109,111,113,115,-1,117,-1,119,-1,-1,-1,-1,-1,-1,-1,-1,-1,-1,-1,-1,-1,-1,-1,-1,-1,-1,-1,-1,-1,-1,-1,-1,-1,-1,-1,-1,-1,-1,-1,-1,-1,-1,-1,-1,-1,-1,-1,-1,-1,-1,-1,-1,-1,-1,-1,-1,-1,-1,-1,-1,-1,-1,-1,-1,-1,-1],"loss_changes":[2.4498775E2,8.9547455E1,7.202777E1,1.0731791E2,3.3081024E1,6.512448E1,2.236625E1,3.2935143E1,3.029329E1,4.1730484E1,8.972421E0,1.7718018E1,1.533749E1,2.4526733E1,7.5212812E0,1.4030142E1,2.179338E1,2.0373661E1,8.192488E0,7.270731E0,2.4594177E1,7.241902E0,1.1669066E1,2.8018738E1,4.7479105E0,1.1460394E1,1.1732729E1,8.594014E0,7.440571E0,6.129224E0,4.265608E0,1.4038674E1,2.554717E0,1.664553E1,1.6866264E0,1.3098663E1,1.8462114E0,8.431093E0,8.315633E0,3.878563E0,5.183858E0,1.0400421E1,1.5587747E1,3.6967363E0,6.738687E0,5.8963623E0,6.8316746E0,1.8885757E1,1.3515106E1,0E0,1.4921303E0,1.154763E1,6.541622E0,8.617266E0,6.566846E0,6.841657E0,5.8111753E0,5.1715775E0,3.229515E0,0E0,8.683715E-1,0E0,2.8626842E0,0E0,0E0,0E0,0E0,0E0,0E0,0E0,0E0,0E0,0E0,0E0,0E0,0E0,0E0,0E0,0E0,0E0,0E0,0E0,0E0,0E0,0E0,0E0,0E0,0E0,0E0,0E0,0E0,0E0,0E0,0E0,0E0,0E0,0E0,0E0,0E0,0E0,0E0,0E0,0E0,0E0,0E0,0E0,0E0,0E0,0E0,0E0,0E0,0E0,0E0,0E0,0E0,0E0,0E0,0E0,0E0,0E0,0E0],"parents":[2147483647,0,0,1,1,2,2,3,3,4,4,5,5,6,6,7,7,8,8,9,9,10,10,11,11,12,12,13,13,14,14,15,15,16,16,17,17,18,18,19,19,20,20,21,21,22,22,23,23,24,24,25,25,26,26,27,27,28,28,29,29,30,30,31,31,32,32,33,33,34,34,35,35,36,36,37,37,38,38,39,39,40,40,41,41,42,42,43,43,44,44,45,45,46,46,47,47,48,48,50,50,51,51,52,52,53,53,54,54,55,55,56,56,57,57,58,58,60,60,62,62],"right_children":[2,4,6,8,10,12,14,16,18,20,22,24,26,28,30,32,34,36,38,40,42,44,46,48,50,52,54,56,58,60,62,64,66,68,70,72,74,76,78,80,82,84,86,88,90,92,94,96,98,-1,100,102,104,106,108,110,112,114,116,-1,118,-1,120,-1,-1,-1,-1,-1,-1,-1,-1,-1,-1,-1,-1,-1,-1,-1,-1,-1,-1,-1,-1,-1,-1,-1,-1,-1,-1,-1,-1,-1,-1,-1,-1,-1,-1,-1,-1,-1,-1,-1,-1,-1,-1,-1,-1,-1,-1,-1,-1,-1,-1,-1,-1,-1,-1,-1,-1,-1,-1],"split_conditions":[1E0,1E0,1E0,1E0,9.94E-1,1.284E3,9.76E-1,1.365E3,2.204E3,1.609438E0,2.7971676E-2,1.3E1,5E0,3E0,7.272727E-2,1E0,2.4714711E-1,8E0,5.55E1,1.7623683E-2,1E0,3.25E1,-3.5829686E-2,6.25E1,-2.6773114E-2,2.589E3,6.5E1,1.677E3,1.9519507E0,1.46582E-2,-8.946517E-2,1.4842E-1,4.3438053E0,3.9E1,-3.519907E-2,1E0,-6.49E2,4.4873532E-2,3.44E2,3.220449E0,3.217369E-2,5.3062826E-1,5.3333336E-1,1.8331705E-1,1.0870296E0,1E0,2.576302E-1,3.5553482E0,6.8E-2,1.3529666E-2,5.4161005E0,4.69145E-1,-3.1773213E-3,1.2178598E-2,1.0319337E-1,1E0,2.9649436E0,-9.203502E-3,1E-2,2.0941075E-2,2.9649436E0,-2.876313E-3,7.3333335E-1,4.9284142E-3,-1.0016482E-2,-0E0,3.6309633E-2,-2.2022793E-2,-9.210686E-3,-8.701016E-3,-4.282419E-2,9.740477E-3,2.3406053E-2,-1.557944E-3,-3.0418506E-2,-2.0958837E-2,1.207121E-2,-5.2783303E-3,3.390792E-2,-1.866907E-2,-2.1644954E-3,1.6755857E-2,-1.0994055E-2,-2.4721386E-2,-3.8316324E-2,1.08718835E-2,-3.4792744E-2,-4.895642E-4,-4.059996E-2,-2.3648836E-2,7.0640603E-3,-2.7862338E-2,1.3713109E-2,4.213513E-2,-9.277237E-3,2.1641456E-2,7.48272E-3,1.54793495E-2,3.2181095E-2,-3.1361308E-2,-1.6939879E-3,1.4465894E-2,-8.104657E-3,-1.9840037E-2,7.209144E-3,-3.008896E-3,-2.239891E-2,1.6140012E-2,-1.3362589E-2,-2.3381414E-3,2.3694655E-2,2.59352E-3,-3.188711E-2,1.375082E-2,-2.3629237E-2,-3.8102977E-3,-4.1526426E-2,-3.8189467E-3,-3.3679776E-2,3.920457E-2,-0E0],"split_indices":[6,60,60,49,53,63,53,63,63,64,82,58,59,58,98,55,42,58,94,38,55,94,38,94,80,63,94,63,48,33,71,66,65,94,30,55,63,30,50,48,30,66,21,26,48,5,69,65,53,0,65,26,45,75,27,55,48,69,52,0,48,0,21,0,0,0,0,0,0,0,0,0,0,0,0,0,0,0,0,0,0,0,0,0,0,0,0,0,0,0,0,0,0,0,0,0,0,0,0,0,0,0,0,0,0,0,0,0,0,0,0,0,0,0,0,0,0,0,0,0,0],"split_type":[0,0,0,0,0,0,0,0,0,0,0,0,0,0,0,0,0,0,0,0,0,0,0,0,0,0,0,0,0,0,0,0,0,0,0,0,0,0,0,0,0,0,0,0,0,0,0,0,0,0,0,0,0,0,0,0,0,0,0,0,0,0,0,0,0,0,0,0,0,0,0,0,0,0,0,0,0,0,0,0,0,0,0,0,0,0,0,0,0,0,0,0,0,0,0,0,0,0,0,0,0,0,0,0,0,0,0,0,0,0,0,0,0,0,0,0,0,0,0,0,0],"sum_hessian":[2.7059653E3,1.579502E3,1.1264634E3,1.1710623E3,4.084397E2,9.5450903E2,1.7195432E2,6.997132E2,4.713491E2,3.438398E2,6.4599884E1,6.220673E2,3.324417E2,1.4546191E2,2.6492405E1,2.3494159E2,4.647716E2,3.9847705E2,7.287205E1,7.9401634E1,2.6443817E2,4.1836956E1,2.2762928E1,6.099243E2,1.2143025E1,2.0777939E2,1.2466232E2,1.0467422E2,4.0787693E1,8.44561E0,1.8046795E1,2.238382E2,1.1103391E1,4.3696027E2,2.7811356E1,3.8583844E2,1.2638607E1,5.0746235E1,2.212581E1,5.2699066E1,2.6702574E1,2.3462497E2,2.9813198E1,9.627684E0,3.220927E1,9.869047E0,1.289388E1,3.4783032E2,2.62094E2,3.0016336E0,9.141392E0,1.7760855E2,3.0170837E1,8.860232E1,3.606001E1,8.626521E1,1.8409006E1,1.1164563E1,2.9623129E1,3.5810113E0,4.8645988E0,2.763023E0,1.5283772E1,1.0717424E2,1.1666395E2,2.1389325E0,8.964458E0,1.3373651E2,3.0322375E2,2.5878735E0,2.5223482E1,3.0453152E2,8.130692E1,3.1747487E0,9.463859E0,4.3567547E1,7.178686E0,1.6659384E1,5.4664273E0,2.4108604E1,2.859046E1,1.9346348E1,7.356226E0,1.15340324E2,1.1928465E2,2.1468607E1,8.344591E0,3.320098E0,6.3075857E0,7.3235397E0,2.4885733E1,5.2318535E0,4.637193E0,1.0699858E1,2.1940222E0,1.8708391E2,1.6074641E2,6.2295998E1,1.9979799E2,6.506718E0,2.6346736E0,1.5529402E2,2.2314528E1,1.7078405E1,1.3092431E1,5.578661E1,3.2815704E1,2.8466143E1,7.5938663E0,7.720218E1,9.063035E0,5.7450404E0,1.2663965E1,4.5763326E0,6.588231E0,2.8650322E0,2.6758097E1,2.2468417E0,2.617757E0,1.3154053E1,2.1297195E0],"tree_param":{"num_deleted":"0","num_feature":"102","num_nodes":"121","size_leaf_vector":"1"}},{"base_weights":[7.756987E-4,-2.2750969E-1,3.1785494E-1,-1.0536024E-1,-5.8789784E-1,3.8111782E-1,-7.070142E-1,-2.8713098E-1,3.358948E-1,-7.178015E-1,6.1066125E-2,5.24379E-1,-1.0074627E-1,-9.937039E-1,8.586161E-3,-4.2758396E-1,7.6379586E-4,5.908456E-2,4.7696525E-1,-1.4288053E-1,-8.860798E-1,5.694105E-1,-2.601009E-1,1.1295815E-1,5.867928E-1,-3.0957237E-1,1.4630131E-1,6.186294E-3,-1.0837923E0,-6.253963E-1,5.4909825E-1,-7.6161325E-2,-5.3386396E-1,-2.9024175E-1,2.2764803E-1,2.7632564E-1,-3.3174178E-1,7.122109E-1,2.563096E-1,-4.1013032E-1,3.5477018E-1,-6.523411E-1,-1.1294025E0,9.808797E-1,-7.586902E-1,7.437241E-1,-4.3008566E-1,2.667982E-1,-5.112515E-1,5.286019E-1,1.0162514E0,-8.9178294E-1,-1.3111964E-1,-1.4504996E-1,4.4613746E-1,-7.174011E-1,-1.3511748E0,9.840599E-3,-3.3644572E-2,-5.864339E-3,8.017212E-1,-1.0873236E-2,2.7350257E-3,-2.4587205E-2,-1.1831058E-2,1.0546262E-3,-1.6395668E-2,8.4107155E-3,-3.068235E-2,4.1187657E-3,3.461608E-2,-2.6872378E-2,2.4909144E-3,-8.8479836E-4,2.3596141E-2,1.5885275E-2,-3.5129068E-3,-2.581674E-3,-2.0381732E-2,1.5898048E-3,3.7813667E-2,-2.1508265E-2,8.386191E-3,-3.4703538E-2,4.726583E-3,5.6208475E-3,4.0424522E-2,-3.4023106E-2,-0E0,3.6321398E-2,2.0007011E-3,2.4656467E-2,-1.6225303E-2,3.733272E-3,2.624079E-2,-2.1071473E-2,2.310393E-2,1.7151091E-2,-1.854342E-2,1.6670989E-2,3.762727E-2,9.886557E-3,-3.0157752E-2,2.7202463E-2,-6.2250616E-3,1.8865408E-2,-7.1397186E-3,-9.600325E-3,1.788936E-2,-2.6082575E-2,1.0520244E-2,-1.3548487E-2,-4.371273E-2,-1.6024043E-3,3.367861E-2],"categories":[],"categories_nodes":[],"categories_segments":[],"categories_sizes":[],"default_left":[0,0,0,0,0,0,0,0,0,0,0,0,0,0,0,0,0,0,0,0,0,0,0,0,0,0,0,0,0,0,0,0,0,0,0,0,0,0,0,0,0,0,0,0,0,0,0,0,0,0,0,0,0,0,0,0,0,0,0,0,0,0,0,0,0,0,0,0,0,0,0,0,0,0,0,0,0,0,0,0,0,0,0,0,0,0,0,0,0,0,0,0,0,0,0,0,0,0,0,0,0,0,0,0,0,0,0,0,0,0,0,0,0,0,0],"id":10,"left_children":[1,3,5,7,9,11,13,15,17,19,21,23,25,27,29,31,33,35,37,39,41,43,45,47,49,51,53,-1,55,57,59,61,63,65,67,69,71,73,75,77,79,81,83,85,87,89,91,93,95,97,99,101,103,105,107,109,111,-1,-1,-1,113,-1,-1,-1,-1,-1,-1,-1,-1,-1,-1,-1,-1,-1,-1,-1,-1,-1,-1,-1,-1,-1,-1,-1,-1,-1,-1,-1,-1,-1,-1,-1,-1,-1,-1,-1,-1,-1,-1,-1,-1,-1,-1,-1,-1,-1,-1,-1,-1,-1,-1,-1,-1,-1,-1],"loss_changes":[1.9557172E2,6.891631E1,7.36029E1,9.4326904E1,3.363907E1,7.376611E1,1.3748554E1,3.3766907E1,1.3251541E1,3.1666214E1,1.1184284E1,2.0902084E1,1.2730764E1,5.560566E0,7.205759E0,2.0756104E1,1.8147793E1,1.008588E1,1.1346252E1,1.0379627E1,1.3294235E1,1.5458609E1,7.4305344E0,1.0702337E1,1.6876968E1,1.3539782E1,9.978093E0,0E0,2.7704887E0,5.1100197E0,2.4789896E0,6.414257E0,1.648964E1,1.0142E1,1.0407152E1,8.895851E0,1.0133238E1,6.162323E0,1.2317568E1,4.19963E0,7.08096E0,8.371193E0,4.758377E0,5.477455E0,2.1206057E0,1.640409E0,5.5470223E0,7.41463E0,6.012475E0,3.161473E1,7.946106E0,4.8126793E0,8.32709E0,4.251369E0,6.7441664E0,3.976059E0,1.1134148E0,0E0,0E0,0E0,2.7688193E0,0E0,0E0,0E0,0E0,0E0,0E0,0E0,0E0,0E0,0E0,0E0,0E0,0E0,0E0,0E0,0E0,0E0,0E0,0E0,0E0,0E0,0E0,0E0,0E0,0E0,0E0,0E0,0E0,0E0,0E0,0E0,0E0,0E0,0E0,0E0,0E0,0E0,0E0,0E0,0E0,0E0,0E0,0E0,0E0,0E0,0E0,0E0,0E0,0E0,0E0,0E0,0E0,0E0,0E0],"parents":[2147483647,0,0,1,1,2,2,3,3,4,4,5,5,6,6,7,7,8,8,9,9,10,10,11,11,12,12,13,13,14,14,15,15,16,16,17,17,18,18,19,19,20,20,21,21,22,22,23,23,24,24,25,25,26,26,28,28,29,29,30,30,31,31,32,32,33,33,34,34,35,35,36,36,37,37,38,38,39,39,40,40,41,41,42,42,43,43,44,44,45,45,46,46,47,47,48,48,49,49,50,50,51,51,52,52,53,53,54,54,55,55,56,56,60,60],"right_children":[2,4,6,8,10,12,14,16,18,20,22,24,26,28,30,32,34,36,38,40,42,44,46,48,50,52,54,-1,56,58,60,62,64,66,68,70,72,74,76,78,80,82,84,86,88,90,92,94,96,98,100,102,104,106,108,110,112,-1,-1,-1,114,-1,-1,-1,-1,-1,-1,-1,-1,-1,-1,-1,-1,-1,-1,-1,-1,-1,-1,-1,-1,-1,-1,-1,-1,-1,-1,-1,-1,-1,-1,-1,-1,-1,-1,-1,-1,-1,-1,-1,-1,-1,-1,-1,-1,-1,-1,-1,-1,-1,-1,-1,-1,-1,-1],"split_conditions":[1E0,1E0,4E0,5.0689465E-1,9.94E-1,7.9E2,9.34E-1,1.7E1,6E0,4E0,2E0,2.5E1,3.5245589E-4,-4.8925992E-2,-2.220692E-2,1.3862944E0,4.65E1,3E0,1.0946605E-3,5.0106354E0,2E0,6.666667E-1,-6.2374964E-2,3.713572E0,7.44E-1,-6.984214E-2,5.04E1,6.186294E-3,5.187938E-1,1.4209066E-3,1E0,4E0,1.2827495E-2,1.4E1,1.8115246E-1,5.69473E-2,1E0,-7.6753624E-2,1.4195126E-2,-6.7186016E-3,1.8E1,4.63E2,9.82E-1,-6.6075206E-2,3.7145508E-3,1.0604076E-2,-9.143146E-2,2.42E2,9.82E-1,8.8E1,9.677419E-2,5.826891E-2,-7.074213E-2,-7.113166E-2,-5.72488E-2,3.1443533E-2,5E0,9.840599E-3,-3.3644572E-2,-5.864339E-3,-1.3236237E-1,-1.0873236E-2,2.7350257E-3,-2.4587205E-2,-1.1831058E-2,1.0546262E-3,-1.6395668E-2,8.4107155E-3,-3.068235E-2,4.1187657E-3,3.461608E-2,-2.6872378E-2,2.4909144E-3,-8.8479836E-4,2.3596141E-2,1.5885275E-2,-3.5129068E-3,-2.581674E-3,-2.0381732E-2,1.5898048E-3,3.7813667E-2,-2.1508265E-2,8.386191E-3,-3.4703538E-2,4.726583E-3,5.6208475E-3,4.0424522E-2,-3.4023106E-2,-0E0,3.6321398E-2,2.0007011E-3,2.4656467E-2,-1.6225303E-2,3.733272E-3,2.624079E-2,-2.1071473E-2,2.310393E-2,1.7151091E-2,-1.854342E-2,1.6670989E-2,3.762727E-2,9.886557E-3,-3.0157752E-2,2.7202463E-2,-6.2250616E-3,1.8865408E-2,-7.1397186E-3,-9.600325E-3,1.788936E-2,-2.6082575E-2,1.0520244E-2,-1.3548487E-2,-4.371273E-2,-1.6024043E-3,3.367861E-2],"split_indices":[6,60,56,97,53,25,53,1,89,90,56,1,31,37,72,64,94,0,35,65,56,21,73,64,53,40,94,0,66,82,50,59,97,90,42,80,19,34,28,32,89,50,53,69,40,34,77,50,53,90,98,66,37,74,73,78,58,0,0,0,41,0,0,0,0,0,0,0,0,0,0,0,0,0,0,0,0,0,0,0,0,0,0,0,0,0,0,0,0,0,0,0,0,0,0,0,0,0,0,0,0,0,0,0,0,0,0,0,0,0,0,0,0,0,0],"split_type":[0,0,0,0,0,0,0,0,0,0,0,0,0,0,0,0,0,0,0,0,0,0,0,0,0,0,0,0,0,0,0,0,0,0,0,0,0,0,0,0,0,0,0,0,0,0,0,0,0,0,0,0,0,0,0,0,0,0,0,0,0,0,0,0,0,0,0,0,0,0,0,0,0,0,0,0,0,0,0,0,0,0,0,0,0,0,0,0,0,0,0,0,0,0,0,0,0,0,0,0,0,0,0,0,0,0,0,0,0,0,0,0,0,0,0],"sum_hessian":[2.6991946E3,1.569163E3,1.1300315E3,1.1735182E3,3.9564484E2,1.0652263E3,6.480514E1,8.317565E2,3.4176166E2,3.2980783E2,6.583703E1,8.213446E2,2.4388173E2,4.6135204E1,1.8669935E1,5.591035E2,2.7265298E2,1.1642714E2,2.2533452E2,7.544797E1,2.5435985E2,2.5372515E1,4.0464516E1,1.0905427E2,7.1229034E2,1.324388E2,1.1144293E2,2.9588325E0,4.3176373E1,8.335045E0,1.033489E1,1.3074092E2,4.283626E2,1.1891456E2,1.5373842E2,7.5386696E1,4.1040447E1,1.0732909E2,1.1800543E2,4.9485863E1,2.5962109E1,1.3240715E2,1.219527E2,1.972552E1,5.6469955E0,5.102926E0,3.536159E1,8.829978E1,2.0754484E1,6.3006085E2,8.222948E1,2.968208E1,1.02756714E2,5.6497078E1,5.494585E1,2.0395842E1,2.278053E1,2.853808E0,5.481237E0,2.4863684E0,7.8485217E0,4.815294E1,8.258799E1,1.3814165E2,2.9022095E2,5.2504852E1,6.6409706E1,1.4856662E2,5.1717944E0,6.647102E1,8.915673E0,1.7006203E1,2.4034243E1,9.596777E0,9.773231E1,6.816619E1,4.983924E1,2.3512812E1,2.5973051E1,2.0591883E1,5.370226E0,1.2428286E2,8.124294E0,1.1968303E2,2.269668E0,6.9787636E0,1.2746756E1,3.5129943E0,2.1340015E0,2.2853029E0,2.8176227E0,2.1010983E0,3.326049E1,7.298333E1,1.531646E1,1.866824E1,2.0862446E0,6.079849E2,2.2075953E1,2.966503E1,5.256445E1,2.1792588E0,2.750282E1,5.970259E0,9.678645E1,5.084907E0,5.141217E1,8.5643E0,4.6381554E1,1.8213919E1,2.181922E0,3.2639973E0,1.9516533E1,2.2444646E0,5.6040573E0],"tree_param":{"num_deleted":"0","num_feature":"102","num_nodes":"115","size_leaf_vector":"1"}},{"base_weights":[-5.195777E-3,-2.7318826E-1,3.1528115E-1,9.2365645E-2,-4.0206236E-1,3.8643473E-1,-5.094759E-1,-1.4721896E-1,6.641232E-1,-4.9589705E-1,2.796257E-1,5.7752657E-1,4.6389863E-2,-6.183289E-1,8.108998E-1,7.675749E-2,-3.3609095E-1,-1.2726271E-1,8.796905E-1,-3.8994646E-1,-1.1117735E0,5.8654207E-1,-8.0389306E-2,4.8886532E-1,1.0055988E0,-9.758325E-2,5.287077E-1,1.2051858E-1,-7.7935904E-1,-0E0,3.2856703E-2,-5.9316464E-2,4.658823E-1,-1.0749503E0,-2.3135716E-1,-3.2711912E-2,1.8801484E-1,9.399512E-1,-2.624011E-1,-8.20056E-1,-2.7574185E-1,5.6511562E-2,-1.1983545E0,6.789793E-1,-2.4105014E-2,3.7102413E-1,-3.5646275E-1,5.522827E-1,-7.1627647E-1,6.8875945E-1,1.224513E0,-6.384164E-3,-9.037631E-1,-5.659636E-1,6.7742187E-1,-2.50957E-1,8.387716E-1,1.884502E-2,-8.7405586E-1,1.04161855E-2,-8.443399E-3,2.6365736E-4,3.3071883E-2,-2.0450691E-3,-3.5747025E-2,-2.1237386E-3,-1.948358E-2,1.6938537E-2,-1.2456466E-2,-1.5512469E-2,2.9645965E-2,8.055897E-3,-2.2792533E-2,-2.148764E-2,-4.102142E-2,-6.822178E-3,-3.8139127E-2,-1.8418094E-2,2.0147864E-2,-3.7798382E-2,-4.8534074E-3,2.6302956E-2,-4.4316747E-3,-1.7034914E-2,1.946685E-2,-1.8054675E-2,1.7209835E-2,1.9631064E-2,5.4887277E-3,1.4078837E-2,-2.7208405E-2,-1.261888E-3,2.6215008E-2,3.832835E-2,-1.5199676E-4,-4.7363257E-3,8.3999E-3,1.7649209E-3,-3.091115E-2,-2.8080314E-2,1.3595703E-2,2.4655653E-2,-0E0,2.4907092E-2,-2.2624293E-2,1.509721E-3,3.6614217E-2,-2.8868016E-2,1.2633501E-2],"categories":[],"categories_nodes":[],"categories_segments":[],"categories_sizes":[],"default_left":[0,0,0,0,0,0,0,0,0,0,0,0,0,0,0,0,0,0,0,0,0,0,0,0,0,0,0,0,0,0,0,0,0,0,0,0,0,0,0,0,0,0,0,0,0,0,0,0,0,0,0,0,0,0,0,0,0,0,0,0,0,0,0,0,0,0,0,0,0,0,0,0,0,0,0,0,0,0,0,0,0,0,0,0,0,0,0,0,0,0,0,0,0,0,0,0,0,0,0,0,0,0,0,0,0,0,0,0,0],"id":11,"left_children":[1,3,5,7,9,11,13,15,17,19,21,23,25,27,29,31,33,35,37,39,41,43,45,47,49,51,53,55,57,-1,-1,59,61,63,65,-1,67,69,71,73,75,77,79,81,-1,83,85,87,89,91,93,95,97,99,101,103,105,-1,107,-1,-1,-1,-1,-1,-1,-1,-1,-1,-1,-1,-1,-1,-1,-1,-1,-1,-1,-1,-1,-1,-1,-1,-1,-1,-1,-1,-1,-1,-1,-1,-1,-1,-1,-1,-1,-1,-1,-1,-1,-1,-1,-1,-1,-1,-1,-1,-1,-1,-1],"loss_changes":[2.313693E2,6.924007E1,7.219075E1,5.2695835E1,6.965144E1,7.3272766E1,1.460631E1,1.1533801E1,1.9661873E1,6.149176E1,1.4727909E1,2.6551208E1,2.849703E1,1.1081627E1,1.6768117E0,6.697674E0,1.0859098E1,8.068141E0,6.599289E0,3.963604E1,1.4394165E1,9.832993E0,7.8123465E0,4.6425262E1,7.103958E0,2.297743E1,1.5842665E1,4.9371023E0,1.0727287E1,0E0,0E0,8.484074E0,9.288478E0,1.7350197E0,8.595541E0,0E0,4.815341E0,6.7217712E0,1.7328936E0,8.090164E0,3.0520546E1,4.8749886E0,7.761139E0,1.1410801E1,0E0,6.6224413E0,9.3225E0,2.1270859E1,7.480014E0,7.4037437E0,4.868187E0,1.2371602E1,4.141466E0,5.0475435E0,8.3440895E0,7.276526E0,1.5665526E0,0E0,8.713722E0,0E0,0E0,0E0,0E0,0E0,0E0,0E0,0E0,0E0,0E0,0E0,0E0,0E0,0E0,0E0,0E0,0E0,0E0,0E0,0E0,0E0,0E0,0E0,0E0,0E0,0E0,0E0,0E0,0E0,0E0,0E0,0E0,0E0,0E0,0E0,0E0,0E0,0E0,0E0,0E0,0E0,0E0,0E0,0E0,0E0,0E0,0E0,0E0,0E0,0E0],"parents":[2147483647,0,0,1,1,2,2,3,3,4,4,5,5,6,6,7,7,8,8,9,9,10,10,11,11,12,12,13,13,14,14,15,15,16,16,17,17,18,18,19,19,20,20,21,21,22,22,23,23,24,24,25,25,26,26,27,27,28,28,31,31,32,32,33,33,34,34,36,36,37,37,38,38,39,39,40,40,41,41,42,42,43,43,45,45,46,46,47,47,48,48,49,49,50,50,51,51,52,52,53,53,54,54,55,55,56,56,58,58],"right_children":[2,4,6,8,10,12,14,16,18,20,22,24,26,28,30,32,34,36,38,40,42,44,46,48,50,52,54,56,58,-1,-1,60,62,64,66,-1,68,70,72,74,76,78,80,82,-1,84,86,88,90,92,94,96,98,100,102,104,106,-1,108,-1,-1,-1,-1,-1,-1,-1,-1,-1,-1,-1,-1,-1,-1,-1,-1,-1,-1,-1,-1,-1,-1,-1,-1,-1,-1,-1,-1,-1,-1,-1,-1,-1,-1,-1,-1,-1,-1,-1,-1,-1,-1,-1,-1,-1,-1,-1,-1,-1,-1],"split_conditions":[2.5E1,1.609438E0,5E0,1E0,1E0,1.284E3,5.3E1,1.232E3,1E0,6.830968E-1,2E0,1E0,1E0,4E0,2.7725887E0,2.1669688E-2,3E0,9E0,5E0,1.3888247E-2,2.0794415E0,6.3E1,3.5263605E0,1.1249295E0,1E0,7.4193734E-1,1.15068495E-1,2.24E2,1.0986123E0,-0E0,3.2856703E-2,-3.457645E-2,7E0,-3.464245E-2,1.3862944E0,-3.2711912E-2,1E0,-1.2888102E-1,5.4E1,5.676298E-2,5E0,2.0421562E-3,8.77E2,2.072E3,-2.4105014E-2,9.7683035E-2,2.3780212E-2,8.4E2,-5.733006E-2,2.8332133E0,5.676298E-2,3.6E1,-5.9107106E-2,6.195047E-3,4.514454E-1,-1.276322E-2,9.3E-1,1.884502E-2,1.1223281E-1,1.04161855E-2,-8.443399E-3,2.6365736E-4,3.3071883E-2,-2.0450691E-3,-3.5747025E-2,-2.1237386E-3,-1.948358E-2,1.6938537E-2,-1.2456466E-2,-1.5512469E-2,2.9645965E-2,8.055897E-3,-2.2792533E-2,-2.148764E-2,-4.102142E-2,-6.822178E-3,-3.8139127E-2,-1.8418094E-2,2.0147864E-2,-3.7798382E-2,-4.8534074E-3,2.6302956E-2,-4.4316747E-3,-1.7034914E-2,1.946685E-2,-1.8054675E-2,1.7209835E-2,1.9631064E-2,5.4887277E-3,1.4078837E-2,-2.7208405E-2,-1.261888E-3,2.6215008E-2,3.832835E-2,-1.5199676E-4,-4.7363257E-3,8.3999E-3,1.7649209E-3,-3.091115E-2,-2.8080314E-2,1.3595703E-2,2.4655653E-2,-0E0,2.4907092E-2,-2.2624293E-2,1.509721E-3,3.6614217E-2,-2.8868016E-2,1.2633501E-2],"split_indices":[1,64,58,49,55,63,1,25,10,66,56,55,55,56,64,44,59,1,56,97,64,95,64,66,6,66,92,93,64,0,0,44,50,77,64,0,8,43,50,42,56,34,25,63,0,97,43,47,33,64,42,1,33,78,26,72,57,0,83,0,0,0,0,0,0,0,0,0,0,0,0,0,0,0,0,0,0,0,0,0,0,0,0,0,0,0,0,0,0,0,0,0,0,0,0,0,0,0,0,0,0,0,0,0,0,0,0,0,0],"split_type":[0,0,0,0,0,0,0,0,0,0,0,0,0,0,0,0,0,0,0,0,0,0,0,0,0,0,0,0,0,0,0,0,0,0,0,0,0,0,0,0,0,0,0,0,0,0,0,0,0,0,0,0,0,0,0,0,0,0,0,0,0,0,0,0,0,0,0,0,0,0,0,0,0,0,0,0,0,0,0,0,0,0,0,0,0,0,0,0,0,0,0,0,0,0,0,0,0,0,0,0,0,0,0,0,0,0,0,0,0],"sum_hessian":[2.6916248E3,1.466279E3,1.2253457E3,3.81874E2,1.084405E3,1.1288386E3,9.65071E1,2.6949023E2,1.12383766E2,9.537424E2,1.3066263E2,7.21793E2,4.0704553E2,8.98863E1,6.6208E0,1.2312919E2,1.4636104E2,2.3965597E1,8.841817E1,8.157002E2,1.3804216E2,7.042506E1,6.023758E1,6.0046405E2,1.21328995E2,3.1389084E2,9.315468E1,1.5916621E1,7.396968E1,2.1356277E0,4.4851723E0,9.160036E1,3.1528835E1,1.6553818E1,1.2980722E2,5.33918E0,1.8626417E1,8.435483E1,4.06334E0,1.692216E2,6.464786E2,9.393765E0,1.286484E2,6.6744316E1,3.6807387E0,2.242797E1,3.780961E1,5.7122107E2,2.9242973E1,5.198259E1,6.9346405E1,2.833001E2,3.0590734E1,1.05781555E1,8.257652E1,1.0821883E1,5.094737E0,4.1036057E0,6.986607E1,3.1809471E1,5.9790886E1,1.9241732E1,1.2287104E1,2.0938282E0,1.445999E1,9.514801E1,3.465921E1,1.1718681E1,6.9077363E0,2.197143E0,8.2157684E1,2.037854E0,2.0254862E0,1.448805E2,2.4341116E1,6.1814197E2,2.8336637E1,4.340095E0,5.0536704E0,1.2100684E2,7.641559E0,5.399535E1,1.2748967E1,4.671661E0,1.7756311E1,3.0422867E1,7.386742E0,4.4637085E2,1.2485022E2,3.6631792E0,2.5579794E1,1.0473067E1,4.150952E1,6.658668E1,2.7597277E0,1.8609438E2,9.720574E1,3.446908E0,2.7143826E1,7.9761972E0,2.6019578E0,6.8071526E1,1.4504999E1,3.0630043E0,7.758879E0,2.275866E0,2.8188713E0,6.584442E1,4.021656E0],"tree_param":{"num_deleted":"0","num_feature":"102","num_nodes":"109","size_leaf_vector":"1"}},{"base_weights":[-9.089906E-3,-2.6602423E-1,3.3748734E-1,-3.0861493E-2,-4.43627E-1,2.0277222E-1,6.160946E-1,1.1457934E-1,-4.802919E-1,-7.941777E-1,-3.0273974E-1,2.845118E-1,-5.3174126E-1,7.053084E-1,-2.8339368E-1,-2.1842338E-1,2.4240673E-1,5.6178653E-1,-5.57851E-1,-4.4897515E-1,-9.193011E-1,-2.4151725E-1,-1.0956564E0,4.214795E-1,-1.2305763E-1,-1.5451649E-1,-9.089916E-1,5.4728234E-1,9.6779275E-1,5.5281126E-1,-6.166395E-1,-2.90915E-1,3.906691E-1,5.561041E-1,1.2494161E-1,1.0297091E0,-1.20252175E-2,-7.562141E-1,-5.495612E-2,-9.6742684E-1,-1.14048004E-1,-1.0084939E0,-2.6154968E-1,-1.896641E-1,-9.466831E-1,9.772858E-3,-1.1768446E0,3.157408E-1,9.209874E-1,-2.7073473E-1,3.0423722E-1,7.8455997E-1,-3.5977495E-1,1.3261257E-3,-1.0548158E0,3.7726483E-1,8.63785E-1,1.0771021E0,3.9483395E-1,8.927566E-1,-1.1737959E-2,-8.2270885E-1,1.813023E-2,5.1011783E-3,-1.3826596E-2,1.9360628E-2,-2.0246705E-2,2.2308754E-2,-2.8843668E-3,-2.1129396E-2,5.6521064E-3,4.0544737E-2,-0E0,-1.4444045E-2,-3.6599576E-2,-2.3102589E-2,5.3362707E-3,-3.449362E-2,-9.007269E-4,1.13304425E-2,-1.3995199E-2,-4.58436E-3,-3.125653E-2,4.7159195E-3,-2.9375069E-2,-7.401723E-3,1.1308166E-2,1.2151675E-2,-3.145987E-2,-3.8157374E-2,-3.2413034E-3,1.2673522E-2,-8.561777E-3,2.9288415E-2,-2.042569E-2,-2.5385445E-2,-1.9901516E-3,-4.7679394E-3,2.0106567E-2,1.2668994E-3,3.519811E-2,-2.7014654E-2,-3.2160146E-4,2.9082293E-2,-2.1238795E-2,3.551859E-3,-3.4792103E-2,-2.681551E-3,1.6182933E-2,3.1339332E-2,7.5896303E-3,-5.3876485E-3,3.345222E-2,1.966339E-2,-9.193945E-3,2.571665E-3,3.7002984E-2,-3.2505024E-2,-0E0],"categories":[],"categories_nodes":[],"categories_segments":[],"categories_sizes":[],"default_left":[0,0,0,0,0,0,0,0,0,0,0,0,0,0,0,0,0,0,0,0,0,0,0,0,0,0,0,0,0,0,0,0,0,0,0,0,0,0,0,0,0,0,0,0,0,0,0,0,0,0,0,0,0,0,0,0,0,0,0,0,0,0,0,0,0,0,0,0,0,0,0,0,0,0,0,0,0,0,0,0,0,0,0,0,0,0,0,0,0,0,0,0,0,0,0,0,0,0,0,0,0,0,0,0,0,0,0,0,0,0,0,0,0,0,0,0,0,0,0],"id":12,"left_children":[1,3,5,7,9,11,13,15,17,19,21,23,25,27,29,31,33,35,37,39,41,43,45,47,49,51,53,55,57,59,61,63,65,67,69,71,-1,73,75,77,79,81,83,85,87,-1,89,91,93,95,97,99,101,103,105,107,109,111,113,115,-1,117,-1,-1,-1,-1,-1,-1,-1,-1,-1,-1,-1,-1,-1,-1,-1,-1,-1,-1,-1,-1,-1,-1,-1,-1,-1,-1,-1,-1,-1,-1,-1,-1,-1,-1,-1,-1,-1,-1,-1,-1,-1,-1,-1,-1,-1,-1,-1,-1,-1,-1,-1,-1,-1,-1,-1,-1,-1],"loss_changes":[2.4134805E2,6.4911514E1,4.2984848E1,4.404191E1,4.3269897E1,4.6955967E1,3.0411224E1,2.169527E1,1.3693237E1,1.0157593E1,3.0222832E1,3.9356136E1,1.0757465E1,1.3232651E1,1.0031476E1,6.3478203E0,1.3345879E1,5.9514446E0,1.5164841E1,1.1818521E1,1.0230103E1,2.1164192E1,5.8135986E0,2.7221466E1,1.1282754E1,8.127361E0,5.3395367E0,1.1010506E1,7.10865E0,3.8214116E0,7.030222E0,1.0110333E1,4.6495705E0,1.2383261E1,1.4257601E1,2.5616083E0,0E0,1.2991867E1,7.8058696E0,4.3562202E0,7.883496E0,4.182312E0,7.522518E0,1.7938581E1,6.1401367E0,0E0,3.9162598E0,2.8192913E1,8.921661E0,1.5367183E1,7.987976E0,1.8700585E0,6.3211837E0,5.230577E0,4.4944496E0,1.0998171E1,7.632641E0,5.4436646E0,4.410488E0,1.8324537E0,0E0,4.755871E0,0E0,0E0,0E0,0E0,0E0,0E0,0E0,0E0,0E0,0E0,0E0,0E0,0E0,0E0,0E0,0E0,0E0,0E0,0E0,0E0,0E0,0E0,0E0,0E0,0E0,0E0,0E0,0E0,0E0,0E0,0E0,0E0,0E0,0E0,0E0,0E0,0E0,0E0,0E0,0E0,0E0,0E0,0E0,0E0,0E0,0E0,0E0,0E0,0E0,0E0,0E0,0E0,0E0,0E0,0E0,0E0,0E0],"parents":[2147483647,0,0,1,1,2,2,3,3,4,4,5,5,6,6,7,7,8,8,9,9,10,10,11,11,12,12,13,13,14,14,15,15,16,16,17,17,18,18,19,19,20,20,21,21,22,22,23,23,24,24,25,25,26,26,27,27,28,28,29,29,30,30,31,31,32,32,33,33,34,34,35,35,37,37,38,38,39,39,40,40,41,41,42,42,43,43,44,44,46,46,47,47,48,48,49,49,50,50,51,51,52,52,53,53,54,54,55,55,56,56,57,57,58,58,59,59,61,61],"right_children":[2,4,6,8,10,12,14,16,18,20,22,24,26,28,30,32,34,36,38,40,42,44,46,48,50,52,54,56,58,60,62,64,66,68,70,72,-1,74,76,78,80,82,84,86,88,-1,90,92,94,96,98,100,102,104,106,108,110,112,114,116,-1,118,-1,-1,-1,-1,-1,-1,-1,-1,-1,-1,-1,-1,-1,-1,-1,-1,-1,-1,-1,-1,-1,-1,-1,-1,-1,-1,-1,-1,-1,-1,-1,-1,-1,-1,-1,-1,-1,-1,-1,-1,-1,-1,-1,-1,-1,-1,-1,-1,-1,-1,-1,-1,-1,-1,-1,-1,-1],"split_conditions":[2.6E1,1E0,4.1E1,1E0,3.85E1,4E0,5E0,5.616553E-2,1.0986123E0,1.609438E0,8.75071E-2,1.708E3,1E0,6.6E1,2.012017E0,7.734635E-2,1.609438E0,9.26E2,1E0,-2.4333045E-2,1E0,6E0,1.0986123E0,1E0,1E0,-4.9372975E-2,1.609438E0,3.78E2,1E0,6E1,5.3E1,-3.9264094E-2,6.256855E-2,2.3333333E-1,-9.05487E-2,4.3481786E-2,-1.20252175E-2,4E0,2E-1,6.0693126E-2,2.973614E-3,-1.2988065E-1,3.1435553E-2,1E0,1.0986123E0,9.772858E-3,-9.3004055E-5,1E0,1.7835061E-1,8.0273974E-1,-1.9914126E-2,2.3502414E-1,-4.5643438E-4,4.508687E-4,-1.458E3,-4.763678E-2,1.5E2,1E0,4.146814E-2,-3.208274E-2,-1.1737959E-2,7.013699E-1,1.813023E-2,5.1011783E-3,-1.3826596E-2,1.9360628E-2,-2.0246705E-2,2.2308754E-2,-2.8843668E-3,-2.1129396E-2,5.6521064E-3,4.0544737E-2,-0E0,-1.4444045E-2,-3.6599576E-2,-2.3102589E-2,5.3362707E-3,-3.449362E-2,-9.007269E-4,1.13304425E-2,-1.3995199E-2,-4.58436E-3,-3.125653E-2,4.7159195E-3,-2.9375069E-2,-7.401723E-3,1.1308166E-2,1.2151675E-2,-3.145987E-2,-3.8157374E-2,-3.2413034E-3,1.2673522E-2,-8.561777E-3,2.9288415E-2,-2.042569E-2,-2.5385445E-2,-1.9901516E-3,-4.7679394E-3,2.0106567E-2,1.2668994E-3,3.519811E-2,-2.7014654E-2,-3.2160146E-4,2.9082293E-2,-2.1238795E-2,3.551859E-3,-3.4792103E-2,-2.681551E-3,1.6182933E-2,3.1339332E-2,7.5896303E-3,-5.3876485E-3,3.345222E-2,1.966339E-2,-9.193945E-3,2.571665E-3,3.7002984E-2,-3.2505024E-2,-0E0],"split_indices":[1,11,1,100,94,58,58,97,64,64,42,63,60,94,48,43,64,25,55,39,55,58,64,55,55,33,64,67,13,1,1,44,73,21,43,28,0,91,92,33,42,82,30,55,64,0,40,60,82,92,71,26,81,38,25,81,93,58,43,70,0,92,0,0,0,0,0,0,0,0,0,0,0,0,0,0,0,0,0,0,0,0,0,0,0,0,0,0,0,0,0,0,0,0,0,0,0,0,0,0,0,0,0,0,0,0,0,0,0,0,0,0,0,0,0,0,0,0,0],"split_type":[0,0,0,0,0,0,0,0,0,0,0,0,0,0,0,0,0,0,0,0,0,0,0,0,0,0,0,0,0,0,0,0,0,0,0,0,0,0,0,0,0,0,0,0,0,0,0,0,0,0,0,0,0,0,0,0,0,0,0,0,0,0,0,0,0,0,0,0,0,0,0,0,0,0,0,0,0,0,0,0,0,0,0,0,0,0,0,0,0,0,0,0,0,0,0,0,0,0,0,0,0,0,0,0,0,0,0,0,0,0,0,0,0,0,0,0,0,0,0],"sum_hessian":[2.7080774E3,1.5556531E3,1.1524242E3,6.704496E2,8.8520355E2,7.7869336E2,3.7373083E2,5.0686975E2,1.6357982E2,2.5177122E2,6.334323E2,7.016216E2,7.707176E1,3.4044583E2,3.328498E1,1.3992818E2,3.669416E2,1.0633831E1,1.5294598E2,6.887008E1,1.8290114E2,5.89717E2,4.3715343E1,5.2547894E2,1.7614261E2,3.9648052E1,3.742371E1,2.1529413E2,1.2515172E2,9.088543E0,2.419644E1,1.25899376E2,1.4028804E1,9.828421E1,2.6865738E2,7.239116E0,3.394715E0,1.0896386E2,4.398212E1,2.59058E1,4.296428E1,1.6022961E2,2.2671526E1,5.5100604E2,3.8710903E1,2.0335863E0,4.168176E1,4.3562277E2,8.985621E1,1.3157634E2,4.456627E1,6.3293853E0,3.331867E1,5.1420007E0,3.228171E1,1.4218051E2,7.311362E1,1.0392074E2,2.1230982E1,6.88607E0,2.2024727E0,2.1177471E1,3.0189683E0,3.360019E1,9.229919E1,1.1855962E1,2.1728415E0,7.644491E1,2.1839306E1,1.8012989E1,2.5064438E2,5.101358E0,2.1377578E0,7.023347E1,3.8730392E1,1.0333465E1,3.3648655E1,2.1280663E1,4.6251373E0,1.7665335E1,2.5298946E1,6.4939475E0,1.5373567E2,1.4732953E1,7.938573E0,5.0152972E2,4.9476322E1,2.3278384E0,3.6383064E1,3.7895824E1,3.785934E0,3.7053653E2,6.5086235E1,8.7431694E1,2.4245143E0,3.3242043E1,9.83343E1,1.9729717E1,2.4836552E1,2.8092954E0,3.5200899E0,1.2102388E1,2.1216278E1,2.1074665E0,3.0345342E0,2.4808533E0,2.9800858E1,