{"learner":{"attributes":{"best_iteration":"527","best_score":"0.5550334696152719","scikit_learn":"{\"_estimator_type\": \"classifier\"}"},"feature_names":["accommodates","amenities_count","amenity_comfort_score","amenity_has_air_conditioning","amenity_has_balcony","amenity_has_coffee_maker","amenity_has_dishwasher","amenity_has_dryer","amenity_has_elevator","amenity_has_heating","amenity_has_kitchen","amenity_has_long_term_stays_allowed","amenity_has_parking","amenity_has_pets_allowed","amenity_has_tv","amenity_has_washer","amenity_has_wifi","amenity_score_business","amenity_score_family","amenity_score_luxury","amenity_score_safety","availability_ratio","bathrooms_numeric","bedrooms","beds","days_since_last_review","desc_embed_0","desc_embed_1","desc_embed_10","desc_embed_11","desc_embed_12","desc_embed_13","desc_embed_14","desc_embed_15","desc_embed_16","desc_embed_17","desc_embed_18","desc_embed_19","desc_embed_2","desc_embed_3","desc_embed_4","desc_embed_5","desc_embed_6","desc_embed_7","desc_embed_8","desc_embed_9","desc_sentiment_compound","description_length","distance_to_center_km","has_license_info","host_about_length","host_about_sentiment_compound","host_acceptance_rate","host_activity_score","host_has_gov_id","host_is_superhost_flag","host_listings_count","host_response_rate","host_total_listings_count","host_verifications_count","instant_bookable_flag","is_central","is_shared_bath","listing_age_days","log_number_of_reviews","log_price","log_reviews_per_month","neighborhood_desc_length","neighborhood_embed_0","neighborhood_embed_1","neighborhood_embed_10","neighborhood_embed_11","neighborhood_embed_12","neighborhood_embed_13","neighborhood_embed_14","neighborhood_embed_15","neighborhood_embed_16","neighborhood_embed_17","neighborhood_embed_18","neighborhood_embed_19","neighborhood_embed_2","neighborhood_embed_3","neighborhood_embed_4","neighborhood_embed_5","neighborhood_embed_6","neighborhood_embed_7","neighborhood_embed_8","neighborhood_embed_9","neighborhood_sentiment_compound","neighbourhood_encoded","number_of_reviews","number_of_reviews_ltm","occupancy_rate","price_clean","price_per_person","property_type_encoded","recent_review_flag","recent_review_score","reviews_growth_ratio","reviews_per_month","room_type_encoded","text_sentiment_score"],"feature_types":["int","int","float","int","int","int","int","int","int","int","int","int","int","int","int","int","int","int","int","int","int","float","float","float","float","float","float","float","float","float","float","float","float","float","float","float","float","float","float","float","float","float","float","float","float","float","int","int","float","int","int","int","float","float","int","int","float","float","float","int","int","int","int","float","float","float","float","int","float","float","float","float","float","float","float","float","float","float","float","float","float","float","float","float","float","float","float","float","int","int","int","int","float","float","float","int","int","float","float","float","int","int"],"gradient_booster":{"model":{"cats":{"enc":[],"feature_segments":[],"sorted_idx":[]},"gbtree_model_param":{"num_parallel_tree":"1","num_trees":"600"},"iteration_indptr":[0,1,2,3,4,5,6,7,8,9,10,11,12,13,14,15,16,17,18,19,20,21,22,23,24,25,26,27,28,29,30,31,32,33,34,35,36,37,38,39,40,41,42,43,44,45,46,47,48,49,50,51,52,53,54,55,56,57,58,59,60,61,62,63,64,65,66,67,68,69,70,71,72,73,74,75,76,77,78,79,80,81,82,83,84,85,86,87,88,89,90,91,92,93,94,95,96,97,98,99,100,101,102,103,104,105,106,107,108,109,110,111,112,113,114,115,116,117,118,119,120,121,122,123,124,125,126,127,128,129,130,131,132,133,134,135,136,137,138,139,140,141,142,143,144,145,146,147,148,149,150,151,152,153,154,155,156,157,158,159,160,161,162,163,164,165,166,167,168,169,170,171,172,173,174,175,176,177,178,179,180,181,182,183,184,185,186,187,188,189,190,191,192,193,194,195,196,197,198,199,200,201,202,203,204,205,206,207,208,209,210,211,212,213,214,215,216,217,218,219,220,221,222,223,224,225,226,227,228,229,230,231,232,233,234,235,236,237,238,239,240,241,242,243,244,245,246,247,248,249,250,251,252,253,254,255,256,257,258,259,260,261,262,263,264,265,266,267,268,269,270,271,272,273,274,275,276,277,278,279,280,281,282,283,284,285,286,287,288,289,290,291,292,293,294,295,296,297,298,299,300,301,302,303,304,305,306,307,308,309,310,311,312,313,314,315,316,317,318,319,320,321,322,323,324,325,326,327,328,329,330,331,332,333,334,335,336,337,338,339,340,341,342,343,344,345,346,347,348,349,350,351,352,353,354,355,356,357,358,359,360,361,362,363,364,365,366,367,368,369,370,371,372,373,374,375,376,377,378,379,380,381,382,383,384,385,386,387,388,389,390,391,392,393,394,395,396,397,398,399,400,401,402,403,404,405,406,407,408,409,410,411,412,413,414,415,416,417,418,419,420,421,422,423,424,425,426,427,428,429,430,431,432,433,434,435,436,437,438,439,440,441,442,443,444,445,446,447,448,449,450,451,452,453,454,455,456,457,458,459,460,461,462,463,464,465,466,467,468,469,470,471,472,473,474,475,476,477,478,479,480,481,482,483,484,485,486,487,488,489,490,491,492,493,494,495,496,497,498,499,500,501,502,503,504,505,506,507,508,509,510,511,512,513,514,515,516,517,518,519,520,521,522,523,524,525,526,527,528,529,530,531,532,533,534,535,536,537,538,539,540,541,542,543,544,545,546,547,548,549,550,551,552,553,554,555,556,557,558,559,560,561,562,563,564,565,566,567,568,569,570,571,572,573,574,575,576,577,578,579,580,581,582,583,584,585,586,587,588,589,590,591,592,593,594,595,596,597,598,599,600],"tree_info":[0,0,0,0,0,0,0,0,0,0,0,0,0,0,0,0,0,0,0,0,0,0,0,0,0,0,0,0,0,0,0,0,0,0,0,0,0,0,0,0,0,0,0,0,0,0,0,0,0,0,0,0,0,0,0,0,0,0,0,0,0,0,0,0,0,0,0,0,0,0,0,0,0,0,0,0,0,0,0,0,0,0,0,0,0,0,0,0,0,0,0,0,0,0,0,0,0,0,0,0,0,0,0,0,0,0,0,0,0,0,0,0,0,0,0,0,0,0,0,0,0,0,0,0,0,0,0,0,0,0,0,0,0,0,0,0,0,0,0,0,0,0,0,0,0,0,0,0,0,0,0,0,0,0,0,0,0,0,0,0,0,0,0,0,0,0,0,0,0,0,0,0,0,0,0,0,0,0,0,0,0,0,0,0,0,0,0,0,0,0,0,0,0,0,0,0,0,0,0,0,0,0,0,0,0,0,0,0,0,0,0,0,0,0,0,0,0,0,0,0,0,0,0,0,0,0,0,0,0,0,0,0,0,0,0,0,0,0,0,0,0,0,0,0,0,0,0,0,0,0,0,0,0,0,0,0,0,0,0,0,0,0,0,0,0,0,0,0,0,0,0,0,0,0,0,0,0,0,0,0,0,0,0,0,0,0,0,0,0,0,0,0,0,0,0,0,0,0,0,0,0,0,0,0,0,0,0,0,0,0,0,0,0,0,0,0,0,0,0,0,0,0,0,0,0,0,0,0,0,0,0,0,0,0,0,0,0,0,0,0,0,0,0,0,0,0,0,0,0,0,0,0,0,0,0,0,0,0,0,0,0,0,0,0,0,0,0,0,0,0,0,0,0,0,0,0,0,0,0,0,0,0,0,0,0,0,0,0,0,0,0,0,0,0,0,0,0,0,0,0,0,0,0,0,0,0,0,0,0,0,0,0,0,0,0,0,0,0,0,0,0,0,0,0,0,0,0,0,0,0,0,0,0,0,0,0,0,0,0,0,0,0,0,0,0,0,0,0,0,0,0,0,0,0,0,0,0,0,0,0,0,0,0,0,0,0,0,0,0,0,0,0,0,0,0,0,0,0,0,0,0,0,0,0,0,0,0,0,0,0,0,0,0,0,0,0,0,0,0,0,0,0,0,0,0,0,0,0,0,0,0,0,0,0,0,0,0,0,0,0,0,0,0,0,0,0,0,0,0,0,0,0,0,0,0,0,0,0,0,0,0,0,0,0,0,0,0,0,0,0,0,0,0,0,0,0,0,0,0,0,0,0,0,0,0,0,0,0,0,0,0,0,0,0,0,0,0,0,0,0,0,0,0,0,0,0,0,0,0,0,0,0,0,0,0,0,0,0,0,0],"trees":[{"base_weights":[4.230931E-3,8.030414E-1,-3.8875628E-1,1.0543811E0,3.0896914E-1,-6.459761E-2,-7.499766E-1,1.1309311E0,1.5275115E-1,5.782892E-1,1.5941627E-2,9.199626E-2,-1.3733695E0,-5.020915E-1,-9.325747E-1,1.3987213E0,8.90772E-1,4.125382E-1,-6.769188E-1,7.092164E-1,2.601855E-2,-3.428863E-1,3.9819965E-1,-2.5953698E-1,4.0131405E-1,-1.6521344E0,-8.861605E-1,-7.025559E-1,-1.6623022E-1,-4.7001863E-1,-1.0202049E0,1.6185257E0,1.2233366E0,1.0635544E0,7.1574783E-1,-0E0,9.4253844E-1,-1.0407603E0,1.6773658E-2,7.629991E-1,-7.573639E-2,5.350333E-1,-4.3102232E-1,-1.626444E-1,-1.0469708E0,-1.9815531E-1,7.774962E-1,-4.8626217E-1,9.793812E-2,-1.7200273E-1,5.0646055E-1,-4.1784127E-3,-1.7142314E0,-1.1177474E0,1.8562682E-1,-1.0303204E-1,-8.322548E-1,-2.5121115E-2,-7.6070356E-1,-6.5561146E-1,1.8396236E-2,-1.3124636E0,-7.569041E-1,1.1132074E-2,4.8947237E-2,3.774288E-2,-9.044816E-3,3.314871E-2,-2.0922304E-4,3.4604777E-2,1.6952718E-2,1.7944947E-2,-9.942764E-3,4.3108918E-2,1.2654961E-2,-6.7225085E-3,-4.0701546E-2,-4.7625945E-4,2.4355587E-2,-2.2219349E-2,2.0720895E-2,2.1796443E-2,-2.4986684E-2,-1.9205032E-2,2.1205764E-2,-1.10725975E-2,9.399527E-3,-3.8164802E-2,1.0318729E-2,2.9115789E-2,-1.4222441E-2,2.682655E-2,-2.36491E-2,-2.08864E-2,4.5495653E-3,-3.4243232E-3,2.2273488E-2,-2.584508E-2,9.096327E-3,1.1840534E-2,2.6299123E-2,-5.465671E-2,-2.4266372E-2,1.0887787E-3,-3.8302172E-2,-3.03841E-2,2.9635014E-2,7.989065E-3,-1.802162E-2,-1.52095035E-2,-2.9939165E-2,-5.8785444E-3,1.2555947E-2,-3.9121147E-2,-6.8607866E-3,-1.3204648E-2,-3.8327858E-2,1.4411391E-2,-1.3813427E-2,-3.3660945E-2,-4.439995E-2,-3.7259117E-2,-1.95785E-2],"categories":[],"categories_nodes":[],"categories_segments":[],"categories_sizes":[],"default_left":[0,0,0,0,0,0,0,0,0,0,0,0,0,0,0,0,0,0,0,0,0,0,0,0,0,0,0,0,0,0,0,0,0,0,0,0,0,0,0,0,0,0,0,0,0,0,0,0,0,0,0,0,0,0,0,0,0,0,0,0,0,0,0,0,0,0,0,0,0,0,0,0,0,0,0,0,0,0,0,0,0,0,0,0,0,0,0,0,0,0,0,0,0,0,0,0,0,0,0,0,0,0,0,0,0,0,0,0,0,0,0,0,0,0,0,0,0,0,0,0,0,0,0],"id":0,"left_children":[1,3,5,7,9,11,13,15,17,19,21,23,25,27,29,31,33,35,37,39,41,43,45,47,49,51,53,55,57,59,61,63,65,67,69,71,73,75,-1,77,79,81,83,85,87,89,91,93,95,97,99,-1,101,103,105,107,109,111,113,115,117,119,121,-1,-1,-1,-1,-1,-1,-1,-1,-1,-1,-1,-1,-1,-1,-1,-1,-1,-1,-1,-1,-1,-1,-1,-1,-1,-1,-1,-1,-1,-1,-1,-1,-1,-1,-1,-1,-1,-1,-1,-1,-1,-1,-1,-1,-1,-1,-1,-1,-1,-1,-1,-1,-1,-1,-1,-1,-1,-1,-1,-1],"loss_changes":[1.2793513E3,1.662226E2,3.1958395E2,6.0963562E1,3.5786316E1,2.9574597E2,5.7602234E1,5.0780273E1,1.5637354E1,1.695005E1,3.028945E1,1.4020984E2,1.8679474E1,3.6771774E1,2.9192017E1,1.190448E1,1.1915131E1,1.2115314E1,8.5562315E0,8.272209E0,1.1210766E1,1.3972812E1,2.4532932E1,4.9032207E1,4.152134E1,8.402405E0,1.5072731E1,2.6473648E1,1.7253553E1,1.10854435E1,4.6274353E1,1.586792E0,1.2288818E1,9.818069E0,1.3437622E1,6.6020713E0,5.1334496E0,2.9000616E0,0E0,6.9912186E0,7.3016543E0,6.713522E0,6.520789E0,9.200472E0,7.824337E0,1.4125297E1,1.2916729E1,4.975141E1,3.232174E1,3.5453896E1,2.333876E1,0E0,6.711731E0,9.260834E0,1.2110988E1,1.18136635E1,1.4321167E1,1.2898023E1,1.0769386E1,1.0749645E1,7.815994E0,6.8313293E0,1.5368011E1,0E0,0E0,0E0,0E0,0E0,0E0,0E0,0E0,0E0,0E0,0E0,0E0,0E0,0E0,0E0,0E0,0E0,0E0,0E0,0E0,0E0,0E0,0E0,0E0,0E0,0E0,0E0,0E0,0E0,0E0,0E0,0E0,0E0,0E0,0E0,0E0,0E0,0E0,0E0,0E0,0E0,0E0,0E0,0E0,0E0,0E0,0E0,0E0,0E0,0E0,0E0,0E0,0E0,0E0,0E0,0E0,0E0,0E0,0E0,0E0],"parents":[2147483647,0,0,1,1,2,2,3,3,4,4,5,5,6,6,7,7,8,8,9,9,10,10,11,11,12,12,13,13,14,14,15,15,16,16,17,17,18,18,19,19,20,20,21,21,22,22,23,23,24,24,25,25,26,26,27,27,28,28,29,29,30,30,31,31,32,32,33,33,34,34,35,35,36,36,37,37,39,39,40,40,41,41,42,42,43,43,44,44,45,45,46,46,47,47,48,48,49,49,50,50,52,52,53,53,54,54,55,55,56,56,57,57,58,58,59,59,60,60,61,61,62,62],"right_children":[2,4,6,8,10,12,14,16,18,20,22,24,26,28,30,32,34,36,38,40,42,44,46,48,50,52,54,56,58,60,62,64,66,68,70,72,74,76,-1,78,80,82,84,86,88,90,92,94,96,98,100,-1,102,104,106,108,110,112,114,116,118,120,122,-1,-1,-1,-1,-1,-1,-1,-1,-1,-1,-1,-1,-1,-1,-1,-1,-1,-1,-1,-1,-1,-1,-1,-1,-1,-1,-1,-1,-1,-1,-1,-1,-1,-1,-1,-1,-1,-1,-1,-1,-1,-1,-1,-1,-1,-1,-1,-1,-1,-1,-1,-1,-1,-1,-1,-1,-1,-1,-1,-1],"split_conditions":[1.9459101E0,8.91E2,1.332E3,4E0,3E0,4E0,1.824E3,1.3862944E0,1.609438E0,2.8223671E-2,1.8876018E-2,3.1430871E0,1E0,5.85E1,1E0,-6.4E2,-2.84E2,6.7666664E1,6.15E2,7.003647E-2,1.738E3,3.703054E-2,4.3333332E1,5.9E1,1E0,-6.71419E-2,8.084301E-2,3.5263605E0,2E0,3.56E2,4.8675346E0,-1.4889552E-1,1.6E0,8.5788056E-2,-4.0104687E-2,3.0565094E-3,2.2108534E-2,1E0,1.6773658E-2,7.431919E-2,2.1925172E-2,1.22061074E-1,2.4770759E-1,3.5616495E-2,9.859453E-2,-1.7443867E-2,1.1935453E-1,1E0,1E0,9.34E-1,1.01E2,-4.1784127E-3,3.947728E-2,-9.2050634E-2,1E0,6.836237E-3,-3.136768E-2,2E0,7.75E1,5.2E-1,2.296E3,2.186E3,-5.928991E-2,1.1132074E-2,4.8947237E-2,3.774288E-2,-9.044816E-3,3.314871E-2,-2.0922304E-4,3.4604777E-2,1.6952718E-2,1.7944947E-2,-9.942764E-3,4.3108918E-2,1.2654961E-2,-6.7225085E-3,-4.0701546E-2,-4.7625945E-4,2.4355587E-2,-2.2219349E-2,2.0720895E-2,2.1796443E-2,-2.4986684E-2,-1.9205032E-2,2.1205764E-2,-1.10725975E-2,9.399527E-3,-3.8164802E-2,1.0318729E-2,2.9115789E-2,-1.4222441E-2,2.682655E-2,-2.36491E-2,-2.08864E-2,4.5495653E-3,-3.4243232E-3,2.2273488E-2,-2.584508E-2,9.096327E-3,1.1840534E-2,2.6299123E-2,-5.465671E-2,-2.4266372E-2,1.0887787E-3,-3.8302172E-2,-3.03841E-2,2.9635014E-2,7.989065E-3,-1.802162E-2,-1.52095035E-2,-2.9939165E-2,-5.8785444E-3,1.2555947E-2,-3.9121147E-2,-6.8607866E-3,-1.3204648E-2,-3.8327858E-2,1.4411391E-2,-1.3813427E-2,-3.3660945E-2,-4.439995E-2,-3.7259117E-2,-1.95785E-2],"split_indices":[64,25,63,56,90,56,63,64,64,45,97,97,55,94,24,63,63,94,63,74,63,45,94,94,10,37,81,65,56,50,65,30,99,37,83,45,45,24,0,26,87,28,68,39,87,84,82,55,55,53,94,0,70,80,2,33,44,20,94,99,63,63,40,0,0,0,0,0,0,0,0,0,0,0,0,0,0,0,0,0,0,0,0,0,0,0,0,0,0,0,0,0,0,0,0,0,0,0,0,0,0,0,0,0,0,0,0,0,0,0,0,0,0,0,0,0,0,0,0,0,0,0,0],"split_type":[0,0,0,0,0,0,0,0,0,0,0,0,0,0,0,0,0,0,0,0,0,0,0,0,0,0,0,0,0,0,0,0,0,0,0,0,0,0,0,0,0,0,0,0,0,0,0,0,0,0,0,0,0,0,0,0,0,0,0,0,0,0,0,0,0,0,0,0,0,0,0,0,0,0,0,0,0,0,0,0,0,0,0,0,0,0,0,0,0,0,0,0,0,0,0,0,0,0,0,0,0,0,0,0,0,0,0,0,0,0,0,0,0,0,0,0,0,0,0,0,0,0,0],"sum_hessian":[4.0727183E3,1.3427062E3,2.730012E3,8.8879913E2,4.53907E2,1.4398556E3,1.2901565E3,8.1875806E2,7.004108E1,2.3555702E2,2.1834999E2,1.2868478E3,1.5300784E2,5.496192E2,7.405373E2,3.8397916E2,4.347789E2,5.398243E1,1.605865E1,1.8984674E2,4.571027E1,1.1242054E2,1.0592946E2,6.0210944E2,6.8473834E2,9.5236755E1,5.777108E1,3.429927E2,2.0662648E2,1.1952783E2,6.2100946E2,1.655216E2,2.1845755E2,2.1515E2,2.196289E2,3.0973513E1,2.3008917E1,1.2678108E1,3.3805404E0,1.7794296E2,1.1903784E1,2.1735674E1,2.3974594E1,9.0909454E1,2.1511082E1,4.119919E1,6.473027E1,3.685116E2,2.3359782E2,1.0570594E2,5.790324E2,4.035405E0,9.120135E1,4.76173E1,1.0153784E1,6.166162E1,2.813311E2,1.6827135E2,3.8355133E1,8.661405E1,3.2913784E1,2.916938E2,3.2931567E2,2.2378378E0,1.6328377E2,2.1392215E2,4.535405E0,2.0728162E2,7.868378E0,5.3849728E1,1.6577917E2,1.0641621E1,2.0331892E1,1.05221615E1,1.2486756E1,4.285405E0,8.392703E0,1.0308648E1,1.6763432E2,6.535405E0,5.368378E0,1.9688107E1,2.0475676E0,2.0844053E1,3.1305404E0,6.388838E1,2.702108E1,1.8725676E1,2.7854052E0,7.1537833E0,3.4045406E1,6.0837563E1,3.8927026E0,2.7741296E2,9.109865E1,1.7627135E2,5.7326485E1,4.2902702E1,6.280324E1,4.470608E2,1.3197162E2,8.022568E1,1.0975676E1,5.7256756E0,4.189162E1,3.8451352E0,6.308648E0,3.5484592E1,2.6177027E1,9.700568E1,1.8432541E2,1.22299995E2,4.5971348E1,1.7928108E1,2.0427027E1,6.609081E1,2.0523243E1,1.6962431E1,1.5951351E1,1.4139946E2,1.5029433E2,5.56173E1,2.7369836E2],"tree_param":{"num_deleted":"0","num_feature":"102","num_nodes":"123","size_leaf_vector":"1"}},{"base_weights":[-2.0477562E-3,7.586383E-1,-3.8494354E-1,2.7431038E-1,1.0056875E0,-8.525436E-2,-7.1429646E-1,5.2510506E-1,-1.0454247E-3,1.0887052E0,7.871492E-2,1.7959453E-1,-8.7648493E-1,-8.886749E-1,-4.4981888E-1,3.6103196E-2,8.004606E-1,1.5615734E-1,-6.3214046E-1,1.3496482E0,8.497427E-1,3.3124295E-1,-7.6262546E-1,-1.7564765E-1,4.0976223E-1,-5.5008477E-1,-1.5278108E0,-7.539299E-1,-1.1736509E0,-3.4215352E-1,-1.0393028E0,2.2140552E-1,-5.55998E-1,6.25998E-1,1.2083701E0,-2.1774536E-1,3.8338134E-1,-9.2498404E-1,3.3259615E-1,1.5550297E0,1.183185E0,9.31952E-1,4.0699327E-1,6.659406E-1,-3.4893787E-1,-1.1430111E0,2.0242104E-1,-3.5079917E-1,2.893442E-1,1.0214674E-1,6.0981876E-1,-9.520694E-1,1.3482736E-1,-1.7675688E0,-9.276701E-1,-9.2565966E-1,-4.2725718E-1,-1.047528E0,-1.6459495E0,-3.9425796E-1,5.375986E-1,-1.4102774E0,-5.345629E-1,1.7559405E-2,-5.540322E-3,-2.7253361E-2,1.3297667E-2,2.763672E-3,2.4489507E-2,3.9037175E-2,-3.6235277E-3,-1.9818929E-3,-3.301583E-2,-2.0155359E-4,2.0421699E-2,-3.226527E-2,2.6459698E-2,-6.7013847E-3,2.9531492E-2,1.4786605E-2,4.779836E-2,3.6791284E-2,-1.1540469E-2,-1.0523528E-2,2.9044662E-2,-1.2108111E-3,2.3776384E-2,4.0710537E-4,3.2247614E-2,2.3351295E-2,-2.1686537E-2,-2.8750317E-3,-4.1548204E-2,2.6303928E-2,-1.1299178E-2,-6.725509E-3,-3.0581856E-2,-5.0665466E-3,1.5515769E-2,-9.257656E-3,7.11297E-3,2.0833759E-2,-1.583383E-2,-1.858602E-2,-4.409339E-2,9.042135E-3,-3.116545E-2,-5.3737212E-2,-1.958543E-2,-4.0766757E-2,-3.4024795E-3,-3.8393714E-2,-2.466988E-2,-2.0939687E-3,-2.9623827E-2,-3.472569E-2,-1.4256827E-2,-7.587667E-3,-5.117169E-2,-8.66435E-3,-2.249455E-2,3.1107483E-2,-9.204502E-3,-4.495087E-2,-1.2251846E-2,-2.5090732E-2,4.802889E-3],"categories":[],"categories_nodes":[],"categories_segments":[],"categories_sizes":[],"default_left":[0,0,0,0,0,0,0,0,0,0,0,0,0,0,0,0,0,0,0,0,0,0,0,0,0,0,0,0,0,0,0,0,0,0,0,0,0,0,0,0,0,0,0,0,0,0,0,0,0,0,0,0,0,0,0,0,0,0,0,0,0,0,0,0,0,0,0,0,0,0,0,0,0,0,0,0,0,0,0,0,0,0,0,0,0,0,0,0,0,0,0,0,0,0,0,0,0,0,0,0,0,0,0,0,0,0,0,0,0,0,0,0,0,0,0,0,0,0,0,0,0,0,0,0,0,0,0],"id":1,"left_children":[1,3,5,7,9,11,13,15,17,19,21,23,25,27,29,31,33,35,37,39,41,43,45,47,49,51,53,55,57,59,61,63,65,67,69,71,73,75,77,79,81,83,85,87,89,91,93,95,97,99,101,103,105,107,109,111,113,115,117,119,121,123,125,-1,-1,-1,-1,-1,-1,-1,-1,-1,-1,-1,-1,-1,-1,-1,-1,-1,-1,-1,-1,-1,-1,-1,-1,-1,-1,-1,-1,-1,-1,-1,-1,-1,-1,-1,-1,-1,-1,-1,-1,-1,-1,-1,-1,-1,-1,-1,-1,-1,-1,-1,-1,-1,-1,-1,-1,-1,-1,-1,-1,-1,-1,-1,-1],"loss_changes":[1.1905359E3,1.6315668E2,2.6816663E2,3.2160774E1,6.934735E1,2.990347E2,5.897827E1,3.255916E1,2.224557E1,4.998816E1,1.6347258E1,8.7520134E1,7.465604E1,2.8456482E1,3.2138756E1,9.864157E0,9.780067E0,1.52982855E1,1.3138054E1,1.0738281E1,1.5193939E1,1.386808E1,6.966033E0,3.4397926E1,3.9738014E1,6.6526985E1,1.4556976E1,2.913269E1,1.2128082E1,2.0377552E1,1.3506134E1,1.0410824E1,8.091408E0,1.1071114E1,5.96727E0,8.771898E0,1.3107462E1,1.0649738E1,4.456801E0,5.6416016E0,1.5873169E1,1.7597717E1,1.2433579E1,1.0551592E1,9.172983E0,2.8457317E0,2.791374E0,2.5419357E1,1.2228771E1,1.4356777E1,3.8291702E1,2.4635117E1,1.7786222E1,3.025818E-1,1.2377409E1,1.1038055E1,3.697995E1,1.1532639E1,3.2291107E0,1.5127365E1,1.101564E1,2.8199234E0,7.7684803E0,0E0,0E0,0E0,0E0,0E0,0E0,0E0,0E0,0E0,0E0,0E0,0E0,0E0,0E0,0E0,0E0,0E0,0E0,0E0,0E0,0E0,0E0,0E0,0E0,0E0,0E0,0E0,0E0,0E0,0E0,0E0,0E0,0E0,0E0,0E0,0E0,0E0,0E0,0E0,0E0,0E0,0E0,0E0,0E0,0E0,0E0,0E0,0E0,0E0,0E0,0E0,0E0,0E0,0E0,0E0,0E0,0E0,0E0,0E0,0E0,0E0,0E0,0E0,0E0],"parents":[2147483647,0,0,1,1,2,2,3,3,4,4,5,5,6,6,7,7,8,8,9,9,10,10,11,11,12,12,13,13,14,14,15,15,16,16,17,17,18,18,19,19,20,20,21,21,22,22,23,23,24,24,25,25,26,26,27,27,28,28,29,29,30,30,31,31,32,32,33,33,34,34,35,35,36,36,37,37,38,38,39,39,40,40,41,41,42,42,43,43,44,44,45,45,46,46,47,47,48,48,49,49,50,50,51,51,52,52,53,53,54,54,55,55,56,56,57,57,58,58,59,59,60,60,61,61,62,62],"right_children":[2,4,6,8,10,12,14,16,18,20,22,24,26,28,30,32,34,36,38,40,42,44,46,48,50,52,54,56,58,60,62,64,66,68,70,72,74,76,78,80,82,84,86,88,90,92,94,96,98,100,102,104,106,108,110,112,114,116,118,120,122,124,126,-1,-1,-1,-1,-1,-1,-1,-1,-1,-1,-1,-1,-1,-1,-1,-1,-1,-1,-1,-1,-1,-1,-1,-1,-1,-1,-1,-1,-1,-1,-1,-1,-1,-1,-1,-1,-1,-1,-1,-1,-1,-1,-1,-1,-1,-1,-1,-1,-1,-1,-1,-1,-1,-1,-1,-1,-1,-1,-1,-1,-1,-1,-1,-1],"split_conditions":[1.9459101E0,9.222153E-2,1.332E3,1.3862944E0,4E0,1E0,1E0,4E0,1.955E3,1.3862944E0,1.609438E0,1E0,4E0,2.17E3,2.501E3,3.0606203E-2,3.9220713E-2,4.3E1,8.698064E-2,-6.4E2,2.3E1,3.28E2,1.5E0,1E0,1.2469525E1,1E0,9.79E-1,1E0,5.4E1,1.2E2,2.237771E-1,-3.5635582E-3,1.8E1,-3.5827987E-2,1.61E3,6.0064625E-2,1.9506915E-2,1E0,5.5E1,1E0,9.3609333E-1,1E0,4.2E1,6.1E-1,1.0058463E0,2.54E2,1.9806142E-1,6.151856E-1,-1.1486104E-2,1.1141197E-1,4E0,5.481214E-1,6.333333E-1,1.5317376E-1,1E0,3.75E1,2E0,1E0,1.7395331E-1,3.3333335E-2,5.3333336E-1,8.397488E-2,4.1626818E-3,1.7559405E-2,-5.540322E-3,-2.7253361E-2,1.3297667E-2,2.763672E-3,2.4489507E-2,3.9037175E-2,-3.6235277E-3,-1.9818929E-3,-3.301583E-2,-2.0155359E-4,2.0421699E-2,-3.226527E-2,2.6459698E-2,-6.7013847E-3,2.9531492E-2,1.4786605E-2,4.779836E-2,3.6791284E-2,-1.1540469E-2,-1.0523528E-2,2.9044662E-2,-1.2108111E-3,2.3776384E-2,4.0710537E-4,3.2247614E-2,2.3351295E-2,-2.1686537E-2,-2.8750317E-3,-4.1548204E-2,2.6303928E-2,-1.1299178E-2,-6.725509E-3,-3.0581856E-2,-5.0665466E-3,1.5515769E-2,-9.257656E-3,7.11297E-3,2.0833759E-2,-1.583383E-2,-1.858602E-2,-4.409339E-2,9.042135E-3,-3.116545E-2,-5.3737212E-2,-1.958543E-2,-4.0766757E-2,-3.4024795E-3,-3.8393714E-2,-2.466988E-2,-2.0939687E-3,-2.9623827E-2,-3.472569E-2,-1.4256827E-2,-7.587667E-3,-5.117169E-2,-8.66435E-3,-2.249455E-2,3.1107483E-2,-9.204502E-3,-4.495087E-2,-1.2251846E-2,-2.5090732E-2,4.802889E-3],"split_indices":[64,97,63,64,56,60,6,59,63,64,64,6,58,63,63,30,66,94,38,63,95,67,22,55,97,55,53,49,95,94,68,34,89,36,63,42,97,18,94,10,66,23,94,53,48,47,97,66,28,97,58,66,21,73,10,94,58,55,66,21,21,34,84,0,0,0,0,0,0,0,0,0,0,0,0,0,0,0,0,0,0,0,0,0,0,0,0,0,0,0,0,0,0,0,0,0,0,0,0,0,0,0,0,0,0,0,0,0,0,0,0,0,0,0,0,0,0,0,0,0,0,0,0,0,0,0,0],"split_type":[0,0,0,0,0,0,0,0,0,0,0,0,0,0,0,0,0,0,0,0,0,0,0,0,0,0,0,0,0,0,0,0,0,0,0,0,0,0,0,0,0,0,0,0,0,0,0,0,0,0,0,0,0,0,0,0,0,0,0,0,0,0,0,0,0,0,0,0,0,0,0,0,0,0,0,0,0,0,0,0,0,0,0,0,0,0,0,0,0,0,0,0,0,0,0,0,0,0,0,0,0,0,0,0,0,0,0,0,0,0,0,0,0,0,0,0,0,0,0,0,0,0,0,0,0,0,0],"sum_hessian":[4.085341E3,1.3672908E3,2.7180503E3,4.6298093E2,9.043099E2,1.4242216E3,1.2938287E3,2.4210713E2,2.2087378E2,8.2958856E2,7.472133E1,1.0675537E3,3.566678E2,7.775663E2,5.162624E2,8.796839E1,1.5413875E2,1.7729628E2,4.3577496E1,3.9348975E2,4.3609882E2,5.8213753E1,1.6507572E1,4.1950406E2,6.480497E2,2.3927834E2,1.1738947E2,5.313874E2,2.4617892E2,4.384231E2,7.783927E1,6.782967E1,2.013872E1,1.10436874E2,4.370187E1,6.670364E1,1.10592636E2,3.362689E1,9.950607E0,1.7113402E2,2.2235573E2,3.6630588E2,6.979295E1,3.9229298E1,1.8984459E1,1.1830413E1,4.6771593E0,3.052488E2,1.1425526E2,2.564829E2,3.9156677E2,1.506712E2,8.860713E1,8.197332E1,3.541615E1,3.4644894E2,1.8493845E2,1.9767632E2,4.850262E1,4.1474866E2,2.367445E1,4.3395363E1,3.444391E1,3.5752884E1,3.207679E1,1.5116256E1,5.022463E0,2.9767073E1,8.06698E1,4.1012E1,2.6898699E0,5.821699E1,8.486656E0,4.8051464E1,6.2541172E1,3.1591677E1,2.0352123E0,5.6300507E0,4.320556E0,6.7094936E0,1.6442451E2,2.1677306E2,5.5826745E0,9.616826E0,3.5668906E2,3.2564404E1,3.7228546E1,1.5782776E1,2.344652E1,4.272315E0,1.4712143E1,2.6898003E0,9.140613E0,2.035262E0,2.6418972E0,2.582451E2,4.700372E1,3.77561E1,7.649915E1,6.2681637E1,1.9380128E2,3.6504984E2,2.6516928E1,9.3583206E1,5.7087994E1,7.852456E1,1.0082574E1,7.937995E1,2.5933702E0,2.2468662E1,1.2947488E1,7.4731834E1,2.717171E2,1.1394088E2,7.099757E1,1.6448593E2,3.3190384E1,2.3915236E0,4.6111095E1,3.2199414E2,9.275451E1,1.4854193E1,8.820257E0,3.9158302E1,4.2370596E0,2.4041992E1,1.04019165E1],"tree_param":{"num_deleted":"0","num_feature":"102","num_nodes":"127","size_leaf_vector":"1"}},{"base_weights":[6.417903E-3,7.5386035E-1,-3.653907E-1,9.5752877E-1,1.8208681E-1,-6.1372566E-1,1.11372106E-1,1.0243727E0,1.1245517E-1,4.8191884E-1,-1.8004298E-1,-4.1775805E-1,-9.7325367E-1,3.7834916E-1,-3.68484E-1,1.2771583E0,8.9334977E-1,3.429294E-1,-6.6649705E-1,2.495622E-1,7.6680696E-1,2.6674107E-2,-5.386603E-1,-8.1536394E-1,-2.39089E-1,-1.1302172E0,-4.682521E-1,5.077981E-1,-1.0689049E0,-2.149899E-1,-9.3806624E-1,1.5252246E0,1.024185E0,1.0531172E0,5.6742454E-1,5.0444555E-1,-3.3885177E-2,-9.2320627E-1,1.51745165E-2,-8.1391263E-1,3.8882396E-1,2.361421E-1,1.0216031E0,5.4497856E-1,-1.8573168E-1,-8.61249E-1,4.2592198E-1,-2.002159E-1,-9.0625286E-1,-1.1677675E-1,-7.898147E-1,-1.0148964E0,-1.7323518E0,-5.763233E-2,-9.345832E-1,6.388012E-1,1.5692015E-1,2.2252887E-1,-1.2877809E0,-1.5156828E-2,-5.9375536E-1,-1.0682794E0,1.6073608E-1,4.6561334E-2,1.6804127E-2,3.164848E-2,-6.4006867E-3,3.3965535E-2,1.7577438E-2,1.1714634E-2,2.8897613E-2,-2.357253E-2,1.9750735E-2,2.1156066E-3,-3.5219673E-2,1.4387494E-2,-3.607188E-2,2.552992E-2,4.25038E-3,9.194849E-5,4.287911E-2,3.2810804E-2,-3.0894028E-3,-1.673518E-2,2.3378912E-2,-1.6833413E-2,1.9076719E-3,-3.2798234E-2,-1.0784544E-2,-3.8826186E-3,3.80629E-2,-4.1835234E-2,2.3504281E-3,-2.5619077E-2,-5.0055914E-2,-1.2516817E-2,3.1122852E-3,3.8577635E-2,-2.5097145E-2,-3.466659E-2,-8.364636E-3,-5.402467E-2,-2.15666E-2,5.354282E-3,-3.5589274E-2,-3.5358407E-2,-1.8263051E-3,1.624073E-2,2.8873783E-2,8.316803E-3,-1.1297205E-2,2.3067188E-2,-2.4331395E-2,-3.6610698E-5,-4.2233262E-2,1.460402E-2,-4.8529347E-3,-1.0538006E-2,-3.591529E-2,-0E0,-3.4317996E-2,3.4763876E-2,-1.8067583E-2],"categories":[],"categories_nodes":[],"categories_segments":[],"categories_sizes":[],"default_left":[0,0,0,0,0,0,0,0,0,0,0,0,0,0,0,0,0,0,0,0,0,0,0,0,0,0,0,0,0,0,0,0,0,0,0,0,0,0,0,0,0,0,0,0,0,0,0,0,0,0,0,0,0,0,0,0,0,0,0,0,0,0,0,0,0,0,0,0,0,0,0,0,0,0,0,0,0,0,0,0,0,0,0,0,0,0,0,0,0,0,0,0,0,0,0,0,0,0,0,0,0,0,0,0,0,0,0,0,0,0,0,0,0,0,0,0,0,0,0,0,0,0,0],"id":2,"left_children":[1,3,5,7,9,11,13,15,17,19,21,23,25,27,29,31,33,35,37,39,41,43,45,47,49,51,53,55,57,59,61,63,65,67,69,71,-1,73,-1,75,77,79,81,83,85,87,89,91,93,95,97,99,101,103,105,107,109,111,113,115,117,119,121,-1,-1,-1,-1,-1,-1,-1,-1,-1,-1,-1,-1,-1,-1,-1,-1,-1,-1,-1,-1,-1,-1,-1,-1,-1,-1,-1,-1,-1,-1,-1,-1,-1,-1,-1,-1,-1,-1,-1,-1,-1,-1,-1,-1,-1,-1,-1,-1,-1,-1,-1,-1,-1,-1,-1,-1,-1,-1,-1,-1],"loss_changes":[1.131751E3,1.5711334E2,3.2213223E2,5.595508E1,3.8935745E1,1.25237305E2,1.1957329E2,2.8786621E1,1.3611457E1,1.2539581E1,1.2152035E1,8.1958084E1,4.8955566E1,1.1289295E2,2.8686577E1,1.719342E1,3.0869293E1,1.4494295E1,5.8363028E0,1.660117E1,1.1231651E1,1.1615243E1,1.912228E1,1.9620895E1,5.3755684E1,3.0615662E1,2.8775967E1,2.5067078E1,1.454789E1,1.9891731E1,1.0426945E1,2.5375671E0,6.473343E0,1.3984283E1,1.3607162E1,1.12700615E1,0E0,3.9881897E0,0E0,7.3540926E0,1.0888726E1,8.067836E0,5.052414E0,8.5087805E0,7.08794E0,4.51585E0,7.738168E0,1.6366875E1,1.0219421E1,4.3727467E1,1.5304031E1,4.1293915E1,3.1503296E0,2.2347803E1,1.4740421E1,1.1711594E1,9.855616E0,5.2937837E0,6.2978134E0,1.2890454E1,1.2500195E1,4.8855286E0,7.280302E0,0E0,0E0,0E0,0E0,0E0,0E0,0E0,0E0,0E0,0E0,0E0,0E0,0E0,0E0,0E0,0E0,0E0,0E0,0E0,0E0,0E0,0E0,0E0,0E0,0E0,0E0,0E0,0E0,0E0,0E0,0E0,0E0,0E0,0E0,0E0,0E0,0E0,0E0,0E0,0E0,0E0,0E0,0E0,0E0,0E0,0E0,0E0,0E0,0E0,0E0,0E0,0E0,0E0,0E0,0E0,0E0,0E0,0E0,0E0,0E0],"parents":[2147483647,0,0,1,1,2,2,3,3,4,4,5,5,6,6,7,7,8,8,9,9,10,10,11,11,12,12,13,13,14,14,15,15,16,16,17,17,18,18,19,19,20,20,21,21,22,22,23,23,24,24,25,25,26,26,27,27,28,28,29,29,30,30,31,31,32,32,33,33,34,34,35,35,37,37,39,39,40,40,41,41,42,42,43,43,44,44,45,45,46,46,47,47,48,48,49,49,50,50,51,51,52,52,53,53,54,54,55,55,56,56,57,57,58,58,59,59,60,60,61,61,62,62],"right_children":[2,4,6,8,10,12,14,16,18,20,22,24,26,28,30,32,34,36,38,40,42,44,46,48,50,52,54,56,58,60,62,64,66,68,70,72,-1,74,-1,76,78,80,82,84,86,88,90,92,94,96,98,100,102,104,106,108,110,112,114,116,118,120,122,-1,-1,-1,-1,-1,-1,-1,-1,-1,-1,-1,-1,-1,-1,-1,-1,-1,-1,-1,-1,-1,-1,-1,-1,-1,-1,-1,-1,-1,-1,-1,-1,-1,-1,-1,-1,-1,-1,-1,-1,-1,-1,-1,-1,-1,-1,-1,-1,-1,-1,-1,-1,-1,-1,-1,-1,-1,-1,-1,-1],"split_conditions":[1.9459101E0,1.14E3,3.2E1,4E0,1.3862944E0,3.3672957E0,1.332E3,-7.33E2,4.01E2,4.9E1,1.843E3,1.5E1,8.5E-1,4E0,2.6666668E-1,1.3862944E0,1.609438E0,7.6086956E-1,2.957021E-2,3E0,4E0,-3.156239E-2,8.202217E-2,-7.04E2,1E0,3E0,2E0,-9.21E2,-1.1584472E-1,2.222E3,1E0,1E0,9.727246E-2,2E0,1.2E0,-1.6470032E-2,-3.3885177E-2,5.826891E-2,1.51745165E-2,-4.7552153E-2,1.515E3,3.010832E-1,1.25E2,3E0,-1.8060382E-2,4.542122E0,5.5E1,1E0,5E0,1.1141197E-1,6.0675997E-1,1E0,6.6609465E-2,2.296E3,2.8410632E-2,1.06E2,4.4293463E-2,-3.3E1,2.38E2,-3.7251025E-2,4.542122E0,-7.650949E-2,2.1488628E0,4.6561334E-2,1.6804127E-2,3.164848E-2,-6.4006867E-3,3.3965535E-2,1.7577438E-2,1.1714634E-2,2.8897613E-2,-2.357253E-2,1.9750735E-2,2.1156066E-3,-3.5219673E-2,1.4387494E-2,-3.607188E-2,2.552992E-2,4.25038E-3,9.194849E-5,4.287911E-2,3.2810804E-2,-3.0894028E-3,-1.673518E-2,2.3378912E-2,-1.6833413E-2,1.9076719E-3,-3.2798234E-2,-1.0784544E-2,-3.8826186E-3,3.80629E-2,-4.1835234E-2,2.3504281E-3,-2.5619077E-2,-5.0055914E-2,-1.2516817E-2,3.1122852E-3,3.8577635E-2,-2.5097145E-2,-3.466659E-2,-8.364636E-3,-5.402467E-2,-2.15666E-2,5.354282E-3,-3.5589274E-2,-3.5358407E-2,-1.8263051E-3,1.624073E-2,2.8873783E-2,8.316803E-3,-1.1297205E-2,2.3067188E-2,-2.4331395E-2,-3.6610698E-5,-4.2233262E-2,1.460402E-2,-4.8529347E-3,-1.0538006E-2,-3.591529E-2,-0E0,-3.4317996E-2,3.4763876E-2,-1.8067583E-2],"split_indices":[64,25,1,56,64,64,63,63,67,94,63,1,53,56,21,64,64,98,32,59,59,33,38,25,60,56,56,25,27,63,3,62,28,100,2,72,0,66,0,28,63,68,94,59,31,48,94,10,56,97,48,55,36,63,31,94,78,63,47,85,48,31,48,0,0,0,0,0,0,0,0,0,0,0,0,0,0,0,0,0,0,0,0,0,0,0,0,0,0,0,0,0,0,0,0,0,0,0,0,0,0,0,0,0,0,0,0,0,0,0,0,0,0,0,0,0,0,0,0,0,0,0,0],"split_type":[0,0,0,0,0,0,0,0,0,0,0,0,0,0,0,0,0,0,0,0,0,0,0,0,0,0,0,0,0,0,0,0,0,0,0,0,0,0,0,0,0,0,0,0,0,0,0,0,0,0,0,0,0,0,0,0,0,0,0,0,0,0,0,0,0,0,0,0,0,0,0,0,0,0,0,0,0,0,0,0,0,0,0,0,0,0,0,0,0,0,0,0,0,0,0,0,0,0,0,0,0,0,0,0,0,0,0,0,0,0,0,0,0,0,0,0,0,0,0,0,0,0,0],"sum_hessian":[4.0697617E3,1.35172E3,2.7180417E3,9.9583826E2,3.5588168E2,1.7872029E3,9.3083887E2,9.223877E2,7.345056E1,1.9477197E2,1.611097E2,1.158753E3,6.284498E2,5.985146E2,3.3232428E2,3.107762E2,6.1161145E2,5.7396656E1,1.6053904E1,1.08903114E2,8.586886E1,1.0255003E2,5.855967E1,3.5758847E2,8.0116455E2,4.779979E2,1.5045195E2,5.502178E2,4.829681E1,2.633574E2,6.8966896E1,1.5346368E2,1.5731255E2,4.0821487E2,2.0339659E2,5.255631E1,4.8403506E0,1.3519127E1,2.5347767E0,1.1770207E1,9.7132904E1,2.8859709E1,5.7009148E1,2.9537197E1,7.301283E1,4.4135254E1,1.44244175E1,4.6810825E1,3.1077765E2,6.57055E2,1.441096E2,4.041499E2,7.384801E1,8.095001E1,6.9501945E1,3.995047E2,1.5071304E2,6.86391E0,4.14329E1,1.7356316E2,8.9794235E1,6.1852444E1,7.1144533E0,1.4840248E2,5.0611973E0,1.5382718E2,3.4853625E0,3.4730283E2,6.091204E1,1.4256067E2,6.0835926E1,4.9378943E0,4.7618412E1,2.7373688E0,1.0781758E1,2.5346396E0,9.235568E0,3.2540066E1,6.459284E1,2.5290134E1,3.5695758E0,5.3772892E1,3.2362566E0,4.7361584E0,2.480104E1,2.8860863E1,4.415197E1,2.8939735E1,1.5195518E1,9.16446E0,5.2599573E0,8.0799885E0,3.8730835E1,2.9345654E2,1.7321106E1,2.7805328E2,3.7900168E2,2.3798003E0,1.417298E2,3.385087E2,6.564118E1,6.811639E1,5.7316227E0,6.763455E1,1.3315455E1,5.3821625E1,1.5680323E1,3.0999872E2,8.950598E1,1.237564E2,2.6956638E1,4.8178477E0,2.0460627E0,3.7802832E0,3.7652615E1,3.8296013E1,1.3526715E2,6.564456E1,2.414968E1,4.3306837E0,5.752176E1,2.9262567E0,4.1881967E0],"tree_param":{"num_deleted":"0","num_feature":"102","num_nodes":"123","size_leaf_vector":"1"}},{"base_weights":[2.1340617E-3,7.850671E-1,-3.0802035E-1,9.52502E-1,2.2846645E-1,-5.4204226E-1,2.0565777E-1,1.023623E0,9.034153E-2,3.8347617E-3,4.659375E-1,-4.6686545E-1,-1.4793273E0,4.6998936E-1,-3.3861068E-1,7.654545E-1,1.1868893E0,6.8171877E-1,-2.0575911E-1,-2.1569106E-1,3.232832E-1,2.3143943E-1,9.441002E-1,-1.598284E-1,-7.583429E-1,-3.130427E-1,-1.5390828E0,5.7809097E-1,-8.3698916E-1,-2.0316364E-1,-8.5223883E-1,2.1526848E-1,8.4630126E-1,1.5097358E0,1.046991E0,-2.0536754E-2,8.9838564E-1,-5.5664474E-1,4.0840182E-1,5.5282664E-1,-3.1306833E-1,7.1227795E-1,-4.5928025E-1,-3.5448742E-1,4.6594214E-1,1.0320541E0,-8.849024E-3,1.7389592E-3,-6.953781E-1,-6.1668277E-1,-1.087436E0,-8.614872E-1,2.7226778E-2,-1.6312784E0,-1.0588189E0,6.3716424E-1,4.0074404E-2,-1.9495006E-1,-1.3141719E0,1.4310245E-1,-4.649992E-1,-1.0239981E0,-8.1129946E-2,-5.490356E-3,2.056339E-2,2.6118869E-2,-1.8678632E-2,4.665891E-2,1.1817867E-2,3.3615354E-2,1.0676352E-2,-4.9112504E-4,3.688898E-2,2.2539467E-2,-2.2862053E-2,2.743633E-2,-6.229414E-3,2.872384E-2,-1.5289739E-2,-1.4204184E-2,1.1026654E-2,2.920411E-2,-5.2141417E-3,-2.873516E-2,4.76009E-3,1.0995429E-2,-2.718452E-2,1.7381154E-2,-2.2574771E-2,3.9296146E-2,1.2689988E-2,-8.096672E-3,5.952463E-3,-2.9277757E-2,-1.6070037E-3,-3.1248365E-2,-1.4080113E-2,-2.1352364E-2,-3.6391355E-2,-3.0828286E-3,-3.4072537E-2,-4.963099E-2,-1.786784E-2,-4.0088765E-2,-0E0,1.0856658E-2,2.2852896E-2,-1.6209105E-2,1.5027589E-2,-2.9663322E-2,9.272952E-3,-5.026543E-2,-1.4169805E-2,-4.6175628E-4,3.1741124E-2,-2.2144966E-2,-3.3246775E-3,-1.4099808E-2,-4.1021228E-2,2.4942443E-2,-2.0355448E-2],"categories":[],"categories_nodes":[],"categories_segments":[],"categories_sizes":[],"default_left":[0,0,0,0,0,0,0,0,0,0,0,0,0,0,0,0,0,0,0,0,0,0,0,0,0,0,0,0,0,0,0,0,0,0,0,0,0,0,0,0,0,0,0,0,0,0,0,0,0,0,0,0,0,0,0,0,0,0,0,0,0,0,0,0,0,0,0,0,0,0,0,0,0,0,0,0,0,0,0,0,0,0,0,0,0,0,0,0,0,0,0,0,0,0,0,0,0,0,0,0,0,0,0,0,0,0,0,0,0,0,0,0,0,0,0,0,0,0,0,0,0],"id":3,"left_children":[1,3,5,7,9,11,13,15,17,19,21,23,25,27,29,31,33,35,37,39,41,43,45,47,49,51,53,55,57,59,61,63,65,67,69,-1,71,73,75,77,79,81,83,85,87,89,-1,91,93,95,97,99,-1,101,103,105,107,109,111,113,115,117,119,-1,-1,-1,-1,-1,-1,-1,-1,-1,-1,-1,-1,-1,-1,-1,-1,-1,-1,-1,-1,-1,-1,-1,-1,-1,-1,-1,-1,-1,-1,-1,-1,-1,-1,-1,-1,-1,-1,-1,-1,-1,-1,-1,-1,-1,-1,-1,-1,-1,-1,-1,-1,-1,-1,-1,-1,-1,-1],"loss_changes":[9.921793E2,1.0755316E2,3.519533E2,5.4278137E1,1.4305115E1,1.404715E2,1.3206305E2,3.318518E1,1.2416274E1,9.949569E0,1.4168198E1,1.6644388E2,9.404724E0,8.778812E1,2.0454384E1,1.3912827E1,2.0227295E1,7.7844667E0,1.0418644E1,6.4123588E0,1.8107655E1,1.2535234E1,5.129841E0,7.882668E1,4.339081E1,6.893686E0,3.6258545E0,1.7990448E1,1.3952301E1,2.1841042E1,7.881157E0,8.348391E0,1.0721451E1,6.4175415E0,1.7213318E1,0E0,6.650009E0,8.908254E0,5.8424635E0,4.8018737E0,8.434733E0,9.482094E0,6.4502926E0,1.087003E1,9.440261E0,5.752674E0,0E0,3.742084E1,3.7733223E1,4.112593E1,1.2050812E1,1.0431671E0,0E0,1.1317139E0,7.8959084E0,1.7085876E1,1.5865912E1,9.24626E0,6.796711E0,1.5255617E1,1.2974903E1,8.4357605E0,7.622179E0,0E0,0E0,0E0,0E0,0E0,0E0,0E0,0E0,0E0,0E0,0E0,0E0,0E0,0E0,0E0,0E0,0E0,0E0,0E0,0E0,0E0,0E0,0E0,0E0,0E0,0E0,0E0,0E0,0E0,0E0,0E0,0E0,0E0,0E0,0E0,0E0,0E0,0E0,0E0,0E0,0E0,0E0,0E0,0E0,0E0,0E0,0E0,0E0,0E0,0E0,0E0,0E0,0E0,0E0,0E0,0E0,0E0,0E0],"parents":[2147483647,0,0,1,1,2,2,3,3,4,4,5,5,6,6,7,7,8,8,9,9,10,10,11,11,12,12,13,13,14,14,15,15,16,16,17,17,18,18,19,19,20,20,21,21,22,22,23,23,24,24,25,25,26,26,27,27,28,28,29,29,30,30,31,31,32,32,33,33,34,34,36,36,37,37,38,38,39,39,40,40,41,41,42,42,43,43,44,44,45,45,47,47,48,48,49,49,50,50,51,51,53,53,54,54,55,55,56,56,57,57,58,58,59,59,60,60,61,61,62,62],"right_children":[2,4,6,8,10,12,14,16,18,20,22,24,26,28,30,32,34,36,38,40,42,44,46,48,50,52,54,56,58,60,62,64,66,68,70,-1,72,74,76,78,80,82,84,86,88,90,-1,92,94,96,98,100,-1,102,104,106,108,110,112,114,116,118,120,-1,-1,-1,-1,-1,-1,-1,-1,-1,-1,-1,-1,-1,-1,-1,-1,-1,-1,-1,-1,-1,-1,-1,-1,-1,-1,-1,-1,-1,-1,-1,-1,-1,-1,-1,-1,-1,-1,-1,-1,-1,-1,-1,-1,-1,-1,-1,-1,-1,-1,-1,-1,-1,-1,-1,-1,-1,-1],"split_conditions":[5E0,1.367E3,3.3E1,4E0,6.510883E-3,4E0,1.345E3,1E0,2E0,5E0,2.084691E-1,1.402E3,-5.934218E-2,4E0,2.6666668E-1,3.25E1,2E0,-7.111639E-3,7E-1,1.9802628E-2,1.11994725E-2,3.9E1,9.47792E-2,1E0,2.186E3,2.5E1,9.64E-1,1.2697605E0,1E0,1.866E3,1.01E2,2.3665405E-3,1.0874022E-1,1.335902E-1,1E0,-2.0536754E-2,1.2E1,9.192435E-1,4.082192E-1,3.1362668E-2,2.0269658E-2,5.000258E0,4.309101E-2,-1.8467115E-2,6.78E2,4.1221708E-2,-8.849024E-3,1E0,1E0,1.4E1,-3.71272E-2,-8.529516E-2,2.7226778E-2,8.5819595E-2,2.8E1,1.8000706E1,9.85E-1,-2.8850906E-2,9.44E-1,9.05E1,1.721933E-2,8E0,-3.290418E-2,-5.490356E-3,2.056339E-2,2.6118869E-2,-1.8678632E-2,4.665891E-2,1.1817867E-2,3.3615354E-2,1.0676352E-2,-4.9112504E-4,3.688898E-2,2.2539467E-2,-2.2862053E-2,2.743633E-2,-6.229414E-3,2.872384E-2,-1.5289739E-2,-1.4204184E-2,1.1026654E-2,2.920411E-2,-5.2141417E-3,-2.873516E-2,4.76009E-3,1.0995429E-2,-2.718452E-2,1.7381154E-2,-2.2574771E-2,3.9296146E-2,1.2689988E-2,-8.096672E-3,5.952463E-3,-2.9277757E-2,-1.6070037E-3,-3.1248365E-2,-1.4080113E-2,-2.1352364E-2,-3.6391355E-2,-3.0828286E-3,-3.4072537E-2,-4.963099E-2,-1.786784E-2,-4.0088765E-2,-0E0,1.0856658E-2,2.2852896E-2,-1.6209105E-2,1.5027589E-2,-2.9663322E-2,9.272952E-3,-5.026543E-2,-1.4169805E-2,-4.6175628E-4,3.1741124E-2,-2.2144966E-2,-3.3246775E-3,-1.4099808E-2,-4.1021228E-2,2.4942443E-2,-2.0355448E-2],"split_indices":[90,63,1,56,43,56,63,49,90,59,68,63,82,56,21,94,90,75,53,66,34,94,70,60,63,1,53,66,60,63,94,35,45,45,60,0,1,48,92,33,97,48,34,30,67,44,0,49,55,1,35,83,0,43,1,97,53,73,53,94,43,89,29,0,0,0,0,0,0,0,0,0,0,0,0,0,0,0,0,0,0,0,0,0,0,0,0,0,0,0,0,0,0,0,0,0,0,0,0,0,0,0,0,0,0,0,0,0,0,0,0,0,0,0,0,0,0,0,0,0,0],"split_type":[0,0,0,0,0,0,0,0,0,0,0,0,0,0,0,0,0,0,0,0,0,0,0,0,0,0,0,0,0,0,0,0,0,0,0,0,0,0,0,0,0,0,0,0,0,0,0,0,0,0,0,0,0,0,0,0,0,0,0,0,0,0,0,0,0,0,0,0,0,0,0,0,0,0,0,0,0,0,0,0,0,0,0,0,0,0,0,0,0,0,0,0,0,0,0,0,0,0,0,0,0,0,0,0,0,0,0,0,0,0,0,0,0,0,0,0,0,0,0,0,0],"sum_hessian":[4.083111E3,1.1582102E3,2.924901E3,8.8943896E2,2.6877118E2,2.0096609E3,9.1524E2,8.212371E2,6.820183E1,1.3917888E2,1.2959232E2,1.8623022E3,1.4735858E2,6.1640533E2,2.9883466E2,3.2127112E2,4.9996603E2,2.2458998E1,4.5742832E1,8.2350845E1,5.682804E1,8.842599E1,4.116632E1,9.08183E2,9.5411926E2,7.7100534E0,1.3964853E2,5.70076E2,4.632934E1,2.3810806E2,6.0726597E1,4.2040714E1,2.7923038E2,1.4716655E2,3.5279947E2,2.5930488E0,1.986595E1,2.9389753E1,1.635308E1,8.398896E0,7.395195E1,3.820202E1,1.862602E1,2.4855457E1,6.357053E1,3.8775764E1,2.3905568E0,6.9832996E2,2.0985306E2,6.6983923E2,2.8428003E2,5.6764164E0,2.0336373E0,1.1439572E2,2.5252802E1,5.131411E2,5.6934875E1,2.0651955E1,2.5677385E1,1.0242965E2,1.3567842E2,4.9130253E1,1.1596345E1,2.2927082E1,1.9113632E1,2.7529596E2,3.9344394E0,1.407668E2,6.399763E0,3.1794174E2,3.4857727E1,5.4240513E0,1.4441898E1,3.4243004E0,2.5965452E1,8.836373E0,7.516707E0,6.3046856E0,2.0942106E0,6.0380886E1,1.3571061E1,2.9587744E1,8.614275E0,1.0122702E1,8.503319E0,1.0791545E1,1.4063912E1,5.888243E1,4.688098E0,2.5455276E1,1.3320488E1,2.9266687E2,4.0566306E2,1.4537204E2,6.448102E1,1.702412E2,4.9959805E2,7.363466E1,2.1064537E2,2.1387098E0,3.5377064E0,1.11011055E2,3.3846726E0,1.9829603E1,5.4231997E0,1.6185233E2,3.512888E2,2.4915712E1,3.2019165E1,7.7264023E0,1.2925552E1,1.696824E1,8.709146E0,8.812497E1,1.4304682E1,7.554613E1,6.0132286E1,2.0109863E1,2.902039E1,4.2695017E0,7.3268437E0],"tree_param":{"num_deleted":"0","num_feature":"102","num_nodes":"121","size_leaf_vector":"1"}},{"base_weights":[2.3230657E-3,7.0063454E-1,-3.4617913E-1,8.8425016E-1,1.4764123E-1,-5.754233E-1,1.4824466E-1,9.497608E-1,6.0432587E-2,4.4667915E-1,-2.2445838E-1,-5.032648E-1,-1.4272792E0,4.4595897E-1,-2.9492664E-1,1.1081858E0,6.166409E-1,-9.706393E-1,2.3316331E-1,-6.714815E-1,5.736566E-1,-4.0887675E-1,3.6410403E-1,-6.039012E-1,-5.8860127E-2,-1.5559161E0,-7.204979E-1,5.951774E-1,1.5212597E-1,-1.6900131E-1,-1.318408E0,9.445043E-1,1.2970163E0,3.429304E-1,9.148492E-1,-0E0,-4.014319E-2,4.7811055E-1,-5.153408E-1,-7.320668E-2,-4.2453457E-2,2.5369304E-1,8.0790895E-1,-9.0332794E-1,-2.1648598E-1,5.230388E-1,-6.347212E-1,-4.7608793E-1,-1.2749922E0,2.7733347E-1,-3.7505847E-1,-1.5807858E0,-1.5108455E-3,-4.452586E-2,-1.9609466E-1,6.438569E-1,-3.128609E-1,-3.1065132E-2,5.5011725E-1,-3.5627198E-1,3.630937E-1,-1.4160172E0,3.3018044E-3,2.9832635E-2,1.5289072E-3,4.745828E-2,3.414631E-2,5.7511833E-3,2.5793111E-2,-3.404115E-3,2.914718E-2,2.7818102E-3,2.6223173E-2,1.8652065E-2,-2.441877E-2,-1.6786808E-2,2.7461654E-2,-3.8330401E-3,2.0575585E-2,2.6411071E-2,-1.53648425E-2,-3.5459496E-2,-2.4829938E-3,-8.464548E-3,3.3394385E-2,2.149595E-2,-1.502923E-2,-4.2911395E-3,-2.5335904E-2,-4.98719E-3,-2.180807E-2,-2.1492202E-2,-4.184413E-2,-1.901032E-2,1.2240086E-2,-2.3073018E-2,-1.0048057E-3,-1.2378065E-2,-4.8364878E-2,-2.5413258E-2,1.632786E-2,9.050633E-3,2.319833E-2,1.752881E-2,-2.7852638E-2,2.1052035E-3,-2.2009434E-2,5.8528576E-3,2.9800601E-2,-1.8202033E-3,-1.8851316E-2,-2.9061933E-3,2.2712689E-2,-4.548862E-2,-5.0949124E-3],"categories":[],"categories_nodes":[],"categories_segments":[],"categories_sizes":[],"default_left":[0,0,0,0,0,0,0,0,0,0,0,0,0,0,0,0,0,0,0,0,0,0,0,0,0,0,0,0,0,0,0,0,0,0,0,0,0,0,0,0,0,0,0,0,0,0,0,0,0,0,0,0,0,0,0,0,0,0,0,0,0,0,0,0,0,0,0,0,0,0,0,0,0,0,0,0,0,0,0,0,0,0,0,0,0,0,0,0,0,0,0,0,0,0,0,0,0,0,0,0,0,0,0,0,0,0,0,0,0,0,0,0,0,0,0],"id":4,"left_children":[1,3,5,7,9,11,13,15,17,19,21,23,25,27,29,31,33,35,37,39,41,43,45,47,49,51,53,55,57,59,61,63,65,67,69,-1,-1,71,73,75,-1,77,79,81,83,85,87,89,91,93,95,97,-1,-1,99,101,103,105,107,109,111,113,-1,-1,-1,-1,-1,-1,-1,-1,-1,-1,-1,-1,-1,-1,-1,-1,-1,-1,-1,-1,-1,-1,-1,-1,-1,-1,-1,-1,-1,-1,-1,-1,-1,-1,-1,-1,-1,-1,-1,-1,-1,-1,-1,-1,-1,-1,-1,-1,-1,-1,-1,-1,-1],"loss_changes":[9.896546E2,1.3711212E2,3.076174E2,5.4557068E1,3.790898E1,1.1269403E2,1.1364228E2,4.848401E1,1.3720446E1,2.724395E1,1.6646954E1,7.6345215E1,1.1281372E1,2.2327065E1,4.402737E1,1.7728394E1,2.4375038E1,4.004422E0,1.2484573E1,8.316859E0,1.2307888E1,1.0603422E1,6.179015E0,1.1853909E2,3.3907627E1,4.088501E0,9.178607E0,1.5370468E1,1.2923487E1,3.100786E1,5.6846085E0,1.5139587E1,1.04791565E1,1.2253027E1,8.792793E0,0E0,0E0,7.483901E0,6.342692E0,6.457199E0,0E0,1.2432579E1,9.933407E0,6.92449E0,7.6830206E0,6.8870573E0,2.1329951E-1,9.089554E1,1.3245728E1,1.8635738E1,2.1947355E1,3.1340637E0,0E0,0E0,8.393355E0,1.3854004E1,1.0625539E1,8.801625E0,8.301355E0,1.8309278E1,1.4885372E1,3.7735443E0,0E0,0E0,0E0,0E0,0E0,0E0,0E0,0E0,0E0,0E0,0E0,0E0,0E0,0E0,0E0,0E0,0E0,0E0,0E0,0E0,0E0,0E0,0E0,0E0,0E0,0E0,0E0,0E0,0E0,0E0,0E0,0E0,0E0,0E0,0E0,0E0,0E0,0E0,0E0,0E0,0E0,0E0,0E0,0E0,0E0,0E0,0E0,0E0,0E0,0E0,0E0,0E0,0E0],"parents":[2147483647,0,0,1,1,2,2,3,3,4,4,5,5,6,6,7,7,8,8,9,9,10,10,11,11,12,12,13,13,14,14,15,15,16,16,17,17,18,18,19,19,20,20,21,21,22,22,23,23,24,24,25,25,26,26,27,27,28,28,29,29,30,30,31,31,32,32,33,33,34,34,37,37,38,38,39,39,41,41,42,42,43,43,44,44,45,45,46,46,47,47,48,48,49,49,50,50,51,51,54,54,55,55,56,56,57,57,58,58,59,59,60,60,61,61],"right_children":[2,4,6,8,10,12,14,16,18,20,22,24,26,28,30,32,34,36,38,40,42,44,46,48,50,52,54,56,58,60,62,64,66,68,70,-1,-1,72,74,76,-1,78,80,82,84,86,88,90,92,94,96,98,-1,-1,100,102,104,106,108,110,112,114,-1,-1,-1,-1,-1,-1,-1,-1,-1,-1,-1,-1,-1,-1,-1,-1,-1,-1,-1,-1,-1,-1,-1,-1,-1,-1,-1,-1,-1,-1,-1,-1,-1,-1,-1,-1,-1,-1,-1,-1,-1,-1,-1,-1,-1,-1,-1,-1,-1,-1,-1,-1,-1],"split_conditions":[1.9459101E0,1.186E3,3.3E1,4E0,1.3862944E0,4E0,3.4011974E0,1.609438E0,-7.596201E-2,3E0,1.8E1,1E0,2.0632552E-2,-9.21E2,4E0,9.945355E-1,2.7E1,-1.24000795E-1,1.609438E0,-3.7374445E-3,4.1E1,-2.9236402E-2,7.55E1,3.7376697E0,3.8501475E0,1.2001263E1,5.02E2,4E0,2.0275123E-2,8.1E1,6.1075255E-2,5.7686068E-2,1.0986123E0,4.4780023E-2,-1.6415752E-1,-0E0,-4.014319E-2,6.2E1,5.7534248E-2,6.1E1,-4.2453457E-2,-3.9284272E-4,1.4961572E-1,4.890349E0,6.666667E-2,1E0,-7.1499716E-3,7.69E2,1E0,3.3E-1,5E1,-1.331416E-1,-1.5108455E-3,-4.452586E-2,1.4243322E-2,2.8E-1,3.9610197E-3,3E-1,4.1E1,4.26268E0,7.99E-1,5.2E1,3.3018044E-3,2.9832635E-2,1.5289072E-3,4.745828E-2,3.414631E-2,5.7511833E-3,2.5793111E-2,-3.404115E-3,2.914718E-2,2.7818102E-3,2.6223173E-2,1.8652065E-2,-2.441877E-2,-1.6786808E-2,2.7461654E-2,-3.8330401E-3,2.0575585E-2,2.6411071E-2,-1.53648425E-2,-3.5459496E-2,-2.4829938E-3,-8.464548E-3,3.3394385E-2,2.149595E-2,-1.502923E-2,-4.2911395E-3,-2.5335904E-2,-4.98719E-3,-2.180807E-2,-2.1492202E-2,-4.184413E-2,-1.901032E-2,1.2240086E-2,-2.3073018E-2,-1.0048057E-3,-1.2378065E-2,-4.8364878E-2,-2.5413258E-2,1.632786E-2,9.050633E-3,2.319833E-2,1.752881E-2,-2.7852638E-2,2.1052035E-3,-2.2009434E-2,5.8528576E-3,2.9800601E-2,-1.8202033E-3,-1.8851316E-2,-2.9061933E-3,2.2712689E-2,-4.548862E-2,-5.0949124E-3],"split_indices":[64,25,1,56,64,56,64,64,80,59,1,55,79,25,56,97,1,41,64,32,94,39,94,64,64,48,47,56,32,94,41,42,64,34,41,0,0,94,92,94,0,36,45,65,21,60,34,25,24,99,94,80,0,0,40,99,29,21,1,64,53,1,0,0,0,0,0,0,0,0,0,0,0,0,0,0,0,0,0,0,0,0,0,0,0,0,0,0,0,0,0,0,0,0,0,0,0,0,0,0,0,0,0,0,0,0,0,0,0,0,0,0,0,0,0],"split_type":[0,0,0,0,0,0,0,0,0,0,0,0,0,0,0,0,0,0,0,0,0,0,0,0,0,0,0,0,0,0,0,0,0,0,0,0,0,0,0,0,0,0,0,0,0,0,0,0,0,0,0,0,0,0,0,0,0,0,0,0,0,0,0,0,0,0,0,0,0,0,0,0,0,0,0,0,0,0,0,0,0,0,0,0,0,0,0,0,0,0,0,0,0,0,0,0,0,0,0,0,0,0,0,0,0,0,0,0,0,0,0,0,0,0,0],"sum_hessian":[4.0638894E3,1.3527257E3,2.7111636E3,1.01471857E3,3.3800714E2,1.8524607E3,8.587028E2,9.395765E2,7.5142105E1,1.8756638E2,1.5044078E2,1.7097738E3,1.426869E2,5.1391077E2,3.4479205E2,6.344518E2,3.0512466E2,9.820431E0,6.532167E1,1.8442371E1,1.6912401E2,1.1508618E2,3.535459E1,1.3933629E3,3.164109E2,1.19257E2,2.34299E1,3.3955954E2,1.7435126E2,3.084367E2,3.635534E1,3.44283E2,2.9016876E2,1.6079219E2,1.4433249E2,2.9852517E0,6.835179E0,4.9743767E1,1.5577906E1,1.1099547E1,7.342823E0,7.29016E1,9.6222404E1,3.0703415E1,8.438277E1,3.1167084E1,4.1875095E0,1.1724182E3,2.2094469E2,1.531215E2,1.6328938E2,1.17129395E2,2.127612E0,8.489215E0,1.4940684E1,3.2282257E2,1.6736982E1,1.198085E2,5.454275E1,2.2871347E2,7.9723236E1,3.4170868E1,2.1844723E0,3.2572723E2,1.8555754E1,9.954824E1,1.9062053E2,1.2596705E2,3.482514E1,7.2982726E0,1.3703421E2,2.6216175E1,2.3527594E1,2.830759E0,1.2747147E1,7.924208E0,3.1753397E0,3.892527E1,3.3976334E1,9.1738014E1,4.4843884E0,2.2343487E1,8.359929E0,8.145574E1,2.9270248E0,2.6681168E1,4.485916E0,2.1411405E0,2.046369E0,5.2577325E2,6.4664496E2,4.0795135E1,1.8014955E2,1.8436255E1,1.3468524E2,7.4850945E1,8.843844E1,3.6746254E0,1.13454765E2,8.001701E0,6.9389825E0,9.011491E1,2.3270766E2,6.7032743E0,1.0033709E1,1.05414314E2,1.4394184E1,3.1495224E1,2.3047527E1,1.10680016E2,1.18033455E2,3.6965523E1,4.2757713E1,3.1236916E1,2.933953E0],"tree_param":{"num_deleted":"0","num_feature":"102","num_nodes":"115","size_leaf_vector":"1"}},{"base_weights":[3.2008663E-3,7.7678925E-1,-2.9707706E-1,2.4128217E-1,9.5404094E-1,-5.720782E-1,8.982613E-2,-5.215626E-1,3.3276117E-1,1.0618503E0,5.132602E-1,-3.4090942E-1,-8.5462403E-1,3.2636222E-1,-3.3318815E-1,3.9447833E-2,-1.1466296E0,5.4607606E-1,-5.4751016E-2,1.0918777E0,2.4514683E-1,9.7632504E-1,2.4996817E-1,-8.701249E-1,-2.0392883E-1,-1.0282676E0,-4.1204342E-1,4.3574464E-1,-8.8711625E-1,-1.8600965E-1,-7.9871106E-1,-3.933241E-1,1.0078709E0,2.3243716E-3,-1.4481685E0,9.391769E-1,3.894044E-1,2.3128481E-1,-5.024256E-1,1.2161629E0,8.933008E-1,-4.2226706E-2,3.663691E-2,-7.861873E-3,1.0717324E0,-5.087693E-3,8.5570705E-1,-3.6194524E-1,-1.0238551E0,-1.4021556E-1,-1.2795672E0,-8.5087717E-1,-1.5443436E0,-1.4189863E-1,-8.337359E-1,5.598217E-1,1.719815E-1,-1.3391656E0,-4.102013E-1,-4.8394293E-2,-6.0927635E-1,-8.770622E-1,4.1682407E-1,1.2350215E-2,-3.3702146E-2,1.0104103E-2,3.7740182E-2,-4.9879815E-2,-1.6799696E-2,3.1475507E-2,-1.0433517E-2,4.0326E-3,2.1978144E-2,-1.3604109E-2,1.4605134E-2,-2.1606436E-2,1.493156E-2,4.5343928E-2,3.228137E-2,1.5482395E-2,3.1023227E-2,1.16193155E-2,-2.4087155E-2,9.905992E-3,3.789777E-2,3.2664232E-2,-5.739487E-3,3.2824006E-2,-1.0413545E-2,-2.1735657E-4,-2.8316723E-2,2.9754806E-3,-3.1862903E-2,-1.6599324E-2,-1.2183217E-3,-4.513468E-2,-1.595709E-3,-2.9340712E-2,-1.1704619E-2,-4.748222E-2,-1.8315993E-2,-1.0726148E-2,1.0296545E-2,-2.1565135E-3,-3.1712454E-2,-7.251926E-4,1.867793E-2,2.7336061E-2,2.3798214E-3,-4.708622E-2,-8.787742E-3,4.448081E-3,-3.4116797E-2,3.0640021E-2,-3.934271E-3,-6.436635E-3,-3.2291684E-2,-1.7603703E-2,-3.6197554E-2,3.3967555E-2,-2.3157578E-2],"categories":[],"categories_nodes":[],"categories_segments":[],"categories_sizes":[],"default_left":[0,0,0,0,0,0,0,0,0,0,0,0,0,0,0,0,0,0,0,0,0,0,0,0,0,0,0,0,0,0,0,0,0,0,0,0,0,0,0,0,0,0,0,0,0,0,0,0,0,0,0,0,0,0,0,0,0,0,0,0,0,0,0,0,0,0,0,0,0,0,0,0,0,0,0,0,0,0,0,0,0,0,0,0,0,0,0,0,0,0,0,0,0,0,0,0,0,0,0,0,0,0,0,0,0,0,0,0,0,0,0,0,0,0,0,0,0,0,0,0,0],"id":5,"left_children":[1,3,5,7,9,11,13,15,17,19,21,23,25,27,29,31,33,35,37,39,41,43,45,47,49,51,53,55,57,59,61,63,65,-1,67,69,71,73,75,77,79,81,-1,-1,83,85,87,89,91,93,95,97,99,101,103,105,107,109,111,113,115,117,119,-1,-1,-1,-1,-1,-1,-1,-1,-1,-1,-1,-1,-1,-1,-1,-1,-1,-1,-1,-1,-1,-1,-1,-1,-1,-1,-1,-1,-1,-1,-1,-1,-1,-1,-1,-1,-1,-1,-1,-1,-1,-1,-1,-1,-1,-1,-1,-1,-1,-1,-1,-1,-1,-1,-1,-1,-1,-1],"loss_changes":[9.4998926E2,1.0803735E2,3.1356747E2,2.0148966E1,3.98291E1,1.1190222E2,1.2265494E2,1.1107337E1,2.1345278E1,1.6291504E1,2.036018E1,6.841378E1,5.867285E1,1.0474086E2,2.9733837E1,7.83649E0,5.8785934E0,9.51532E0,1.1956435E1,1.4645874E1,7.6450424E0,7.7586746E0,1.7349865E1,1.4480316E1,5.1328117E1,4.871991E1,2.4768131E1,2.3374619E1,1.3060223E1,1.9391666E1,1.0518524E1,8.13558E0,1.484394E-1,0E0,7.398586E-1,7.1012077E0,1.0302929E1,1.017569E1,8.416894E0,1.4248901E1,1.2885529E1,7.395445E0,0E0,0E0,7.3378296E0,1.6201868E1,1.0120007E1,9.576031E0,6.694031E0,2.929358E1,1.1168457E1,2.3621399E1,3.4258118E0,1.4383656E1,1.4234375E1,1.8106323E1,1.5694534E1,6.9714165E0,1.4083752E1,2.2559698E1,1.4570091E1,8.267113E0,7.082015E0,0E0,0E0,0E0,0E0,0E0,0E0,0E0,0E0,0E0,0E0,0E0,0E0,0E0,0E0,0E0,0E0,0E0,0E0,0E0,0E0,0E0,0E0,0E0,0E0,0E0,0E0,0E0,0E0,0E0,0E0,0E0,0E0,0E0,0E0,0E0,0E0,0E0,0E0,0E0,0E0,0E0,0E0,0E0,0E0,0E0,0E0,0E0,0E0,0E0,0E0,0E0,0E0,0E0,0E0,0E0,0E0,0E0,0E0],"parents":[2147483647,0,0,1,1,2,2,3,3,4,4,5,5,6,6,7,7,8,8,9,9,10,10,11,11,12,12,13,13,14,14,15,15,16,16,17,17,18,18,19,19,20,20,21,21,22,22,23,23,24,24,25,25,26,26,27,27,28,28,29,29,30,30,31,31,32,32,34,34,35,35,36,36,37,37,38,38,39,39,40,40,41,41,44,44,45,45,46,46,47,47,48,48,49,49,50,50,51,51,52,52,53,53,54,54,55,55,56,56,57,57,58,58,59,59,60,60,61,61,62,62],"right_children":[2,4,6,8,10,12,14,16,18,20,22,24,26,28,30,32,34,36,38,40,42,44,46,48,50,52,54,56,58,60,62,64,66,-1,68,70,72,74,76,78,80,82,-1,-1,84,86,88,90,92,94,96,98,100,102,104,106,108,110,112,114,116,118,120,-1,-1,-1,-1,-1,-1,-1,-1,-1,-1,-1,-1,-1,-1,-1,-1,-1,-1,-1,-1,-1,-1,-1,-1,-1,-1,-1,-1,-1,-1,-1,-1,-1,-1,-1,-1,-1,-1,-1,-1,-1,-1,-1,-1,-1,-1,-1,-1,-1,-1,-1,-1,-1,-1,-1,-1,-1,-1],"split_conditions":[1.7917595E0,3.744315E-2,2.9E1,3E0,2.4E1,2.9957323E0,1.332E3,-3.4558098E-3,1.3862944E0,4E0,1.0986123E0,1.6824292E-2,1E0,4E0,2.344E3,3.1912082E-4,-3.4429725E-2,-1.0956231E-2,1.5927322E-2,5.69E2,1.5E1,4E0,1.5E0,-3.951596E-2,6E0,7.4668795E-1,5.1E1,-9.21E2,1E0,6.7803353E-1,1.7739475E-1,-6.472267E-3,-3.1760965E-2,2.3243716E-3,9.978903E-3,1.03708275E-1,1.850735E-2,-3.6637846E-2,4.207561E-2,2E0,1.5E1,1E0,3.663691E-2,-7.861873E-3,-1.3637656E-2,-3.2134045E-2,5.9332687E-1,1.729289E-2,-9.110309E-2,1.3E1,4.8997622E-2,9.7297466E-1,8.7E2,8.205541E-4,4.4E1,3.2E1,6E0,4.7E1,9.695751E-3,-9.231065E-2,2E0,2E0,1E-1,1.2350215E-2,-3.3702146E-2,1.0104103E-2,3.7740182E-2,-4.9879815E-2,-1.6799696E-2,3.1475507E-2,-1.0433517E-2,4.0326E-3,2.1978144E-2,-1.3604109E-2,1.4605134E-2,-2.1606436E-2,1.493156E-2,4.5343928E-2,3.228137E-2,1.5482395E-2,3.1023227E-2,1.16193155E-2,-2.4087155E-2,9.905992E-3,3.789777E-2,3.2664232E-2,-5.739487E-3,3.2824006E-2,-1.0413545E-2,-2.1735657E-4,-2.8316723E-2,2.9754806E-3,-3.1862903E-2,-1.6599324E-2,-1.2183217E-3,-4.513468E-2,-1.595709E-3,-2.9340712E-2,-1.1704619E-2,-4.748222E-2,-1.8315993E-2,-1.0726148E-2,1.0296545E-2,-2.1565135E-3,-3.1712454E-2,-7.251926E-4,1.867793E-2,2.7336061E-2,2.3798214E-3,-4.708622E-2,-8.787742E-3,4.448081E-3,-3.4116797E-2,3.0640021E-2,-3.934271E-3,-6.436635E-3,-3.2291684E-2,-1.7603703E-2,-3.6197554E-2,3.3967555E-2,-2.3157578E-2],"split_indices":[64,97,1,59,95,64,63,32,64,56,64,97,55,56,63,85,28,83,42,63,89,89,22,81,58,66,95,25,57,66,81,31,30,0,41,43,36,29,72,90,1,60,0,0,83,83,66,28,86,1,34,97,25,73,90,1,90,1,36,29,24,24,21,0,0,0,0,0,0,0,0,0,0,0,0,0,0,0,0,0,0,0,0,0,0,0,0,0,0,0,0,0,0,0,0,0,0,0,0,0,0,0,0,0,0,0,0,0,0,0,0,0,0,0,0,0,0,0,0,0,0],"split_type":[0,0,0,0,0,0,0,0,0,0,0,0,0,0,0,0,0,0,0,0,0,0,0,0,0,0,0,0,0,0,0,0,0,0,0,0,0,0,0,0,0,0,0,0,0,0,0,0,0,0,0,0,0,0,0,0,0,0,0,0,0,0,0,0,0,0,0,0,0,0,0,0,0,0,0,0,0,0,0,0,0,0,0,0,0,0,0,0,0,0,0,0,0,0,0,0,0,0,0,0,0,0,0,0,0,0,0,0,0,0,0,0,0,0,0,0,0,0,0,0,0],"sum_hessian":[4.0868374E3,1.1424282E3,2.9444092E3,2.8508884E2,8.573394E2,1.721063E3,1.2233461E3,2.9688446E1,2.5540039E2,6.871313E2,1.702081E2,9.4843964E2,7.7262335E2,7.850937E2,4.382524E2,1.6069786E1,1.3618659E1,1.6474039E2,9.066E1,6.621376E2,2.4993742E1,6.0244213E1,1.0996389E2,1.9339363E2,7.55046E2,5.5344354E2,2.1917976E2,7.2103394E2,6.405976E1,3.345812E2,1.0367121E2,1.1456272E1,4.613515E0,2.7368236E0,1.0881835E1,4.4875187E1,1.19865204E2,5.5397675E1,3.5262333E1,4.0284738E2,2.592902E2,2.0037569E1,4.956173E0,4.0094275E0,5.6234787E1,7.798629E1,3.1977604E1,4.6153206E1,1.4724042E2,7.142795E2,4.0766533E1,4.145252E2,1.3891837E2,1.348623E2,8.431746E1,4.889305E2,2.3210342E2,3.1558113E1,3.250165E1,2.5385564E2,8.0725555E1,9.78619E1,5.8093133E0,5.567201E0,5.8890705E0,2.234393E0,2.3791218E0,7.740874E0,3.140961E0,4.168883E1,3.1863575E0,7.0063515E1,4.9801685E1,1.4590473E1,4.08072E1,2.9396797E1,5.8655353E0,1.2539711E2,2.7745026E2,7.238626E1,1.8690395E2,1.3014607E1,7.022963E0,1.2428506E1,4.3806282E1,1.0342887E1,6.76434E1,2.691681E1,5.0607944E0,2.9643744E1,1.650946E1,4.6135325E0,1.4262689E2,1.3731467E2,5.7696484E2,3.408078E1,6.685752E0,3.2347403E2,9.105117E1,1.3242513E2,6.4932356E0,9.38658E1,4.0996506E1,1.9677498E1,6.463996E1,4.721825E1,4.4171225E2,2.443046E1,2.0767297E2,2.5214651E1,6.3434625E0,1.876632E1,1.3735331E1,1.7076067E1,2.3677957E2,4.493432E1,3.5791237E1,5.412647E1,4.3735428E1,3.767294E0,2.0420191E0],"tree_param":{"num_deleted":"0","num_feature":"102","num_nodes":"121","size_leaf_vector":"1"}},{"base_weights":[1.6181376E-2,6.8327445E-1,-3.1590346E-1,2.6445314E-1,9.0317035E-1,-6.255543E-1,2.6101096E-2,5.045111E-1,1.7854782E-3,9.7713614E-1,3.318201E-2,-5.566262E-1,-1.4302561E0,3.009926E-1,-3.666832E-1,5.368469E-2,7.497023E-1,1.2845188E-1,-7.3737276E-1,1.1708436E0,7.9662293E-1,7.0196563E-1,-2.3842339E-1,-6.825311E-1,-1.3855979E-1,-1.5098275E0,-7.668123E-1,4.015687E-1,-6.984738E-1,-9.226737E-1,-2.697429E-1,-4.9807107E-1,2.7856296E-1,9.815355E-1,5.031495E-1,2.4184182E-1,-7.7342975E-1,2.6141034E-2,-8.848049E-1,1.3653518E0,1.0200763E0,8.726761E-1,2.6163033E-1,-1.6678402E-2,9.0766305E-1,3.0492094E-1,-6.1311567E-1,-4.9346176E-1,-1.1291124E0,5.9886124E-2,-7.017766E-1,-1.5394516E0,-9.587987E-3,-1.2379146E0,2.3373978E-1,-1.3658445E-1,5.526516E-1,-3.1142035E-1,-1.1847937E0,-5.0745356E-1,-1.312125E0,-1.8079972E-1,-8.75477E-1,-2.1013323E-2,1.9089105E-2,-4.772363E-3,1.9093527E-2,3.2845184E-2,2.078327E-3,2.3426522E-2,-2.84806E-3,1.2335117E-2,-7.3405397E-3,-3.5414662E-2,9.220974E-3,5.6222766E-3,-3.2031015E-2,1.758269E-2,4.1863706E-2,3.1898294E-2,6.167566E-3,2.0566821E-2,3.025963E-2,2.335322E-2,-2.9798737E-3,3.4152634E-2,-4.0497244E-4,3.5832033E-2,1.1290907E-3,-2.3883107E-4,-2.9593302E-2,-2.0853588E-2,-3.1705813E-3,-1.3464069E-2,-3.735624E-2,-4.4780076E-3,1.42631E-2,-3.568325E-2,-8.885818E-3,-4.7139432E-2,-4.1969307E-3,-1.5109294E-3,-4.55127E-2,3.2328807E-2,-2.1384489E-2,-1.3122368E-2,5.2371877E-3,1.3365352E-2,2.5277177E-2,1.8326003E-3,-2.5356328E-2,-4.3377414E-2,-1.93603E-3,-2.9272465E-2,-2.2700578E-3,-1.9916492E-3,-4.1291576E-2,-1.1208833E-2,4.7652354E-3,4.3783146E-3,-3.0231474E-2],"categories":[],"categories_nodes":[],"categories_segments":[],"categories_sizes":[],"default_left":[0,0,0,0,0,0,0,0,0,0,0,0,0,0,0,0,0,0,0,0,0,0,0,0,0,0,0,0,0,0,0,0,0,0,0,0,0,0,0,0,0,0,0,0,0,0,0,0,0,0,0,0,0,0,0,0,0,0,0,0,0,0,0,0,0,0,0,0,0,0,0,0,0,0,0,0,0,0,0,0,0,0,0,0,0,0,0,0,0,0,0,0,0,0,0,0,0,0,0,0,0,0,0,0,0,0,0,0,0,0,0,0,0,0,0,0,0,0,0,0,0],"id":6,"left_children":[1,3,5,7,9,11,13,15,17,19,21,23,25,27,29,31,33,35,37,39,41,43,45,47,49,51,53,55,57,59,61,63,65,67,69,71,73,-1,75,77,79,81,83,-1,85,87,89,91,93,95,97,99,-1,101,103,105,107,109,111,113,115,117,119,-1,-1,-1,-1,-1,-1,-1,-1,-1,-1,-1,-1,-1,-1,-1,-1,-1,-1,-1,-1,-1,-1,-1,-1,-1,-1,-1,-1,-1,-1,-1,-1,-1,-1,-1,-1,-1,-1,-1,-1,-1,-1,-1,-1,-1,-1,-1,-1,-1,-1,-1,-1,-1,-1,-1,-1,-1,-1],"loss_changes":[8.964094E2,1.2334497E2,2.861997E2,2.922115E1,5.6457153E1,7.729877E1,1.3879767E2,2.660513E1,2.0932945E1,2.6873474E1,1.3098561E1,6.8587524E1,4.0091095E0,7.632653E1,2.7976898E1,1.0921607E1,8.069702E0,1.9773094E1,8.676168E0,9.244568E0,1.677127E1,6.077878E0,1.0631716E1,8.384912E1,3.4233345E1,2.475647E0,7.421706E0,5.613772E1,1.2326221E1,1.1408913E1,2.3977348E1,6.372707E0,1.0062538E1,7.8523865E0,1.3322178E1,1.4310975E1,1.0092806E1,0E0,6.42383E0,2.50531E0,7.372055E0,8.26651E0,1.0465648E1,0E0,4.1834755E0,4.7694054E0,6.7258615E0,5.5146652E1,2.2497803E1,1.980572E1,1.5052074E1,3.6150208E0,0E0,2.9900331E0,5.4213166E0,1.43302765E1,1.6002151E1,8.274905E0,8.394012E0,7.755354E0,2.7327576E0,2.6072664E1,8.093163E0,0E0,0E0,0E0,0E0,0E0,0E0,0E0,0E0,0E0,0E0,0E0,0E0,0E0,0E0,0E0,0E0,0E0,0E0,0E0,0E0,0E0,0E0,0E0,0E0,0E0,0E0,0E0,0E0,0E0,0E0,0E0,0E0,0E0,0E0,0E0,0E0,0E0,0E0,0E0,0E0,0E0,0E0,0E0,0E0,0E0,0E0,0E0,0E0,0E0,0E0,0E0,0E0,0E0,0E0,0E0,0E0,0E0,0E0],"parents":[2147483647,0,0,1,1,2,2,3,3,4,4,5,5,6,6,7,7,8,8,9,9,10,10,11,11,12,12,13,13,14,14,15,15,16,16,17,17,18,18,19,19,20,20,21,21,22,22,23,23,24,24,25,25,26,26,27,27,28,28,29,29,30,30,31,31,32,32,33,33,34,34,35,35,36,36,38,38,39,39,40,40,41,41,42,42,44,44,45,45,46,46,47,47,48,48,49,49,50,50,51,51,53,53,54,54,55,55,56,56,57,57,58,58,59,59,60,60,61,61,62,62],"right_children":[2,4,6,8,10,12,14,16,18,20,22,24,26,28,30,32,34,36,38,40,42,44,46,48,50,52,54,56,58,60,62,64,66,68,70,72,74,-1,76,78,80,82,84,-1,86,88,90,92,94,96,98,100,-1,102,104,106,108,110,112,114,116,118,120,-1,-1,-1,-1,-1,-1,-1,-1,-1,-1,-1,-1,-1,-1,-1,-1,-1,-1,-1,-1,-1,-1,-1,-1,-1,-1,-1,-1,-1,-1,-1,-1,-1,-1,-1,-1,-1,-1,-1,-1,-1,-1,-1,-1,-1,-1,-1,-1,-1,-1,-1,-1,-1,-1,-1,-1,-1,-1],"split_conditions":[1.9459101E0,9.222153E-2,1E0,1.3862944E0,4E0,5E0,1.282E3,4E0,4.7E1,1.3862944E0,1.0986123E0,1E0,2.8494615E-2,4E0,-7.791823E-2,5E-1,1.61E3,6.2322333E-2,-6.71419E-2,-6.4E2,1E0,-7.933689E-2,1E0,3.3672957E0,1.824E3,1.05829686E-1,3.3367395E-2,1E0,1.4300309E-2,1.899E3,2.565E3,1E0,-1.1593622E-2,8.05E1,1E0,1.855E3,6.1929403E-3,2.6141034E-2,-4.108337E-2,1E0,5.567005E-2,5.6E-2,-1.6067429E-2,-1.6678402E-2,1.6E1,-5.1111855E-2,1.7534247E-1,1E0,3.5263605E0,1.3E0,4.6151204E0,7.416186E-2,-9.587987E-3,-3.481504E-2,4.3694477E0,5.95E1,8.9E1,7.284113E-4,1.01E2,-1.7385755E-2,-1.05930686E-1,6.4E1,-7.24458E-2,-2.1013323E-2,1.9089105E-2,-4.772363E-3,1.9093527E-2,3.2845184E-2,2.078327E-3,2.3426522E-2,-2.84806E-3,1.2335117E-2,-7.3405397E-3,-3.5414662E-2,9.220974E-3,5.6222766E-3,-3.2031015E-2,1.758269E-2,4.1863706E-2,3.1898294E-2,6.167566E-3,2.0566821E-2,3.025963E-2,2.335322E-2,-2.9798737E-3,3.4152634E-2,-4.0497244E-4,3.5832033E-2,1.1290907E-3,-2.3883107E-4,-2.9593302E-2,-2.0853588E-2,-3.1705813E-3,-1.3464069E-2,-3.735624E-2,-4.4780076E-3,1.42631E-2,-3.568325E-2,-8.885818E-3,-4.7139432E-2,-4.1969307E-3,-1.5109294E-3,-4.55127E-2,3.2328807E-2,-2.1384489E-2,-1.3122368E-2,5.2371877E-3,1.3365352E-2,2.5277177E-2,1.8326003E-3,-2.5356328E-2,-4.3377414E-2,-1.93603E-3,-2.9272465E-2,-2.2700578E-3,-1.9916492E-3,-4.1291576E-2,-1.1208833E-2,4.7652354E-3,4.3783146E-3,-3.0231474E-2],"split_indices":[64,97,6,64,56,56,63,59,95,64,64,55,79,58,81,2,63,42,37,63,60,80,60,64,63,39,44,49,37,63,63,5,40,94,54,63,71,0,75,10,42,53,44,0,58,40,92,49,65,2,65,70,0,35,64,94,94,76,94,43,43,94,35,0,0,0,0,0,0,0,0,0,0,0,0,0,0,0,0,0,0,0,0,0,0,0,0,0,0,0,0,0,0,0,0,0,0,0,0,0,0,0,0,0,0,0,0,0,0,0,0,0,0,0,0,0,0,0,0,0,0],"split_type":[0,0,0,0,0,0,0,0,0,0,0,0,0,0,0,0,0,0,0,0,0,0,0,0,0,0,0,0,0,0,0,0,0,0,0,0,0,0,0,0,0,0,0,0,0,0,0,0,0,0,0,0,0,0,0,0,0,0,0,0,0,0,0,0,0,0,0,0,0,0,0,0,0,0,0,0,0,0,0,0,0,0,0,0,0,0,0,0,0,0,0,0,0,0,0,0,0,0,0,0,0,0,0,0,0,0,0,0,0,0,0,0,0,0,0,0,0,0,0,0,0],"sum_hessian":[4.043719E3,1.343741E3,2.699978E3,4.6384274E2,8.7989825E2,1.4167986E3,1.2831793E3,2.4137674E2,2.22466E2,8.1060364E2,6.929463E1,1.307114E3,1.0968456E2,7.553409E2,5.2783844E2,8.583417E1,1.5554257E2,1.909976E2,3.1468409E1,3.8730154E2,4.233021E2,1.9677351E1,4.9617283E1,1.00362476E3,3.034893E2,9.630205E1,1.3382519E1,6.871146E2,6.822624E1,7.654398E1,4.5129446E2,2.4174074E1,6.16601E1,7.790251E1,7.764005E1,1.7064328E2,2.0354315E1,2.033246E0,2.9435162E1,1.643178E2,2.2298373E2,3.6962582E2,5.367629E1,2.3416626E0,1.7335688E1,2.0124401E1,2.9492882E1,7.071936E2,2.9643115E2,2.249477E2,7.85416E1,9.345586E1,2.846188E0,9.040895E0,4.341624E0,1.5035289E2,5.367617E2,3.931545E1,2.8910791E1,3.863246E1,3.7911522E1,3.9515945E2,5.613502E1,2.1053467E1,3.120607E0,2.7787746E1,3.3872353E1,6.88872E1,9.015314E0,5.2997204E1,2.4642849E1,1.2702941E2,4.361387E1,1.4839636E1,5.5146794E0,4.125652E0,2.530951E1,7.272652E0,1.5704515E2,2.1117122E2,1.1812505E1,1.5923227E2,2.1039354E2,2.1730053E1,3.1946234E1,1.3810216E1,3.525472E0,3.5153236E0,1.6609077E1,1.1924648E1,1.7568233E1,4.6428247E2,2.429111E2,4.4314415E1,2.5211676E2,1.4982573E2,7.512195E1,3.4385178E1,4.415642E1,9.109184E1,2.3640146E0,2.1268077E0,6.9140873E0,2.3191495E0,2.0224745E0,7.6524574E1,7.382832E1,3.9465244E2,1.421093E2,2.3561203E1,1.5754247E1,2.3018148E1,5.8926425E0,1.7585276E1,2.1047186E1,2.1320732E0,3.577945E1,2.5235562E2,1.4280383E2,6.24689E0,4.988813E1],"tree_param":{"num_deleted":"0","num_feature":"102","num_nodes":"121","size_leaf_vector":"1"}},{"base_weights":[-8.151138E-3,6.453858E-1,-3.3233052E-1,8.6111516E-1,2.1396291E-1,-5.4478055E-1,1.2362305E-1,9.338583E-1,2.847062E-2,4.473408E-1,-3.843429E-2,-4.122038E-1,-9.454248E-1,3.3807224E-1,-4.525452E-1,1.0716643E0,6.333072E-1,2.5255868E-1,-6.5813863E-1,3.4191623E-1,8.9365715E-1,-2.3355184E-1,3.914528E-1,-6.1757976E-1,-1.2606964E-1,-1.2805865E0,-4.955406E-1,6.2783724E-1,1.4685026E-1,-9.8899186E-1,-1.2552895E-1,1.1302325E0,5.781239E-1,3.7341928E-1,9.129815E-1,5.3299487E-1,-3.5761645E-1,1.3817618E-2,-9.359352E-1,-1.1211193E-1,6.1529815E-1,-0E0,1.0430304E0,1.0805618E-1,-4.2302927E-1,4.9982157E-1,-7.053695E-1,-8.3869094E-1,-3.4416804E-1,-1.739394E-3,-1.2085885E0,-1.0121616E0,-1.5034684E0,-1.1362822E-1,-8.880759E-1,1.2664075E-1,7.5868076E-1,-4.9368957E-1,2.160877E-1,-1.1729577E0,-1.5391572E-1,-1.2061262E0,-9.122646E-3,1.6090885E-2,3.4584153E-2,7.670727E-3,3.4001045E-2,4.3163165E-3,1.8933302E-2,-6.172155E-4,3.0476203E-2,2.1728165E-2,-8.420018E-3,5.2824356E-3,-2.9831603E-2,-5.113636E-4,-3.5010666E-2,-1.7462907E-2,2.0914832E-3,3.6325436E-2,1.3848573E-2,2.3692641E-2,-3.1177582E-2,-1.3843796E-2,3.5355628E-2,-1.0299695E-2,1.6830912E-2,-1.7801968E-2,4.9461517E-3,1.93208E-2,-4.739511E-3,-4.2176794E-2,1.0160207E-2,-3.4969144E-2,-2.1143926E-2,-3.0996712E-2,-7.0218947E-3,1.6260754E-3,-2.2696147E-2,-4.340368E-2,-1.40873585E-2,-8.701611E-3,-3.305015E-2,-6.865536E-3,-4.572331E-2,-1.4511089E-2,1.0614304E-2,7.1219783E-3,-2.9679695E-2,-3.3528404E-3,2.7135486E-2,2.4332043E-2,-5.3141237E-4,3.916895E-3,-2.756912E-2,8.66578E-3,-1.4867371E-2,-1.1482962E-2,-4.2758815E-2,3.5633678E-3,-3.5744872E-2,-4.3969065E-2,-0E0,-7.2202357E-3,1.5051844E-2],"categories":[],"categories_nodes":[],"categories_segments":[],"categories_sizes":[],"default_left":[0,0,0,0,0,0,0,0,0,0,0,0,0,0,0,0,0,0,0,0,0,0,0,0,0,0,0,0,0,0,0,0,0,0,0,0,0,0,0,0,0,0,0,0,0,0,0,0,0,0,0,0,0,0,0,0,0,0,0,0,0,0,0,0,0,0,0,0,0,0,0,0,0,0,0,0,0,0,0,0,0,0,0,0,0,0,0,0,0,0,0,0,0,0,0,0,0,0,0,0,0,0,0,0,0,0,0,0,0,0,0,0,0,0,0,0,0,0,0,0,0,0,0,0,0],"id":7,"left_children":[1,3,5,7,9,11,13,15,17,19,21,23,25,27,29,31,33,35,37,39,41,43,45,47,49,51,53,55,57,59,61,63,65,67,69,71,73,-1,75,77,79,81,83,85,87,89,91,93,95,97,99,101,103,105,107,109,111,113,115,117,119,121,123,-1,-1,-1,-1,-1,-1,-1,-1,-1,-1,-1,-1,-1,-1,-1,-1,-1,-1,-1,-1,-1,-1,-1,-1,-1,-1,-1,-1,-1,-1,-1,-1,-1,-1,-1,-1,-1,-1,-1,-1,-1,-1,-1,-1,-1,-1,-1,-1,-1,-1,-1,-1,-1,-1,-1,-1,-1,-1,-1,-1,-1,-1],"loss_changes":[8.592278E2,1.2470648E2,2.627977E2,5.402539E1,2.6616837E1,9.752649E1,1.0672331E2,3.2950012E1,1.1414946E1,1.04146E1,1.8275276E1,8.159073E1,6.8043915E1,3.4612045E1,4.071165E1,1.5130493E1,1.8395454E1,9.921818E0,6.262085E0,2.40032E1,5.8350945E0,9.845701E0,8.447417E0,4.838257E1,7.832682E1,1.3335846E1,2.9366806E1,1.606707E1,1.6977955E1,1.30813675E1,1.8247627E1,5.6376953E0,1.0559757E1,7.9188633E0,1.2242447E1,6.460891E0,6.5813217E0,0E0,2.9461317E0,6.377825E0,9.999653E0,7.1015825E0,8.425457E0,1.1356376E1,9.94787E0,6.1596336E0,5.48992E0,1.8189117E1,2.7117043E1,2.2358156E1,9.358925E0,7.2795486E0,2.9189148E0,1.7877766E1,1.1511139E1,1.0182807E1,8.199265E0,1.0195622E1,1.8003954E1,1.333461E1,5.3404193E0,4.5919247E0,1.5963933E1,0E0,0E0,0E0,0E0,0E0,0E0,0E0,0E0,0E0,0E0,0E0,0E0,0E0,0E0,0E0,0E0,0E0,0E0,0E0,0E0,0E0,0E0,0E0,0E0,0E0,0E0,0E0,0E0,0E0,0E0,0E0,0E0,0E0,0E0,0E0,0E0,0E0,0E0,0E0,0E0,0E0,0E0,0E0,0E0,0E0,0E0,0E0,0E0,0E0,0E0,0E0,0E0,0E0,0E0,0E0,0E0,0E0,0E0,0E0,0E0,0E0,0E0],"parents":[2147483647,0,0,1,1,2,2,3,3,4,4,5,5,6,6,7,7,8,8,9,9,10,10,11,11,12,12,13,13,14,14,15,15,16,16,17,17,18,18,19,19,20,20,21,21,22,22,23,23,24,24,25,25,26,26,27,27,28,28,29,29,30,30,31,31,32,32,33,33,34,34,35,35,36,36,38,38,39,39,40,40,41,41,42,42,43,43,44,44,45,45,46,46,47,47,48,48,49,49,50,50,51,51,52,52,53,53,54,54,55,55,56,56,57,57,58,58,59,59,60,60,61,61,62,62],"right_children":[2,4,6,8,10,12,14,16,18,20,22,24,26,28,30,32,34,36,38,40,42,44,46,48,50,52,54,56,58,60,62,64,66,68,70,72,74,-1,76,78,80,82,84,86,88,90,92,94,96,98,100,102,104,106,108,110,112,114,116,118,120,122,124,-1,-1,-1,-1,-1,-1,-1,-1,-1,-1,-1,-1,-1,-1,-1,-1,-1,-1,-1,-1,-1,-1,-1,-1,-1,-1,-1,-1,-1,-1,-1,-1,-1,-1,-1,-1,-1,-1,-1,-1,-1,-1,-1,-1,-1,-1,-1,-1,-1,-1,-1,-1,-1,-1,-1,-1,-1,-1,-1,-1,-1,-1],"split_conditions":[6E0,8.91E2,3.3E1,4E0,3E0,4.1E1,4.9E1,4E0,4E0,2.48E2,1.8E1,1E0,1E0,1E0,1E0,2E0,2.9E1,3.28E2,5.7534248E-2,4E0,1.4630188E-1,1.423E3,1.13471776E-1,5.5E1,4E0,7.030975E-1,2E0,1.8704556E1,-9.876629E-2,9.25E1,9.315068E-2,-1.8371446E-1,5.85E1,1.48E-1,1E0,3.315277E-3,2.2557598E-2,1.3817618E-2,1.5E-1,3.55E1,-1.2310741E-2,-9.370283E-3,-8.986343E-2,4.55E1,8.3605155E-2,5.2347265E-2,1.909793E-1,1.3E1,1.3549984E-2,7.6666665E-1,9.6E-1,-8.387261E-2,-2.9062274E-1,5.3E1,1.3607888E-1,2.1748712E-2,6.4E1,1.7E1,3E0,5.6E1,4E0,4.122544E-2,7.55E1,1.6090885E-2,3.4584153E-2,7.670727E-3,3.4001045E-2,4.3163165E-3,1.8933302E-2,-6.172155E-4,3.0476203E-2,2.1728165E-2,-8.420018E-3,5.2824356E-3,-2.9831603E-2,-5.113636E-4,-3.5010666E-2,-1.7462907E-2,2.0914832E-3,3.6325436E-2,1.3848573E-2,2.3692641E-2,-3.1177582E-2,-1.3843796E-2,3.5355628E-2,-1.0299695E-2,1.6830912E-2,-1.7801968E-2,4.9461517E-3,1.93208E-2,-4.739511E-3,-4.2176794E-2,1.0160207E-2,-3.4969144E-2,-2.1143926E-2,-3.0996712E-2,-7.0218947E-3,1.6260754E-3,-2.2696147E-2,-4.340368E-2,-1.40873585E-2,-8.701611E-3,-3.305015E-2,-6.865536E-3,-4.572331E-2,-1.4511089E-2,1.0614304E-2,7.1219783E-3,-2.9679695E-2,-3.3528404E-3,2.7135486E-2,2.4332043E-2,-5.3141237E-4,3.916895E-3,-2.756912E-2,8.66578E-3,-1.4867371E-2,-1.1482962E-2,-4.2758815E-2,3.5633678E-3,-3.5744872E-2,-4.3969065E-2,-0E0,-7.2202357E-3,1.5051844E-2],"split_indices":[90,25,1,56,90,90,90,90,90,50,1,49,55,9,55,100,1,67,92,59,26,25,82,94,56,66,58,97,81,94,92,38,94,53,6,41,29,0,99,94,85,38,31,94,38,85,82,1,97,21,53,41,38,94,97,85,1,90,56,93,56,41,94,0,0,0,0,0,0,0,0,0,0,0,0,0,0,0,0,0,0,0,0,0,0,0,0,0,0,0,0,0,0,0,0,0,0,0,0,0,0,0,0,0,0,0,0,0,0,0,0,0,0,0,0,0,0,0,0,0,0,0,0,0,0],"split_type":[0,0,0,0,0,0,0,0,0,0,0,0,0,0,0,0,0,0,0,0,0,0,0,0,0,0,0,0,0,0,0,0,0,0,0,0,0,0,0,0,0,0,0,0,0,0,0,0,0,0,0,0,0,0,0,0,0,0,0,0,0,0,0,0,0,0,0,0,0,0,0,0,0,0,0,0,0,0,0,0,0,0,0,0,0,0,0,0,0,0,0,0,0,0,0,0,0,0,0,0,0,0,0,0,0,0,0,0,0,0,0,0,0,0,0,0,0,0,0,0,0,0,0,0,0],"sum_hessian":[4.053459E3,1.3433983E3,2.7100605E3,8.944682E2,4.4893002E2,1.848816E3,8.612446E2,8.222474E2,7.222085E1,2.3318355E2,2.1574649E2,1.3913423E3,4.5747375E2,6.282527E2,2.3299193E2,5.6119073E2,2.6105664E2,5.5241585E1,1.6979261E1,1.9070457E2,4.2478973E1,1.4909047E2,6.665602E1,8.0875806E2,5.8258417E2,2.6063873E2,1.96835E2,2.4826407E2,3.7998862E2,8.70886E1,1.4590334E2,4.999131E2,6.1277657E1,1.3713812E2,1.2391851E2,3.817564E1,1.7065945E1,3.077238E0,1.3902024E1,7.166343E1,1.19041145E2,6.2512035E0,3.6227768E1,5.2998974E1,9.609149E1,6.1422802E1,5.2332215E0,4.4536996E2,3.6338812E2,5.238099E2,5.877431E1,1.2166274E2,1.38976E2,1.0081001E2,9.602499E1,5.220038E1,1.9606369E2,3.6067787E1,3.4392084E2,7.0772514E1,1.631609E1,1.2929288E1,1.3297404E2,1.9718061E1,4.8019504E2,4.0102654E1,2.1175003E1,7.392997E1,6.3208145E1,1.22041855E1,1.11714325E2,3.1215155E1,6.9604864E0,9.585835E0,7.4801087E0,3.2264447E0,1.0675579E1,1.9560974E1,5.2102455E1,2.2457127E1,9.6584015E1,3.7133284E0,2.537875E0,2.6325667E0,3.3595203E1,2.6470564E1,2.652841E1,7.475653E1,2.1334955E1,5.0648693E1,1.0774108E1,2.9975855E0,2.235636E0,1.2627793E2,3.19092E2,4.8429634E1,3.149585E2,4.8845676E2,3.5353107E1,4.3373917E1,1.5400393E1,1.4225304E1,1.0743744E2,2.6003523E0,1.3637566E2,5.648025E1,4.4329765E1,7.6291823E0,8.8395805E1,4.054476E1,1.1655618E1,1.838616E2,1.2202083E1,1.4761419E1,2.1306366E1,3.1291736E2,3.1003471E1,1.8052832E1,5.271968E1,1.3609216E1,2.7068746E0,1.0506399E1,2.4228888E0,9.220617E1,4.0767876E1],"tree_param":{"num_deleted":"0","num_feature":"102","num_nodes":"125","size_leaf_vector":"1"}},{"base_weights":[8.882958E-3,1.4211679E-1,-5.0629735E-1,7.9001373E-1,-1.3671911E-1,1.17625065E-1,-7.214834E-1,5.829814E-1,1.066259E0,-3.8250306E-1,1.7436185E-1,-2.1503767E-1,4.5775554E-1,-1.1207443E0,-2.7210045E-1,2.8685343E-1,7.997741E-1,1.1030043E0,-4.402461E-3,-6.1033744E-1,-1.5171844E-1,3.4606996E-1,-2.5250733E-1,1.8005024E-1,-6.1086047E-1,-2.6532559E-2,5.2403843E-1,-8.75141E-1,-1.4109563E0,9.421906E-2,-5.9973454E-1,3.9046133E-1,-3.7872434E-1,9.1065025E-1,4.0844062E-1,3.9322454E-1,1.145847E0,5.372156E-1,-8.4822404E-1,-7.34896E-1,-2.6567054E-1,-9.461608E-2,-1.0303433E0,4.1402602E-1,-4.0641984E-1,-5.2153087E-1,1.9595617E-1,-2.8538862E-1,5.521301E-1,3.499173E-1,-7.688005E-1,3.076944E-1,9.038687E-1,-1.0652959E0,-1.749862E-1,-1.504091E0,-5.3466576E-1,1.9422355E-1,-7.014823E-1,-7.926221E-1,1.0898158E-1,1.6613105E-2,2.782765E-3,7.3829866E-3,-2.455112E-2,2.1206493E-2,3.2827653E-2,1.9566879E-2,-1.1194139E-2,-2.7403133E-2,2.0246059E-2,3.4739483E-2,-1.3882375E-2,3.0205611E-2,-1.6505478E-2,-7.148392E-3,-3.677223E-2,-1.805761E-2,-3.119841E-2,-3.947019E-3,-3.0007541E-2,-8.860528E-3,4.307843E-3,-2.0166123E-2,-4.657506E-2,9.98832E-3,2.2494668E-2,-1.1337723E-3,-2.9089153E-2,-9.5407665E-3,-3.6787517E-2,-2.132155E-3,2.7677696E-2,9.05929E-3,-1.8726103E-2,2.4795627E-2,-9.756683E-3,2.8251184E-2,-1.50716305E-2,-3.0249849E-2,1.5037688E-3,-1.7320942E-2,1.2669193E-2,-1.4650165E-2,3.142534E-2,-3.4301043E-2,-4.737145E-3,7.125975E-3,-2.6583387E-2,-1.6173797E-2,-4.5913E-2,-2.594746E-2,2.040867E-2,1.1134435E-2,-8.952389E-3,-1.8317405E-3,-4.206787E-2,4.4872933E-5,-2.8647546E-2,-3.4657344E-2,9.578762E-3],"categories":[],"categories_nodes":[],"categories_segments":[],"categories_sizes":[],"default_left":[0,0,0,0,0,0,0,0,0,0,0,0,0,0,0,0,0,0,0,0,0,0,0,0,0,0,0,0,0,0,0,0,0,0,0,0,0,0,0,0,0,0,0,0,0,0,0,0,0,0,0,0,0,0,0,0,0,0,0,0,0,0,0,0,0,0,0,0,0,0,0,0,0,0,0,0,0,0,0,0,0,0,0,0,0,0,0,0,0,0,0,0,0,0,0,0,0,0,0,0,0,0,0,0,0,0,0,0,0,0,0,0,0,0,0,0,0,0,0,0,0],"id":8,"left_children":[1,3,5,7,9,11,13,15,17,19,21,23,25,27,29,31,33,35,37,39,41,43,45,47,49,-1,51,53,55,57,59,61,63,65,67,69,71,73,75,77,79,81,83,85,87,89,91,93,95,97,99,101,103,105,107,109,111,113,115,117,119,-1,-1,-1,-1,-1,-1,-1,-1,-1,-1,-1,-1,-1,-1,-1,-1,-1,-1,-1,-1,-1,-1,-1,-1,-1,-1,-1,-1,-1,-1,-1,-1,-1,-1,-1,-1,-1,-1,-1,-1,-1,-1,-1,-1,-1,-1,-1,-1,-1,-1,-1,-1,-1,-1,-1,-1,-1,-1,-1,-1],"loss_changes":[2.7801355E2,5.8182837E2,1.1194859E2,5.434198E1,1.7226097E2,2.4402996E1,1.1044696E2,3.5262024E1,1.6483215E1,6.5905716E1,7.299304E1,1.7233963E1,9.9668045E0,2.138623E1,3.5348694E1,1.6568556E1,1.3195343E1,1.1306427E1,7.339495E0,2.671666E1,3.1125729E1,3.6501015E1,3.463823E1,9.7895565E0,8.734255E0,0E0,7.8443794E0,2.3596756E1,1.0678833E1,1.1133787E1,2.1454002E1,9.848442E0,9.245854E0,8.003067E0,1.4319938E1,9.835829E0,8.123627E0,5.638096E0,8.227644E-1,1.7719742E1,1.6380898E1,2.8315521E1,5.397667E0,1.7232262E1,1.2036171E1,2.4906796E1,2.113845E1,5.2745523E0,7.954153E0,4.8892403E0,9.60607E0,7.1026073E0,7.9710693E0,9.561935E0,1.2196143E1,1.966919E0,7.265091E0,1.1022039E1,6.593045E0,1.5960945E1,9.323939E0,0E0,0E0,0E0,0E0,0E0,0E0,0E0,0E0,0E0,0E0,0E0,0E0,0E0,0E0,0E0,0E0,0E0,0E0,0E0,0E0,0E0,0E0,0E0,0E0,0E0,0E0,0E0,0E0,0E0,0E0,0E0,0E0,0E0,0E0,0E0,0E0,0E0,0E0,0E0,0E0,0E0,0E0,0E0,0E0,0E0,0E0,0E0,0E0,0E0,0E0,0E0,0E0,0E0,0E0,0E0,0E0,0E0,0E0,0E0,0E0],"parents":[2147483647,0,0,1,1,2,2,3,3,4,4,5,5,6,6,7,7,8,8,9,9,10,10,11,11,12,12,13,13,14,14,15,15,16,16,17,17,18,18,19,19,20,20,21,21,22,22,23,23,24,24,26,26,27,27,28,28,29,29,30,30,31,31,32,32,33,33,34,34,35,35,36,36,37,37,38,38,39,39,40,40,41,41,42,42,43,43,44,44,45,45,46,46,47,47,48,48,49,49,50,50,51,51,52,52,53,53,54,54,55,55,56,56,57,57,58,58,59,59,60,60],"right_children":[2,4,6,8,10,12,14,16,18,20,22,24,26,28,30,32,34,36,38,40,42,44,46,48,50,-1,52,54,56,58,60,62,64,66,68,70,72,74,76,78,80,82,84,86,88,90,92,94,96,98,100,102,104,106,108,110,112,114,116,118,120,-1,-1,-1,-1,-1,-1,-1,-1,-1,-1,-1,-1,-1,-1,-1,-1,-1,-1,-1,-1,-1,-1,-1,-1,-1,-1,-1,-1,-1,-1,-1,-1,-1,-1,-1,-1,-1,-1,-1,-1,-1,-1,-1,-1,-1,-1,-1,-1,-1,-1,-1,-1,-1,-1,-1,-1,-1,-1,-1,-1],"split_conditions":[3.1E1,1.7917595E0,2.0794415E0,1E0,1E0,4.1666668E1,1E0,3.744315E-2,9E0,1E0,3.3672957E0,1.3862944E0,2.739726E-3,6.2E-1,2E0,4.4926137E-2,1.3E-1,-6.3682236E-2,6.6140792E-3,6.45E1,3E0,1E0,1E0,6E-1,1E0,-2.6532559E-2,1E0,9.3636173E-1,8.05E1,7.6666665E-1,1.4E0,1.3862944E0,-1.1141254E-2,1.2397551E-1,2.797907E-2,1.5275337E-1,1.0046111E-1,1.609438E0,2.0665624E0,2.944439E0,4.452439E-2,5.9E1,1.8750072E-1,1.045E2,3E0,8.6E-1,1.0225E2,3.0565094E-3,5.918285E-2,3E0,2.83E2,-7.4969865E-2,4E0,8.68E2,3E0,3.3E-1,2.9149747E-2,5.5053315E0,1E0,3.4E1,1.0058463E0,1.6613105E-2,2.782765E-3,7.3829866E-3,-2.455112E-2,2.1206493E-2,3.2827653E-2,1.9566879E-2,-1.1194139E-2,-2.7403133E-2,2.0246059E-2,3.4739483E-2,-1.3882375E-2,3.0205611E-2,-1.6505478E-2,-7.148392E-3,-3.677223E-2,-1.805761E-2,-3.119841E-2,-3.947019E-3,-3.0007541E-2,-8.860528E-3,4.307843E-3,-2.0166123E-2,-4.657506E-2,9.98832E-3,2.2494668E-2,-1.1337723E-3,-2.9089153E-2,-9.5407665E-3,-3.6787517E-2,-2.132155E-3,2.7677696E-2,9.05929E-3,-1.8726103E-2,2.4795627E-2,-9.756683E-3,2.8251184E-2,-1.50716305E-2,-3.0249849E-2,1.5037688E-3,-1.7320942E-2,1.2669193E-2,-1.4650165E-2,3.142534E-2,-3.4301043E-2,-4.737145E-3,7.125975E-3,-2.6583387E-2,-1.6173797E-2,-4.5913E-2,-2.594746E-2,2.040867E-2,1.1134435E-2,-8.952389E-3,-1.8317405E-3,-4.206787E-2,4.4872933E-5,-2.8647546E-2,-3.4657344E-2,9.578762E-3],"split_indices":[95,64,64,96,96,94,55,97,58,5,64,64,92,53,58,45,99,74,44,94,58,60,55,2,23,0,57,97,94,21,2,64,30,97,36,68,79,64,48,64,30,94,97,94,58,99,94,45,27,59,50,41,89,67,58,99,31,64,60,95,48,0,0,0,0,0,0,0,0,0,0,0,0,0,0,0,0,0,0,0,0,0,0,0,0,0,0,0,0,0,0,0,0,0,0,0,0,0,0,0,0,0,0,0,0,0,0,0,0,0,0,0,0,0,0,0,0,0,0,0,0],"split_type":[0,0,0,0,0,0,0,0,0,0,0,0,0,0,0,0,0,0,0,0,0,0,0,0,0,0,0,0,0,0,0,0,0,0,0,0,0,0,0,0,0,0,0,0,0,0,0,0,0,0,0,0,0,0,0,0,0,0,0,0,0,0,0,0,0,0,0,0,0,0,0,0,0,0,0,0,0,0,0,0,0,0,0,0,0,0,0,0,0,0,0,0,0,0,0,0,0,0,0,0,0,0,0,0,0,0,0,0,0,0,0,0,0,0,0,0,0,0,0,0,0],"sum_hessian":[4.04895E3,3.217985E3,8.309649E2,9.67783E2,2.250202E3,2.1299886E2,6.1796606E2,5.5573975E2,4.1204327E2,1.2572336E3,9.929684E2,1.07607376E2,1.0539148E2,3.26047E2,2.9191907E2,2.3645898E2,3.1928076E2,3.985167E2,1.352659E1,6.3123145E2,6.260022E2,7.086212E2,2.843472E2,5.3928185E1,5.367919E1,4.120743E0,1.0127074E2,1.7957898E2,1.4646802E2,1.3793823E2,1.5398083E2,2.052976E2,3.1161373E1,2.4715193E2,7.212882E1,2.3646362E1,3.7487033E2,8.35977E0,5.166821E0,4.622433E2,1.6898816E2,5.892625E2,3.6739674E1,6.506662E2,5.7954994E1,1.7788707E2,1.0646014E2,2.384379E1,3.0084394E1,7.193701E0,4.6485493E1,6.624023E1,3.503051E1,1.405072E2,3.9071777E1,1.314131E2,1.5054914E1,1.235667E2,1.4371539E1,1.2114858E2,3.283225E1,1.3147253E2,7.382507E1,1.2900539E1,1.8260834E1,1.2041881E2,1.26733116E2,5.532609E1,1.680273E1,3.5898023E0,2.005656E1,3.7252036E2,2.3499694E0,6.028795E0,2.3309748E0,2.9262097E0,2.240611E0,3.248573E2,1.3738599E2,1.4432732E2,2.4660845E1,3.2008545E2,2.6917703E2,2.3647882E1,1.3091793E1,5.2651764E2,1.2414857E2,3.6017265E1,2.193773E1,1.3959956E2,3.82875E1,7.844138E1,2.8018753E1,8.554317E0,1.5289473E1,2.3143715E1,6.9406796E0,4.3099313E0,2.8837695E0,3.594006E1,1.0545431E1,6.8388715E0,5.9401356E1,2.8767383E0,3.215377E1,1.2888538E2,1.1621824E1,2.5055323E1,1.4016456E1,4.3783565E0,1.2703475E2,1.2238566E1,2.8163476E0,9.143196E1,3.2134743E1,8.339888E0,6.0316505E0,2.0550623E1,1.0059796E2,3.7781658E0,2.9054085E1],"tree_param":{"num_deleted":"0","num_feature":"102","num_nodes":"121","size_leaf_vector":"1"}},{"base_weights":[-5.320247E-4,6.206499E-1,-3.0807865E-1,8.269557E-1,2.1895014E-1,-5.7426757E-1,-1.1110983E-2,9.340586E-1,3.157081E-1,3.1261423E-1,-3.8817197E-1,-4.4793078E-1,-9.2283654E-1,2.603503E-1,-3.991417E-1,1.0654148E0,6.514846E-1,8.129632E-1,8.013864E-2,2.0941932E-1,7.6477706E-1,-5.7041526E-1,6.06386E-1,-2.41803E-1,-8.2153136E-1,-6.4383495E-1,-1.1583308E0,3.6860082E-1,-7.5121707E-1,-1.6195862E-2,-5.1491976E-1,1.0904831E0,4.294566E-1,8.1386393E-1,2.837862E-1,-1.7260352E-2,9.090899E-1,2.8248066E-1,-5.825645E-1,-1.8547367E-1,3.2799834E-1,3.3649522E-1,1.0223624E0,1.7803648E-1,-8.312077E-1,3.5362225E-2,-4.1041044E-3,-5.419309E-1,2.014285E-2,-5.8816206E-1,-9.709784E-1,-1.0096811E0,1.12982884E-1,-1.3904958E0,-7.827239E-1,-6.218477E-2,4.953635E-1,-1.1346216E0,-3.4969974E-1,-4.2209217E-1,2.952105E-1,-4.3089747E-1,-9.887475E-1,-1.1901389E-2,3.3031244E-2,2.954689E-2,9.238853E-4,2.5465563E-2,-2.274721E-2,2.270711E-2,3.2871153E-4,3.130063E-2,-7.0823906E-3,1.1787876E-2,-3.713338E-2,2.5201086E-3,-2.4225894E-2,2.0876156E-2,-1.0153311E-2,-0E0,1.46890385E-2,-8.938143E-3,2.5366178E-2,3.6024477E-2,1.15250815E-2,-1.112463E-2,2.598278E-2,-4.774738E-3,-3.1632196E-2,-1.7062439E-2,2.3970619E-2,6.9507323E-3,-1.1623809E-2,-1.1943753E-2,-4.0052485E-2,-4.0488236E-2,-2.5663996E-2,-3.542199E-2,-1.30008E-2,1.0708901E-2,-4.0003836E-2,3.828599E-3,-4.2623397E-2,1.0447279E-2,-2.847411E-2,-9.930505E-3,8.723596E-3,1.2010727E-2,2.2406366E-2,-0E0,-4.018108E-2,-2.273998E-2,4.5266193E-3,-1.86392E-2,1.2107094E-2,-2.23649E-2,1.34146055E-2,-1.452936E-2,9.242988E-3,-3.234905E-2,6.1735143E-3],"categories":[],"categories_nodes":[],"categories_segments":[],"categories_sizes":[],"default_left":[0,0,0,0,0,0,0,0,0,0,0,0,0,0,0,0,0,0,0,0,0,0,0,0,0,0,0,0,0,0,0,0,0,0,0,0,0,0,0,0,0,0,0,0,0,0,0,0,0,0,0,0,0,0,0,0,0,0,0,0,0,0,0,0,0,0,0,0,0,0,0,0,0,0,0,0,0,0,0,0,0,0,0,0,0,0,0,0,0,0,0,0,0,0,0,0,0,0,0,0,0,0,0,0,0,0,0,0,0,0,0,0,0,0,0,0,0,0,0,0,0],"id":9,"left_children":[1,3,5,7,9,11,13,15,17,19,21,23,25,27,29,31,33,35,37,39,41,43,45,47,49,51,53,55,57,59,61,63,65,67,69,-1,71,73,75,77,79,81,83,85,87,-1,-1,89,91,93,95,97,99,101,103,105,107,109,111,113,115,117,119,-1,-1,-1,-1,-1,-1,-1,-1,-1,-1,-1,-1,-1,-1,-1,-1,-1,-1,-1,-1,-1,-1,-1,-1,-1,-1,-1,-1,-1,-1,-1,-1,-1,-1,-1,-1,-1,-1,-1,-1,-1,-1,-1,-1,-1,-1,-1,-1,-1,-1,-1,-1,-1,-1,-1,-1,-1,-1],"loss_changes":[7.7024335E2,1.1021002E2,2.130801E2,4.7650635E1,2.6001598E1,6.1845154E1,1.3460538E2,2.583374E1,1.7873508E1,1.8048466E1,1.1474525E1,8.0129776E1,2.3495178E1,8.2541046E1,2.3212967E1,7.015747E0,1.3504189E1,7.2802734E0,1.4435432E1,1.5258731E1,7.324875E0,1.0534189E1,4.5990753E0,5.3292023E1,1.1949097E1,4.89123E1,1.5908112E1,3.724517E1,1.0442886E1,1.5822114E1,1.5272575E1,8.11676E0,4.4173985E0,9.681587E0,9.39522E0,0E0,7.6456757E0,1.4305183E1,3.990244E0,1.0340004E1,1.3161062E1,9.889614E0,4.192379E0,5.8952847E0,5.4452114E0,0E0,0E0,1.1848801E1,3.1287622E1,2.0091072E1,7.967087E0,1.0756577E1,2.0878342E1,6.1404114E0,1.5645973E1,1.4856395E1,1.1974182E1,8.371376E0,7.939085E0,9.311334E0,1.1484775E1,1.3843895E1,6.806072E0,0E0,0E0,0E0,0E0,0E0,0E0,0E0,0E0,0E0,0E0,0E0,0E0,0E0,0E0,0E0,0E0,0E0,0E0,0E0,0E0,0E0,0E0,0E0,0E0,0E0,0E0,0E0,0E0,0E0,0E0,0E0,0E0,0E0,0E0,0E0,0E0,0E0,0E0,0E0,0E0,0E0,0E0,0E0,0E0,0E0,0E0,0E0,0E0,0E0,0E0,0E0,0E0,0E0,0E0,0E0,0E0,0E0,0E0],"parents":[2147483647,0,0,1,1,2,2,3,3,4,4,5,5,6,6,7,7,8,8,9,9,10,10,11,11,12,12,13,13,14,14,15,15,16,16,17,17,18,18,19,19,20,20,21,21,22,22,23,23,24,24,25,25,26,26,27,27,28,28,29,29,30,30,31,31,32,32,33,33,34,34,36,36,37,37,38,38,39,39,40,40,41,41,42,42,43,43,44,44,47,47,48,48,49,49,50,50,51,51,52,52,53,53,54,54,55,55,56,56,57,57,58,58,59,59,60,60,61,61,62,62],"right_children":[2,4,6,8,10,12,14,16,18,20,22,24,26,28,30,32,34,36,38,40,42,44,46,48,50,52,54,56,58,60,62,64,66,68,70,-1,72,74,76,78,80,82,84,86,88,-1,-1,90,92,94,96,98,100,102,104,106,108,110,112,114,116,118,120,-1,-1,-1,-1,-1,-1,-1,-1,-1,-1,-1,-1,-1,-1,-1,-1,-1,-1,-1,-1,-1,-1,-1,-1,-1,-1,-1,-1,-1,-1,-1,-1,-1,-1,-1,-1,-1,-1,-1,-1,-1,-1,-1,-1,-1,-1,-1,-1,-1,-1,-1,-1,-1,-1,-1,-1,-1,-1],"split_conditions":[1.9459101E0,8.7E2,1E0,1E0,4.9132332E-2,1E0,1.282E3,1.609438E0,1.0986123E0,1E0,3.845839E-2,1.824E3,2E0,4E0,2.8903718E0,5.7686068E-2,-2.7009217E-2,1.53E2,6E0,3.325E1,-1.3624795E-2,1E0,1.605E3,1E0,1E0,1E0,1E0,1E0,1E0,2.4849067E0,2.565E3,-1.5713497E-1,-5.23E2,7E0,-1.3829954E-2,-1.7260352E-2,3.8028993E-2,1.4180233E-1,9.6183723E-1,-4.9003083E-2,4E0,4.463976E-3,9.932621E-2,3.1362668E-2,2.9558802E-2,3.5362225E-2,-4.1041044E-3,2.0073484E-1,3E0,4.7E1,-2.4432445E-2,6.1E1,6.666667E-1,2E0,-4.1043077E-2,6.125E1,8.725E1,-5.2300166E-2,2.5547445E-1,2.3964284E-2,-4.1818555E-2,1.2E2,1.22390404E-1,-1.1901389E-2,3.3031244E-2,2.954689E-2,9.238853E-4,2.5465563E-2,-2.274721E-2,2.270711E-2,3.2871153E-4,3.130063E-2,-7.0823906E-3,1.1787876E-2,-3.713338E-2,2.5201086E-3,-2.4225894E-2,2.0876156E-2,-1.0153311E-2,-0E0,1.46890385E-2,-8.938143E-3,2.5366178E-2,3.6024477E-2,1.15250815E-2,-1.112463E-2,2.598278E-2,-4.774738E-3,-3.1632196E-2,-1.7062439E-2,2.3970619E-2,6.9507323E-3,-1.1623809E-2,-1.1943753E-2,-4.0052485E-2,-4.0488236E-2,-2.5663996E-2,-3.542199E-2,-1.30008E-2,1.0708901E-2,-4.0003836E-2,3.828599E-3,-4.2623397E-2,1.0447279E-2,-2.847411E-2,-9.930505E-3,8.723596E-3,1.2010727E-2,2.2406366E-2,-0E0,-4.018108E-2,-2.273998E-2,4.5266193E-3,-1.86392E-2,1.2107094E-2,-2.23649E-2,1.34146055E-2,-1.452936E-2,9.242988E-3,-3.234905E-2,6.1735143E-3],"split_indices":[64,25,6,60,42,60,63,64,64,5,84,63,58,58,64,42,27,47,58,94,43,11,63,49,11,55,55,49,57,64,63,71,63,58,29,0,86,45,48,82,59,28,38,33,66,0,0,38,0,95,72,94,21,95,76,94,94,31,98,84,79,94,81,0,0,0,0,0,0,0,0,0,0,0,0,0,0,0,0,0,0,0,0,0,0,0,0,0,0,0,0,0,0,0,0,0,0,0,0,0,0,0,0,0,0,0,0,0,0,0,0,0,0,0,0,0,0,0,0,0,0],"split_type":[0,0,0,0,0,0,0,0,0,0,0,0,0,0,0,0,0,0,0,0,0,0,0,0,0,0,0,0,0,0,0,0,0,0,0,0,0,0,0,0,0,0,0,0,0,0,0,0,0,0,0,0,0,0,0,0,0,0,0,0,0,0,0,0,0,0,0,0,0,0,0,0,0,0,0,0,0,0,0,0,0,0,0,0,0,0,0,0,0,0,0,0,0,0,0,0,0,0,0,0,0,0,0,0,0,0,0,0,0,0,0,0,0,0,0,0,0,0,0,0,0],"sum_hessian":[4.0297188E3,1.3338135E3,2.6959053E3,8.8006146E2,4.53752E2,1.4206776E3,1.2752278E3,7.264843E2,1.5357716E2,3.9389514E2,5.985686E1,1.0451757E3,3.7550192E2,7.502453E2,5.249825E2,4.9318982E2,2.3329448E2,4.8149612E1,1.0542755E2,3.2249237E2,7.140276E1,5.118969E1,8.667173E0,6.751726E2,3.7000305E2,1.7431383E2,2.0118808E2,6.785882E2,7.165709E1,1.225925E2,4.0238995E2,4.733588E2,1.9831009E1,1.6044176E2,7.2852715E1,2.5958726E0,4.555374E1,8.152573E1,2.3901823E1,7.392916E1,2.4856322E2,2.814714E1,4.3255627E1,1.3127834E1,3.8061855E1,4.6510715E0,4.0161023E0,3.144119E2,3.607607E2,1.4727948E2,2.2272357E2,1.1741749E2,5.6896343E1,1.220026E2,7.918548E1,1.5406229E2,5.2452594E2,3.5279736E1,3.637735E1,5.3315372E1,6.927712E1,3.4408746E2,5.8302494E1,2.894003E0,4.7046478E2,7.339225E0,1.2491784E1,1.5761327E2,2.828497E0,2.5598957E1,4.725376E1,4.1025124E1,4.528618E0,7.695618E1,4.5695486E0,5.996674E0,1.7905148E1,1.0110517E1,6.3818645E1,8.278661E1,1.6577661E2,1.2576953E1,1.5570188E1,3.273177E1,1.0523855E1,7.4486766E0,5.6791577E0,1.0225306E1,2.7836548E1,3.0907114E2,5.3407865E0,2.3816194E2,1.2259876E2,1.1908772E2,2.819176E1,4.8662773E1,1.7406079E2,8.930598E1,2.8111507E1,4.957616E1,7.3201847E0,2.181563E0,1.1982104E2,9.834673E0,6.93508E1,8.781861E1,6.6243675E1,3.8355096E2,1.4097496E2,5.6341815E0,2.9645554E1,1.9915724E1,1.6461628E1,4.3386402E1,9.92897E0,8.060966E0,6.1216156E1,3.2153143E2,2.2556025E1,5.450076E1,3.801736E0],"tree_param":{"num_deleted":"0","num_feature":"102","num_nodes":"121","size_leaf_vector":"1"}},{"base_weights":[-5.6558712E-3,6.6489017E-1,-2.7132672E-1,8.276536E-1,1.8932733E-1,-5.45674E-1,3.2491393E-2,9.253994E-1,3.7823936E-1,2.66215E-1,-5.688801E-1,-4.7029597E-1,-1.2569605E0,2.0372084E-1,-3.5395256E-1,1.0668777E0,7.475965E-1,6.323459E-1,-6.8256274E-2,3.212203E-1,-5.0673425E-1,-7.449893E-1,2.1052934E-2,-6.0423636E-1,-1.8355522E-1,-1.3335952E0,-3.4281364E-1,-4.660864E-3,4.8249376E-1,-4.5275232E-1,3.3786738E-1,8.8028055E-1,1.2536864E0,7.943765E-1,1.5693012E-1,7.355817E-1,-3.7085578E-2,-5.81125E-1,4.9000376E-1,2.6085433E-1,1.1044074E0,2.7800798E-2,-8.0494356E-1,-9.2149657E-1,1.4383358E-2,-9.576425E-2,-7.1600944E-1,-8.359915E-1,-1.0538254E-1,-1.3538508E0,-0E0,2.6100738E-2,-9.076555E-1,-1.1423531E-1,3.899204E-1,5.3955954E-1,-2.8007776E-1,-3.3862606E-1,-9.9899966E-1,-1.27704E-1,9.4364357E-1,-3.4631602E-2,2.7355948E-2,3.9398797E-2,2.3184849E-2,1.264597E-2,2.6522547E-2,2.3764495E-2,-1.3002297E-2,2.3997957E-2,-2.3882417E-2,-2.4548998E-2,7.1627735E-3,-7.4822307E-3,2.8550083E-2,1.2355643E-2,-3.7014385E-4,-7.0887017E-3,3.9764967E-2,-3.3106286E-2,1.3391436E-2,8.040374E-3,-3.2990035E-2,5.846617E-3,-1.6845236E-2,-2.3695027E-2,-9.3193995E-3,-3.033484E-2,7.877692E-3,-5.8468146E-4,-2.2767523E-2,-4.1387934E-2,-1.1807793E-2,-4.1811466E-2,2.2011802E-3,-1.4030105E-2,1.1337162E-3,2.021836E-2,2.826546E-4,8.018213E-3,2.1532644E-2,1.3894458E-2,-2.1388158E-2,-1.48314955E-2,2.8557219E-3,-3.782024E-2,-1.1880471E-2,3.3767947E-3,-3.3531148E-2,3.5376977E-2,-1.7824885E-2],"categories":[],"categories_nodes":[],"categories_segments":[],"categories_sizes":[],"default_left":[0,0,0,0,0,0,0,0,0,0,0,0,0,0,0,0,0,0,0,0,0,0,0,0,0,0,0,0,0,0,0,0,0,0,0,0,0,0,0,0,0,0,0,0,0,0,0,0,0,0,0,0,0,0,0,0,0,0,0,0,0,0,0,0,0,0,0,0,0,0,0,0,0,0,0,0,0,0,0,0,0,0,0,0,0,0,0,0,0,0,0,0,0,0,0,0,0,0,0,0,0,0,0,0,0,0,0,0,0,0,0],"id":10,"left_children":[1,3,5,7,9,11,13,15,17,19,21,23,25,27,29,31,33,35,37,39,41,43,-1,45,47,49,51,53,55,57,59,61,63,65,67,69,-1,71,73,75,77,-1,79,81,-1,83,85,87,89,91,-1,-1,93,95,97,99,101,103,105,107,109,-1,-1,-1,-1,-1,-1,-1,-1,-1,-1,-1,-1,-1,-1,-1,-1,-1,-1,-1,-1,-1,-1,-1,-1,-1,-1,-1,-1,-1,-1,-1,-1,-1,-1,-1,-1,-1,-1,-1,-1,-1,-1,-1,-1,-1,-1,-1,-1,-1,-1],"loss_changes":[7.143471E2,8.76803E1,2.3955508E2,3.6527466E1,1.7143553E1,7.98988E1,9.0303E1,1.6150635E1,1.7603994E1,1.14746895E1,6.683939E0,5.2225494E1,9.183502E0,5.506459E1,2.8834835E1,1.161087E1,8.291763E0,1.9964878E1,1.6550222E1,1.1175209E1,8.525282E0,5.904381E0,0E0,5.2668915E1,2.2022793E1,3.3305206E0,9.814645E0,2.344274E1,1.78647E1,2.2222214E1,1.5191856E1,1.3832001E1,3.75885E0,8.952942E0,9.758887E0,1.0036259E1,0E0,6.224386E0,9.826294E0,9.714963E0,5.7049847E0,0E0,6.544235E0,5.1676636E0,0E0,2.3147839E1,2.2311188E1,9.391842E0,2.1853077E1,2.2046814E0,0E0,0E0,4.9277434E0,2.2981394E1,1.2578659E1,1.7894447E1,9.697018E0,2.080677E1,8.93948E0,7.656888E0,9.3860035E0,0E0,0E0,0E0,0E0,0E0,0E0,0E0,0E0,0E0,0E0,0E0,0E0,0E0,0E0,0E0,0E0,0E0,0E0,0E0,0E0,0E0,0E0,0E0,0E0,0E0,0E0,0E0,0E0,0E0,0E0,0E0,0E0,0E0,0E0,0E0,0E0,0E0,0E0,0E0,0E0,0E0,0E0,0E0,0E0,0E0,0E0,0E0,0E0,0E0,0E0],"parents":[2147483647,0,0,1,1,2,2,3,3,4,4,5,5,6,6,7,7,8,8,9,9,10,10,11,11,12,12,13,13,14,14,15,15,16,16,17,17,18,18,19,19,20,20,21,21,23,23,24,24,25,25,26,26,27,27,28,28,29,29,30,30,31,31,32,32,33,33,34,34,35,35,37,37,38,38,39,39,40,40,42,42,43,43,45,45,46,46,47,47,48,48,49,49,52,52,53,53,54,54,55,55,56,56,57,57,58,58,59,59,60,60],"right_children":[2,4,6,8,10,12,14,16,18,20,22,24,26,28,30,32,34,36,38,40,42,44,-1,46,48,50,52,54,56,58,60,62,64,66,68,70,-1,72,74,76,78,-1,80,82,-1,84,86,88,90,92,-1,-1,94,96,98,100,102,104,106,108,110,-1,-1,-1,-1,-1,-1,-1,-1,-1,-1,-1,-1,-1,-1,-1,-1,-1,-1,-1,-1,-1,-1,-1,-1,-1,-1,-1,-1,-1,-1,-1,-1,-1,-1,-1,-1,-1,-1,-1,-1,-1,-1,-1,-1,-1,-1,-1,-1,-1,-1],"split_conditions":[5E0,1.175E3,1E0,1E0,7.508953E-2,4E0,3.3672957E0,3E0,3E1,7.904233E-2,2.2E1,6.1E1,3.9E1,3.7E1,1.01E2,2.3E1,1.01E3,5.7686068E-2,7E-1,9.499738E-2,-9.1549955E-2,4.700587E-1,2.1052934E-2,1.5E1,1.47915585E-2,2.2824463E-1,5.877867E-1,2E0,4E0,3E0,8.68E-1,-1.2526008E-1,4.207561E-2,-8.857344E-3,-7.1488726E-3,1.9E1,-3.7085578E-2,4.509908E-2,4.4426513E0,3E0,-9.6808076E-2,2.7800798E-2,8.458777E-2,-6.3682236E-2,1.4383358E-2,3E0,7.35E-1,6.644519E-2,8.333333E-1,1.0476838E-1,-0E0,2.6100738E-2,2.5827822E-1,1.1141197E-1,-2.9295734E-3,2.5464222E-1,-1.90962E-2,2.8672343E-1,8.169233E-3,6.81E2,5E0,-3.4631602E-2,2.7355948E-2,3.9398797E-2,2.3184849E-2,1.264597E-2,2.6522547E-2,2.3764495E-2,-1.3002297E-2,2.3997957E-2,-2.3882417E-2,-2.4548998E-2,7.1627735E-3,-7.4822307E-3,2.8550083E-2,1.2355643E-2,-3.7014385E-4,-7.0887017E-3,3.9764967E-2,-3.3106286E-2,1.3391436E-2,8.040374E-3,-3.2990035E-2,5.846617E-3,-1.6845236E-2,-2.3695027E-2,-9.3193995E-3,-3.033484E-2,7.877692E-3,-5.8468146E-4,-2.2767523E-2,-4.1387934E-2,-1.1807793E-2,-4.1811466E-2,2.2011802E-3,-1.4030105E-2,1.1337162E-3,2.021836E-2,2.826546E-4,8.018213E-3,2.1532644E-2,1.3894458E-2,-2.1388158E-2,-1.48314955E-2,2.8557219E-3,-3.782024E-2,-1.1880471E-2,3.3767947E-3,-3.3531148E-2,3.5376977E-2,-1.7824885E-2],"split_indices":[90,25,6,60,45,56,64,90,95,74,1,94,1,1,94,1,25,42,53,69,73,26,0,94,97,81,66,20,58,58,53,78,72,72,35,58,0,29,65,90,80,0,41,74,0,0,53,31,21,28,0,0,68,97,42,66,35,68,41,25,56,0,0,0,0,0,0,0,0,0,0,0,0,0,0,0,0,0,0,0,0,0,0,0,0,0,0,0,0,0,0,0,0,0,0,0,0,0,0,0,0,0,0,0,0,0,0,0,0,0,0],"split_type":[0,0,0,0,0,0,0,0,0,0,0,0,0,0,0,0,0,0,0,0,0,0,0,0,0,0,0,0,0,0,0,0,0,0,0,0,0,0,0,0,0,0,0,0,0,0,0,0,0,0,0,0,0,0,0,0,0,0,0,0,0,0,0,0,0,0,0,0,0,0,0,0,0,0,0,0,0,0,0,0,0,0,0,0,0,0,0,0,0,0,0,0,0,0,0,0,0,0,0,0,0,0,0,0,0,0,0,0,0,0,0],"sum_hessian":[4.0079565E3,1.136615E3,2.8713416E3,8.458204E2,2.9079465E2,1.5086951E3,1.3626464E3,6.9331177E2,1.5250856E2,2.649675E2,2.5827156E1,1.3661888E3,1.4250627E2,9.450078E2,4.1763858E2,3.8212698E2,3.111848E2,9.7161255E1,5.534731E1,2.482606E2,1.6706894E1,2.325753E1,2.5696242E0,9.2982776E2,4.3636105E2,1.3077386E2,1.1732409E1,5.4104285E2,4.03965E2,3.660642E2,5.1574356E1,1.9513654E2,1.8699045E2,2.876508E2,2.3534018E1,9.286512E1,4.2961345E0,2.9007484E1,2.6339823E1,2.3221698E2,1.6043625E1,2.326106E0,1.4380788E1,2.0729519E1,2.5280118E0,1.6828625E2,7.615415E2,4.5170715E1,3.9119034E2,1.286714E2,2.1024556E0,3.4093513E0,8.323057E0,4.2451526E2,1.165276E2,3.7641016E2,2.7554842E1,3.0471155E2,6.1352676E1,2.9510689E1,2.206367E1,2.2339551E0,1.9290259E2,1.6414929E2,2.284115E1,5.7546314E1,2.3010448E2,1.1301694E1,1.2232324E1,8.979634E1,3.068779E0,2.2690006E1,6.3174777E0,1.0169956E1,1.6169867E1,1.4963365E2,8.2583336E1,2.1314466E0,1.3912178E1,1.18537245E1,2.5270631E0,2.4754288E0,1.8254091E1,1.0378607E2,6.450018E1,6.428363E2,1.187052E2,3.9198082E1,5.9726305E0,3.4711176E2,4.4078583E1,1.245983E2,4.0731144E0,5.3643184E0,2.958739E0,1.2732645E2,2.971888E2,6.58915E1,5.0636105E1,1.5052588E2,2.2588426E2,9.940647E0,1.7614197E1,2.24427E2,8.028454E1,4.164122E1,1.9711456E1,2.4440706E1,5.069983E0,1.9488005E1,2.5756636E0],"tree_param":{"num_deleted":"0","num_feature":"102","num_nodes":"111","size_leaf_vector":"1"}},{"base_weights":[-7.3387725E-3,5.786968E-1,-2.980744E-1,7.2985333E-1,1.2561394E-1,-5.0059E-1,1.3441034E-1,8.603132E-1,4.362683E-1,3.7242502E-1,-1.367881E-1,-3.402985E-1,-8.0767787E-1,2.8215015E-1,-4.2720386E-1,9.500681E-1,4.1566366E-1,5.009168E-1,-9.2739016E-1,4.1807237E-1,-9.200628E-1,-3.6165074E-1,3.094997E-1,-2.293859E-1,-1.0867656E0,-7.10693E-1,-1.3119669E0,3.6479154E-1,-7.200985E-1,-8.873888E-2,-7.4725395E-1,1.7891358E-1,9.7326887E-1,-4.538035E-1,5.10881E-1,2.4065849E-1,8.03589E-1,-1.5844032E-1,-1.2165715E0,-4.3864754E-1,5.1631516E-1,-4.3223284E-2,-0E0,-5.7172287E-1,1.2663522E-1,-2.3595123E-1,6.621581E-1,-4.342063E-1,-2.9989341E-2,-1.3110065E0,-5.6706303E-1,-7.870253E-1,-1.5885654E-1,-5.558844E-1,-1.3753839E0,2.7328667E-1,7.5775063E-1,4.426648E-1,-9.6480954E-1,-1.0056205E0,4.9216706E-2,-8.6713064E-1,1.1183892E-2,-6.499731E-3,3.535809E-2,2.993504E-2,9.308735E-3,7.909057E-3,-3.3967804E-2,2.065148E-2,-4.015117E-4,2.2388756E-2,1.4362108E-3,1.9072305E-2,3.70203E-2,1.1920534E-2,-2.2500226E-2,-1.1217012E-2,-4.393281E-2,-2.1455672E-2,1.4915745E-2,1.9923508E-2,4.1711526E-3,-2.28793E-2,-3.939889E-3,2.8726311E-2,-1.0903771E-2,1.1598739E-2,-3.3236545E-2,3.812539E-2,1.0489948E-2,-2.1798233E-2,-7.818139E-3,3.4524486E-3,-1.6410876E-2,-4.0375978E-2,2.4941165E-3,2.4622174E-2,-2.1787174E-2,-1.7373225E-2,-3.0696737E-2,3.6193922E-2,-8.270041E-3,-2.9457318E-2,1.6378848E-2,-4.2536672E-2,-1.9031871E-2,1.3093054E-2,-2.725282E-5,5.6410846E-3,2.8571755E-2,3.485736E-2,-1.640036E-2,-3.2591473E-2,1.8834343E-2,-4.4490166E-2,1.1762498E-3,-3.0456243E-2,4.6832026E-3,-3.4943797E-2,-1.5036587E-2,1.7640738E-2,-2.906361E-2],"categories":[],"categories_nodes":[],"categories_segments":[],"categories_sizes":[],"default_left":[0,0,0,0,0,0,0,0,0,0,0,0,0,0,0,0,0,0,0,0,0,0,0,0,0,0,0,0,0,0,0,0,0,0,0,0,0,0,0,0,0,0,0,0,0,0,0,0,0,0,0,0,0,0,0,0,0,0,0,0,0,0,0,0,0,0,0,0,0,0,0,0,0,0,0,0,0,0,0,0,0,0,0,0,0,0,0,0,0,0,0,0,0,0,0,0,0,0,0,0,0,0,0,0,0,0,0,0,0,0,0,0,0,0,0,0,0,0,0,0,0,0,0],"id":11,"left_children":[1,3,5,7,9,11,13,15,17,19,21,23,25,27,29,31,33,35,37,39,41,43,45,47,49,51,53,55,57,59,61,63,65,67,69,71,73,75,77,79,81,-1,-1,83,85,87,89,91,93,95,97,99,101,103,105,107,109,111,113,115,117,119,121,-1,-1,-1,-1,-1,-1,-1,-1,-1,-1,-1,-1,-1,-1,-1,-1,-1,-1,-1,-1,-1,-1,-1,-1,-1,-1,-1,-1,-1,-1,-1,-1,-1,-1,-1,-1,-1,-1,-1,-1,-1,-1,-1,-1,-1,-1,-1,-1,-1,-1,-1,-1,-1,-1,-1,-1,-1,-1,-1,-1],"loss_changes":[6.803388E2,9.039279E1,2.3395143E2,3.7291992E1,2.1673578E1,8.895981E1,7.080473E1,2.6599976E1,2.7638847E1,1.0526953E1,1.6389917E1,9.857471E1,2.8917664E1,5.619561E1,1.89957E1,9.737793E0,1.0025009E1,2.2807228E1,2.6576805E0,1.4376938E1,2.9885964E0,1.1304771E1,1.0772548E1,4.2539967E1,1.6719528E1,2.1773956E1,3.4260712E0,2.2020386E1,1.5321106E1,1.1381615E1,8.441547E0,7.7497473E0,8.352112E0,6.389997E0,1.0080784E1,1.5468027E1,8.479347E0,2.222456E0,1.05791E0,5.040939E0,8.145351E0,0E0,0E0,6.1215878E0,1.4110085E1,1.2652815E1,5.5506887E0,2.5694313E1,3.9985214E1,5.5693817E0,1.1500113E1,2.1586273E1,1.0677321E1,5.3737335E0,1.3432312E0,2.2869781E1,1.2527542E1,7.7629347E0,9.276772E0,6.2215004E0,8.829756E0,7.5360107E0,8.15672E0,0E0,0E0,0E0,0E0,0E0,0E0,0E0,0E0,0E0,0E0,0E0,0E0,0E0,0E0,0E0,0E0,0E0,0E0,0E0,0E0,0E0,0E0,0E0,0E0,0E0,0E0,0E0,0E0,0E0,0E0,0E0,0E0,0E0,0E0,0E0,0E0,0E0,0E0,0E0,0E0,0E0,0E0,0E0,0E0,0E0,0E0,0E0,0E0,0E0,0E0,0E0,0E0,0E0,0E0,0E0,0E0,0E0,0E0,0E0,0E0],"parents":[2147483647,0,0,1,1,2,2,3,3,4,4,5,5,6,6,7,7,8,8,9,9,10,10,11,11,12,12,13,13,14,14,15,15,16,16,17,17,18,18,19,19,20,20,21,21,22,22,23,23,24,24,25,25,26,26,27,27,28,28,29,29,30,30,31,31,32,32,33,33,34,34,35,35,36,36,37,37,38,38,39,39,40,40,43,43,44,44,45,45,46,46,47,47,48,48,49,49,50,50,51,51,52,52,53,53,54,54,55,55,56,56,57,57,58,58,59,59,60,60,61,61,62,62],"right_children":[2,4,6,8,10,12,14,16,18,20,22,24,26,28,30,32,34,36,38,40,42,44,46,48,50,52,54,56,58,60,62,64,66,68,70,72,74,76,78,80,82,-1,-1,84,86,88,90,92,94,96,98,100,102,104,106,108,110,112,114,116,118,120,122,-1,-1,-1,-1,-1,-1,-1,-1,-1,-1,-1,-1,-1,-1,-1,-1,-1,-1,-1,-1,-1,-1,-1,-1,-1,-1,-1,-1,-1,-1,-1,-1,-1,-1,-1,-1,-1,-1,-1,-1,-1,-1,-1,-1,-1,-1,-1,-1,-1,-1,-1,-1,-1,-1,-1,-1,-1,-1,-1,-1],"split_conditions":[6E0,1.349E3,3.3E1,1.609438E0,1.3862944E0,1.714E3,1.836E3,2.6E1,6E0,6.666667E-2,1.8876018E-2,3E0,4.7E1,4E0,3.9318256E0,1E0,9E0,2.7E1,1.8232156E-1,3E0,1.611E3,2.1038124E-1,4.3E1,1E0,1E0,1E0,1.3102826E-1,1.01E2,2.97E2,-5.047411E-2,1.0225E2,2.1511137E-1,6.0064625E-2,6.3247606E-3,2E0,-2.84E2,1E0,-7.6414472E-3,3.15E2,2.8401503E-1,1.9228868E-2,-4.3223284E-2,-0E0,1.913478E-2,3E0,-2.0755984E-2,-3.0241264E-2,1.18E2,8.4156716E-1,1.6682208E-1,-4.8925556E-2,2.7002713E-1,-8.985573E-2,5.9806723E-2,7.35E2,2E0,2.1917808E-1,3.2583695E-2,1.555E3,3.713572E0,-1.0083205E-1,4.0917625E-3,3E0,-6.499731E-3,3.535809E-2,2.993504E-2,9.308735E-3,7.909057E-3,-3.3967804E-2,2.065148E-2,-4.015117E-4,2.2388756E-2,1.4362108E-3,1.9072305E-2,3.70203E-2,1.1920534E-2,-2.2500226E-2,-1.1217012E-2,-4.393281E-2,-2.1455672E-2,1.4915745E-2,1.9923508E-2,4.1711526E-3,-2.28793E-2,-3.939889E-3,2.8726311E-2,-1.0903771E-2,1.1598739E-2,-3.3236545E-2,3.812539E-2,1.0489948E-2,-2.1798233E-2,-7.818139E-3,3.4524486E-3,-1.6410876E-2,-4.0375978E-2,2.4941165E-3,2.4622174E-2,-2.1787174E-2,-1.7373225E-2,-3.0696737E-2,3.6193922E-2,-8.270041E-3,-2.9457318E-2,1.6378848E-2,-4.2536672E-2,-1.9031871E-2,1.3093054E-2,-2.725282E-5,5.6410846E-3,2.8571755E-2,3.485736E-2,-1.640036E-2,-3.2591473E-2,1.8834343E-2,-4.4490166E-2,1.1762498E-3,-3.0456243E-2,4.6832026E-3,-3.4943797E-2,-1.5036587E-2,1.7640738E-2,-2.906361E-2],"split_indices":[90,63,1,64,64,63,63,95,56,21,97,56,95,56,64,23,1,1,66,59,25,68,94,49,55,55,66,94,47,31,94,66,42,37,24,63,7,33,47,68,34,0,0,39,50,44,37,93,66,38,44,66,44,37,50,24,92,83,63,64,81,30,24,0,0,0,0,0,0,0,0,0,0,0,0,0,0,0,0,0,0,0,0,0,0,0,0,0,0,0,0,0,0,0,0,0,0,0,0,0,0,0,0,0,0,0,0,0,0,0,0,0,0,0,0,0,0,0,0,0,0,0,0],"split_type":[0,0,0,0,0,0,0,0,0,0,0,0,0,0,0,0,0,0,0,0,0,0,0,0,0,0,0,0,0,0,0,0,0,0,0,0,0,0,0,0,0,0,0,0,0,0,0,0,0,0,0,0,0,0,0,0,0,0,0,0,0,0,0,0,0,0,0,0,0,0,0,0,0,0,0,0,0,0,0,0,0,0,0,0,0,0,0,0,0,0,0,0,0,0,0,0,0,0,0,0,0,0,0,0,0,0,0,0,0,0,0,0,0,0,0,0,0,0,0,0,0,0,0],"sum_hessian":[3.9909487E3,1.3227687E3,2.6681802E3,9.909841E2,3.3178455E2,1.8174249E3,8.507553E2,6.840268E2,3.069573E2,1.7110501E2,1.6067953E2,1.1962145E3,6.212104E2,6.7432007E2,1.7643527E2,5.676331E2,1.16393616E2,2.9392856E2,1.302874E1,1.6620178E2,4.9032383E0,1.0729469E2,5.3384842E1,1.0430685E3,1.5314597E2,5.237673E2,9.744312E1,6.238432E2,5.0476826E1,8.679934E1,8.963593E1,1.7135977E1,5.504972E2,1.0835036E1,1.0555858E2,1.5955078E2,1.3437779E2,4.257331E0,8.77141E0,1.6460995E1,1.4974078E2,2.7285774E0,2.1746607E0,7.5162544E1,3.2132153E1,2.089574E1,3.24891E1,5.1334436E2,5.297242E2,1.05439186E2,4.7706783E1,4.5935376E2,6.4413506E1,8.691544E0,8.875158E1,5.0807565E2,1.1576754E2,8.465299E0,4.2011528E1,1.0554479E1,7.624486E1,7.7481186E1,1.215475E1,1.2807853E1,4.3281245E0,5.2995264E2,2.0544506E1,5.479557E0,5.355479E0,7.886343E1,2.6695156E1,4.280352E1,1.1674726E2,9.915049E1,3.5227295E1,2.2238526E0,2.0334783E0,2.8611398E0,5.9102697E0,1.3089637E1,3.3713574E0,1.06554535E2,4.318625E1,5.1502716E1,2.3659826E1,1.1647851E1,2.04843E1,1.244694E1,8.448801E0,9.55577E0,2.293333E1,1.8938464E2,3.2395972E2,4.140861E2,1.15638115E2,1.0304758E2,2.3916097E0,4.2663207E0,4.3440464E1,2.4695615E2,2.1239763E2,4.05946E0,6.0354042E1,6.4931254E0,2.1984181E0,8.264472E1,6.1068563E0,3.1855313E2,1.8952255E2,3.0342354E1,8.5425186E1,4.8976073E0,3.5676916E0,3.950307E1,2.5084558E0,7.030425E0,3.5240533E0,5.856525E0,7.0388336E1,4.0978973E1,3.6502213E1,8.081669E0,4.0730805E0],"tree_param":{"num_deleted":"0","num_feature":"102","num_nodes":"123","size_leaf_vector":"1"}},{"base_weights":[-5.2520644E-4,6.2650985E-1,-2.4848223E-1,1.8129148E-1,7.742259E-1,-5.4877543E-1,1.5745565E-2,2.697721E-1,-3.7320343E-1,8.7198263E-1,3.356859E-1,-4.258834E-1,-9.62426E-1,2.8047636E-1,-2.5601032E-1,6.861147E-2,5.0697654E-1,1.6428494E-1,-7.7181077E-1,1.0227765E0,6.875158E-1,8.4216017E-1,1.2139425E-1,-2.3058397E-1,-7.987286E-1,-7.3650837E-1,-1.1933119E0,-5.7395525E-2,3.9255965E-1,-8.646563E-2,-5.681212E-1,5.4697317E-1,-1.099976E-1,1.343594E-1,7.622843E-1,-7.155853E-1,7.768125E-1,-1.0041711E0,7.5938674E-3,8.389416E-1,1.2046016E0,7.7530015E-1,3.7909424E-1,1.0221764E0,-1.9897627E-2,-4.7692016E-1,2.617032E-1,-5.611531E-1,-1.2744646E-1,-7.048319E-1,-1.2288167E0,-8.858686E-1,-1.4959791E-1,-1.2271384E0,1.9378696E-3,-2.767441E-1,2.2472356E-1,4.6499428E-1,-3.9214656E-1,-3.6645314E-1,2.2923146E-1,-7.382863E-2,-6.79788E-1,3.0275444E-2,-2.2184136E-3,1.2800698E-2,-9.721757E-3,1.2302755E-2,-1.6149212E-2,6.8353666E-3,2.7529962E-2,-3.8054854E-2,-1.9371505E-3,3.1807262E-2,-6.081341E-3,-3.7462264E-2,6.8831025E-4,-3.0689295E-3,2.6437521E-2,2.50738E-2,3.783284E-2,2.4501283E-2,1.3447038E-3,3.6721027E-3,2.9860502E-2,3.423147E-2,-1.8785262E-2,2.847561E-2,-2.070191E-2,-2.4995742E-2,1.4397951E-2,2.4917915E-2,1.2974811E-3,-1.17951E-2,-3.614907E-2,1.7162734E-3,-8.888431E-3,-1.2540938E-2,-2.6316097E-2,-4.082481E-2,-4.0573194E-3,-1.9521058E-2,-3.5556965E-2,5.5722254E-3,-3.333924E-2,-3.809392E-2,3.6235652E-3,1.4165236E-3,-1.7364776E-2,1.7623497E-2,-7.432358E-3,4.359423E-3,1.708289E-2,-3.327051E-2,1.4489179E-3,1.1848751E-3,-3.0078642E-2,9.704768E-3,-2.556481E-2,-1.1999202E-2,1.9729203E-2,-8.324059E-3,-2.4727995E-2],"categories":[],"categories_nodes":[],"categories_segments":[],"categories_sizes":[],"default_left":[0,0,0,0,0,0,0,0,0,0,0,0,0,0,0,0,0,0,0,0,0,0,0,0,0,0,0,0,0,0,0,0,0,0,0,0,0,0,0,0,0,0,0,0,0,0,0,0,0,0,0,0,0,0,0,0,0,0,0,0,0,0,0,0,0,0,0,0,0,0,0,0,0,0,0,0,0,0,0,0,0,0,0,0,0,0,0,0,0,0,0,0,0,0,0,0,0,0,0,0,0,0,0,0,0,0,0,0,0,0,0,0,0,0,0,0,0,0,0,0,0,0,0],"id":12,"left_children":[1,3,5,7,9,11,13,15,17,19,21,23,25,27,29,31,33,35,37,39,41,43,45,47,49,51,53,55,57,59,61,63,65,67,69,71,73,75,-1,77,79,81,83,85,87,89,91,93,95,97,99,101,103,105,-1,107,109,111,113,115,117,119,121,-1,-1,-1,-1,-1,-1,-1,-1,-1,-1,-1,-1,-1,-1,-1,-1,-1,-1,-1,-1,-1,-1,-1,-1,-1,-1,-1,-1,-1,-1,-1,-1,-1,-1,-1,-1,-1,-1,-1,-1,-1,-1,-1,-1,-1,-1,-1,-1,-1,-1,-1,-1,-1,-1,-1,-1,-1,-1,-1,-1],"loss_changes":[6.2408954E2,7.444321E1,2.2840187E2,1.4095747E1,3.5990295E1,6.770578E1,1.1025323E2,1.1629784E1,8.725243E0,1.8193115E1,1.6819038E1,7.537683E1,1.4583496E1,2.9503803E1,3.9807724E1,1.1737284E1,1.0419962E1,1.0150389E1,5.9505405E0,1.1089233E1,8.015503E0,7.4343643E0,9.560629E0,2.3138126E1,1.2991486E1,1.3558411E1,6.691452E0,1.2093494E1,3.341359E1,4.358353E1,1.4440018E1,1.0994504E1,1.1560461E1,9.068181E0,5.0262527E0,2.4079087E0,3.5027666E0,5.105337E0,0E0,7.9731903E0,2.2302551E0,7.2123413E0,1.1213159E1,8.533031E0,6.586109E0,7.895765E0,1.1248948E1,1.664656E1,1.64132E1,1.3945526E1,8.427513E0,7.585251E0,1.137805E1,8.800781E0,0E0,1.0914624E1,1.4834421E1,1.7625885E1,1.5984114E1,6.7733086E1,2.3820366E1,1.2333304E1,1.2063095E1,0E0,0E0,0E0,0E0,0E0,0E0,0E0,0E0,0E0,0E0,0E0,0E0,0E0,0E0,0E0,0E0,0E0,0E0,0E0,0E0,0E0,0E0,0E0,0E0,0E0,0E0,0E0,0E0,0E0,0E0,