{"learner":{"attributes":{"best_iteration":"320","best_score":"0.16413662671251333","scikit_learn":"{\"_estimator_type\": \"regressor\"}"},"feature_names":["accommodates","amenities_count","amenity_comfort_score","amenity_has_air_conditioning","amenity_has_balcony","amenity_has_coffee_maker","amenity_has_dishwasher","amenity_has_dryer","amenity_has_elevator","amenity_has_heating","amenity_has_kitchen","amenity_has_long_term_stays_allowed","amenity_has_parking","amenity_has_pets_allowed","amenity_has_tv","amenity_has_washer","amenity_has_wifi","amenity_score_business","amenity_score_family","amenity_score_luxury","amenity_score_safety","availability_ratio","bathrooms_numeric","bedrooms","beds","days_since_last_review","desc_sentiment_compound","description_embed_1","description_embed_10","description_embed_11","description_embed_12","description_embed_13","description_embed_14","description_embed_15","description_embed_16","description_embed_17","description_embed_18","description_embed_19","description_embed_2","description_embed_20","description_embed_3","description_embed_4","description_embed_5","description_embed_6","description_embed_7","description_embed_8","description_embed_9","description_length","distance_to_center_km","has_license_info","host_about_embed_1","host_about_embed_10","host_about_embed_2","host_about_embed_3","host_about_embed_4","host_about_embed_5","host_about_embed_6","host_about_embed_7","host_about_embed_8","host_about_embed_9","host_about_length","host_about_sentiment_compound","host_acceptance_rate","host_activity_score","host_experience_score","host_experience_years","host_has_gov_id","host_is_superhost_flag","host_listings_count","host_response_rate","host_total_listings_count","host_verifications_count","instant_bookable_flag","is_central","is_shared_bath","listing_age_days","log_number_of_reviews","log_price","log_reviews_per_month","neighborhood_desc_length","neighborhood_embed_1","neighborhood_embed_10","neighborhood_embed_11","neighborhood_embed_12","neighborhood_embed_13","neighborhood_embed_14","neighborhood_embed_15","neighborhood_embed_2","neighborhood_embed_3","neighborhood_embed_4","neighborhood_embed_5","neighborhood_embed_6","neighborhood_embed_7","neighborhood_embed_8","neighborhood_embed_9","neighborhood_sentiment_compound","neighbourhood_encoded","number_of_reviews","number_of_reviews_ltm","occupancy_rate","price_clean","price_per_person","property_type_encoded","recent_review_flag","recent_review_score","reviews_growth_ratio","reviews_per_month","room_type_encoded","text_sentiment_score"],"feature_types":["float","int","float","int","int","int","int","int","int","int","int","int","int","int","int","int","int","int","int","int","int","float","float","float","float","int","float","float","float","float","float","float","float","float","float","float","float","float","float","float","float","float","float","float","float","float","float","int","float","int","float","float","float","float","float","float","float","float","float","float","int","float","float","float","float","float","int","int","float","float","float","int","int","int","int","int","float","float","float","int","float","float","float","float","float","float","float","float","float","float","float","float","float","float","float","float","int","int","int","float","float","float","int","int","float","float","float","int","float"],"gradient_booster":{"model":{"cats":{"enc":[],"feature_segments":[],"sorted_idx":[]},"gbtree_model_param":{"num_parallel_tree":"1","num_trees":"401"},"iteration_indptr":[0,1,2,3,4,5,6,7,8,9,10,11,12,13,14,15,16,17,18,19,20,21,22,23,24,25,26,27,28,29,30,31,32,33,34,35,36,37,38,39,40,41,42,43,44,45,46,47,48,49,50,51,52,53,54,55,56,57,58,59,60,61,62,63,64,65,66,67,68,69,70,71,72,73,74,75,76,77,78,79,80,81,82,83,84,85,86,87,88,89,90,91,92,93,94,95,96,97,98,99,100,101,102,103,104,105,106,107,108,109,110,111,112,113,114,115,116,117,118,119,120,121,122,123,124,125,126,127,128,129,130,131,132,133,134,135,136,137,138,139,140,141,142,143,144,145,146,147,148,149,150,151,152,153,154,155,156,157,158,159,160,161,162,163,164,165,166,167,168,169,170,171,172,173,174,175,176,177,178,179,180,181,182,183,184,185,186,187,188,189,190,191,192,193,194,195,196,197,198,199,200,201,202,203,204,205,206,207,208,209,210,211,212,213,214,215,216,217,218,219,220,221,222,223,224,225,226,227,228,229,230,231,232,233,234,235,236,237,238,239,240,241,242,243,244,245,246,247,248,249,250,251,252,253,254,255,256,257,258,259,260,261,262,263,264,265,266,267,268,269,270,271,272,273,274,275,276,277,278,279,280,281,282,283,284,285,286,287,288,289,290,291,292,293,294,295,296,297,298,299,300,301,302,303,304,305,306,307,308,309,310,311,312,313,314,315,316,317,318,319,320,321,322,323,324,325,326,327,328,329,330,331,332,333,334,335,336,337,338,339,340,341,342,343,344,345,346,347,348,349,350,351,352,353,354,355,356,357,358,359,360,361,362,363,364,365,366,367,368,369,370,371,372,373,374,375,376,377,378,379,380,381,382,383,384,385,386,387,388,389,390,391,392,393,394,395,396,397,398,399,400,401],"tree_info":[0,0,0,0,0,0,0,0,0,0,0,0,0,0,0,0,0,0,0,0,0,0,0,0,0,0,0,0,0,0,0,0,0,0,0,0,0,0,0,0,0,0,0,0,0,0,0,0,0,0,0,0,0,0,0,0,0,0,0,0,0,0,0,0,0,0,0,0,0,0,0,0,0,0,0,0,0,0,0,0,0,0,0,0,0,0,0,0,0,0,0,0,0,0,0,0,0,0,0,0,0,0,0,0,0,0,0,0,0,0,0,0,0,0,0,0,0,0,0,0,0,0,0,0,0,0,0,0,0,0,0,0,0,0,0,0,0,0,0,0,0,0,0,0,0,0,0,0,0,0,0,0,0,0,0,0,0,0,0,0,0,0,0,0,0,0,0,0,0,0,0,0,0,0,0,0,0,0,0,0,0,0,0,0,0,0,0,0,0,0,0,0,0,0,0,0,0,0,0,0,0,0,0,0,0,0,0,0,0,0,0,0,0,0,0,0,0,0,0,0,0,0,0,0,0,0,0,0,0,0,0,0,0,0,0,0,0,0,0,0,0,0,0,0,0,0,0,0,0,0,0,0,0,0,0,0,0,0,0,0,0,0,0,0,0,0,0,0,0,0,0,0,0,0,0,0,0,0,0,0,0,0,0,0,0,0,0,0,0,0,0,0,0,0,0,0,0,0,0,0,0,0,0,0,0,0,0,0,0,0,0,0,0,0,0,0,0,0,0,0,0,0,0,0,0,0,0,0,0,0,0,0,0,0,0,0,0,0,0,0,0,0,0,0,0,0,0,0,0,0,0,0,0,0,0,0,0,0,0,0,0,0,0,0,0,0,0,0,0,0,0,0,0,0,0,0,0,0,0,0,0,0,0,0,0,0,0,0,0,0,0,0,0,0,0,0,0,0,0,0,0],"trees":[{"base_weights":[1.2035016E-4,5.3814873E-3,-1.3345592E-2,-7.3488526E-2,2.971889E-3,-9.080803E-2,9.631964E-3,-2.3052812E-2,3.325741E-2,-6.501423E-2,-1.7995091E-1,2.9114632E-2,-4.1638575E-2,3.0651297E-2,-4.0903546E-2,3.832434E-2,-7.2136566E-2,-1.08560205E-1,-3.4204725E-2,-2.1308997E-1,-1.16875E-1,5.1392972E-2,-1.3286345E-4,-1.6305337E-2,-3.8657913E-3,6.1032496E-2,-3.6018543E-2,-3.3720896E-2,-1.5318878E-1,5.8974456E-2,1.7507335E-2,7.495301E-3,-1.573433E-1,-1.3914424E-3,-4.056788E-3,-8.001749E-4,-6.406376E-3,-8.779571E-3,-4.7595487E-3,-6.2949E-3,-2.57259E-3,1.8697316E-3,-9.064941E-4,-1.813035E-3,1.0082291E-3,-2.2810805E-3,3.4500557E-4,1.9343492E-3,-4.717074E-3,-3.348895E-4,-3.4817385E-3,-8.158948E-4,-4.8371027E-3,-5.7636593E-3,-9.5534965E-4,7.8548293E-4,2.4011633E-3,-1.756708E-4,1.8330885E-3,2.2601122E-3,-5.247584E-4,-6.4142267E-3,2.9894122E-4],"categories":[],"categories_nodes":[],"categories_segments":[],"categories_sizes":[],"default_left":[0,0,0,0,0,0,0,0,0,0,0,0,0,0,0,0,0,0,0,0,0,0,0,0,0,0,0,0,0,0,0,0,0,0,0,0,0,0,0,0,0,0,0,0,0,0,0,0,0,0,0,0,0,0,0,0,0,0,0,0,0,0,0],"id":0,"left_children":[1,-1,3,5,7,9,11,13,15,17,19,21,23,25,27,29,31,33,35,37,39,41,43,45,-1,47,49,51,53,55,57,59,61,-1,-1,-1,-1,-1,-1,-1,-1,-1,-1,-1,-1,-1,-1,-1,-1,-1,-1,-1,-1,-1,-1,-1,-1,-1,-1,-1,-1,-1,-1],"loss_changes":[2.0180885E1,0E0,7.632042E0,2.405879E0,4.814118E0,3.0990095E0,2.8383252E-1,3.1481438E0,1.5052803E0,1.402803E0,5.4416466E-1,1.4722353E-1,1.3681673E-1,1.6608617E0,1.9446168E0,1.1433501E0,9.012438E-1,6.8603134E-1,7.9777056E-1,7.0814514E-1,2.380935E-1,1.18588954E-1,1.8725502E-1,1.1726089E-1,0E0,4.172039E-1,4.7871277E-1,1.8873754E0,6.385584E-1,9.0817976E-1,1.3866919E0,1.2537123E-1,6.4037097E-1,0E0,0E0,0E0,0E0,0E0,0E0,0E0,0E0,0E0,0E0,0E0,0E0,0E0,0E0,0E0,0E0,0E0,0E0,0E0,0E0,0E0,0E0,0E0,0E0,0E0,0E0,0E0,0E0,0E0,0E0],"parents":[2147483647,0,0,2,2,3,3,4,4,5,5,6,6,7,7,8,8,9,9,10,10,11,11,12,12,13,13,14,14,15,15,16,16,17,17,18,18,19,19,20,20,21,21,22,22,23,23,25,25,26,26,27,27,28,28,29,29,30,30,31,31,32,32],"right_children":[2,-1,4,6,8,10,12,14,16,18,20,22,24,26,28,30,32,34,36,38,40,42,44,46,-1,48,50,52,54,56,58,60,62,-1,-1,-1,-1,-1,-1,-1,-1,-1,-1,-1,-1,-1,-1,-1,-1,-1,-1,-1,-1,-1,-1,-1,-1,-1,-1,-1,-1,-1,-1],"split_conditions":[1.0986123E0,5.3814873E-3,3.725E1,1E0,2.2E1,3.465736E0,1.961E3,1.7917595E0,4E0,1.5E1,4.381373E-3,9.7E-1,4.0928047E-2,1.487E3,4E0,2.8903718E0,3.3959195E-3,1.609438E0,4E0,5.6986303E0,1.5E1,1.4239512E-1,2.4E1,-4.2849425E-2,-3.8657913E-3,4.175674E-1,3.935772E-2,1.071363E-1,2.6024644E0,5.8027396E0,1E0,2.9266962E-1,5.583496E0,-1.3914424E-3,-4.056788E-3,-8.001749E-4,-6.406376E-3,-8.779571E-3,-4.7595487E-3,-6.2949E-3,-2.57259E-3,1.8697316E-3,-9.064941E-4,-1.813035E-3,1.0082291E-3,-2.2810805E-3,3.4500557E-4,1.9343492E-3,-4.717074E-3,-3.348895E-4,-3.4817385E-3,-8.158948E-4,-4.8371027E-3,-5.7636593E-3,-9.5534965E-4,7.8548293E-4,2.4011633E-3,-1.756708E-4,1.8330885E-3,2.2601122E-3,-5.247584E-4,-6.4142267E-3,2.9894122E-4],"split_indices":[76,0,101,67,1,76,75,76,68,1,39,62,57,25,68,76,30,76,68,65,1,54,1,57,0,87,42,42,64,65,67,78,77,0,0,0,0,0,0,0,0,0,0,0,0,0,0,0,0,0,0,0,0,0,0,0,0,0,0,0,0,0,0],"split_type":[0,0,0,0,0,0,0,0,0,0,0,0,0,0,0,0,0,0,0,0,0,0,0,0,0,0,0,0,0,0,0,0,0,0,0,0,0,0,0,0,0,0,0,0,0,0,0,0,0,0,0,0,0,0,0,0,0,0,0,0,0,0,0],"sum_hessian":[8.344E3,5.83E2,7.761E3,1.658E3,6.103E3,1.374E3,2.84E2,3.279E3,2.824E3,1.069E3,3.05E2,2.09E2,7.5E1,8.15E2,2.464E3,2.697E3,1.27E2,4.39E2,6.3E2,1.96E2,1.09E2,1.22E2,8.7E1,6.1E1,1.4E1,5.62E2,2.53E2,2.319E3,1.45E2,1.348E3,1.349E3,6.5E1,6.2E1,1.35E2,3.04E2,6.07E2,2.3E1,7.6E1,1.2E2,2.4E1,8.5E1,1.1E2,1.2E1,3.3E1,5.4E1,2.1E1,4E1,5.55E2,7E0,1.96E2,5.7E1,2.209E3,1.1E2,1.08E2,3.7E1,5.32E2,8.16E2,8.76E2,4.73E2,1.9E1,4.6E1,4.7E1,1.5E1],"tree_param":{"num_deleted":"0","num_feature":"109","num_nodes":"63","size_leaf_vector":"1"}},{"base_weights":[1.7572058E-4,5.2191922E-3,-1.201984E-2,-5.33787E-3,-1.3054587E-1,-3.0919166E-2,2.1564951E-2,-1.0151521E-2,-1.4934291E-1,1.8601028E-2,-4.9576774E-2,3.3000086E-2,-1.9500615E-2,1.128165E-3,-5.222907E-2,-2.1466938E-1,-9.1146216E-2,-3.690651E-2,4.0679812E-2,-9.24755E-2,-2.7705697E-2,8.522399E-2,2.5424598E-2,-1.0279276E-1,-7.1878154E-3,-0E0,-4.391607E-3,-2.4637249E-1,-7.688688E-2,-2.0946261E-1,-5.5530947E-2,-2.7410425E-3,2.8016268E-5,1.4783053E-3,-1.1430073E-3,-3.0549602E-3,1.0616855E-3,-1.9592557E-3,-4.8171097E-4,1.2343258E-4,3.0387058E-3,4.304019E-4,2.5483503E-3,-5.6490884E-3,-1.1346086E-3,-1.82095E-3,1.2657483E-3,-7.672195E-3,2.0705583E-3,-5.5957923E-4,-6.3287993E-3,-0E0,-8.121195E-3,1.9145509E-3,-2.2703689E-3],"categories":[],"categories_nodes":[],"categories_segments":[],"categories_sizes":[],"default_left":[0,0,0,0,0,0,0,0,0,0,0,0,0,0,0,0,0,0,0,0,0,0,0,0,0,0,0,0,0,0,0,0,0,0,0,0,0,0,0,0,0,0,0,0,0,0,0,0,0,0,0,0,0,0,0],"id":1,"left_children":[1,-1,3,5,7,9,11,13,15,17,19,21,23,-1,25,27,29,31,33,35,37,39,41,43,45,-1,-1,47,49,51,53,-1,-1,-1,-1,-1,-1,-1,-1,-1,-1,-1,-1,-1,-1,-1,-1,-1,-1,-1,-1,-1,-1,-1,-1],"loss_changes":[1.787987E1,0E0,6.20271E0,5.1299663E0,9.126916E-1,3.5396652E0,1.7072396E0,1.2424393E-1,1.2847614E0,1.282264E0,2.581388E0,1.0997057E0,7.844378E-1,0E0,1.4671287E-1,6.4296865E-1,7.5137687E-1,6.265513E-1,5.125798E-1,1.1364579E0,7.911459E-1,4.4259143E-1,1.6186373E0,4.973656E-1,1.8278604E0,0E0,0E0,4.5500183E-1,2.1637698E-1,5.375806E-1,3.7415582E-1,0E0,0E0,0E0,0E0,0E0,0E0,0E0,0E0,0E0,0E0,0E0,0E0,0E0,0E0,0E0,0E0,0E0,0E0,0E0,0E0,0E0,0E0,0E0,0E0],"parents":[2147483647,0,0,2,2,3,3,4,4,5,5,6,6,7,7,8,8,9,9,10,10,11,11,12,12,14,14,15,15,16,16,17,17,18,18,19,19,20,20,21,21,22,22,23,23,24,24,27,27,28,28,29,29,30,30],"right_children":[2,-1,4,6,8,10,12,14,16,18,20,22,24,-1,26,28,30,32,34,36,38,40,42,44,46,-1,-1,48,50,52,54,-1,-1,-1,-1,-1,-1,-1,-1,-1,-1,-1,-1,-1,-1,-1,-1,-1,-1,-1,-1,-1,-1,-1,-1],"split_conditions":[1.0986123E0,5.2191922E-3,4E0,1E0,-2.96954E-2,1.7917595E0,3.871201E0,6.2027397E0,1.9123287E0,4.574711E0,1.3E1,1.609438E0,4.2341065E0,1.128165E-3,1E0,7.51E2,-1.3995804E-1,-1.2491576E-2,6.84E2,2.36438E0,1.1613692E0,8.449308E-1,2.5627089E0,2.2901328E0,2.5306842E0,-0E0,-4.391607E-3,5.2159987E-2,-6.408486E-3,-9.2553E-3,1.3976194E-1,-2.7410425E-3,2.8016268E-5,1.4783053E-3,-1.1430073E-3,-3.0549602E-3,1.0616855E-3,-1.9592557E-3,-4.8171097E-4,1.2343258E-4,3.0387058E-3,4.304019E-4,2.5483503E-3,-5.6490884E-3,-1.1346086E-3,-1.82095E-3,1.2657483E-3,-7.672195E-3,2.0705583E-3,-5.5957923E-4,-6.3287993E-3,-0E0,-8.121195E-3,1.9145509E-3,-2.2703689E-3],"split_indices":[76,0,68,5,28,76,76,65,64,77,1,76,77,0,72,60,57,35,79,64,64,64,64,64,64,0,0,34,31,55,78,0,0,0,0,0,0,0,0,0,0,0,0,0,0,0,0,0,0,0,0,0,0,0,0],"split_type":[0,0,0,0,0,0,0,0,0,0,0,0,0,0,0,0,0,0,0,0,0,0,0,0,0,0,0,0,0,0,0,0,0,0,0,0,0,0,0,0,0,0,0,0,0,0,0,0,0,0,0,0,0,0,0],"sum_hessian":[8.418E3,5.52E2,7.866E3,7.449E3,4.17E2,3.822E3,3.627E3,5.8E1,3.59E2,1.043E3,2.779E3,2.841E3,7.86E2,2.5E1,3.3E1,1.66E2,1.93E2,2.94E2,7.49E2,9.34E2,1.845E3,3.55E2,2.486E3,9.8E1,6.88E2,2.3E1,1E1,1.33E2,3.3E1,4.2E1,1.51E2,1.22E2,1.72E2,6.78E2,7.1E1,8.72E2,6.2E1,4.31E2,1.414E3,6.1E1,2.94E2,2.1E3,3.86E2,4E1,5.8E1,3.32E2,3.56E2,1.3E2,3E0,2.5E1,8E0,1E1,3.2E1,2E1,1.31E2],"tree_param":{"num_deleted":"0","num_feature":"109","num_nodes":"55","size_leaf_vector":"1"}},{"base_weights":[8.94938E-5,1.1369295E-1,-1.8439941E-2,5.063836E-3,6.0144942E-2,-5.40575E-2,1.2283631E-2,7.9693474E-2,-5.1929105E-2,-7.202617E-2,-2.1899832E-2,2.5878208E-2,-3.3035286E-2,5.2594044E-3,9.8380275E-2,-1.06530294E-1,2.0987483E-2,-6.121376E-2,-1.7797387E-1,-1.6527927E-2,-1.8855911E-1,-9.61322E-3,4.353217E-2,-7.1593314E-2,3.07314E-2,4.0769773E-3,-2.6507214E-2,1.074517E-1,-3.0824093E-2,-2.2145768E-1,-4.766847E-2,-6.1261724E-3,6.1524224E-2,-5.5662114E-2,-2.1189663E-1,-2.731756E-1,-1.4064309E-1,-8.556372E-3,-1.276927E-1,-1.0628739E-3,-2.5447005E-1,-0E0,-8.162491E-2,5.3887714E-2,5.81079E-4,-4.024665E-2,-2.2045015E-1,4.416996E-2,-2.7769107E-2,-3.4375435E-3,3.3359372E-4,-1.06029125E-4,3.5142787E-3,2.3980495E-3,-4.8697E-3,-4.439526E-4,-8.140974E-3,-4.437785E-3,1.0678057E-3,4.1600955E-3,-2.0554087E-3,-3.8940758E-3,-1.3931373E-3,6.6905736E-4,-6.90922E-3,-8.543669E-3,-0E0,-5.830669E-3,-2.1795188E-3,-1.239932E-3,1.7349109E-4,-4.612133E-3,-0E0,1.5639272E-3,-8.81756E-3,-1.164141E-3,9.4837364E-4,-3.2448762E-3,-4.4927656E-4,1.3476956E-3,2.9102264E-3,-5.051367E-4,9.0930815E-4,-3.665872E-4,-3.1259414E-3,-3.6256697E-3,-8.6827E-3,-0E0,1.7900326E-3,3.1686417E-4,-3.2494788E-3],"categories":[],"categories_nodes":[],"categories_segments":[],"categories_sizes":[],"default_left":[0,0,0,0,0,0,0,0,0,0,0,0,0,0,0,0,0,0,0,0,0,0,0,0,0,0,0,0,1,0,0,0,0,0,0,0,0,0,0,0,0,0,0,0,0,0,0,0,0,0,0,0,0,0,0,0,0,0,0,0,0,0,0,0,0,0,0,0,0,0,0,0,0,0,0,0,0,0,0,0,0,0,0,0,0,0,0,0,0,0,0],"id":2,"left_children":[1,3,5,-1,7,9,11,13,15,17,19,21,23,25,27,29,31,33,35,37,39,41,43,45,47,-1,49,51,53,55,57,-1,59,61,63,65,67,69,71,-1,73,75,77,79,81,83,85,87,89,-1,-1,-1,-1,-1,-1,-1,-1,-1,-1,-1,-1,-1,-1,-1,-1,-1,-1,-1,-1,-1,-1,-1,-1,-1,-1,-1,-1,-1,-1,-1,-1,-1,-1,-1,-1,-1,-1,-1,-1,-1,-1],"loss_changes":[1.7621958E1,3.4066E0,7.87519E0,0E0,1.3232961E0,1.904769E0,2.3759825E0,6.910877E-1,3.7094507E-1,2.3827753E0,1.0297556E0,1.8689339E0,2.1921868E0,4.6692967E-1,4.9656582E-1,2.866313E-1,3.2612392E-1,1.5545502E0,5.648637E-1,1.0039881E0,2.9656565E-1,6.965685E-1,8.7338376E-1,2.5278687E0,2.667014E-1,0E0,3.045829E-1,4.342966E-1,4.136441E-1,1.0503459E-1,3.3931756E-1,0E0,3.5848963E-1,1.2385745E0,3.3751464E-1,1.760397E-1,4.5628023E-1,5.1975745E-1,2.2764218E-1,0E0,3.5944283E-1,1.0639336E0,1.8248981E-1,5.84167E-1,2.058906E-1,8.0183E-1,5.29932E-1,1.8492061E-1,2.0678878E-1,0E0,0E0,0E0,0E0,0E0,0E0,0E0,0E0,0E0,0E0,0E0,0E0,0E0,0E0,0E0,0E0,0E0,0E0,0E0,0E0,0E0,0E0,0E0,0E0,0E0,0E0,0E0,0E0,0E0,0E0,0E0,0E0,0E0,0E0,0E0,0E0,0E0,0E0,0E0,0E0,0E0,0E0],"parents":[2147483647,0,0,1,1,2,2,4,4,5,5,6,6,7,7,8,8,9,9,10,10,11,11,12,12,13,13,14,14,15,15,16,16,17,17,18,18,19,19,20,20,21,21,22,22,23,23,24,24,26,26,27,27,28,28,29,29,30,30,32,32,33,33,34,34,35,35,36,36,37,37,38,38,40,40,41,41,42,42,43,43,44,44,45,45,46,46,47,47,48,48],"right_children":[2,4,6,-1,8,10,12,14,16,18,20,22,24,26,28,30,32,34,36,38,40,42,44,46,48,-1,50,52,54,56,58,-1,60,62,64,66,68,70,72,-1,74,76,78,80,82,84,86,88,90,-1,-1,-1,-1,-1,-1,-1,-1,-1,-1,-1,-1,-1,-1,-1,-1,-1,-1,-1,-1,-1,-1,-1,-1,-1,-1,-1,-1,-1,-1,-1,-1,-1,-1,-1,-1,-1,-1,-1,-1,-1,-1],"split_conditions":[1.3862944E0,1.0986123E0,2E1,5.063836E-3,1.843E3,4.94876E0,1E0,-4.7521774E-2,1.1E2,3E0,2.1170329E-1,4.55E1,1E0,-2.7357481E-2,7.259847E-2,-3.7053896E-3,-7.2572894E-2,2.65155E-1,2.2360171E-1,3.912023E0,1.5388829E-1,2.312E3,1.988E3,3E0,8.649315E0,4.0769773E-3,-9.086222E-4,2.3041096E0,2E0,1E0,4.5325994E0,-6.1261724E-3,2.207E3,9E0,-1.1679766E-1,2.7950685E0,1.9810952E0,5.5452056E0,1E0,-1.0628739E-3,6E-2,6.3643837E0,2.6024644E0,2.5627089E0,9.164E-1,7.8E-1,-1.7118244E-2,2.4E1,-2.8724415E-2,-3.4375435E-3,3.3359372E-4,-1.06029125E-4,3.5142787E-3,2.3980495E-3,-4.8697E-3,-4.439526E-4,-8.140974E-3,-4.437785E-3,1.0678057E-3,4.1600955E-3,-2.0554087E-3,-3.8940758E-3,-1.3931373E-3,6.6905736E-4,-6.90922E-3,-8.543669E-3,-0E0,-5.830669E-3,-2.1795188E-3,-1.239932E-3,1.7349109E-4,-4.612133E-3,-0E0,1.5639272E-3,-8.81756E-3,-1.164141E-3,9.4837364E-4,-3.2448762E-3,-4.4927656E-4,1.3476956E-3,2.9102264E-3,-5.051367E-4,9.0930815E-4,-3.665872E-4,-3.1259414E-3,-3.6256697E-3,-8.6827E-3,-0E0,1.7900326E-3,3.1686417E-4,-3.2494788E-3],"split_indices":[76,76,1,0,25,77,72,32,60,70,42,101,67,56,42,40,44,42,27,76,80,75,75,70,65,0,83,65,23,11,77,0,75,1,86,64,64,65,67,0,106,65,64,64,61,106,86,1,42,0,0,0,0,0,0,0,0,0,0,0,0,0,0,0,0,0,0,0,0,0,0,0,0,0,0,0,0,0,0,0,0,0,0,0,0,0,0,0,0,0,0],"split_type":[0,0,0,0,0,0,0,0,0,0,0,0,0,0,0,0,0,0,0,0,0,0,0,0,0,0,0,0,0,0,0,0,0,0,0,0,0,0,0,0,0,0,0,0,0,0,0,0,0,0,0,0,0,0,0,0,0,0,0,0,0,0,0,0,0,0,0,0,0,0,0,0,0,0,0,0,0,0,0,0,0,0,0,0,0,0,0,0,0,0,0],"sum_hessian":[8.36E3,1.173E3,7.187E3,5.75E2,5.98E2,3.331E3,3.856E3,5.11E2,8.7E1,2.132E3,1.199E3,2.97E3,8.86E2,1.05E2,4.06E2,5.1E1,3.6E1,1.938E3,1.94E2,1.164E3,3.5E1,9.83E2,1.987E3,5.54E2,3.32E2,2.1E1,8.4E1,3.81E2,2.5E1,1.5E1,3.6E1,4E0,3.2E1,1.872E3,6.6E1,5.1E1,1.43E2,1.089E3,7.5E1,1.2E1,2.3E1,8.66E2,1.17E2,1.597E3,3.9E2,4.6E2,9.4E1,2.73E2,5.9E1,2.6E1,5.8E1,2.9E1,3.52E2,1.3E1,1.2E1,4E0,1.1E1,1.7E1,1.9E1,2.1E1,1.1E1,2.03E2,1.669E3,4E0,6.2E1,4.9E1,2E0,7.7E1,6.6E1,3.35E2,7.54E2,6.1E1,1.4E1,2E0,2.1E1,3.86E2,4.8E2,8.1E1,3.6E1,1.328E3,2.69E2,2.42E2,1.48E2,3.23E2,1.37E2,4.1E1,5.3E1,7.2E1,2.01E2,3.9E1,2E1],"tree_param":{"num_deleted":"0","num_feature":"109","num_nodes":"91","size_leaf_vector":"1"}},{"base_weights":[1.8907362E-3,8.364681E-2,-7.4681905E-3,1.4967662E-1,5.6606997E-2,6.959909E-4,-9.384928E-2,1.5875052E-1,2.7926713E-2,1.1582265E-1,-4.4067305E-2,-5.09309E-2,1.8287048E-2,-1.3557425E-1,1.6075948E-2,4.8248474E-3,-0E0,3.95591E-3,-9.180621E-2,1.4433295E-1,6.113529E-2,-2.6568789E-2,-2.0398761E-1,-4.360983E-2,-1.9060974E-1,3.250917E-2,-9.738835E-3,-4.8510913E-2,-1.8162973E-1,2.80657E-3,-0E0,2.468605E-3,-6.72688E-3,-2.617253E-3,4.421689E-3,7.670816E-2,-1.23705655E-1,4.1634195E-2,-5.207412E-2,-2.6445106E-1,1.3857968E-4,-1.28232E-1,-3.2440655E-2,-2.0755486E-1,9.965303E-4,4.7284767E-2,-1.1057648E-2,-5.7052923E-3,-1.4012338E-1,-2.0394528E-1,-2.6777985E-2,-2.2392313E-1,-1.1519905E-1,-6.998656E-2,2.63233E-2,3.058238E-3,-4.5181368E-4,-6.437533E-3,5.9435907E-4,-2.9045902E-3,2.6223802E-3,-1.0381086E-3,-5.5796388E-3,-9.049316E-3,-0E0,-5.013805E-3,-7.5443403E-4,-6.6989317E-4,-2.484303E-3,-6.7217187E-3,-0E0,2.8645946E-3,1.1199936E-3,-2.1891987E-3,1.1349987E-3,4.816615E-5,-2.373824E-3,1.5256648E-4,-6.059249E-3,-0E0,-7.885733E-3,-0E0,-5.2411975E-3,-4.66429E-3,-8.071805E-3,-6.2286896E-3,-1.5325478E-3,-7.309718E-3,-8.2798384E-4,2.055665E-3,-3.830502E-4],"categories":[],"categories_nodes":[],"categories_segments":[],"categories_sizes":[],"default_left":[0,0,1,0,0,0,0,0,0,0,0,0,0,0,0,0,0,0,0,0,0,0,0,0,0,0,0,0,0,0,0,0,0,0,0,0,0,0,0,0,0,0,0,0,0,0,0,0,0,0,0,0,0,0,0,0,0,0,0,0,0,0,0,0,0,0,0,0,0,0,0,0,0,0,0,0,0,0,0,0,0,0,0,0,0,0,0,0,0,0,0],"id":3,"left_children":[1,3,5,7,9,11,13,15,17,19,21,23,25,27,29,-1,-1,-1,31,33,35,37,39,41,43,45,47,49,51,-1,53,-1,-1,-1,-1,55,57,59,61,63,-1,65,67,69,-1,71,73,75,77,79,81,83,85,87,89,-1,-1,-1,-1,-1,-1,-1,-1,-1,-1,-1,-1,-1,-1,-1,-1,-1,-1,-1,-1,-1,-1,-1,-1,-1,-1,-1,-1,-1,-1,-1,-1,-1,-1,-1,-1],"loss_changes":[6.436505E0,1.4915481E0,5.3278275E0,2.3154259E-1,3.6999102E0,6.240266E0,3.0179129E0,1.0045767E-1,2.7392104E-1,5.566993E-1,5.859728E-1,1.7278194E0,2.0509636E0,1.8448191E0,2.3550393E-1,0E0,0E0,0E0,2.6262614E-1,2.0668793E-1,3.997969E-1,3.6686182E-1,3.208298E-1,1.5329735E0,3.6628604E-1,2.2031066E0,8.766518E-1,5.1211077E-1,7.6713467E-1,0E0,2.809812E-1,0E0,0E0,0E0,0E0,3.1839502E-1,1.770917E-1,3.5814354E-1,3.0891594E-1,1.8016231E-1,0E0,7.231066E-1,7.260053E-1,2.7002716E-1,0E0,1.1924548E0,2.617292E0,9.148658E-1,4.9147695E-1,2.516333E-1,5.7061166E-1,4.3706608E-1,6.715001E-1,2.4832986E-1,1.8904024E-1,0E0,0E0,0E0,0E0,0E0,0E0,0E0,0E0,0E0,0E0,0E0,0E0,0E0,0E0,0E0,0E0,0E0,0E0,0E0,0E0,0E0,0E0,0E0,0E0,0E0,0E0,0E0,0E0,0E0,0E0,0E0,0E0,0E0,0E0,0E0,0E0],"parents":[2147483647,0,0,1,1,2,2,3,3,4,4,5,5,6,6,7,7,8,8,9,9,10,10,11,11,12,12,13,13,14,14,18,18,19,19,20,20,21,21,22,22,23,23,24,24,25,25,26,26,27,27,28,28,30,30,35,35,36,36,37,37,38,38,39,39,41,41,42,42,43,43,45,45,46,46,47,47,48,48,49,49,50,50,51,51,52,52,53,53,54,54],"right_children":[2,4,6,8,10,12,14,16,18,20,22,24,26,28,30,-1,-1,-1,32,34,36,38,40,42,44,46,48,50,52,-1,54,-1,-1,-1,-1,56,58,60,62,64,-1,66,68,70,-1,72,74,76,78,80,82,84,86,88,90,-1,-1,-1,-1,-1,-1,-1,-1,-1,-1,-1,-1,-1,-1,-1,-1,-1,-1,-1,-1,-1,-1,-1,-1,-1,-1,-1,-1,-1,-1,-1,-1,-1,-1,-1,-1],"split_conditions":[5.826891E-2,2.9558802E-2,3E0,2.34E3,1.626E3,1.5E1,1E0,7E-1,1.9802628E-2,1.2E3,1.0515313E-1,1.071363E-1,8.87E2,2.8517893E-1,3.074847E-1,4.8248474E-3,-0E0,3.95591E-3,-6.3713215E-2,1.55E2,9.121337E-2,-1.375746E-2,6.239478E-2,7.1E1,8.73E2,7.2270596E-1,1.4701799E-1,-6.534627E-2,3.2109832E-3,2.80657E-3,-2.2355823E-2,2.468605E-3,-6.72688E-3,-2.617253E-3,4.421689E-3,1E0,1.1379647E-2,8.1E1,6.84E2,7.5887685E-4,1.3857968E-4,7.98E2,1E0,1.1885004E-1,9.965303E-4,1.4842E-1,1E0,1E0,1.11E2,5.589041E-1,1.6848411E-2,1E0,8.6E1,4.588E-1,5E0,3.058238E-3,-4.5181368E-4,-6.437533E-3,5.9435907E-4,-2.9045902E-3,2.6223802E-3,-1.0381086E-3,-5.5796388E-3,-9.049316E-3,-0E0,-5.013805E-3,-7.5443403E-4,-6.6989317E-4,-2.484303E-3,-6.7217187E-3,-0E0,2.8645946E-3,1.1199936E-3,-2.1891987E-3,1.1349987E-3,4.816615E-5,-2.373824E-3,1.5256648E-4,-6.059249E-3,-0E0,-7.885733E-3,-0E0,-5.2411975E-3,-4.66429E-3,-8.071805E-3,-6.2286896E-3,-1.5325478E-3,-7.309718E-3,-8.2798384E-4,2.055665E-3,-3.830502E-4],"split_indices":[78,78,70,25,25,1,67,62,78,25,29,42,25,78,78,0,0,0,55,25,84,53,45,100,79,78,53,39,58,0,81,0,0,0,0,6,36,100,79,82,0,47,72,46,0,78,67,107,100,99,56,72,100,61,68,0,0,0,0,0,0,0,0,0,0,0,0,0,0,0,0,0,0,0,0,0,0,0,0,0,0,0,0,0,0,0,0,0,0,0,0],"split_type":[0,0,0,0,0,0,0,0,0,0,0,0,0,0,0,0,0,0,0,0,0,0,0,0,0,0,0,0,0,0,0,0,0,0,0,0,0,0,0,0,0,0,0,0,0,0,0,0,0,0,0,0,0,0,0,0,0,0,0,0,0,0,0,0,0,0,0,0,0,0,0,0,0,0,0,0,0,0,0,0,0,0,0,0,0,0,0,0,0,0,0],"sum_hessian":[8.39E3,8.63E2,7.527E3,2.47E2,6.16E2,6.876E3,6.51E2,2.28E2,1.9E1,3.89E2,2.27E2,1.744E3,5.132E3,4.73E2,1.78E2,2.26E2,2E0,1.1E1,8E0,2.52E2,1.37E2,2.07E2,2E1,1.66E3,8.4E1,3.409E3,1.723E3,1.66E2,3.07E2,3.1E1,1.47E2,3E0,5E0,2E0,2.5E2,1.28E2,9E0,5.4E1,1.53E2,1.6E1,4E0,1.9E2,1.47E3,7.9E1,5E0,2.549E3,8.6E2,1.674E3,4.9E1,1.8E1,1.48E2,1.84E2,1.23E2,4.1E1,1.06E2,1.02E2,2.6E1,6E0,3E0,1.2E1,4.2E1,1.38E2,1.5E1,1.4E1,2E0,1.36E2,5.4E1,1.229E3,2.41E2,7.3E1,6E0,4.31E2,2.118E3,3.81E2,4.79E2,1.521E3,1.53E2,1.4E1,3.5E1,4E0,1.4E1,1.27E2,2.1E1,7.7E1,1.07E2,4.8E1,7.5E1,6E0,3.5E1,5.3E1,5.3E1],"tree_param":{"num_deleted":"0","num_feature":"109","num_nodes":"91","size_leaf_vector":"1"}},{"base_weights":[1.5046739E-3,1.1092839E-1,-1.6159493E-2,4.808235E-3,6.0499687E-2,-4.9220297E-2,1.2572258E-2,7.512193E-2,-1.02602504E-1,-4.0172238E-2,-1.4372681E-1,2.0804763E-2,-7.376161E-2,1.0004628E-2,8.996487E-2,5.1360995E-2,-1.7540738E-1,-6.215877E-2,-9.707409E-3,-6.0140777E-2,-1.7146401E-1,-1.2352487E-2,4.030214E-2,-1.116519E-2,-1.2607266E-1,1.1858272E-1,-4.0214404E-2,1.0007835E-1,-1.8740933E-2,-6.428777E-2,4.05668E-3,-2.0782846E-1,2.5999433E-4,-5.7364907E-2,-1.968988E-1,-1.3896646E-3,-1.6070269E-1,-1.358683E-1,3.2938174E-3,-1.8205452E-1,7.2086486E-4,-2.64868E-2,2.878764E-2,5.2886646E-2,8.245922E-3,4.5081563E-2,-5.4514825E-2,-1.9662787E-1,-2.1760829E-2,4.7572E-3,-0E0,2.7607612E-3,-2.453186E-3,3.1863323E-3,-4.540318E-3,8.278595E-4,-7.1325013E-3,1.4306527E-3,-5.365622E-3,-7.5153825E-3,2.5575233E-4,-1.4051453E-3,-3.277515E-3,-8.066099E-3,-2.7903607E-3,-4.7289595E-4,1.1376315E-3,-1.9929276E-3,-7.546723E-3,-0E0,-5.990755E-3,-5.0498075E-3,1.9123973E-3,-6.2608733E-3,-2.5613727E-3,-2.5540518E-4,-2.9556185E-3,-1.0452734E-3,1.1981255E-3,1.7542827E-3,-4.5426138E-4,-1.2055192E-3,5.1447505E-4,-1.1154462E-3,2.4263186E-3,-1.0337044E-3,-6.7698667E-3,-7.234136E-3,-1.8748952E-3,6.668258E-5,-2.6444425E-3],"categories":[],"categories_nodes":[],"categories_segments":[],"categories_sizes":[],"default_left":[0,0,0,0,0,0,1,0,0,0,0,0,0,0,0,0,0,0,0,0,0,0,0,0,0,0,0,0,0,0,0,0,0,0,0,0,0,0,0,0,0,0,0,0,0,0,0,0,0,0,0,0,0,0,0,0,0,0,0,0,0,0,0,0,0,0,0,0,0,0,0,0,0,0,0,0,0,0,0,0,0,0,0,0,0,0,0,0,0,0,0],"id":4,"left_children":[1,3,5,-1,7,9,11,13,15,17,19,21,23,25,27,29,31,33,35,37,39,41,43,45,47,49,51,53,55,57,-1,59,-1,61,63,65,67,69,71,73,-1,75,77,79,81,83,85,87,89,-1,-1,-1,-1,-1,-1,-1,-1,-1,-1,-1,-1,-1,-1,-1,-1,-1,-1,-1,-1,-1,-1,-1,-1,-1,-1,-1,-1,-1,-1,-1,-1,-1,-1,-1,-1,-1,-1,-1,-1,-1,-1],"loss_changes":[1.6228682E1,2.8487387E0,6.865553E0,0E0,1.3898683E0,2.8296003E0,2.7348645E0,4.962139E-1,5.646988E-1,2.0413723E0,6.1643505E-1,2.2864494E0,1.065196E0,5.841134E-1,4.9477577E-1,1.72036E-1,2.401272E-1,1.0848236E0,1.5902393E0,3.9309728E-1,4.8446846E-1,7.5824916E-1,8.84922E-1,3.832563E-1,1.2774134E0,1.7789653E-1,3.9277658E-1,6.242492E-1,4.1726375E-1,1.160062E-1,0E0,3.206191E-1,0E0,9.0273666E-1,3.4024358E-1,6.896953E-1,4.8335433E-1,3.3663684E-1,4.1940808E-1,4.508829E-1,0E0,1.238869E0,2.3695505E-1,6.155324E-1,2.6924527E-1,2.072847E-1,2.4829093E-1,5.55223E-1,1.3715394E-1,0E0,0E0,0E0,0E0,0E0,0E0,0E0,0E0,0E0,0E0,0E0,0E0,0E0,0E0,0E0,0E0,0E0,0E0,0E0,0E0,0E0,0E0,0E0,0E0,0E0,0E0,0E0,0E0,0E0,0E0,0E0,0E0,0E0,0E0,0E0,0E0,0E0,0E0,0E0,0E0,0E0,0E0],"parents":[2147483647,0,0,1,1,2,2,4,4,5,5,6,6,7,7,8,8,9,9,10,10,11,11,12,12,13,13,14,14,15,15,16,16,17,17,18,18,19,19,20,20,21,21,22,22,23,23,24,24,25,25,26,26,27,27,28,28,29,29,31,31,33,33,34,34,35,35,36,36,37,37,38,38,39,39,41,41,42,42,43,43,44,44,45,45,46,46,47,47,48,48],"right_children":[2,4,6,-1,8,10,12,14,16,18,20,22,24,26,28,30,32,34,36,38,40,42,44,46,48,50,52,54,56,58,-1,60,-1,62,64,66,68,70,72,74,-1,76,78,80,82,84,86,88,90,-1,-1,-1,-1,-1,-1,-1,-1,-1,-1,-1,-1,-1,-1,-1,-1,-1,-1,-1,-1,-1,-1,-1,-1,-1,-1,-1,-1,-1,-1,-1,-1,-1,-1,-1,-1,-1,-1,-1,-1,-1,-1],"split_conditions":[1.3862944E0,2E0,2E1,4.808235E-3,2.011E3,3E0,3E0,-4.7521774E-2,-1.55915E-2,5.3333332E1,1.9885086E-1,4.75E1,1E0,-1.1204309E-3,1E0,-2.1450358E-2,6.391624E-2,2.1170329E-1,1.071363E-1,-1.9389024E-2,5.8931664E-2,1E0,1.8E3,1.275E3,1E0,3.2813318E-2,-8.937001E-2,7.2349954E0,4E0,-2.4721188E-2,4.05668E-3,4.5803487E-2,2.5999433E-4,3.4965076E0,-8.662631E-3,1.8567116E0,3.1940788E-2,-1.8284632E-2,-1.1125109E-2,1.795539E-2,7.2086486E-4,6.312718E-1,2.2727273E-1,5.4074712E-2,-4.250581E-2,2.4E1,9.87E-1,9.97E-1,4E0,4.7572E-3,-0E0,2.7607612E-3,-2.453186E-3,3.1863323E-3,-4.540318E-3,8.278595E-4,-7.1325013E-3,1.4306527E-3,-5.365622E-3,-7.5153825E-3,2.5575233E-4,-1.4051453E-3,-3.277515E-3,-8.066099E-3,-2.7903607E-3,-4.7289595E-4,1.1376315E-3,-1.9929276E-3,-7.546723E-3,-0E0,-5.990755E-3,-5.0498075E-3,1.9123973E-3,-6.2608733E-3,-2.5613727E-3,-2.5540518E-4,-2.9556185E-3,-1.0452734E-3,1.1981255E-3,1.7542827E-3,-4.5426138E-4,-1.2055192E-3,5.1447505E-4,-1.1154462E-3,2.4263186E-3,-1.0337044E-3,-6.7698667E-3,-7.234136E-3,-1.8748952E-3,6.668258E-5,-2.6444425E-3],"split_indices":[76,97,1,0,25,68,68,32,56,101,78,101,72,56,3,43,93,42,42,32,51,67,75,75,67,84,38,48,68,32,0,44,0,76,92,64,44,56,92,92,0,78,105,42,32,1,26,63,0,0,0,0,0,0,0,0,0,0,0,0,0,0,0,0,0,0,0,0,0,0,0,0,0,0,0,0,0,0,0,0,0,0,0,0,0,0,0,0,0,0,0],"split_type":[0,0,0,0,0,0,0,0,0,0,0,0,0,0,0,0,0,0,0,0,0,0,0,0,0,0,0,0,0,0,0,0,0,0,0,0,0,0,0,0,0,0,0,0,0,0,0,0,0,0,0,0,0,0,0,0,0,0,0,0,0,0,0,0,0,0,0,0,0,0,0,0,0,0,0,0,0,0,0,0,0,0,0,0,0,0,0,0,0,0,0],"sum_hessian":[8.384E3,1.166E3,7.218E3,5.86E2,5.8E2,3.359E3,3.859E3,5.34E2,4.6E1,3.069E3,2.9E2,3.526E3,3.33E2,1.02E2,4.32E2,1.4E1,3.2E1,1.778E3,1.291E3,7.5E1,2.15E2,1.302E3,2.224E3,1.54E2,1.79E2,3.3E1,6.9E1,3.97E2,3.5E1,5E0,9E0,2.8E1,4E0,1.72E3,5.8E1,1.226E3,6.5E1,3.5E1,4E1,2.05E2,1E1,9.73E2,3.29E2,1.592E3,6.32E2,6.5E1,8.9E1,1.05E2,7.4E1,2.5E1,8E0,1.5E1,5.4E1,3.89E2,8E0,2.9E1,6E0,2E0,3E0,2.4E1,4E0,1.435E3,2.85E2,3.2E1,2.6E1,9.02E2,3.24E2,3.4E1,3.1E1,1.1E1,2.4E1,9E0,3.1E1,1.58E2,4.7E1,7.82E2,1.91E2,4.6E1,2.83E2,1.474E3,1.18E2,9.4E1,5.38E2,1.8E1,4.7E1,8.2E1,7E0,7.7E1,2.8E1,5.3E1,2.1E1],"tree_param":{"num_deleted":"0","num_feature":"109","num_nodes":"91","size_leaf_vector":"1"}},{"base_weights":[7.2140935E-8,4.663857E-3,-1.1629762E-2,-2.980778E-3,-1.0256349E-1,6.9403043E-3,-6.325853E-2,-1.487343E-1,-4.351675E-2,4.2760286E-2,-6.8124053E-3,-5.2105147E-2,-1.802865E-1,-5.0992057E-2,-1.8939677E-1,-0E0,-6.7952104E-2,-0E0,5.5650644E-2,-2.2763947E-2,4.7586523E-2,-4.0842142E-2,-1.1476816E-1,9.4122253E-4,-1.962465E-1,3.01716E-2,-1.07185274E-1,-2.1747008E-1,-9.4323575E-2,1.1028719E-2,-5.07634E-3,-1.4411505E-1,-2.1032412E-2,3.8296782E-4,-3.8521327E-3,1.858272E-3,-2.6065155E-4,-2.494829E-4,-2.9183791E-3,2.130344E-3,5.8652397E-4,1.8707893E-5,-1.7639191E-3,-6.3599036E-3,-2.200804E-3,-4.2625093E-3,-9.05718E-3,-1.1088017E-3,3.4125964E-3,-4.115462E-3,9.0190535E-4,-3.193845E-3,-7.047186E-3,-6.938072E-3,-1.0464893E-3,-8.481608E-4,1.4417485E-3,-1.8781419E-3,-6.6593224E-3,-1.6508986E-4,-5.1845615E-3],"categories":[],"categories_nodes":[],"categories_segments":[],"categories_sizes":[],"default_left":[0,0,0,0,0,0,0,0,0,0,0,0,0,0,0,0,0,0,0,0,0,0,0,0,0,0,0,0,0,0,0,0,0,0,0,0,0,0,0,0,0,0,0,0,0,0,0,0,0,0,0,0,0,0,0,0,0,0,0,0,0],"id":5,"left_children":[1,-1,3,5,7,9,11,13,15,17,19,21,23,25,27,29,31,33,35,37,39,41,43,-1,45,47,49,51,53,55,-1,57,59,-1,-1,-1,-1,-1,-1,-1,-1,-1,-1,-1,-1,-1,-1,-1,-1,-1,-1,-1,-1,-1,-1,-1,-1,-1,-1,-1,-1],"loss_changes":[1.5251002E1,0E0,6.1384277E0,4.290747E0,1.8027158E0,3.033321E0,1.2660408E0,1.4434662E0,3.2633162E-1,9.436281E-1,3.8449655E0,6.190584E-1,3.3155537E-1,5.401322E-1,6.2085056E-1,1.9007383E-1,6.573151E-1,6.557158E-1,5.428877E-1,3.6740475E0,6.390586E-1,6.0149086E-1,4.8066545E-1,0E0,3.244202E-1,2.7963072E-1,3.112706E-1,2.93087E-1,4.596845E-1,1.5577358E-1,0E0,3.846308E-1,2.5359565E-1,0E0,0E0,0E0,0E0,0E0,0E0,0E0,0E0,0E0,0E0,0E0,0E0,0E0,0E0,0E0,0E0,0E0,0E0,0E0,0E0,0E0,0E0,0E0,0E0,0E0,0E0,0E0,0E0],"parents":[2147483647,0,0,2,2,3,3,4,4,5,5,6,6,7,7,8,8,9,9,10,10,11,11,12,12,13,13,14,14,15,15,16,16,17,17,18,18,19,19,20,20,21,21,22,22,24,24,25,25,26,26,27,27,28,28,29,29,31,31,32,32],"right_children":[2,-1,4,6,8,10,12,14,16,18,20,22,24,26,28,30,32,34,36,38,40,42,44,-1,46,48,50,52,54,56,-1,58,60,-1,-1,-1,-1,-1,-1,-1,-1,-1,-1,-1,-1,-1,-1,-1,-1,-1,-1,-1,-1,-1,-1,-1,-1,-1,-1,-1,-1],"split_conditions":[1.0986123E0,4.663857E-3,3E0,1.563E3,2.222739E0,2.0794415E0,1.19967766E-1,2.7E-1,5.7E-1,4.139726E0,1E0,2.2E1,-1.1293559E-1,-1.2046701E-2,1.696211E-2,9.946E-1,1E0,1.3017417E-1,3.8E1,2.4E1,7.6080585E-1,1.7917595E0,1.1586294E0,9.4122253E-4,8.2071E-1,-5.3539993E-3,2.25E2,-2.1309871E-2,3.0739727E0,4.5E0,-5.07634E-3,2.4435608E0,8.8811174E-2,3.8296782E-4,-3.8521327E-3,1.858272E-3,-2.6065155E-4,-2.494829E-4,-2.9183791E-3,2.130344E-3,5.8652397E-4,1.8707893E-5,-1.7639191E-3,-6.3599036E-3,-2.200804E-3,-4.2625093E-3,-9.05718E-3,-1.1088017E-3,3.4125964E-3,-4.115462E-3,9.0190535E-4,-3.193845E-3,-7.047186E-3,-6.938072E-3,-1.0464893E-3,-8.481608E-4,1.4417485E-3,-1.8781419E-3,-6.6593224E-3,-1.6508986E-4,-5.1845615E-3],"split_indices":[76,0,68,25,64,76,42,106,106,65,67,102,86,52,58,26,67,87,102,102,78,76,64,0,108,35,100,28,65,2,0,64,85,0,0,0,0,0,0,0,0,0,0,0,0,0,0,0,0,0,0,0,0,0,0,0,0,0,0,0,0],"split_type":[0,0,0,0,0,0,0,0,0,0,0,0,0,0,0,0,0,0,0,0,0,0,0,0,0,0,0,0,0,0,0,0,0,0,0,0,0,0,0,0,0,0,0,0,0,0,0,0,0,0,0,0,0,0,0,0,0,0,0,0,0],"sum_hessian":[8.417E3,5.86E2,7.831E3,7.154E3,6.77E2,6.141E3,1.013E3,3.77E2,3E2,1.707E3,4.434E3,9.28E2,8.5E1,1.13E2,2.64E2,1.07E2,1.93E2,3.95E2,1.312E3,3.432E3,1.002E3,7.91E2,1.37E2,5E0,8E1,4.5E1,6.8E1,2.01E2,6.3E1,1.02E2,5E0,7.1E1,1.22E2,3.6E2,3.5E1,1.198E3,1.14E2,2.878E3,5.54E2,5.41E2,4.61E2,2.36E2,5.55E2,3.8E1,9.9E1,5.6E1,2.4E1,2.4E1,2.1E1,5.7E1,1.1E1,3E1,1.71E2,1.7E1,4.6E1,4.7E1,5.5E1,3.7E1,3.4E1,1.13E2,9E0],"tree_param":{"num_deleted":"0","num_feature":"109","num_nodes":"61","size_leaf_vector":"1"}},{"base_weights":[-7.503674E-4,4.5228223E-3,-1.2005407E-2,-3.279288E-2,2.3789471E-2,-8.525155E-2,-1.3655679E-2,2.973688E-2,-9.408328E-2,-5.4991156E-2,-1.2264837E-1,3.5788983E-2,-2.8665906E-2,6.660693E-3,5.4921314E-2,-6.945095E-2,-1.03109805E-2,-3.0292276E-2,-1.15726635E-1,-1.4914611E-1,-2.5234604E-2,5.7937916E-2,-2.9249677E-2,-3.962041E-2,4.232482E-2,-6.0144085E-3,4.388339E-2,6.908753E-2,1.5222856E-2,-8.278045E-3,-4.104625E-2,5.5323716E-4,-1.5332637E-3,-3.8225683E-3,1.6295558E-3,-3.4102043E-3,-6.1513903E-3,2.6853906E-4,-2.2739193E-3,-0E0,2.391694E-3,-0E0,-4.1401847E-3,-9.887941E-4,-4.8149987E-3,1.8351497E-3,2.021528E-4,4.7174082E-4,-2.1676123E-3,-2.996399E-3,1.4766296E-3,-1.4941331E-3,2.1495267E-3,-1.16369076E-4,1.2676002E-3,5.1911175E-4,-2.3171687E-3],"categories":[],"categories_nodes":[],"categories_segments":[],"categories_sizes":[],"default_left":[0,0,0,0,1,0,0,0,0,0,0,0,0,0,0,0,0,0,0,0,0,0,0,0,0,0,0,0,0,0,0,0,0,0,0,0,0,0,0,0,0,0,0,0,0,0,0,0,0,0,0,0,0,0,0,0,0],"id":6,"left_children":[1,-1,3,5,7,9,11,13,15,17,19,21,23,25,27,29,-1,31,33,35,37,39,41,43,45,47,49,51,53,-1,55,-1,-1,-1,-1,-1,-1,-1,-1,-1,-1,-1,-1,-1,-1,-1,-1,-1,-1,-1,-1,-1,-1,-1,-1,-1,-1],"loss_changes":[1.4261458E1,0E0,5.807493E0,4.9373455E0,1.9976987E0,1.4469767E0,2.688857E0,1.5727675E0,7.261685E-1,1.0664613E0,1.4711514E0,1.2195508E0,2.1658776E0,6.8218917E-1,7.130778E-1,6.631898E-1,0E0,5.4045993E-1,4.388616E-1,8.16864E-1,2.357812E-1,7.9676104E-1,6.6027355E-1,1.8987076E0,2.3421323E-1,1.54366E0,2.77539E-1,2.9945707E-1,1.8714191E-1,0E0,2.5265157E-1,0E0,0E0,0E0,0E0,0E0,0E0,0E0,0E0,0E0,0E0,0E0,0E0,0E0,0E0,0E0,0E0,0E0,0E0,0E0,0E0,0E0,0E0,0E0,0E0,0E0,0E0],"parents":[2147483647,0,0,2,2,3,3,4,4,5,5,6,6,7,7,8,8,9,9,10,10,11,11,12,12,13,13,14,14,15,15,17,17,18,18,19,19,20,20,21,21,22,22,23,23,24,24,25,25,26,26,27,27,28,28,30,30],"right_children":[2,-1,4,6,8,10,12,14,16,18,20,22,24,26,28,30,-1,32,34,36,38,40,42,44,46,48,50,52,54,-1,56,-1,-1,-1,-1,-1,-1,-1,-1,-1,-1,-1,-1,-1,-1,-1,-1,-1,-1,-1,-1,-1,-1,-1,-1,-1,-1],"split_conditions":[1.0986123E0,4.5228223E-3,2.5E1,3.9E1,4E0,1.3E1,5E0,5.45E1,1.071363E-1,2E0,1E0,1.609E3,1E0,1E0,1.792E3,-7.369083E-2,-1.03109805E-2,1E0,2.827367E0,5.7661337E-1,9.7E-1,1.9077756E0,3.8534444E-2,4E0,1E0,5.3062826E-1,1.82E2,-1.5878049E-1,3.669762E-2,-8.278045E-3,2E0,5.5323716E-4,-1.5332637E-3,-3.8225683E-3,1.6295558E-3,-3.4102043E-3,-6.1513903E-3,2.6853906E-4,-2.2739193E-3,-0E0,2.391694E-3,-0E0,-4.1401847E-3,-9.887941E-4,-4.8149987E-3,1.8351497E-3,2.021528E-4,4.7174082E-4,-2.1676123E-3,-2.996399E-3,1.4766296E-3,-1.4941331E-3,2.1495267E-3,-1.16369076E-4,1.2676002E-3,5.1911175E-4,-2.3171687E-3],"split_indices":[76,0,1,101,68,97,97,101,42,107,67,75,67,67,75,83,0,11,64,78,62,48,42,70,72,78,75,91,44,0,23,0,0,0,0,0,0,0,0,0,0,0,0,0,0,0,0,0,0,0,0,0,0,0,0,0,0],"split_type":[0,0,0,0,0,0,0,0,0,0,0,0,0,0,0,0,0,0,0,0,0,0,0,0,0,0,0,0,0,0,0,0,0,0,0,0,0,0,0,0,0,0,0,0,0,0,0,0,0,0,0,0,0,0,0,0,0],"sum_hessian":[8.377E3,5.77E2,7.8E3,4.938E3,2.862E3,1.316E3,3.622E3,2.727E3,1.35E2,7.32E2,5.84E2,8.4E2,2.782E3,1.428E3,1.299E3,1.25E2,1E1,5.24E2,2.08E2,4.57E2,1.27E2,6.29E2,2.11E2,2.413E3,3.69E2,1.062E3,3.66E2,9.53E2,3.46E2,1.3E1,1.12E2,1.54E2,3.7E2,1.96E2,1.2E1,2.84E2,1.73E2,7.4E1,5.3E1,1.72E2,4.57E2,1.68E2,4.3E1,2.29E3,1.23E2,2.37E2,1.32E2,7.98E2,2.64E2,1.1E1,3.55E2,1.8E1,9.35E2,1.99E2,1.47E2,4.1E1,7.1E1],"tree_param":{"num_deleted":"0","num_feature":"109","num_nodes":"57","size_leaf_vector":"1"}},{"base_weights":[1.431369E-4,9.9211514E-2,-1.5317082E-2,4.3893447E-3,5.334756E-2,-4.6118475E-2,1.1027877E-2,-1.8069891E-2,7.446252E-2,-8.908942E-2,-2.8832266E-2,1.7350623E-2,-1.0800414E-1,3.6699988E-3,-1.850138E-1,-3.7460826E-2,8.2182E-2,-3.5729717E-2,-1.1335812E-1,-2.3446616E-2,-1.3759331E-1,-6.0103636E-2,2.259931E-2,-1.7602925E-1,-3.8726237E-2,-8.67535E-2,4.1646916E-2,-7.0644403E-3,1.3744828E-3,-1.0990524E-1,2.5111332E-3,8.573274E-2,-1.09483175E-1,-1.1712799E-1,-1.5583055E-2,-1.2195828E-1,1.7092564E-3,-7.5767964E-2,-1.473454E-2,-7.501734E-2,-2.162976E-1,-2.2973262E-1,-4.6325743E-2,1.2862787E-2,5.897994E-2,-2.5093666E-1,-7.4870504E-2,-2.1561572E-1,-2.1994652E-3,1.0499419E-3,-5.012534E-3,-5.241137E-3,1.997117E-3,1.2189241E-3,-5.9152786E-3,2.8625552E-3,-8.226034E-4,-6.44404E-3,1.2064513E-3,-1.2416476E-3,-6.861089E-3,2.2833084E-3,-1.0568359E-3,-2.686864E-3,-5.1154015E-3,-3.3208462E-3,1.2929327E-3,1.4283966E-4,-2.9169712E-3,-2.0782209E-4,-2.1821775E-3,-5.8173756E-3,-6.1526074E-4,-8.308967E-3,-3.2655706E-3,-8.765301E-3,-0E0,2.5494522E-3,-1.9435311E-3,7.974263E-4,-6.4415194E-4,2.1447837E-3,7.6354074E-4,-0E0,-8.3082905E-3,-5.4274104E-3,-1.8336442E-4,-9.233177E-3,3.568317E-4,9.743836E-4,-1.5336942E-3],"categories":[],"categories_nodes":[],"categories_segments":[],"categories_sizes":[],"default_left":[0,0,0,0,0,0,0,0,0,0,0,0,0,0,0,0,0,0,0,0,0,0,0,0,0,0,0,0,0,0,0,0,0,0,0,0,0,0,0,0,0,0,0,0,0,0,0,0,0,0,0,0,0,0,0,0,0,0,0,0,0,0,0,0,0,0,0,0,0,0,0,0,0,0,0,0,0,0,0,0,0,0,0,0,0,0,0,0,0,0,0],"id":7,"left_children":[1,3,5,-1,7,9,11,13,15,17,19,21,23,25,27,29,31,33,35,37,39,41,43,45,47,49,51,-1,-1,53,-1,55,57,59,61,63,65,67,69,71,73,75,77,79,81,83,85,87,89,-1,-1,-1,-1,-1,-1,-1,-1,-1,-1,-1,-1,-1,-1,-1,-1,-1,-1,-1,-1,-1,-1,-1,-1,-1,-1,-1,-1,-1,-1,-1,-1,-1,-1,-1,-1,-1,-1,-1,-1,-1,-1],"loss_changes":[1.2899823E1,2.4072704E0,5.9103613E0,0E0,8.8782084E-1,2.4670782E0,2.9329915E0,5.1325333E-1,4.016068E-1,1.2074585E0,1.3692496E0,1.5077333E0,8.7348795E-1,3.9434576E-1,2.3960018E-1,2.638121E-1,2.9452372E-1,4.7012618E-1,6.736727E-1,1.02404E0,4.699254E-1,4.793731E-1,1.2210227E0,6.488302E-1,6.032802E-1,3.5814446E-1,4.4635844E-1,0E0,0E0,2.9316056E-1,0E0,4.7397923E-1,1.5879798E-1,4.2645133E-1,4.403218E-1,8.926487E-1,2.024866E-1,5.777055E-1,8.7431E-1,3.7489268E-1,1.9433069E-1,2.7185863E-1,5.338545E-1,1.301301E0,2.856133E-1,3.605826E-1,2.835458E-1,4.0322775E-1,1.5027332E-1,0E0,0E0,0E0,0E0,0E0,0E0,0E0,0E0,0E0,0E0,0E0,0E0,0E0,0E0,0E0,0E0,0E0,0E0,0E0,0E0,0E0,0E0,0E0,0E0,0E0,0E0,0E0,0E0,0E0,0E0,0E0,0E0,0E0,0E0,0E0,0E0,0E0,0E0,0E0,0E0,0E0,0E0],"parents":[2147483647,0,0,1,1,2,2,4,4,5,5,6,6,7,7,8,8,9,9,10,10,11,11,12,12,13,13,14,14,15,15,16,16,17,17,18,18,19,19,20,20,21,21,22,22,23,23,24,24,25,25,26,26,29,29,31,31,32,32,33,33,34,34,35,35,36,36,37,37,38,38,39,39,40,40,41,41,42,42,43,43,44,44,45,45,46,46,47,47,48,48],"right_children":[2,4,6,-1,8,10,12,14,16,18,20,22,24,26,28,30,32,34,36,38,40,42,44,46,48,50,52,-1,-1,54,-1,56,58,60,62,64,66,68,70,72,74,76,78,80,82,84,86,88,90,-1,-1,-1,-1,-1,-1,-1,-1,-1,-1,-1,-1,-1,-1,-1,-1,-1,-1,-1,-1,-1,-1,-1,-1,-1,-1,-1,-1,-1,-1,-1,-1,-1,-1,-1,-1,-1,-1,-1,-1,-1,-1],"split_conditions":[3E0,2E0,2E1,4.3893447E-3,3.9220713E-2,4E1,4E0,3.3245012E-2,-1.2028749E-1,1E0,1.071363E-1,4.2341065E0,1E0,-6.0166866E-3,4.6558313E-2,-1.8224819E-2,1.7110346E-1,1E0,2.7523253E0,1E1,3.5240445E-2,-1.21179804E-1,2.5627089E0,2.1460266E0,-1.3995804E-1,2E0,-6.790709E-2,-7.0644403E-3,1.3744828E-3,-2.3135806E-2,2.5111332E-3,1E0,1.14E3,2E0,9.96E2,1.4E1,-6.963741E-2,5E0,4.1E1,1.3E1,4.5616995E-3,3.48E2,6.88E2,2.5E1,1.899E3,1E0,1E0,2.7950685E0,2.1600032E0,1.0499419E-3,-5.012534E-3,-5.241137E-3,1.997117E-3,1.2189241E-3,-5.9152786E-3,2.8625552E-3,-8.226034E-4,-6.44404E-3,1.2064513E-3,-1.2416476E-3,-6.861089E-3,2.2833084E-3,-1.0568359E-3,-2.686864E-3,-5.1154015E-3,-3.3208462E-3,1.2929327E-3,1.4283966E-4,-2.9169712E-3,-2.0782209E-4,-2.1821775E-3,-5.8173756E-3,-6.1526074E-4,-8.308967E-3,-3.2655706E-3,-8.765301E-3,-0E0,2.5494522E-3,-1.9435311E-3,7.974263E-4,-6.4415194E-4,2.1447837E-3,7.6354074E-4,-0E0,-8.3082905E-3,-5.4274104E-3,-1.8336442E-4,-9.233177E-3,3.568317E-4,9.743836E-4,-1.5336942E-3],"split_indices":[97,97,1,0,78,101,68,81,44,11,42,77,69,40,57,31,82,10,64,1,44,88,64,64,57,24,59,0,0,37,0,3,25,68,75,97,31,97,97,1,51,60,75,97,75,9,49,64,48,0,0,0,0,0,0,0,0,0,0,0,0,0,0,0,0,0,0,0,0,0,0,0,0,0,0,0,0,0,0,0,0,0,0,0,0,0,0,0,0,0,0],"split_type":[0,0,0,0,0,0,0,0,0,0,0,0,0,0,0,0,0,0,0,0,0,0,0,0,0,0,0,0,0,0,0,0,0,0,0,0,0,0,0,0,0,0,0,0,0,0,0,0,0,0,0,0,0,0,0,0,0,0,0,0,0,0,0,0,0,0,0,0,0,0,0,0,0,0,0,0,0,0,0,0,0,0,0,0,0,0,0,0,0,0,0],"sum_hessian":[8.409E3,1.136E3,7.273E3,5.57E2,5.79E2,3.356E3,3.917E3,1.3E2,4.49E2,9.58E2,2.398E3,3.722E3,1.95E2,1.15E2,1.5E1,2.7E1,4.22E2,3.03E2,6.55E2,2.288E3,1.1E2,2.33E2,3.489E3,9.6E1,9.9E1,3.2E1,8.3E1,1.3E1,2E0,1.8E1,9E0,4.16E2,6E0,5.7E1,2.46E2,6.11E2,4.4E1,3.22E2,1.966E3,6.4E1,4.6E1,1.5E1,2.18E2,2.758E3,7.31E2,5.3E1,4.3E1,1.5E1,8.4E1,1.2E1,2E1,7E0,7.6E1,6E0,1.2E1,3.85E2,3.1E1,4E0,2E0,3.6E1,2.1E1,4.1E1,2.05E2,3.71E2,2.4E2,1E1,3.4E1,6.6E1,2.56E2,1.737E3,2.29E2,1.8E1,4.6E1,2.7E1,1.9E1,1.2E1,3E0,2.5E1,1.93E2,1.975E3,7.83E2,5.27E2,2.04E2,5E0,4.8E1,1.5E1,2.8E1,1.1E1,4E0,4.7E1,3.7E1],"tree_param":{"num_deleted":"0","num_feature":"109","num_nodes":"91","size_leaf_vector":"1"}},{"base_weights":[-1.0817308E-3,-2.3210697E-2,2.7714172E-2,4.2386944E-3,-3.431874E-2,4.2385943E-3,1.88255E-2,-2.7647825E-2,-1.4380482E-1,2.4616426E-2,-7.931596E-2,-5.4051685E-3,-5.534371E-2,-1.6953975E-1,-2.5447113E-2,2.8799439E-2,-7.362772E-2,-1.7271627E-2,-1.3952456E-1,-3.346795E-2,3.097273E-2,-5.021347E-2,-2.134008E-1,-4.7418296E-2,-1.963283E-1,-1.2611024E-5,-5.815215E-3,4.3310948E-2,5.376337E-4,3.3378834E-5,-1.335566E-1,2.3330163E-2,-7.849288E-2,-6.553883E-2,-2.2614135E-1,-1.537988E-3,1.0443102E-3,2.1548115E-3,4.831631E-4,-1.7992187E-3,8.9690075E-5,-8.830384E-3,-3.505087E-3,-4.4145286E-3,1.494036E-4,-6.389169E-3,-1.7829129E-3,8.197299E-4,2.0490452E-3,-1.266985E-3,4.2903554E-4,-6.0695377E-3,-2.4388882E-4,-6.4432877E-3,1.3608357E-3,-3.3550474E-3,1.3079456E-3,-3.3792078E-3,2.1684382E-3,-8.704711E-3,-2.4172752E-3],"categories":[],"categories_nodes":[],"categories_segments":[],"categories_sizes":[],"default_left":[0,0,0,0,0,0,0,0,0,0,0,0,0,0,0,0,0,0,0,0,0,0,0,0,0,0,0,0,0,0,0,0,0,0,0,0,0,0,0,0,0,0,0,0,0,0,0,0,0,0,0,0,0,0,0,0,0,0,0,0,0],"id":8,"left_children":[1,3,5,-1,7,-1,9,11,13,15,17,19,21,23,25,27,29,31,33,35,37,39,41,43,45,-1,-1,47,49,-1,51,53,55,57,59,-1,-1,-1,-1,-1,-1,-1,-1,-1,-1,-1,-1,-1,-1,-1,-1,-1,-1,-1,-1,-1,-1,-1,-1,-1,-1],"loss_changes":[5.359049E0,8.682636E0,3.6506977E0,0E0,3.2192764E0,0E0,1.9175866E0,2.5798693E0,7.3010015E-1,1.309955E0,6.6505396E-1,2.3897505E0,1.4509077E0,6.1792564E-1,1.6418117E-1,1.2524076E0,6.053677E-1,2.4986798E-1,5.211421E-1,1.6146519E0,5.982583E-1,9.537058E-1,3.2359624E-1,2.393921E-1,3.1357908E-1,0E0,0E0,7.8853106E-1,6.127747E-1,0E0,5.872518E-1,2.7261803E-1,1.8314299E-1,3.63191E-1,2.8171897E-1,0E0,0E0,0E0,0E0,0E0,0E0,0E0,0E0,0E0,0E0,0E0,0E0,0E0,0E0,0E0,0E0,0E0,0E0,0E0,0E0,0E0,0E0,0E0,0E0,0E0,0E0],"parents":[2147483647,0,0,1,1,2,2,4,4,6,6,7,7,8,8,9,9,10,10,11,11,12,12,13,13,14,14,15,15,16,16,17,17,18,18,19,19,20,20,21,21,22,22,23,23,24,24,27,27,28,28,30,30,31,31,32,32,33,33,34,34],"right_children":[2,4,6,-1,8,-1,10,12,14,16,18,20,22,24,26,28,30,32,34,36,38,40,42,44,46,-1,-1,48,50,-1,52,54,56,58,60,-1,-1,-1,-1,-1,-1,-1,-1,-1,-1,-1,-1,-1,-1,-1,-1,-1,-1,-1,-1,-1,-1,-1,-1,-1,-1],"split_conditions":[5.4E1,2E0,2E0,4.2386944E-3,4E0,4.2385943E-3,7.259847E-2,1.583E3,1E0,5E0,3.669762E-2,6.290411E0,2.1170329E-1,5E0,9.9E-1,1.668E3,-3.1819653E-2,8.472901E-3,-3.2678917E-2,2.043835E0,5E0,1E0,-4.339301E-3,1.2E1,2.6291043E-3,-1.2611024E-5,-5.815215E-3,2.6E1,1.4E1,3.3378834E-5,1.696211E-2,-2.324685E-2,2.8E1,5.4832656E-2,4.0740192E-2,-1.537988E-3,1.0443102E-3,2.1548115E-3,4.831631E-4,-1.7992187E-3,8.9690075E-5,-8.830384E-3,-3.505087E-3,-4.4145286E-3,1.494036E-4,-6.389169E-3,-1.7829129E-3,8.197299E-4,2.0490452E-3,-1.266985E-3,4.2903554E-4,-6.0695377E-3,-2.4388882E-4,-6.4432877E-3,1.3608357E-3,-3.3550474E-3,1.3079456E-3,-3.3792078E-3,2.1684382E-3,-8.704711E-3,-2.4172752E-3],"split_indices":[101,97,97,0,68,0,42,75,67,68,44,65,42,97,26,75,29,93,43,64,97,67,90,1,57,0,0,1,1,0,58,54,1,39,32,0,0,0,0,0,0,0,0,0,0,0,0,0,0,0,0,0,0,0,0,0,0,0,0,0,0],"split_type":[0,0,0,0,0,0,0,0,0,0,0,0,0,0,0,0,0,0,0,0,0,0,0,0,0,0,0,0,0,0,0,0,0,0,0,0,0,0,0,0,0,0,0,0,0,0,0,0,0,0,0,0,0,0,0,0,0,0,0,0,0],"sum_hessian":[8.409E3,4.759E3,3.65E3,2.99E2,4.46E3,2.62E2,3.388E3,4.207E3,2.53E2,3.202E3,1.86E2,2.338E3,1.869E3,2.06E2,4.7E1,3.074E3,1.28E2,9.4E1,9.2E1,1.323E3,1.015E3,1.813E3,5.6E1,3.9E1,1.67E2,4.3E1,4E0,2.026E3,1.048E3,5.6E1,7.2E1,5.5E1,3.9E1,5.2E1,4E1,1.052E3,2.71E2,2.66E2,7.49E2,1.535E3,2.78E2,2.8E1,2.8E1,1.4E1,2.5E1,1.47E2,2E1,1.242E3,7.84E2,2.51E2,7.97E2,4.5E1,2.7E1,3E0,5.2E1,3.2E1,7E0,4E1,1.2E1,2.6E1,1.4E1],"tree_param":{"num_deleted":"0","num_feature":"109","num_nodes":"61","size_leaf_vector":"1"}},{"base_weights":[-1.4986774E-3,1.5556468E-2,-3.1980433E-2,8.120649E-2,-5.433013E-3,4.026736E-3,-3.9376754E-2,4.131823E-3,5.32778E-2,1.3846025E-2,-5.6746177E-2,-6.0896046E-2,-8.503406E-3,1.4191975E-3,7.956681E-2,-5.8090396E-2,2.47478E-2,-9.47348E-2,-1.8874956E-4,-8.269383E-2,-3.51264E-2,-3.421388E-2,1.693092E-2,6.979226E-2,-3.046787E-2,-7.256408E-2,8.841577E-2,-1.5808637E-1,-3.069202E-2,-1.3103678E-2,3.399357E-2,-5.9436753E-2,-1.6404048E-1,3.1696312E-2,-7.9528466E-2,-1.17158264E-1,-6.2196236E-2,-2.9115688E-2,-1.5600888E-1,-1.5411185E-1,-2.3944566E-2,3.177859E-2,-5.843562E-3,3.727398E-3,-2.8438077E-4,-1.4551516E-3,1.7123104E-3,-3.8970807E-3,3.3731193E-3,1.1135349E-3,2.9878283E-3,-8.352581E-3,-3.2171279E-3,-3.034696E-3,-2.8833875E-4,1.7752188E-4,-1.9327768E-3,-1.1791864E-3,1.1749286E-3,-2.8020262E-3,1.8007695E-5,-9.777709E-3,-4.212011E-3,1.1307352E-3,-2.35239E-3,-4.370053E-3,-5.0152035E-4,-2.9976235E-3,-6.1344616E-3,-1.6134963E-3,-4.666508E-3,-3.330407E-3,-6.525219E-4,-8.560651E-3,-1.9717582E-3,1.1755419E-4,-5.6528696E-3,-2.49209E-3,-3.433897E-4,-1.3389147E-3,1.2667131E-3,1.1025787E-3,-7.0060516E-4],"categories":[],"categories_nodes":[],"categories_segments":[],"categories_sizes":[],"default_left":[0,0,0,0,0,0,0,0,0,0,0,0,0,0,0,0,0,0,0,0,0,0,0,0,0,0,0,0,0,0,0,0,0,0,0,0,0,0,0,0,0,0,0,0,0,0,0,0,0,0,0,0,0,0,0,0,0,0,0,0,0,0,0,0,0,0,0,0,0,0,0,0,0,0,0,0,0,0,0,0,0,0,0],"id":9,"left_children":[1,3,5,7,9,-1,11,-1,13,15,17,19,21,23,25,27,29,31,33,35,37,39,41,43,45,47,49,51,53,55,57,59,61,63,65,67,69,71,73,75,77,79,81,-1,-1,-1,-1,-1,-1,-1,-1,-1,-1,-1,-1,-1,-1,-1,-1,-1,-1,-1,-1,-1,-1,-1,-1,-1,-1,-1,-1,-1,-1,-1,-1,-1,-1,-1,-1,-1,-1,-1,-1],"loss_changes":[4.3532243E0,7.403204E0,3.6829119E0,2.0070095E0,4.02714E0,0E0,1.8990245E0,0E0,1.1768367E0,2.3087053E0,2.3705988E0,9.2405605E-1,7.811495E-1,6.6055715E-1,7.8924346E-1,1.0145048E0,9.0244555E-1,1.5660276E0,1.1514856E0,5.997982E-1,5.258628E-1,6.928122E-1,2.0633736E-1,4.4394848E-1,3.2089442E-1,3.5198116E-1,2.825775E-1,3.8388562E-1,4.315225E-1,5.004563E-1,7.84935E-1,9.2235863E-1,6.9834137E-1,2.0676297E-1,5.09648E-1,4.1915798E-1,4.0220642E-1,4.2184466E-1,3.1833774E-1,2.829144E-1,3.872705E-1,2.9324865E-1,1.7004637E-1,0E0,0E0,0E0,0E0,0E0,0E0,0E0,0E0,0E0,0E0,0E0,0E0,0E0,0E0,0E0,0E0,0E0,0E0,0E0,0E0,0E0,0E0,0E0,0E0,0E0,0E0,0E0,0E0,0E0,0E0,0E0,0E0,0E0,0E0,0E0,0E0,0E0,0E0,0E0,0E0],"parents":[2147483647,0,0,1,1,2,2,3,3,4,4,6,6,8,8,9,9,10,10,11,11,12,12,13,13,14,14,15,15,16,16,17,17,18,18,19,19,20,20,21,21,22,22,23,23,24,24,25,25,26,26,27,27,28,28,29,29,30,30,31,31,32,32,33,33,34,34,35,35,36,36,37,37,38,38,39,39,40,40,41,41,42,42],"right_children":[2,4,6,8,10,-1,12,-1,14,16,18,20,22,24,26,28,30,32,34,36,38,40,42,44,46,48,50,52,54,56,58,60,62,64,66,68,70,72,74,76,78,80,82,-1,-1,-1,-1,-1,-1,-1,-1,-1,-1,-1,-1,-1,-1,-1,-1,-1,-1,-1,-1,-1,-1,-1,-1,-1,-1,-1,-1,-1,-1,-1,-1,-1,-1,-1,-1,-1,-1,-1,-1],"split_conditions":[1.668E3,1.609438E0,1.0986123E0,1.0986123E0,1E0,4.026736E-3,5.35E1,4.131823E-3,4.8520546E0,1.3E1,2.0558603E0,5.45E0,2E1,-6.089837E-3,-9.294931E-2,3.6E1,-4.100736E-2,6.097656E-1,3E0,3.6E1,4E0,5.2246575E0,2.214E3,3.316161E-2,9.798E-1,5.859E-1,-1.11063205E-1,-1.4506862E-2,9E0,1.422E3,2.875E1,2.4E1,-7.48916E-2,9.616438E-1,1.5785709E-1,5.075955E-2,7.511733E-2,-1.0494203E-1,-2.7603582E-2,-4.1202265E-3,-4.7521774E-2,-1.3998914E-1,-4.6946134E-2,3.727398E-3,-2.8438077E-4,-1.4551516E-3,1.7123104E-3,-3.8970807E-3,3.3731193E-3,1.1135349E-3,2.9878283E-3,-8.352581E-3,-3.2171279E-3,-3.034696E-3,-2.8833875E-4,1.7752188E-4,-1.9327768E-3,-1.1791864E-3,1.1749286E-3,-2.8020262E-3,1.8007695E-5,-9.777709E-3,-4.212011E-3,1.1307352E-3,-2.35239E-3,-4.370053E-3,-5.0152035E-4,-2.9976235E-3,-6.1344616E-3,-1.6134963E-3,-4.666508E-3,-3.330407E-3,-6.525219E-4,-8.560651E-3,-1.9717582E-3,1.1755419E-4,-5.6528696E-3,-2.49209E-3,-3.433897E-4,-1.3389147E-3,1.2667131E-3,1.1025787E-3,-7.0060516E-4],"split_indices":[75,76,76,76,72,0,101,0,65,1,64,2,1,94,32,101,32,78,68,101,68,65,75,28,26,61,38,28,1,75,101,1,32,21,80,81,83,40,31,54,32,87,31,0,0,0,0,0,0,0,0,0,0,0,0,0,0,0,0,0,0,0,0,0,0,0,0,0,0,0,0,0,0,0,0,0,0,0,0,0,0,0,0],"split_type":[0,0,0,0,0,0,0,0,0,0,0,0,0,0,0,0,0,0,0,0,0,0,0,0,0,0,0,0,0,0,0,0,0,0,0,0,0,0,0,0,0,0,0,0,0,0,0,0,0,0,0,0,0,0,0,0,0,0,0,0,0,0,0,0,0,0,0,0,0,0,0,0,0,0,0,0,0,0,0,0,0,0,0],"sum_hessian":[8.365E3,5.36E3,3.005E3,1.3E3,4.06E3,1.26E2,2.879E3,4.26E2,8.74E2,2.949E3,1.111E3,1.692E3,1.187E3,2.97E2,5.77E2,3.85E2,2.564E3,6.62E2,4.49E2,9.11E2,7.81E2,5.94E2,5.93E2,9.6E1,2.01E2,3E1,5.47E2,8E1,3.05E2,4.99E2,2.065E3,4.42E2,2.2E2,3.19E2,1.3E2,3.34E2,5.77E2,7.47E2,3.4E1,4.4E1,5.5E2,3.64E2,2.29E2,5.8E1,3.8E1,1.69E2,3.2E1,2.4E1,6E0,1.02E2,4.45E2,2.1E1,5.9E1,6.7E1,2.38E2,3.62E2,1.37E2,1.33E2,1.932E3,2.84E2,1.58E2,2.5E1,1.95E2,3.05E2,1.4E1,6.1E1,6.9E1,2.83E2,5.1E1,5.33E2,4.4E1,5.8E1,6.89E2,1.2E1,2.2E1,7E0,3.7E1,9.2E1,4.58E2,4.1E1,3.23E2,6.3E1,1.66E2],"tree_param":{"num_deleted":"0","num_feature":"109","num_nodes":"83","size_leaf_vector":"1"}},{"base_weights":[7.080426E-5,4.0039066E-3,-9.630728E-3,-3.8360562E-3,-1.1511461E-1,-3.3828825E-2,1.6196802E-2,-1.4795694E-1,-1.2033007E-2,-4.823212E-2,4.5727864E-3,3.4127645E-2,-1.3765363E-2,-1.6060666E-3,-1.6998756E-1,1.5026935E-2,-6.589678E-2,-3.159168E-2,-8.0380455E-2,8.595507E-3,-1.6846184E-1,6.690981E-2,2.2494307E-2,-5.377821E-2,1.993864E-3,8.3119586E-2,-7.701124E-2,-1.9437775E-1,-7.45744E-2,-1.3113391E-3,5.078376E-2,-1.1860417E-1,-0E0,-2.8962884E-4,-1.987126E-3,-3.2615715E-3,1.9099114E-4,1.5531185E-3,-1.6094485E-4,-0E0,-6.4920075E-3,1.4689416E-3,3.1789278E-3,3.53777E-4,2.2310717E-3,-6.3650482E-3,-1.3608445E-3,-1.9443242E-4,1.3154382E-3,4.1404064E-3,-5.4181586E-3,-4.3140026E-3,3.3739826E-3,-6.3050836E-3,-2.0406807E-3,-4.1066227E-3,1.4067685E-3,-3.557003E-4,2.545255E-3,-0E0,-5.200269E-3],"categories":[],"categories_nodes":[],"categories_segments":[],"categories_sizes":[],"default_left":[0,0,1,0,0,0,0,0,0,0,1,0,0,0,0,0,0,0,0,0,0,0,0,0,0,0,0,0,0,0,0,0,0,0,0,0,0,0,0,0,0,0,0,0,0,0,0,0,0,0,0,0,0,0,0,0,0,0,0,0,0],"id":10,"left_children":[1,-1,3,5,7,9,11,13,15,17,19,21,23,25,27,29,31,33,35,37,39,41,43,45,47,49,51,53,55,-1,57,59,-1,-1,-1,-1,-1,-1,-1,-1,-1,-1,-1,-1,-1,-1,-1,-1,-1,-1,-1,-1,-1,-1,-1,-1,-1,-1,-1,-1,-1],"loss_changes":[1.08246565E1,0E0,4.7300615E0,4.4361057E0,1.3308749E0,1.6452062E0,2.378838E0,9.461551E-1,1.5740882E-1,1.1275091E0,5.2954376E-1,1.0363913E0,1.0516852E0,2.7606505E-1,5.413203E-1,1.4101738E-1,1.4102492E-1,1.0680224E0,1.81634E0,4.8469332E-1,1.3001814E-1,4.6752977E-1,1.119884E0,5.6378067E-1,4.2715374E-1,2.9934937E-1,3.319243E-1,3.406458E-1,4.5864618E-1,0E0,1.0796758E-1,1.5850356E-1,0E0,0E0,0E0,0E0,0E0,0E0,0E0,0E0,0E0,0E0,0E0,0E0,0E0,0E0,0E0,0E0,0E0,0E0,0E0,0E0,0E0,0E0,0E0,0E0,0E0,0E0,0E0,0E0,0E0],"parents":[2147483647,0,0,2,2,3,3,4,4,5,5,6,6,7,7,8,8,9,9,10,10,11,11,12,12,13,13,14,14,15,15,16,16,17,17,18,18,19,19,20,20,21,21,22,22,23,23,24,24,25,25,26,26,27,27,28,28,30,30,31,31],"right_children":[2,-1,4,6,8,10,12,14,16,18,20,22,24,26,28,30,32,34,36,38,40,42,44,46,48,50,52,54,56,-1,58,60,-1,-1,-1,-1,-1,-1,-1,-1,-1,-1,-1,-1,-1,-1,-1,-1,-1,-1,-1,-1,-1,-1,-1,-1,-1,-1,-1,-1,-1],"split_conditions":[1.0986123E0,4.0039066E-3,4E0,4.625E1,1E0,2.7E1,1.618E3,1.609438E0,1.294E3,1E0,7E0,1.7917595E0,4.2E0,1.67E2,6.65E1,-3.8196284E-2,7.159147E-3,2.5649493E0,2.5627089E0,2.1972246E0,-5.340092E-2,1.5E0,2.6273966E0,-1.1814744E-1,2.5306842E0,1E0,9.99E2,1E0,1.1405471E-2,-1.3113391E-3,1.89E2,2.944439E0,-0E0,-2.8962884E-4,-1.987126E-3,-3.2615715E-3,1.9099114E-4,1.5531185E-3,-1.6094485E-4,-0E0,-6.4920075E-3,1.4689416E-3,3.1789278E-3,3.53777E-4,2.2310717E-3,-6.3650482E-3,-1.3608445E-3,-1.9443242E-4,1.3154382E-3,4.1404064E-3,-5.4181586E-3,-4.3140026E-3,3.3739826E-3,-6.3050836E-3,-2.0406807E-3,-4.1066227E-3,1.4067685E-3,-3.557003E-4,2.545255E-3,-0E0,-5.200269E-3],"split_indices":[76,0,68,101,67,1,75,76,75,107,0,76,2,60,101,30,37,76,64,76,52,22,64,40,64,18,60,63,89,0,79,76,0,0,0,0,0,0,0,0,0,0,0,0,0,0,0,0,0,0,0,0,0,0,0,0,0,0,0,0,0],"split_type":[0,0,0,0,0,0,0,0,0,0,0,0,0,0,0,0,0,0,0,0,0,0,0,0,0,0,0,0,0,0,0,0,0,0,0,0,0,0,0,0,0,0,0,0,0,0,0,0,0,0,0,0,0,0,0,0,0,0,0,0,0],"sum_hessian":[8.343E3,5.66E2,7.777E3,7.375E3,4.02E2,2.957E3,4.418E3,3.03E2,9.9E1,2.154E3,8.03E2,2.768E3,1.65E3,4.1E1,2.62E2,6.4E1,3.5E1,1.425E3,7.29E2,7.87E2,1.6E1,7.19E2,2.049E3,4.69E2,1.181E3,1.8E1,2.3E1,2.06E2,5.6E1,2.2E1,4.2E1,2E1,1.5E1,8.77E2,5.48E2,5.51E2,1.78E2,1.95E2,5.92E2,4E0,1.2E1,4.98E2,2.21E2,1.703E3,3.46E2,2.1E1,4.48E2,9.79E2,2.02E2,1.6E1,2E0,1.8E1,5E0,1.81E2,2.5E1,3.8E1,1.8E1,1.3E1,2.9E1,6E0,1.4E1],"tree_param":{"num_deleted":"0","num_feature":"109","num_nodes":"61","size_leaf_vector":"1"}},{"base_weights":[-5.255027E-4,-2.2066075E-2,2.6959524E-2,3.8652315E-3,-3.2539614E-2,1.02409214E-1,1.4554208E-2,-4.3593016E-2,2.571806E-2,3.86655E-3,7.2041035E-2,-1.8411245E-2,2.887592E-2,-2.9013406E-2,-1.1549963E-1,4.067698E-2,-1.0662547E-2,1.0394588E-1,2.6192011E-2,-9.652635E-3,-1.2531655E-1,3.5909668E-2,-5.0618626E-2,-6.368606E-2,-7.382364E-3,-1.8522434E-1,-9.289946E-2,6.41031E-2,-0E0,1.1782959E-4,-8.009577E-2,-6.288279E-3,1.1956626E-1,4.0308453E-2,-6.4835525E-3,-5.9081383E-2,7.877154E-4,-1.5861829E-1,-1.6528508E-2,2.676396E-2,7.214818E-2,-8.805315E-2,7.827524E-3,-1.4234044E-3,-3.4554305E-3,1.8560259E-4,-1.4082432E-3,-4.1432623E-3,-9.339703E-3,1.0064215E-3,-3.314707E-3,2.141735E-3,6.465396E-5,-4.1089435E-3,4.1296854E-4,-4.887702E-3,-7.487782E-4,2.243134E-3,-3.917649E-3,-9.6359686E-4,3.7945053E-3,-2.3940664E-3,1.939215E-3,-2.5694962E-3,1.3529523E-3,-1.5909966E-3,2.7032805E-4,5.016148E-4,-5.4556406E-3,1.2864508E-3,-3.253116E-3,1.1817323E-3,-1.0549857E-5,-2.6055984E-3,2.2351039E-3,-4.1277027E-3,-0E0,2.5993492E-3,-7.561534E-4],"categories":[],"categories_nodes":[],"categories_segments":[],"categories_sizes":[],"default_left":[0,0,0,0,0,0,0,0,0,0,0,0,0,0,0,0,0,0,0,0,0,0,0,0,0,0,0,0,0,0,0,0,0,0,0,0,0,0,0,0,0,0,0,0,0,0,0,0,0,0,0,0,0,0,0,0,0,0,0,0,0,0,0,0,0,0,0,0,0,0,0,0,0,0,0,0,0,0,0],"id":11,"left_children":[1,3,5,-1,7,9,11,13,15,-1,17,19,21,23,25,27,29,31,33,35,37,39,41,43,45,47,49,51,53,-1,55,57,59,61,-1,63,65,67,69,71,73,75,77,-1,-1,-1,-1,-1,-1,-1,-1,-1,-1,-1,-1,-1,-1,-1,-1,-1,-1,-1,-1,-1,-1,-1,-1,-1,-1,-1,-1,-1,-1,-1,-1,-1,-1,-1,-1],"loss_changes":[4.944598E0,7.394038E0,3.4062982E0,0E0,2.8287497E0,3.6290455E-1,1.4909531E0,3.834724E0,3.859498E-1,0E0,3.3084822E-1,8.622031E-1,1.2305877E0,2.288639E0,8.99457E-1,4.667828E-1,2.1842265E-1,2.68412E-1,3.351347E-1,4.66977E-1,2.1614718E-1,6.494372E-1,4.0456882E-1,9.4450045E-1,1.0263449E0,7.390084E-1,1.0701499E0,1.2696135E-1,3.3615303E-1,0E0,1.274296E-1,1.961823E-1,1.5616345E-1,2.9891875E-1,0E0,4.4785935E-1,3.1317163E-1,2.4935126E-1,1.235291E-1,5.639379E-1,1.5629101E-1,4.745388E-1,1.9247063E-1,0E0,0E0,0E0,0E0,0E0,0E0,0E0,0E0,0E0,0E0,0E0,0E0,0E0,0E0,0E0,0E0,0E0,0E0,0E0,0E0,0E0,0E0,0E0,0E0,0E0,0E0,0E0,0E0,0E0,0E0,0E0,0E0,0E0,0E0,0E0,0E0],"parents":[2147483647,0,0,1,1,2,2,4,4,5,5,6,6,7,7,8,8,10,10,11,11,12,12,13,13,14,14,15,15,16,16,17,17,18,18,19,19,20,20,21,21,22,22,23,23,24,24,25,25,26,26,27,27,28,28,30,30,31,31,32,32,33,33,35,35,36,36,37,37,38,38,39,39,40,40,41,41,42,42],"right_children":[2,4,6,-1,8,10,12,14,16,-1,18,20,22,24,26,28,30,32,34,36,38,40,42,44,46,48,50,52,54,-1,56,58,60,62,-1,64,66,68,70,72,74,76,78,-1,-1,-1,-1,-1,-1,-1,-1,-1,-1,-1,-1,-1,-1,-1,-1,-1,-1,-1,-1,-1,-1,-1,-1,-1,-1,-1,-1,-1,-1,-1,-1,-1,-1,-1,-1],"split_conditions":[5.4E1,1.0986123E0,1.3862944E0,3.8652315E-3,1E0,1.0986123E0,1.7E1,7.8E-1,1.878E3,3.86655E-3,9.421E-1,8.360837E-2,3E0,1.5E1,3.4767122E0,4E0,2.9270357E-1,-8.72277E-2,1.6446128E-1,1E1,7.375E1,1E0,7.4E0,1E0,1.822E3,1.7856553E-2,4.01E2,3E0,1.15E2,1.1782959E-4,9.347E-1,-1.0855709E-1,-4.6568617E-2,-6.304717E-2,-6.4835525E-3,1.5288218E-2,-4.6471648E-2,-4.339195E-2,4.5587808E-2,1.735E3,1.04360014E-1,1.696211E-2,4.3825492E-1,-1.4234044E-3,-3.4554305E-3,1.8560259E-4,-1.4082432E-3,-4.1432623E-3,-9.339703E-3,1.0064215E-3,-3.314707E-3,2.141735E-3,6.465396E-5,-4.1089435E-3,4.1296854E-4,-4.887702E-3,-7.487782E-4,2.243134E-3,-3.917649E-3,-9.6359686E-4,3.7945053E-3,-2.3940664E-3,1.939215E-3,-2.5694962E-3,1.3529523E-3,-1.5909966E-3,2.7032805E-4,5.016148E-4,-5.4556406E-3,1.2864508E-3,-3.253116E-3,1.1817323E-3,-1.0549857E-5,-2.6055984E-3,2.2351039E-3,-4.1277027E-3,-0E0,2.5993492E-3,-7.561534E-4],"split_indices":[101,76,76,0,67,76,1,106,75,0,26,42,70,1,65,98,50,30,92,1,101,67,2,107,75,82,75,70,75,0,61,30,56,40,0,58,86,56,46,75,78,58,78,0,0,0,0,0,0,0,0,0,0,0,0,0,0,0,0,0,0,0,0,0,0,0,0,0,0,0,0,0,0,0,0,0,0,0,0],"split_type":[0,0,0,0,0,0,0,0,0,0,0,0,0,0,0,0,0,0,0,0,0,0,0,0,0,0,0,0,0,0,0,0,0,0,0,0,0,0,0,0,0,0,0,0,0,0,0,0,0,0,0,0,0,0,0,0,0,0,0,0,0,0,0,0,0,0,0,0,0,0,0,0,0,0,0,0,0,0,0],"sum_hessian":[8.351E3,4.686E3,3.665E3,3.02E2,4.384E3,5.14E2,3.151E3,3.688E3,6.96E2,2.69E2,2.45E2,9.5E2,2.201E3,3.07E3,6.18E2,4.97E2,1.99E2,1.41E2,1.04E2,8.81E2,6.9E1,2.025E3,1.76E2,1.175E3,1.895E3,1.47E2,4.71E2,3.13E2,1.84E2,1.63E2,3.6E1,1.6E1,1.25E2,1E2,4E0,1.56E2,7.25E2,5.1E1,1.8E1,1.623E3,4.02E2,1.09E2,6.7E1,8.98E2,2.77E2,1.408E3,4.87E2,1.1E2,3.7E1,5.6E1,4.15E2,2.77E2,3.6E1,1.5E1,1.69E2,1.2E1,2.4E1,9E0,7E0,4E0,1.21E2,1.5E1,8.5E1,1.26E2,3E1,9.2E1,6.33E2,5E0,4.6E1,1E1,8E0,1.112E3,5.11E2,4E0,3.98E2,6.9E1,4E1,2.1E1,4.6E1],"tree_param":{"num_deleted":"0","num_feature":"109","num_nodes":"79","size_leaf_vector":"1"}},{"base_weights":[4.360491E-5,8.613245E-2,-1.38598345E-2,3.7696422E-3,4.7690503E-2,-5.970705E-2,2.0219954E-3,6.480281E-2,-7.127851E-2,-5.4750625E-2,-1.9223763E-1,9.199188E-3,-7.646927E-2,-2.775479E-2,7.2310895E-2,6.291761E-2,-1.2246017E-1,-1.1619476E-1,-4.570228E-2,-2.4899265E-1,-3.0283371E-2,2.1057703E-2,-1.9373266E-2,-1.1666267E-1,1.0409105E-3,6.738977E-2,-1.2644142E-1,-9.886815E-3,8.0744855E-2,-5.0084027E-3,3.7885678E-3,-1.8512957E-1,-3.698048E-2,-1.373504E-1,6.365842E-3,-3.5358276E-2,-8.837089E-2,-7.7978717E-3,-0E0,8.39755E-2,-6.607104E-3,4.927741E-3,4.326773E-2,-2.073877E-1,-1.7209899E-2,-6.190565E-2,-1.687739E-1,-5.662088E-2,3.0174414E-2,-4.1911956E-3,3.385368E-3,-6.111471E-3,-0E0,-3.7171878E-3,9.303405E-4,-6.838406E-4,2.738145E-3,-7.456724E-3,-3.5733698E-4,-6.2473216E-3,1.7295935E-4,-4.75112E-3,-0E0,2.3560328E-3,-5.112136E-3,3.3435796E-4,-1.4051457E-3,-3.3621502E-3,-1.3396147E-3,-2.2411326E-4,4.6220026E-3,-8.86839E-4,6.079027E-4,1.5701513E-3,5.557203E-4,-0E0,-8.223139E-3,-8.125231E-4,5.996053E-4,-1.3770968E-4,-3.0909006E-3,-5.5977004E-3,-5.173646E-4,3.6651728E-4,-3.211128E-3,-4.1521553E-4,1.728965E-3],"categories":[],"categories_nodes":[],"categories_segments":[],"categories_sizes":[],"default_left":[0,0,0,0,0,0,1,0,0,0,0,0,0,0,0,0,0,0,0,0,0,0,0,0,0,0,0,0,0,0,0,0,0,0,0,0,0,0,0,0,0,0,0,0,0,0,0,0,0,0,0,0,0,0,0,0,0,0,0,0,0,0,0,0,0,0,0,0,0,0,0,0,0,0,0,0,0,0,0,0,0,0,0,0,0,0,0],"id":12,"left_children":[1,3,5,-1,7,9,11,13,15,17,19,21,23,25,27,29,31,33,35,37,39,41,43,45,47,49,51,53,55,-1,-1,57,59,61,63,65,67,-1,-1,69,-1,71,73,75,77,79,81,83,85,-1,-1,-1,-1,-1,-1,-1,-1,-1,-1,-1,-1,-1,-1,-1,-1,-1,-1,-1,-1,-1,-1,-1,-1,-1,-1,-1,-1,-1,-1,-1,-1,-1,-1,-1,-1,-1,-1],"loss_changes":[1.006197E1,1.73452E0,5.272622E0,0E0,1.2200482E0,1.1612105E0,3.0092955E0,3.7560177E-1,5.3078824E-1,9.609895E-1,5.3439593E-1,1.6672448E0,1.4164765E0,3.807141E-1,3.5288215E-1,3.114014E-1,2.4306673E-1,6.163409E-1,6.6541743E-1,1.2757874E-1,4.6615988E-1,1.2372341E0,5.3577703E-1,7.8652E-1,2.5244018E-1,1.9428985E-1,2.2485504E-1,2.2930281E-1,5.0033617E-1,0E0,0E0,2.7615726E-1,2.3374137E-1,5.6127715E-1,4.2122644E-1,6.8640375E-1,2.757678E-1,0E0,0E0,1.0889705E-1,0E0,1.068956E0,3.121693E-1,1.877467E-1,5.25161E-1,3.2722425E-1,3.581586E-1,1.9128644E-1,1.3564655E-1,0E0,0E0,0E0,0E0,0E0,0E0,0E0,0E0,0E0,0E0,0E0,0E0,0E0,0E0,0E0,0E0,0E0,0E0,0E0,0E0,0E0,0E0,0E0,0E0,0E0,0E0,0E0,0E0,0E0,0E0,0E0,0E0,0E0,0E0,0E0,0E0,0E0,0E0],"parents":[2147483647,0,0,1,1,2,2,4,4,5,5,6,6,7,7,8,8,9,9,10,10,11,11,12,12,13,13,14,14,15,15,16,16,17,17,18,18,19,19,20,20,21,21,22,22,23,23,24,24,25,25,26,26,27,27,28,28,31,31,32,32,33,33,34,34,35,35,36,36,39,39,41,41,42,42,43,43,44,44,45,45,46,46,47,47,48,48],"right_children":[2,4,6,-1,8,10,12,14,16,18,20,22,24,26,28,30,32,34,36,38,40,42,44,46,48,50,52,54,56,-1,-1,58,60,62,64,66,68,-1,-1,70,-1,72,74,76,78,80,82,84,86,-1,-1,-1,-1,-1,-1,-1,-1,-1,-1,-1,-1,-1,-1,-1,-1,-1,-1,-1,-1,-1,-1,-1,-1,-1,-1,-1,-1,-1,-1,-1,-1,-1,-1,-1,-1,-1,-1],"split_conditions":[1.3862944E0,1.0986123E0,1.5E1,3.7696422E-3,1.961E3,2.1170329E-1,3E0,3.2E1,-3.439095E-3,4.276666E0,3.025129E-1,1.8E3,1E0,-1.4756861E-2,1.55E0,-5.2930705E-2,2.472641E-2,6.753922E-2,1E0,2.0958898E0,2.1972246E0,2.7E1,3E0,1E0,-2.2355823E-2,1.027E-1,9.9814814E-1,-2.9004058E-2,-8.5539475E-2,-5.0084027E-3,3.7885678E-3,2.7442504E-2,-6.965145E-2,2.6080886E-2,3.352692E-2,1.109E3,6.4383564E0,-7.7978717E-3,-0E0,-1.3472531E-2,-6.607104E-3,5.0082192E0,1.194849E-2,8.789034E-1,1E0,1.381E3,1.2120026E-2,-5.3606015E-2,2.04E2,-4.1911956E-3,3.385368E-3,-6.111471E-3,-0E0,-3.7171878E-3,9.303405E-4,-6.838406E-4,2.738145E-3,-7.456724E-3,-3.5733698E-4,-6.2473216E-3,1.7295935E-4,-4.75112E-3,-0E0,2.3560328E-3,-5.112136E-3,3.3435796E-4,-1.4051457E-3,-3.3621502E-3,-1.3396147E-3,-2.2411326E-4,4.6220026E-3,-8.86839E-4,6.079027E-4,1.5701513E-3,5.557203E-4,-0E0,-8.223139E-3,-8.125231E-4,5.996053E-4,-1.3770968E-4,-3.0909006E-3,-5.5977004E-3,-5.173646E-4,3.6651728E-4,-3.211128E-3,-4.1521553E-4,1.728965E-3],"split_indices":[76,76,1,0,75,42,68,25,51,77,53,75,67,31,2,42,45,45,72,64,76,1,71,72,81,26,104,39,40,0,0,44,32,58,31,75,65,0,0,29,0,65,86,64,67,75,59,81,79,0,0,0,0,0,0,0,0,0,0,0,0,0,0,0,0,0,0,0,0,0,0,0,0,0,0,0,0,0,0,0,0,0,0,0,0,0,0],"split_type":[0,0,0,0,0,0,0,0,0,0,0,0,0,0,0,0,0,0,0,0,0,0,0,0,0,0,0,0,0,0,0,0,0,0,0,0,0,0,0,0,0,0,0,0,0,0,0,0,0,0,0,0,0,0,0,0,0,0,0,0,0,0,0,0,0,0,0,0,0,0,0,0,0,0,0,0,0,0,0,0,0,0,0,0,0,0,0],"sum_hessian":[8.392E3,1.168E3,7.224E3,5.72E2,5.96E2,1.861E3,5.363E3,5.23E2,7.3E1,1.797E3,6.4E1,4.917E3,4.46E2,3.7E1,4.86E2,1.9E1,5.4E1,2.26E2,1.571E3,4.6E1,1.8E1,3.48E3,1.437E3,2.95E2,1.51E2,1.8E1,1.9E1,4.3E1,4.43E2,3E0,1.6E1,2.9E1,2.5E1,1.94E2,3.2E1,1.27E3,3.01E2,4.4E1,2E0,1.1E1,7E0,2.022E3,1.458E3,1.4E1,1.423E3,1.47E2,1.48E2,4.8E1,1.03E2,2E0,1.6E1,1.2E1,7E0,1.2E1,3.1E1,3.9E1,4.04E2,2E1,9E0,5E0,2E1,1.68E2,2.6E1,2.4E1,8E0,2.48E2,1.022E3,1.91E2,1.1E2,4E0,7E0,6.18E2,1.404E3,1.06E3,3.98E2,4E0,1E1,1.129E3,2.94E2,6.4E1,8.3E1,1.31E2,1.7E1,1.9E1,2.9E1,3.7E1,6.6E1],"tree_param":{"num_deleted":"0","num_feature":"109","num_nodes":"87","size_leaf_vector":"1"}},{"base_weights":[5.976677E-4,8.472881E-2,-1.304886E-2,3.6567831E-3,4.8427317E-2,-6.051468E-2,-6.232536E-4,6.845626E-2,-2.4082458E-2,-4.7771778E-2,-1.4652635E-1,-2.5822647E-2,2.0096209E-2,7.5936966E-2,-6.52213E-2,-1.5057059E-1,1.9384804E-3,-1.1052219E-1,-3.4181245E-2,-1.7178562E-1,-3.8865834E-2,9.908104E-3,-3.9547782E-2,9.521025E-3,5.3185776E-2,-3.990727E-3,8.006742E-2,-1.5250956E-1,1.924349E-2,1.4888715E-3,-7.0649423E-3,3.042316E-2,-1.4621763E-1,-7.893214E-2,-1.7381904E-1,-3.0439049E-2,-2.2807279E-1,-2.2427046E-1,-1.071331E-1,-1.034981E-1,7.3534215E-4,1.8292855E-2,-7.234149E-2,-3.2052808E-2,-1.4234526E-1,2.0489894E-2,-3.9613217E-2,7.0598684E-2,3.0637506E-2,2.485501E-3,-5.5652843E-3,-7.3284423E-3,1.9896016E-3,-3.270712E-3,3.664734E-3,-2.8619578E-3,2.3240051E-3,-6.4326776E-3,2.7248106E-4,-6.124419E-3,-1.4140911E-3,-0E0,-5.8543254E-3,-1.2105821E-3,4.841235E-4,1.4446642E-4,-8.013501E-3,-8.342941E-3,-3.3040536E-3,-0E0,-4.9336213E-3,-0E0,-4.4809E-3,-0E0,1.3381587E-3,-3.902033E-3,-1.1745991E-4,1.2595055E-4,-1.4212497E-3,-5.4845125E-3,-2.2057556E-3,1.8722149E-4,1.3590541E-3,-3.6016927E-4,-2.9037842E-3,2.363715E-3,3.7935144E-5,-3.6124762E-3,1.0610744E-3],"categories":[],"categories_nodes":[],"categories_segments":[],"categories_sizes":[],"default_left":[0,0,0,0,0,0,0,0,0,0,0,0,0,0,0,0,0,0,0,0,0,0,0,0,0,0,0,0,0,0,0,0,0,0,0,0,0,0,0,0,0,0,0,0,0,0,0,0,0,0,0,0,0,0,0,0,0,0,0,0,0,0,0,0,0,0,0,0,0,0,0,0,0,0,0,0,0,0,0,0,0,0,0,0,0,0,0,0,0],"id":13,"left_children":[1,3,5,-1,7,9,11,13,15,17,19,21,23,25,27,29,31,33,35,37,39,41,43,45,47,-1,49,51,53,-1,-1,55,57,59,61,63,65,67,69,71,-1,73,75,77,79,81,83,85,87,-1,-1,-1,-1,-1,-1,-1,-1,-1,-1,-1,-1,-1,-1,-1,-1,-1,-1,-1,-1,-1,-1,-1,-1,-1,-1,-1,-1,-1,-1,-1,-1,-1,-1,-1,-1,-1,-1,-1,-1],"loss_changes":[9.648435E0,1.541625E0,4.244961E0,0E0,8.7961555E-1,1.5904417E0,2.9909976E0,4.792874E-1,4.5202643E-1,1.0796154E0,4.67093E-1,1.2756757E0,1.0849959E0,3.8903356E-1,2.0859638E-1,4.4565576E-1,4.303622E-1,3.912828E-1,7.215619E-1,4.213438E-1,1.7941323E-1,4.840105E-1,1.40365E0,1.2821069E0,2.736721E-1,0E0,3.2395744E-1,3.2012084E-1,1.7965505E-1,0E0,0E0,5.4510546E-1,2.1499956E-1,5.640581E-1,3.0938315E-1,4.9470466E-1,2.2858697E-1,3.8446188E-1,4.7489983E-1,1.1201155E-1,0E0,3.0741608E-1,2.261815E-1,9.810171E-1,2.813177E-1,6.799048E-1,6.5911233E-1,2.225318E-1,2.28394E-1,0E0,0E0,0E0,0E0,0E0,0E0,0E0,0E0,0E0,0E0,0E0,0E0,0E0,0E0,0E0,0E0,0E0,0E0,0E0,0E0,0E0,0E0,0E0,0E0,0E0,0E0,0E0,0E0,0E0,0E0,0E0,0E0,0E0,0E0,0E0,0E0,0E0,0E0,0E0,0E0],"parents":[2147483647,0,0,1,1,2,2,4,4,5,5,6,6,7,7,8,8,9,9,10,10,11,11,12,12,13,13,14,14,15,15,16,16,17,17,18,18,19,19,20,20,21,21,22,22,23,23,24,24,26,26,27,27,28,28,31,31,32,32,33,33,34,34,35,35,36,36,37,37,38,38,39,39,41,41,42,42,43,43,44,44,45,45,46,46,47,47,48,48],"right_children":[2,4,6,-1,8,10,12,14,16,18,20,22,24,26,28,30,32,34,36,38,40,42,44,46,48,-1,50,52,54,-1,-1,56,58,60,62,64,66,68,70,72,-1,74,76,78,80,82,84,86,88,-1,-1,-1,-1,-1,-1,-1,-1,-1,-1,-1,-1,-1,-1,-1,-1,-1,-1,-1,-1,-1,-1,-1,-1,-1,-1,-1,-1,-1,-1,-1,-1,-1,-1,-1,-1,-1,-1,-1,-1],"split_conditions":[1.3862944E0,1.0986123E0,3.725E1,3.6567831E-3,1.67E3,3E0,2E1,5E0,-8.655044E-2,1.2E1,2.5830708E-2,1E0,1E0,-1.05619274E-1,-1.1617211E-2,2.9580045E-1,5.639375E-2,3.608179E-1,1.6711438E-1,1.6603093E-1,9.8E-1,1.843E3,1.071363E-1,5.538851E-1,1.467E3,-3.990727E-3,2.1562056E-1,8.76E2,-2.1908164E-2,1.4888715E-3,-7.0649423E-3,-3.2434393E-2,1.5408062E-2,-8.112913E-2,-1.4138477E-1,8.9E0,-9.233985E-2,1.4E1,2.8903718E0,2.8903718E0,7.3534215E-4,1.95E2,2.1972246E0,2.0794415E0,2.3426132E-4,3E1,1E0,1.4951488E0,-1.4041041E-1,2.485501E-3,-5.5652843E-3,-7.3284423E-3,1.9896016E-3,-3.270712E-3,3.664734E-3,-2.8619578E-3,2.3240051E-3,-6.4326776E-3,2.7248106E-4,-6.124419E-3,-1.4140911E-3,-0E0,-5.8543254E-3,-1.2105821E-3,4.841235E-4,1.4446642E-4,-8.013501E-3,-8.342941E-3,-3.3040536E-3,-0E0,-4.9336213E-3,-0E0,-4.4809E-3,-0E0,1.3381587E-3,-3.902033E-3,-1.1745991E-4,1.2595055E-4,-1.4212497E-3,-5.4845125E-3,-2.2057556E-3,1.8722149E-4,1.3590541E-3,-3.6016927E-4,-2.9037842E-3,2.363715E-3,3.7935144E-5,-3.6124762E-3,1.0610744E-3],"split_indices":[76,76,101,0,25,68,1,70,88,1,33,11,67,35,41,27,32,27,83,80,69,25,42,78,75,0,92,75,92,0,0,39,36,44,44,2,33,96,76,76,0,79,76,76,56,1,72,78,45,0,0,0,0,0,0,0,0,0,0,0,0,0,0,0,0,0,0,0,0,0,0,0,0,0,0,0,0,0,0,0,0,0,0,0,0,0,0,0,0],"split_type":[0,0,0,0,0,0,0,0,0,0,0,0,0,0,0,0,0,0,0,0,0,0,0,0,0,0,0,0,0,0,0,0,0,0,0,0,0,0,0,0,0,0,0,0,0,0,0,0,0,0,0,0,0,0,0,0,0,0,0,0,0,0,0,0,0,0,0,0,0,0,0,0,0,0,0,0,0,0,0,0,0,0,0,0,0,0,0,0,0],"sum_hessian":[8.389E3,1.172E3,7.217E3,5.75E2,5.97E2,1.493E3,5.724E3,4.7E2,1.27E2,1.304E3,1.89E2,2.587E3,3.137E3,4.47E2,2.3E1,2.2E1,1.05E2,2.28E2,1.076E3,1.51E2,3.8E1,7.14E2,1.873E3,2.383E3,7.54E2,7E0,4.4E2,1.2E1,1.1E1,6E0,1.6E1,9E1,1.5E1,1.56E2,7.2E1,1.058E3,1.8E1,8E1,7.1E1,2E1,1.8E1,6.51E2,6.3E1,1.749E3,1.24E2,1.952E3,4.31E2,4.19E2,3.35E2,4.37E2,3E0,9E0,3E0,4E0,7E0,2.3E1,6.7E1,1.1E1,4E0,2.9E1,1.27E2,7E0,6.5E1,8.76E2,1.82E2,2E0,1.6E1,5.2E1,2.8E1,2.4E1,4.7E1,6E0,1.4E1,3.88E2,2.63E2,3.2E1,3.1E1,5.16E2,1.233E3,7.5E1,4.9E1,1.246E3,7.06E2,2.94E2,1.37E2,3.72E2,4.7E1,8E0,3.27E2],"tree_param":{"num_deleted":"0","num_feature":"109","num_nodes":"89","size_leaf_vector":"1"}},{"base_weights":[1.5261877E-4,8.037553E-2,-1.2435811E-2,3.54771E-3,4.3284826E-2,-4.4818863E-2,8.97317E-3,5.7589866E-2,-8.11231E-2,-3.5794538E-2,-1.1509603E-1,1.9040046E-2,-2.8490625E-2,6.333382E-2,-1.1522937E-1,2.7080502E-3,-1.1799253E-1,-8.9179024E-2,-2.1319566E-2,-1.1858197E-2,-1.3037935E-1,6.2780626E-2,1.0366745E-2,-6.9012836E-2,-1.1858272E-2,-5.426153E-2,7.228669E-2,-6.986201E-3,1.2858025E-3,-1.476976E-1,1.6875378E-3,-5.8444206E-2,-1.2002969E-1,-3.070639E-2,2.2512546E-2,1.9474825E-3,-4.156394E-2,-7.6608926E-2,-1.654071E-1,5.0803557E-2,1.258541E-1,-1.6882129E-3,5.367395E-2,-1.0792913E-1,-1.7826617E-2,-2.0379078E-2,6.585336E-2,4.7992347E-5,-6.329174E-3,1.6844022E-3,3.3065157E-3,5.1315635E-4,-5.0874487E-3,-7.015707E-4,-3.5927827E-3,-4.603352E-3,-2.169462E-3,-5.0924864E-4,-2.503129E-3,9.766343E-4,-7.2068773E-4,8.795137E-4,-2.370717E-3,2.0935657E-3,-2.7463906E-3,-5.6030797E-3,-0E0,2.4904348E-3,8.424404E-4,3.9898953E-3,-1.4702287E-3,3.2995522E-4,-1.7169521E-3,1.8790053E-3,-9.784318E-5,-4.454891E-3,-7.8232744E-4,1.1281255E-3,-1.9521065E-3,-3.8378025E-4,-3.456885E-3,-4.442009E-3,2.483628E-3],"categories":[],"categories_nodes":[],"categories_segments":[],"categories_sizes":[],"default_left":[0,0,0,0,0,0,0,0,0,0,0,0,0,0,0,0,0,0,0,0,0,0,0,0,0,0,0,0,0,0,0,0,0,0,0,0,0,0,0,0,0,0,0,0,0,0,0,0,0,0,0,0,0,0,0,0,0,0,0,0,0,0,0,0,0,0,0,0,0,0,0,0,0,0,0,0,0,0,0,0,0,0,0],"id":14,"left_children":[1,3,5,-1,7,9,11,13,15,17,19,21,23,25,27,-1,29,31,33,35,37,39,41,43,45,47,49,-1,-1,51,-1,53,55,57,59,-1,61,63,65,67,69,71,73,75,77,79,81,-1,-1,-1,-1,-1,-1,-1,-1,-1,-1,-1,-1,-1,-1,-1,-1,-1,-1,-1,-1,-1,-1,-1,-1,-1,-1,-1,-1,-1,-1,-1,-1,-1,-1,-1,-1],"loss_changes":[8.524241E0,1.5706124E0,5.056315E0,0E0,1.0387977E0,1.8054652E0,1.6511015E0,5.1972616E-1,3.9241695E-1,1.9663486E0,4.8595858E-1,1.2965448E0,6.0573566E-1,5.454583E-1,3.5127193E-1,0E0,2.8809047E-1,4.7378826E-1,8.38194E-1,1.0165216E-1,4.6978617E-1,3.8623452E-1,1.5199046E0,5.0081277E-1,4.2967728E-1,3.504229E-1,2.5082898E-1,0E0,0E0,1.933856E-1,0E0,5.6818444E-1,3.6914778E-1,1.1926376E0,1.686319E-1,0E0,1.0618457E-1,2.6611972E-1,5.6775856E-1,3.2790744E-1,1.335262E-1,1.6019815E0,3.3512545E-1,4.5253527E-1,3.179658E-1,4.0307546E-1,2.306008E-1,0E0,0E0,0E0,0E0,0E0,0E0,0E0,0E0,0E0,0E0,0E0,0E0,0E0,0E0,0E0,0E0,0E0,0E0,0E0,0E0,0E0,0E0,0E0,0E0,0E0,0E0,0E0,0E0,0E0,0E0,0E0,0E0,0E0,0E0,0E0,0E0],"parents":[2147483647,0,0,1,1,2,2,4,4,5,5,6,6,7,7,8,8,9,9,10,10,11,11,12,12,13,13,14,14,16,16,17,17,18,18,19,19,20,20,21,21,22,22,23,23,24,24,25,25,26,26,29,29,31,31,32,32,33,33,34,34,36,36,37,37,38,38,39,39,40,40,41,41,42,42,43,43,44,44,45,45,46,46],"right_children":[2,4,6,-1,8,10,12,14,16,18,20,22,24,26,28,-1,30,32,34,36,38,40,42,44,46,48,50,-1,-1,52,-1,54,56,58,60,-1,62,64,66,68,70,72,74,76,78,80,82,-1,-1,-1,-1,-1,-1,-1,-1,-1,-1,-1,-1,-1,-1,-1,-1,-1,-1,-1,-1,-1,-1,-1,-1,-1,-1,-1,-1,-1,-1,-1,-1,-1,-1,-1,-1],"split_conditions":[3E0,2E0,4.625E1,3.54771E-3,1.941E3,3E0,1.304E3,3.025129E-1,-8.696017E-2,1.3E1,-2.5711967E-2,6E0,-2.3609428E-2,2.2246575E0,4.9075633E-2,2.7080502E-3,6.3E1,2.8E0,2.6273966E0,9E0,-1.2264982E-2,7.6E0,2.6024644E0,7.090411E0,1.4148542E-1,2.3167398E-2,1.5300506E-3,-6.986201E-3,1.2858025E-3,-6.3713215E-2,1.6875378E-3,1.4E1,3.6E1,3.3E1,8.676712E0,1.9474825E-3,-2.0700365E-2,6E0,3.352054E0,-1.5594006E-2,9.814E-1,1E0,2.312E3,1.5450428E-2,-2.150324E-2,9.6835464E-2,9.989034E-1,4.7992347E-5,-6.329174E-3,1.6844022E-3,3.3065157E-3,5.1315635E-4,-5.0874487E-3,-7.015707E-4,-3.5927827E-3,-4.603352E-3,-2.169462E-3,-5.0924864E-4,-2.503129E-3,9.766343E-4,-7.2068773E-4,8.795137E-4,-2.370717E-3,2.0935657E-3,-2.7463906E-3,-5.6030797E-3,-0E0,2.4904348E-3,8.424404E-4,3.9898953E-3,-1.4702287E-3,3.2995522E-4,-1.7169521E-3,1.8790053E-3,-9.784318E-5,-4.454891E-3,-7.8232744E-4,1.1281255E-3,-1.9521065E-3,-3.8378025E-4,-3.456885E-3,-4.442009E-3,2.483628E-3],"split_indices":[97,97,101,0,25,70,25,53,52,1,28,97,32,65,28,0,101,2,64,97,89,2,64,65,41,45,83,0,0,55,0,97,101,97,65,0,89,97,64,41,95,72,75,43,52,83,64,0,0,0,0,0,0,0,0,0,0,0,0,0,0,0,0,0,0,0,0,0,0,0,0,0,0,0,0,0,0,0,0,0,0,0,0],"split_type":[0,0,0,0,0,0,0,0,0,0,0,0,0,0,0,0,0,0,0,0,0,0,0,0,0,0,0,0,0,0,0,0,0,0,0,0,0,0,0,0,0,0,0,0,0,0,0,0,0,0,0,0,0,0,0,0,0,0,0,0,0,0,0,0,0,0,0,0,0,0,0,0,0,0,0,0,0,0,0,0,0,0,0],"sum_hessian":[8.425E3,1.144E3,7.281E3,5.62E2,5.82E2,2.901E3,4.38E3,5.24E2,5.8E1,2.575E3,3.26E2,3.457E3,9.23E2,5.09E2,1.5E1,9E0,4.9E1,5.45E2,2.03E3,4.4E1,2.82E2,5.67E2,2.89E3,2.64E2,6.59E2,3.4E1,4.75E2,9E0,6E0,4.3E1,6E0,2.78E2,2.67E2,1.676E3,3.54E2,1E1,3.4E1,1.15E2,1.67E2,4.81E2,8.6E1,2.258E3,6.32E2,1.47E2,1.17E2,5.97E2,6.2E1,2.5E1,9E0,3.39E2,1.36E2,4E0,3.9E1,1.8E2,9.8E1,1.53E2,1.14E2,1.334E3,3.42E2,2.95E2,5.9E1,1E1,2.4E1,9E0,1.06E2,1.47E2,2E1,1.94E2,2.87E2,8.4E1,2E0,1.836E3,4.22E2,5.49E2,8.3E1,9.6E1,5.1E1,5.2E1,6.5E1,5.56E2,4.1E1,3E0,5.9E1],"tree_param":{"num_deleted":"0","num_feature":"109","num_nodes":"83","size_leaf_vector":"1"}},{"base_weights":[-8.4727973E-4,8.0637135E-2,-1.3644022E-2,3.441837E-3,4.522314E-2,-3.276916E-2,1.8141204E-2,-2.117286E-2,6.426641E-2,-7.251214E-2,-1.7140066E-2,2.4547901E-2,-5.522561E-2,-1.5969755E-1,2.4495858E-3,-1.1951406E-1,7.251888E-2,-4.5277253E-2,-9.94228E-2,-1.1938519E-2,-1.2126657E-1,3.259289E-2,-2.656485E-2,-3.7375208E-2,-2.9065382E-1,-0E0,-7.440683E-3,-1.1980696E-1,2.8232917E-2,-6.3423887E-3,-0E0,7.821297E-2,-8.280897E-2,-1.9781792E-1,-3.7798624E-2,-1.2210098E-1,-1.5687479E-2,-7.269304E-3,-9.228972E-2,-1.5128106E-1,-5.460642E-2,1.671223E-2,5.6936417E-2,-8.4679745E-2,-8.431307E-3,-1.0586395E-1,-6.177166E-3,-9.880826E-3,-0E0,3.487817E-3,-4.606215E-3,1.0344965E-3,-6.084776E-3,4.4941576E-3,-0E0,3.1165967E-3,-4.2321305E-3,2.618245E-3,-8.382185E-4,-5.165363E-3,2.1942465E-3,1.2494185E-3,-7.4318564E-3,-2.0287128E-3,6.0479706E-5,-2.861163E-3,-4.892819E-3,-2.3434113E-3,1.8258918E-4,-4.2509026E-4,1.4713205E-3,1.2450835E-3,-3.2429937E-3,-1.6207879E-3,-5.697168E-3,-3.3696394E-3,2.1274283E-4,-2.2997447E-4,1.1093795E-3,1.8602214E-3,-4.8872177E-4,-5.0718E-3,-1.5063218E-3,-1.1153523E-3,6.2583876E-4,-4.9450085E-3,-0E0,8.54737E-4,-1.2616712E-3],"categories":[],"categories_nodes":[],"categories_segments":[],"categories_sizes":[],"default_left":[0,0,0,0,0,0,1,0,0,0,0,0,0,0,0,0,0,0,0,0,0,0,0,0,0,0,0,0,0,0,0,0,0,0,0,0,0,0,0,0,0,0,0,0,0,0,0,0,0,0,0,0,0,0,0,0,0,0,0,0,0,0,0,0,0,0,0,0,0,0,0,0,0,0,0,0,0,0,0,0,0,0,0,0,0,0,0,0,0],"id":15,"left_children":[1,3,5,-1,7,9,11,13,15,17,19,21,23,25,27,29,31,33,35,37,39,41,43,45,47,49,-1,51,53,-1,55,57,59,61,63,65,67,69,71,73,75,77,79,81,83,85,87,-1,-1,-1,-1,-1,-1,-1,-1,-1,-1,-1,-1,-1,-1,-1,-1,-1,-1,-1,-1,-1,-1,-1,-1,-1,-1,-1,-1,-1,-1,-1,-1,-1,-1,-1,-1,-1,-1,-1,-1,-1,-1],"loss_changes":[8.685583E0,1.326263E0,4.387912E0,0E0,7.1730256E-1,2.7802105E0,1.2675104E0,4.3506536E-1,6.640768E-1,8.9513254E-1,1.7265756E0,1.027041E0,8.2573384E-1,2.6082316E-1,3.1735364E-1,2.4062732E-1,3.7849903E-1,6.696775E-1,1.1725683E0,1.13828E0,2.534268E-1,8.180833E-1,3.348184E-1,4.0885073E-1,1.23827815E-1,1.6929957E-1,0E0,2.623763E-1,3.1489465E-1,0E0,1.305963E-1,4.064989E-1,2.3282877E-1,3.9063954E-1,7.366958E-1,4.7332573E-1,2.0282507E-1,1.1297643E0,3.723762E-1,3.228078E-1,2.0431909E-1,6.54524E-1,3.2457685E-1,1.7049605E-1,2.2330266E-1,4.0635973E-1,1.8102647E-1,0E0,0E0,0E0,0E0,0E0,0E0,0E0,0E0,0E0,0E0,0E0,0E0,0E0,0E0,0E0,0E0,0E0,0E0,0E0,0E0,0E0,0E0,0E0,0E0,0E0,0E0,0E0,0E0,0E0,0E0,0E0,0E0,0E0,0E0,0E0,0E0,0E0,0E0,0E0,0E0,0E0,0E0],"parents":[2147483647,0,0,1,1,2,2,4,4,5,5,6,6,7,7,8,8,9,9,10,10,11,11,12,12,13,13,14,14,15,15,16,16,17,17,18,18,19,19,20,20,21,21,22,22,23,23,24,24,25,25,27,27,28,28,30,30,31,31,32,32,33,33,34,34,35,35,36,36,37,37,38,38,39,39,40,40,41,41,42,42,43,43,44,44,45,45,46,46],"right_children":[2,4,6,-1,8,10,12,14,16,18,20,22,24,26,28,30,32,34,36,38,40,42,44,46,48,50,-1,52,54,-1,56,58,60,62,64,66,68,70,72,74,76,78,80,82,84,86,88,-1,-1,-1,-1,-1,-1,-1,-1,-1,-1,-1,-1,-1,-1,-1,-1,-1,-1,-1,-1,-1,-1,-1,-1,-1,-1,-1,-1,-1,-1,-1,-1,-1,-1,-1,-1,-1,-1,-1,-1,-1,-1],"split_conditions":[1.3862944E0,1.0986123E0,2.5E1,3.441837E-3,3.9220713E-2,4E1,3E0,-2.7795823E-2,1.2821918E0,2.6390574E0,9.762518E-2,2.214E3,9.762518E-2,-1.3978459E-2,-5.4852974E-2,-8.860146E-3,1.335804E-1,-1.2157536E-1,1E0,4E0,8.9E1,6.2E1,4E1,-7.195984E-2,8.0666664E1,1.7605731E-2,-7.440683E-3,-2.9020721E-2,-2.6904512E-2,-6.3423887E-3,3.4035745E-1,1E0,3.9633606E-2,-5.8336843E-2,1.5E1,3.6888795E0,7E0,1E0,-9.42981E-2,4.8520546E0,9.273E-1,6.1534247E0,5.4074712E-2,-1.7037233E-2,7.6E-1,1E0,1.283E3,-9.880826E-3,-0E0,3.487817E-3,-4.606215E-3,1.0344965E-3,-6.084776E-3,4.4941576E-3,-0E0,3.1165967E-3,-4.2321305E-3,2.618245E-3,-8.382185E-4,-5.165363E-3,2.1942465E-3,1.2494185E-3,-7.4318564E-3,-2.0287128E-3,6.0479706E-5,-2.861163E-3,-4.892819E-3,-2.3434113E-3,1.8258918E-4,-4.2509026E-4,1.4713205E-3,1.2450835E-3,-3.2429937E-3,-1.6207879E-3,-5.697168E-3,-3.3696394E-3,2.1274283E-4,-2.2997447E-4,1.1093795E-3,1.8602214E-3,-4.8872177E-4,-5.0718E-3,-1.5063218E-3,-1.1153523E-3,6.2583876E-4,-4.9450085E-3,-0E0,8.54737E-4,-1.2616712E-3],"split_indices":[76,76,1,0,78,101,70,84,65,76,42,75,42,33,33,39,82,39,67,68,60,101,101,45,101,39,0,81,56,0,27,3,91,33,1,76,96,67,90,65,26,65,42,85,69,67,75,0,0,0,0,0,0,0,0,0,0,0,0,0,0,0,0,0,0,0,0,0,0,0,0,0,0,0,0,0,0,0,0,0,0,0,0,0,0,0,0,0,0],"split_type":[0,0,0,0,0,0,0,0,0,0,0,0,0,0,0,0,0,0,0,0,0,0,0,0,0,0,0,0,0,0,0,0,0,0,0,0,0,0,0,0,0,0,0,0,0,0,0,0,0,0,0,0,0,0,0,0,0,0,0,0,0,0,0,0,0,0,0,0,0,0,0,0,0,0,0,0,0,0,0,0,0,0,0,0,0,0,0,0,0],"sum_hessian":[8.34E3,1.129E3,7.211E3,5.71E2,5.58E2,4.506E3,2.705E3,1.22E2,4.36E2,1.267E3,3.239E3,2.491E3,2.14E2,1.8E1,1.04E2,1.7E1,4.19E2,6.35E2,6.32E2,3.088E3,1.51E2,2.156E3,3.35E2,2.01E2,1.3E1,7E0,1.1E1,1.6E1,8.8E1,1E1,7E0,4.06E2,1.3E1,2.7E1,6.08E2,4.95E2,1.37E2,2.922E3,1.66E2,1.01E2,5E1,1.311E3,8.45E2,7.6E1,2.59E2,6E1,1.41E2,1.1E1,2E0,4E0,3E0,5E0,1.1E1,1.6E1,7.2E1,5E0,2E0,3.76E2,3E1,9E0,4E0,4E0,2.3E1,3.5E2,2.58E2,3.05E2,1.9E2,3.7E1,1E2,2.607E3,3.15E2,1.6E1,1.5E2,3.1E1,7E1,2.7E1,2.3E1,5.91E2,7.2E2,7.93E2,5.2E1,1.9E1,5.7E1,1.34E2,1.25E2,3.9E1,2.1E1,6.9E1,7.2E1],"tree_param":{"num_deleted":"0","num_feature":"109","num_nodes":"89","size_leaf_vector":"1"}},{"base_weights":[-5.303304E-4,7.607908E-2,-1.26988925E-2,3.3373437E-3,4.0651493E-2,-3.0271571E-2,1.6470289E-2,6.0268167E-2,-2.9553344E-2,-2.3669131E-2,-9.966175E-2,2.1301026E-2,-8.3669074E-2,1.817584E-3,7.8466244E-2,8.5919105E-2,-6.321309E-2,-5.324592E-2,-1.2110563E-2,-1.3157867E-1,-2.7845241E-2,-1.0655546E-2,2.9388182E-2,-8.043184E-3,-5.3278286E-2,-1.6319183E-1,2.5768625E-2,8.420571E-2,-3.8497686E-2,4.459551E-3,-1.7040175E-3,-1.5513307E-1,-2.6544245E-2,-6.002522E-2,1.7562443E-2,-3.3053586E-3,-4.8075557E-2,-1.6251585E-2,-1.5647109E-1,6.387764E-2,-5.4013524E-2,-5.0525446E-3,-1.1674738E-1,3.3823173E-2,-4.0114757E-2,-0E0,-1.1089554E-1,-6.7184693E-3,1.4446538E-3,2.1539195E-3,-1.3425753E-3,2.7316993E-3,-3.2171299E-4,1.9121682E-3,-6.94501E-3,-5.8741737E-3,4.7539634E-4,-0E0,-5.6618163E-3,-1.5562323E-3,-4.1864733E-3,1.9648254E-3,-1.6739869E-3,3.3476012E-4,-7.527296E-4,-2.3709966E-3,1.1828951E-4,-3.837004E-3,2.2883083E-5,-5.55817E-3,-2.0406386E-3,-1.6774227E-4,3.585589E-3,-4.055376E-3,-2.2131868E-4,-2.0914967E-3,1.4312181E-4,-7.0485426E-3,-1.2186366E-3,1.2434777E-3,1.4709584E-4,-3.3439673E-3,-2.6477364E-4,-3.4505213E-3,1.0263633E-3,-4.3798033E-3,8.325641E-4],"categories":[],"categories_nodes":[],"categories_segments":[],"categories_sizes":[],"default_left":[0,0,0,0,0,0,1,0,0,0,0,0,0,0,0,0,0,0,0,0,0,0,0,0,0,0,0,0,0,0,0,0,0,0,0,0,0,0,0,0,0,0,0,0,0,0,0,0,0,0,0,0,0,0,0,0,0,0,0,0,0,0,0,0,0,0,0,0,0,0,0,0,0,0,0,0,0,0,0,0,0,0,0,0,0,0,0],"id":16,"left_children":[1,3,5,-1,7,9,11,13,15,17,19,21,23,25,27,29,31,33,35,37,39,41,43,-1,45,47,49,51,53,-1,-1,55,57,59,61,63,65,67,69,71,73,75,77,79,81,83,85,-1,-1,-1,-1,-1,-1,-1,-1,-1,-1,-1,-1,-1,-1,-1,-1,-1,-1,-1,-1,-1,-1,-1,-1,-1,-1,-1,-1,-1,-1,-1,-1,-1,-1,-1,-1,-1,-1,-1,-1],"loss_changes":[7.7914047E0,1.3909254E0,3.7073689E0,0E0,8.004372E-1,2.040659E0,1.302167E0,4.64772E-1,4.847134E-1,1.39676E0,8.5582733E-1,6.737863E-1,6.0914105E-1,4.1704038E-1,2.4275398E-1,2.7202886E-1,2.8971586E-1,5.638094E-1,9.3108344E-1,7.2947454E-1,2.9787585E-1,2.8356162E-1,6.394234E-1,0E0,3.2251447E-1,2.17599E-1,3.3126748E-1,2.3068523E-1,3.511845E-1,0E0,0E0,2.2191542E-1,3.1172675E-1,6.3764E-1,3.5514814E-1,7.5755394E-1,9.4973016E-1,1.2090588E-1,4.900751E-1,1.24860965E-1,3.4200463E-1,3.2858056E-1,1.5119442E-1,4.21036E-1,2.4757192E-1,2.4075693E-1,2.776618E-1,0E0,0E0,0E0,0E0,0E0,0E0,0E0,0E0,0E0,0E0,0E0,0E0,0E0,0E0,0E0,0E0,0E0,0E0,0E0,0E0,0E0,0E0,0E0,0E0,0E0,0E0,0E0,0E0,0E0,0E0,0E0,0E0,0E0,0E0,0E0,0E0,0E0,0E0,0E0,0E0],"parents":[2147483647,0,0,1,1,2,2,4,4,5,5,6,6,7,7,8,8,9,9,10,10,11,11,12,12,13,13,14,14,15,15,16,16,17,17,18,18,19,19,20,20,21,21,22,22,24,24,25,25,26,26,27,27,28,28,31,31,32,32,33,33,34,34,35,35,36,36,37,37,38,38,39,39,40,40,41,41,42,42,43,43,44,44,45,45,46,46],"right_children":[2,4,6,-1,8,10,12,14,16,18,20,22,24,26,28,30,32,34,36,38,40,42,44,-1,46,48,50,52,54,-1,-1,56,58,60,62,64,66,68,70,72,74,76,78,80,82,84,86,-1,-1,-1,-1,-1,-1,-1,-1,-1,-1,-1,-1,-1,-1,-1,-1,-1,-1,-1,-1,-1,-1,-1,-1,-1,-1,-1,-1,-1,-1,-1,-1,-1,-1,-1,-1,-1,-1,-1,-1],"split_conditions":[1.3862944E0,1.0986123E0,2.5E1,3.3373437E-3,1.67E3,3E0,4E0,4.169863E0,-1.55915E-2,1.3E1,2.4008212E0,-3.8659725E-2,-7.369083E-2,-8.4152326E-2,7.4761903E-1,9.5E2,-6.6442326E-2,1E0,1E0,-2.6432365E-2,1E1,2.678E3,2.579E3,-8.043184E-3,5E0,9.1338135E-2,1.1332869E-1,8.116066E-2,2.0558603E0,4.459551E-3,-1.7040175E-3,9.45016E-2,5.639375E-2,4.8858002E-1,9.7E-1,1.711E3,1.9501363E0,-5.4026786E-2,2.6187303E-2,2.365924E-2,1.63E2,3.8E0,-4.310991E-2,1E0,-2.1450358E-2,3.0136986E-2,1.9000825E-2,-6.7184693E-3,1.4446538E-3,2.1539195E-3,-1.3425753E-3,2.7316993E-3,-3.2171299E-4,1.9121682E-3,-6.94501E-3,-5.8741737E-3,4.7539634E-4,-0E0,-5.6618163E-3,-1.5562323E-3,-4.1864733E-3,1.9648254E-3,-1.6739869E-3,3.3476012E-4,-7.527296E-4,-2.3709966E-3,1.1828951E-4,-3.837004E-3,2.2883083E-5,-5.55817E-3,-2.0406386E-3,-1.6774227E-4,3.585589E-3,-4.055376E-3,-2.2131868E-4,-2.0914967E-3,1.4312181E-4,-7.0485426E-3,-1.2186366E-3,1.2434777E-3,1.4709584E-4,-3.3439673E-3,-2.6477364E-4,-3.4505213E-3,1.0263633E-3,-4.3798033E-3,8.325641E-4],"split_indices":[76,76,1,0,25,68,68,65,56,1,64,32,83,44,104,47,32,49,72,28,97,75,75,0,98,28,78,85,64,0,0,43,32,78,62,75,64,31,43,46,79,65,91,72,43,21,94,0,0,0,0,0,0,0,0,0,0,0,0,0,0,0,0,0,0,0,0,0,0,0,0,0,0,0,0,0,0,0,0,0,0,0,0,0,0,0,0],"split_type":[0,0,0,0,0,0,0,0,0,0,0,0,0,0,0,0,0,0,0,0,0,0,0,0,0,0,0,0,0,0,0,0,0,0,0,0,0,0,0,0,0,0,0,0,0,0,0,0,0,0,0,0,0,0,0,0,0,0,0,0,0,0,0,0,0,0,0,0,0,0,0,0,0,0,0,0,0,0,0,0,0,0,0,0,0,0,0],"sum_hessian":[8.369E3,1.144E3,7.225E3,5.7E2,5.74E2,4.513E3,2.712E3,4.51E2,1.23E2,4.125E3,3.88E2,2.59E3,1.22E2,1.1E2,3.41E2,2.6E1,9.7E1,1.153E3,2.972E3,2.66E2,1.22E2,5.18E2,2.072E3,1.5E1,1.07E2,1.2E1,9.8E1,3.27E2,1.4E1,1.9E1,7E0,2.5E1,7.2E1,1.055E3,9.8E1,2.393E3,5.79E2,4.9E1,2.17E2,2.5E1,9.7E1,4.95E2,2.3E1,1.951E3,1.21E2,5.7E1,5E1,1E1,2E0,6.1E1,3.7E1,3.07E2,2E1,9E0,5E0,2.1E1,4E0,6.3E1,9E0,9.61E2,9.4E1,6.1E1,3.7E1,1.433E3,9.6E2,3.65E2,2.14E2,7E0,4.2E1,1.61E2,5.6E1,1E1,1.5E1,3.3E1,6.4E1,6.7E1,4.28E2,7E0,1.6E1,1.538E3,4.13E2,3.4E1,8.7E1,1.3E1,4.4E1,4.1E1,9E0],"tree_param":{"num_deleted":"0","num_feature":"109","num_nodes":"87","size_leaf_vector":"1"}},{"base_weights":[-2.5908827E-4,5.7493832E-2,-1.5221841E-2,3.2407865E-3,3.2231025E-2,-4.8769012E-2,1.5873973E-3,4.533888E-2,-8.042695E-2,-3.6716294E-2,-9.71715E-2,8.451026E-3,-6.797996E-2,5.23422E-2,-6.902586E-2,-1.7490351E-1,-1.887906E-2,-3.2087438E-2,-1.5847825E-1,-1.167898E-1,-6.9711925E-3,-7.5493235E-4,4.103034E-2,-1.055939E-1,-1.4856814E-3,1.5697008E-2,6.6575855E-2,5.3008888E-2,-1.06429055E-1,-0E0,-2.0128983E-1,2.1342646E-2,-1.6528885E-1,-7.867925E-2,-2.1231396E-2,-2.9951232E-2,-2.0066479E-1,-8.658707E-2,-1.7604536E-1,7.3443307E-4,-4.652154E-2,9.6282875E-3,-6.183185E-2,1.7803367E-2,5.6930255E-2,-1.3285185E-1,-1.7866243E-2,8.207101E-4,-4.8601527E-2,-1.7534947E-3,1.1494292E-3,2.1180627E-3,-1.5086454E-3,-2.6216868E-3,3.7257455E-3,-1.737296E-5,-5.0062803E-3,-6.6447724E-3,1.5858632E-3,-1.4625678E-3,4.3996302E-3,2.1665535E-4,-7.001186E-3,1.305729E-4,-3.0438306E-3,-3.4500472E-4,-1.9811739E-3,6.274024E-4,-4.9411426E-3,-9.195313E-3,-3.773576E-3,-2.969316E-3,1.8228902E-3,-0E0,-5.60063E-3,2.701789E-3,-2.573416E-3,-2.7311654E-4,8.258384E-4,-4.006847E-3,-1.1907286E-3,-4.2370326E-4,1.0234038E-3,2.161017E-3,9.422948E-4,-1.5395366E-3,-5.0149076E-3,1.294785E-3,-3.339863E-3,-2.2449663E-3,1.238045E-3],"categories":[],"categories_nodes":[],"categories_segments":[],"categories_sizes":[],"default_left":[0,0,0,0,0,0,1,0,0,0,0,0,0,0,0,0,0,0,0,0,0,0,0,0,0,0,0,0,0,0,0,0,0,0,0,0,0,0,0,0,0,0,0,0,0,0,0,0,0,0,0,0,0,0,0,0,0,0,0,0,0,0,0,0,0,0,0,0,0,0,0,0,0,0,0,0,0,0,0,0,0,0,0,0,0,0,0,0,0,0,0],"id":17,"left_children":[1,3,5,-1,7,9,11,13,15,17,19,21,23,25,27,29,31,33,35,37,39,41,43,45,47,49,51,53,55,-1,57,59,61,63,65,67,69,71,73,-1,75,77,79,81,83,85,87,-1,89,-1,-1,-1,-1,-1,-1,-1,-1,-1,-1,-1,-1,-1,-1,-1,-1,-1,-1,-1,-1,-1,-1,-1,-1,-1,-1,-1,-1,-1,-1,-1,-1,-1,-1,-1,-1,-1,-1,-1,-1,-1,-1],"loss_changes":[7.189349E0,2.1522708E0,3.741548E0,0E0,1.6884799E0,1.2600808E0,2.0926757E0,8.245175E-1,6.4459425E-1,9.5744777E-1,7.4793005E-1,1.2120464E0,9.618329E-1,4.8886418E-1,2.8310737E-1,2.4608338E-1,4.699753E-1,8.4556556E-1,2.8934193E-1,5.684557E-1,1.0678344E-1,1.9937131E0,3.1222463E-1,5.6291413E-1,2.031636E-1,4.6352512E-1,3.3543086E-1,1.5230392E-1,2.6199484E-1,0E0,2.5418425E-1,5.39372E-1,2.492705E-1,6.2564504E-1,5.9237254E-1,1.5763797E-1,2.3343813E-1,4.5521545E-1,2.4331546E-1,0E0,2.1860659E-1,8.9930236E-1,6.850947E-1,1.9630869E-1,1.7787898E-1,4.7251272E-1,3.741649E-1,0E0,1.4761604E-1,0E0,0E0,0E0,0E0,0E0,0E0,0E0,0E0,0E0,0E0,0E0,0E0,0E0,0E0,0E0,0E0,0E0,0E0,0E0,0E0,0E0,0E0,0E0,0E0,0E0,0E0,0E0,0E0,0E0,0E0,0E0,0E0,0E0,0E0,0E0,0E0,0E0,0E0,0E0,0E0,0E0,0E0],"parents":[2147483647,0,0,1,1,2,2,4,4,5,5,6,6,7,7,8,8,9,9,10,10,11,11,12,12,13,13,14,14,15,15,16,16,17,17,18,18,19,19,20,20,21,21,22,22,23,23,24,24,25,25,26,26,27,27,28,28,30,30,31,31,32,32,33,33,34,34,35,35,36,36,37,37,38,38,40,40,41,41,42,42,43,43,44,44,45,45,46,46,48,48],"right_children":[2,4,6,-1,8,10,12,14,16,18,20,22,24,26,28,30,32,34,36,38,40,42,44,46,48,50,52,54,56,-1,58,60,62,64,66,68,70,72,74,-1,76,78,80,82,84,86,88,-1,90,-1,-1,-1,-1,-1,-1,-1,-1,-1,-1,-1,-1,-1,-1,-1,-1,-1,-1,-1,-1,-1,-1,-1,-1,-1,-1,-1,-1,-1,-1,-1,-1,-1,-1,-1,-1,-1,-1,-1,-1,-1,-1],"split_conditions":[1.609438E0,1.0986123E0,1.7E1,3.2407865E-3,1.949E3,1E0,3E0,8.360837E-2,4.543295E0,2.1170329E-1,1E0,1E0,1E0,4.8520546E0,0E0,-4.217462E-2,4.085129E-2,1E1,-7.558232E-3,2E0,2.0081131E-4,6.205765E-1,4.625E1,6.65E1,2E0,4.543295E0,1.4873119E-1,8.947023E-2,-2.6901225E-3,-0E0,5.3935498E-2,9.26E-1,-4.6860706E-2,-4.512243E-2,1E0,4.403182E-2,-1.5950037E-2,7.8173146E-2,-3.575352E-2,7.3443307E-4,-3.5899095E-2,5.35E1,3.3666668E1,4.63E2,3.871201E0,8.957E-1,-8.620563E-5,8.207101E-4,4E0,-1.7534947E-3,1.1494292E-3,2.1180627E-3,-1.5086454E-3,-2.6216868E-3,3.7257455E-3,-1.737296E-5,-5.0062803E-3,-6.6447724E-3,1.5858632E-3,-1.4625678E-3,4.3996302E-3,2.1665535E-4,-7.001186E-3,1.305729E-4,-3.0438306E-3,-3.4500472E-4,-1.9811739E-3,6.274024E-4,-4.9411426E-3,-9.195313E-3,-3.773576E-3,-2.969316E-3,1.8228902E-3,-0E0,-5.60063E-3,2.701789E-3,-2.573416E-3,-2.7311654E-4,8.258384E-4,-4.006847E-3,-1.1907286E-3,-4.2370326E-4,1.0234038E-3,2.161017E-3,9.422948E-4,-1.5395366E-3,-5.0149076E-3,1.294785E-3,-3.339863E-3,-2.2449663E-3,1.238045E-3],"split_indices":[76,76,1,0,75,72,68,42,77,42,67,67,67,65,54,92,30,1,54,68,40,78,101,101,24,77,55,42,30,0,33,26,37,29,107,44,34,57,53,0,34,101,101,25,76,26,56,0,24,0,0,0,0,0,0,0,0,0,0,0,0,0,0,0,0,0,0,0,0,0,0,0,0,0,0,0,0,0,0,0,0,0,0,0,0,0,0,0,0,0,0],"split_type":[0,0,0,0,0,0,0,0,0,0,0,0,0,0,0,0,0,0,0,0,0,0,0,0,0,0,0,0,0,0,0,0,0,0,0,0,0,0,0,0,0,0,0,0,0,0,0,0,0,0,0,0,0,0,0,0,0,0,0,0,0,0,0,0,0,0,0,0,0,0,0,0,0,0,0,0,0,0,0,0,0,0,0,0,0,0,0,0,0,0,0],"sum_hessian":[8.327E3,1.71E3,6.617E3,5.66E2,1.144E3,2.212E3,4.405E3,1.027E3,1.17E2,1.776E3,4.36E2,4.013E3,3.92E2,9.7E2,5.7E1,4.4E1,7.3E1,1.714E3,6.2E1,3.56E2,8E1,3.125E3,8.88E2,2.48E2,1.44E2,2.76E2,6.94E2,1.2E1,4.5E1,5E0,3.9E1,5.7E1,1.6E1,3.19E2,1.395E3,1.7E1,4.5E1,2.4E2,1.16E2,4.2E1,3.8E1,2.669E3,4.56E2,3.67E2,5.21E2,1.87E2,6.1E1,8.7E1,5.7E1,6.2E1,2.14E2,6.73E2,2.1E1,3E0,9E0,1.8E1,2.7E1,3.7E1,2E0,3.6E1,2.1E1,4E0,1.2E1,6.7E1,2.52E2,1.151E3,2.44E2,1.2E1,5E0,1.6E1,2.9E1,2.23E2,1.7E1,6E0,1.1E2,7E0,3.1E1,1.299E3,1.37E3,1.04E2,3.52E2,1.2E2,2.47E2,3.21E2,2E2,5.8E1,1.29E2,3.6E1,2.5E1,4.6E1,1.1E1],"tree_param":{"num_deleted":"0","num_feature":"109","num_nodes":"91","size_leaf_vector":"1"}},{"base_weights":[-1.0667973E-3,7.280405E-2,-1.2784483E-2,3.1411136E-3,4.213655E-2,-2.240936E-2,3.374639E-2,5.5927053E-2,-6.247791E-2,-9.670007E-3,-7.6120704E-2,5.1946223E-2,1.2071371E-2,6.1441485E-2,-1.1056174E-1,-1.8499862E-1,-1.683941E-2,-3.1227262E-3,-7.113632E-2,-5.24317E-2,-1.22854725E-1,6.0203515E-2,-6.966447E-4,-3.0466804E-2,2.4232214E-2,1.1395661E-2,7.519787E-2,-6.9391355E-3,2.900857E-3,-7.0681777E-3,-0E0,7.170681E-2,-8.0720544E-2,-4.987772E-2,9.728143E-3,-1.39199E-1,-4.748392E-2,-7.251221E-2,-6.0783006E-4,-1.568586E-1,-7.085017E-2,7.8168415E-2,3.63557E-2,-7.57727E-2,2.4791813E-4,4.295263E-2,-4.6251994E-3,-1.5819666E-3,2.1081348E-3,2.4039522E-3,-2.1839838E-3,-5.0560274E-4,4.2618993E-3,-7.028215E-3,8.3404615E-5,-4.2848947E-4,-2.0149546E-3,4.1891157E-4,-2.4488163E-3,-3.3904086E-3,-8.500584E-3,-2.987657E-3,-1.0837724E-3,-5.859549E-4,-2.8653354E-3,-2.115883E-3,3.729398E-4,-5.0300173E-3,-2.673442E-4,-2.485041E-4,-3.7192535E-3,2.461265E-3,-2.0169716E-3,3.4662388E-4,1.691156E-3,-0E0,-3.4378017E-3,1.475177E-3,-5.0285645E-4,-3.5938935E-3,1.277635E-4],"categories":[],"categories_nodes":[],"categories_segments":[],"categories_sizes":[],"default_left":[0,0,0,0,0,0,0,0,0,0,0,0,0,0,0,0,0,0,0,0,0,0,0,0,0,0,0,0,0,0,0,0,0,0,0,0,0,0,0,0,0,0,0,0,0,0,0,0,0,0,0,0,0,0,0,0,0,0,0,0,0,0,0,0,0,0,0,0,0,0,0,0,0,0,0,0,0,0,0,0,0],"id":18,"left_children":[1,3,5,-1,7,9,11,13,15,17,19,21,23,25,27,29,31,33,35,37,39,41,-1,43,45,47,49,-1,-1,-1,-1,51,53,55,57,59,61,63,65,67,69,71,73,75,-1,77,79,-1,-1,-1,-1,-1,-1,-1,-1,-1,-1,-1,-1,-1,-1,-1,-1,-1,-1,-1,-1,-1,-1,-1,-1,-1,-1,-1,-1,-1,-1,-1,-1,-1,-1],"loss_changes":[7.319148E0,1.0974083E0,3.273438E0,0E0,8.615694E-1,4.1306896E0,4.7962487E-1,4.8326325E-1,3.3724535E-1,1.9589165E0,1.2405429E0,4.2753768E-1,2.9822463E-1,3.3496547E-1,4.5916268E-1,1.9958305E-1,3.0401438E-1,2.67467E0,7.100713E-1,7.909939E-1,6.240616E-1,2.3510909E-1,0E0,2.3394549E-1,2.527328E-1,4.4289917E-1,2.9996228E-1,0E0,0E0,0E0,0E0,1.6000783E-1,4.5994246E-1,5.7341003E-1,1.333699E0,3.2847118E-1,1.7697668E-1,6.512606E-1,2.1343221E-1,3.3100653E-1,4.948256E-1,2.0232439E-1,1.1927283E-1,1.8225375E-1,0E0,1.1117178E-1,2.0298083E-1,0E0,0E0,0E0,0E0,0E0,0E0,0E0,0E0,0E0,0E0,0E0,0E0,0E0,0E0,0E0,0E0,0E0,0E0,0E0,0E0,0E0,0E0,0E0,0E0,0E0,0E0,0E0,0E0,0E0,0E0,0E0,0E0,0E0,0E0],"parents":[2147483647,0,0,1,1,2,2,4,4,5,5,6,6,7,7,8,8,9,9,10,10,11,11,12,12,13,13,14,14,15,15,16,16,17,17,18,18,19,19,20,20,21,21,23,23,24,24,25,25,26,26,31,31,32,32,33,33,34,34,35,35,36,36,37,37,38,38,39,39,40,40,41,41,42,42,43,43,45,45,46,46],"right_children":[2,4,6,-1,8,10,12,14,16,18,20,22,24,26,28,30,32,34,36,38,40,42,-1,44,46,48,50,-1,-1,-1,-1,52,54,56,58,60,62,64,66,68,70,72,74,76,-1,78,80,-1,-1,-1,-1,-1,-1,-1,-1,-1,-1,-1,-1,-1,-1,-1,-1,-1,-1,-1,-1,-1,-1,-1,-1,-1,-1,-1,-1,-1,-1,-1,-1,-1,-1],"split_conditions":[3E0,2E0,1E0,3.1411136E-3,1.941E3,1E0,1.14E0,3.025129E-1,-7.2572894E-2,4.7E1,2E0,4E0,4.7E0,1E0,1.0159715E-1,5.856062E-3,-1.6105514E-2,1.3E1,3.4E1,2.7E1,4.89784E0,2.8E1,-6.966447E-4,2.3192856E-2,2E0,-1.648449E-2,7.2349954E0,-6.9391355E-3,2.900857E-3,-7.0681777E-3,-0E0,-3.5727434E-2,-3.0751054E-3,1E0,9.762518E-2,4E0,1.4E1,7E0,-3.2494653E-2,6.180738E0,3.0122584E-1,1.375E3,5.8E1,-2.666505E-2,2.4791813E-4,1.0917124E-1,-1.2775299E-1,-1.5819666E-3,2.1081348E-3,2.4039522E-3,-2.1839838E-3,-5.0560274E-4,4.2618993E-3,-7.028215E-3,8.3404615E-5,-4.2848947E-4,-2.0149546E-3,4.1891157E-4,-2.4488163E-3,-3.3904086E-3,-8.500584E-3,-2.987657E-3,-1.0837724E-3,-5.859549E-4,-2.8653354E-3,-2.115883E-3,3.729398E-4,-5.0300173E-3,-2.673442E-4,-2.485041E-4,-3.7192535E-3,2.461265E-3,-2.0169716E-3,3.4662388E-4,1.691156E-3,-0E0,-3.4378017E-3,1.475177E-3,-5.0285645E-4,-3.5938935E-3,1.277635E-4],"split_indices":[97,97,67,0,25,72,106,53,44,97,68,68,2,15,28,86,30,1,101,1,77,97,0,28,68,35,48,0,0,0,0,33,94,11,42,24,1,97,56,48,27,25,101,30,0,44,45,0,0,0,0,0,0,0,0,0,0,0,0,0,0,0,0,0,0,0,0,0,0,0,0,0,0,0,0,0,0,0,0,0,0],"split_type":[0,0,0,0,0,0,0,0,0,0,0,0,0,0,0,0,0,0,0,0,0,0,0,0,0,0,0,0,0,0,0,0,0,0,0,0,0,0,0,0,0,0,0,0,0,0,0,0,0,0,0,0,0,0,0,0,0,0,0,0,0,0,0,0,0,0,0,0,0,0,0,0,0,0,0,0,0,0,0,0,0],"sum_hessian":[8.467E3,1.156E3,7.311E3,5.62E2,5.94E2,6.062E3,1.249E3,5.27E2,6.7E1,4.904E3,1.158E3,6.73E2,5.76E2,5.12E2,1.5E1,1.6E1,5.1E1,4.436E3,4.68E2,7.73E2,3.85E2,6.09E2,6.4E1,1.24E2,4.52E2,1.14E2,3.98E2,1E1,5E0,1.3E1,3E0,2E1,3.1E1,9.59E2,3.477E3,1.17E2,3.51E2,5.54E2,2.19E2,2.29E2,1.56E2,3.41E2,2.68E2,5.9E1,6.5E1,2.78E2,1.74E2,5.3E1,6.1E1,3.87E2,1.1E1,8E0,1.2E1,1.1E1,2E1,3.18E2,6.41E2,3.326E3,1.51E2,1.02E2,1.5E1,5.8E1,2.93E2,1.71E2,3.83E2,3.6E1,1.83E2,2.12E2,1.7E1,7.4E1,8.2E1,3.34E2,7E0,1.25E2,1.43E2,2E1,3.9E1,2.55E2,2.3E1,1.3E1,1.61E2],"tree_param":{"num_deleted":"0","num_feature":"109","num_nodes":"81","size_leaf_vector":"1"}},{"base_weights":[-8.579602E-4,6.987402E-2,-1.2276298E-2,3.0472754E-3,3.9605528E-2,-2.6915014E-2,2.0663088E-2,5.4287136E-2,-1.4783805E-2,-7.3773846E-2,-1.54878935E-2,3.196289E-2,-1.4076567E-2,-4.6354593E-3,7.201666E-2,-1.7795345E-1,5.8809356E-3,-5.9414983E-2,-1.304145E-1,-1.097347E-2,-1.17472544E-1,-1.9817479E-2,4.2890213E-2,-3.1508874E-2,1.9189866E-2,-1.638498E-1,1.7070487E-2,7.7465005E-2,-5.588651E-2,1.678462E-3,-7.008928E-3,-5.962961E-2,4.8010394E-2,-1.4778669E-1,-5.060871E-2,-5.272629E-2,-1.5866086E-1,-2.3767201E-2,1.7909111E-2,-8.4913805E-2,-1.9008622E-1,-5.2989926E-2,3.282731E-2,-5.231145E-2,4.577058E-2,1.0386572E-3,-3.8736746E-2,3.1635933E-2,-5.537385E-2,1.577222E-3,-6.626813E-3,-1.7237248E-3,1.8280498E-3,2.5171048E-3,-1.0782798E-3,1.4393224E-3,-6.943455E-3,3.7037435E-3,-3.1778917E-3,2.4078924E-3,-2.5022307E-3,-6.7541837E-3,-0E0,-1.2551924E-3,-4.413245E-3,-3.2002712E-3,2.5927485E-4,-5.801151E-3,-1.9682893E-3,-1.7291318E-3,-2.07883E-4,7.135627E-4,-1.7189385E-3,1.6861828E-3,-3.3225552E-3,-6.9071813E-3,-3.397996E-4,-5.2362337E-4,-4.4532474E-3,-1.1961549E-3,1.9323645E-3,3.5687775E-4,-5.033657E-3,2.2454236E-3,1.0769818E-3,-9.0493937E-4,-3.4480065E-3,1.2773537E-3,-7.8274665E-4,-1.7589385E-4,-5.893915E-3],"categories":[],"categories_nodes":[],"categories_segments":[],"categories_sizes":[],"default_left":[0,0,0,0,0,0,0,0,0,0,0,0,0,0,0,0,0,0,0,0,0,0,0,0,0,0,0,0,0,0,0,0,0,0,0,0,0,0,0,0,0,0,0,0,0,0,0,0,0,0,0,0,0,0,0,0,0,0,0,0,0,0,0,0,0,0,0,0,0,0,0,0,0,0,0,0,0,0,0,0,0,0,0,0,0,0,0,0,0,0,0],"id":19,"left_children":[1,3,5,-1,7,9,11,13,15,17,19,21,23,25,27,29,31,33,35,37,39,41,43,45,47,49,51,53,55,-1,-1,57,59,61,63,65,67,69,71,73,75,77,79,81,83,-1,85,87,89,-1,-1,-1,-1,-1,-1,-1,-1,-1,-1,-1,-1,-1,-1,-1,-1,-1,-1,-1,-1,-1,-1,-1,-1,-1,-1,-1,-1,-1,-1,-1,-1,-1,-1,-1,-1,-1,-1,-1,-1,-1,-1],"loss_changes":[6.738325E0,1.0792646E0,3.4728198E0,0E0,4.8654008E-1,2.6517658E0,8.721265E-1,5.0925887E-1,4.57827E-1,7.45049E-1,1.8213694E0,9.523659E-1,3.158772E-1,4.066404E-1,2.6539826E-1,2.4917305E-1,3.080151E-1,5.6007385E-1,3.7164354E-1,1.4236537E0,3.2329082E-1,5.111662E-1,3.8140917E-1,1.7364642E-1,1.6644074E-1,2.2290856E-1,3.1611836E-1,2.718389E-1,3.0895007E-1,0E0,0E0,3.6991644E-1,3.0495328E-1,7.508495E-1,5.6002676E-1,2.0346971E-1,3.8257957E-1,1.5105739E0,5.151849E-1,4.5665973E-1,3.017032E-1,5.749416E-1,2.610302E-1,3.2422143E-1,3.6130404E-1,0E0,1.7988297E-1,1.051947E-1,1.2720065E-1,0E0,0E0,0E0,0E0,0E0,0E0,0E0,0E0,0E0,0E0,0E0,0E0,0E0,0E0,0E0,0E0,0E0,0E0,0E0,0E0,0E0,0E0,0E0,0E0,0E0,0E0,0E0,0E0,0E0,0E0,0E0,0E0,0E0,0E0,0E0,0E0,0E0,0E0,0E0,0E0,0E0,0E0],"parents":[2147483647,0,0,1,1,2,2,4,4,5,5,6,6,7,7,8,8,9,9,10,10,11,11,12,12,13,13,14,14,15,15,16,16,17,17,18,18,19,19,20,20,21,21,22,22,23,23,24,24,25,25,26,26,27,27,28,28,31,31,32,32,33,33,34,34,35,35,36,36,37,37,38,38,39,39,40,40,41,41,42,42,43,43,44,44,46,46,47,47,48,48],"right_children":[2,4,6,-1,8,10,12,14,16,18,20,22,24,26,28,30,32,34,36,38,40,42,44,46,48,50,52,54,56,-1,-1,58,60,62,64,66,68,70,72,74,76,78,80,82,84,-1,86,88,90,-1,-1,-1,-1,-1,-1,-1,-1,-1,-1,-1,-1,-1,-1,-1,-1,-1,-1,-1,-1,-1,-1,-1,-1,-1,-1,-1,-1,-1,-1,-1,-1,-1,-1,-1,-1,-1,-1,-1,-1,-1,-1],"split_conditions":[1.3862944E0,2E0,2.7E1,3.0472754E-3,1.646E3,3.6E1,1.878E3,4.169863E0,-2.7795823E-2,3.988984E0,1.071363E-1,3.9369862E0,3.6022034E-2,-8.4152326E-2,7.4761903E-1,-5.9954885E-2,-1.2990243E-2,2.38E2,-1.5380992E-2,6.5E1,5.2138932E-2,9.9E-1,-1.5862222E-1,1.1079925E0,1E0,5.1862943E-1,5.42E2,1E0,5.8616087E-4,1.678462E-3,-7.008928E-3,-2.8334232E-2,6.685407E-2,6.257534E0,5.2376233E-2,2.4215107E0,2.7523253E0,1.966207E0,2.442E3,-1.3092232E-2,1.6E1,7.46E-1,4.25E1,3.9774653E-1,8E0,1.0386572E-3,2.863E3,5E0,1.098E3,1.577222E-3,-6.626813E-3,-1.7237248E-3,1.8280498E-3,2.5171048E-3,-1.0782798E-3,1.4393224E-3,-6.943455E-3,3.7037435E-3,-3.1778917E-3,2.4078924E-3,-2.5022307E-3,-6.7541837E-3,-0E0,-1.2551924E-3,-4.413245E-3,-3.2002712E-3,2.5927485E-4,-5.801151E-3,-1.9682893E-3,-1.7291318E-3,-2.07883E-4,7.135627E-4,-1.7189385E-3,1.6861828E-3,-3.3225552E-3,-6.9071813E-3,-3.397996E-4,-5.2362337E-4,-4.4532474E-3,-1.1961549E-3,1.9323645E-3,3.5687775E-4,-5.033657E-3,2.2454236E-3,1.0769818E-3,-9.0493937E-4,-3.4480065E-3,1.2773537E-3,-7.8274665E-4,-1.7589385E-4,-5.893915E-3],"split_indices":[76,97,1,0,25,101,75,65,84,76,42,65,44,44,104,35,35,47,53,101,44,69,57,48,72,64,75,3,90,0,0,56,31,65,42,64,64,48,75,51,97,63,101,27,97,0,75,24,25,0,0,0,0,0,0,0,0,0,0,0,0,0,0,0,0,0,0,0,0,0,0,0,0,0,0,0,0,0,0,0,0,0,0,0,0,0,0,0,0,0,0],"split_type":[0,0,0,0,0,0,0,0,0,0,0,0,0,0,0,0,0,0,0,0,0,0,0,0,0,0,0,0,0,0,0,0,0,0,0,0,0,0,0,0,0,0,0,0,0,0,0,0,0,0,0,0,0,0,0,0,0,0,0,0,0,0,0,0,0,0,0,0,0,0,0,0,0,0,0,0,0,0,0,0,0,0,0,0,0,0,0,0,0,0,0],"sum_hessian":[8.355E3,1.158E3,7.197E3,5.61E2,5.97E2,4.987E3,2.21E3,4.73E2,1.24E2,9.73E2,4.014E3,1.672E3,5.38E2,1.07E2,3.66E2,1.4E1,1.1E2,7.81E2,1.92E2,3.847E3,1.67E2,2.88E2,1.384E3,3.57E2,1.81E2,1.3E1,9.4E1,3.53E2,1.3E1,2E0,1.2E1,4.1E1,6.9E1,6.7E1,7.14E2,5.4E1,1.38E2,2.671E3,1.176E3,1.19E2,4.8E1,1.79E2,1.09E2,3.8E1,1.346E3,3.2E1,3.25E2,1.58E2,2.3E1,2E0,1.1E1,3.3E1,6.1E1,3.36E2,1.7E1,8E0,5E0,7E0,3.4E1,5.7E1,1.2E1,4.3E1,2.4E1,6.58E2,5.6E1,3E1,2.4E1,9.8E1,4E1,8.82E2,1.789E3,1.094E3,8.2E1,1.7E1,1.02E2,3.8E1,1E1,1.33E2,4.6E1,3.1E1,7.8E1,2.4E1,1.4E1,3.34E2,1.012E3,2.96E2,2.9E1,1.36E2,2.2E1,1.9E1,4E0],"tree_param":{"num_deleted":"0","num_feature":"109","num_nodes":"91","size_leaf_vector":"1"}},{"base_weights":[-1.3726244E-3,2.957394E-3,-8.841404E-3,-5.4033983E-2,2.0013708E-3,-7.526247E-2,-2.413991E-2,6.5596816E-3,-8.143393E-2,-8.643251E-2,3.0447494E-2,-3.919369E-2,2.1238565E-2,1.0073147E-2,-9.055501E-2,-2.4793175E-1,-5.9487566E-2,-2.3541098E-2,-1.011356E-1,2.9977292E-3,-0E0,-3.0674145E-2,-1.7745875E-1,1.23944856E-1,-2.962094E-3,-1.3621371E-2,2.2398712E-2,-1.0087054E-1,1.0161982E-3,-8.022928E-3,-0E0,-8.3768904E-2,-1.9482304E-3,2.2852764E-4,-2.371972E-3,-2.3081345E-3,-4.281221E-3,1.1889321E-3,-1.6849744E-3,-5.9222877E-3,-7.548433E-4,4.5875288E-4,-6.6607245E-3,-0E0,4.7779535E-3,-9.040133E-4,1.5740901E-3,5.080924E-4,-1.0258218E-3,1.5351941E-3,4.032742E-4,1.2357315E-3,-3.3261338E-3,-3.560568E-3,-2.87021E-4,1.1080664E-3,-1.3561519E-3],"categories":[],"categories_nodes":[],"categories_segments":[],"categories_sizes":[],"default_left":[0,0,0,0,0,0,0,0,0,0,0,0,0,0,0,0,0,0,0,0,0,0,0,0,0,0,0,0,0,0,0,0,0,0,0,0,0,0,0,0,0,0,0,0,0,0,0,0,0,0,0,0,0,0,0,0,0],"id":20,"left_children":[1,-1,3,5,7,9,11,13,15,17,19,21,23,25,27,29,31,33,35,-1,37,39,41,43,45,47,49,51,-1,-1,-1,53,55,-1,-1,-1,-1,-1,-1,-1,-1,-1,-1,-1,-1,-1,-1,-1,-1,-1,-1,-1,-1,-1,-1,-1,-1],"loss_changes":[6.231642E0,0E0,3.8283253E0,9.369559E-1,2.3745575E0,1.0525007E0,4.3713996E-1,2.0183313E0,1.1017973E0,7.0937634E-1,1.6450323E-1,5.163175E-1,4.1039598E-1,1.682626E0,2.8216636E-1,1.4922142E-1,3.853141E-1,2.8351995E-1,5.899191E-1,0E0,1.3476841E-1,3.670091E-1,2.7047873E-1,1.09172195E-1,